svm_type c_svc
kernel_type rbf
gamma 0.09
nr_class 30
total_sv 1951
rho 0.00264513 0.705402 0.239798 -0.0117801 0.0593018 -0.144817 0.0467805 0.0970604 -0.675029 -0.387795 -0.282286 -0.411688 -0.476315 -0.0723449 0.0650368 -0.274356 -0.850691 -0.780822 -0.725886 0.141563 -0.516662 -0.475244 -0.247966 0.0449965 -0.664802 0.115682 -0.36144 0.102769 -0.248511 0.656847 0.428553 -0.0819749 0.229797 -0.0922793 0.0498217 0.0584345 -0.638557 -0.486027 -0.269508 -0.424989 -0.477703 -0.0721695 0.185719 -0.395723 -0.666161 -0.53657 -0.800264 0.240512 -0.516598 -0.563833 -0.37532 0.000581559 -0.113497 0.104105 -0.25091 0.280445 -0.289998 0.0706517 -1.05652 -0.546664 -0.436463 -0.263921 -0.236989 -1.21849 -1.23937 -0.965539 -1.03521 -0.902384 -0.535137 -0.434801 -0.455377 -0.793117 -0.822636 -1.11301 0.021774 -1.22341 -0.918085 -0.507515 -0.816576 -0.74862 -0.47851 -0.487743 -0.638084 -0.880442 -0.33617 -0.228893 -0.612794 -0.351151 -0.0100834 -0.890242 -0.707699 -0.5991 -0.627984 -0.716061 -0.324279 -0.411348 -0.508192 -0.758974 -0.576666 -0.792978 -0.0479725 -0.593046 -0.864801 -0.385557 -0.220858 -0.640293 -0.284175 -0.532759 -0.22068 -0.764605 0.0572025 0.0143978 0.0613488 0.313564 -0.51981 -0.428217 -0.360862 -0.427583 -0.51221 0.039438 0.319196 -0.272053 -0.65307 -0.639295 -0.619605 0.260784 -0.329377 -0.520285 -0.232137 0.0363626 -0.202076 0.0455349 -0.306772 0.219756 -0.274514 -0.149801 0.00153402 0.0610635 -0.593063 -0.572872 -0.439561 -0.514584 -0.6246 -0.143187 -0.282761 -0.446635 -0.461538 -0.590302 -0.564237 0.00616289 -0.66665 -0.744053 -0.297063 0.11088 -0.139912 0.0718642 -0.333054 0.0557771 -0.445148 0.194062 0.246269 -0.721592 -0.342926 -0.226268 -0.36466 -0.497039 -0.0282512 0.335683 -0.207929 -0.54099 -0.37978 -0.41627 0.321453 -0.333994 -0.321496 -0.177606 0.011202 -0.135821 0.0934868 -0.311212 0.397504 -0.337613 0.145654 -0.663279 -0.474787 -0.438929 -0.519097 -0.523513 -0.269193 0.0959072 -0.388807 -0.60691 -0.510501 -0.504435 0.0793352 -0.320053 -0.620854 -0.228154 0.167994 -0.227405 -0.131705 -0.453497 0.132731 -0.255031 -0.938686 -0.610072 -0.417158 -0.50587 -0.61483 -0.185982 0.0800146 -0.320036 -0.600704 -0.395475 -0.50832 0.0845454 -0.577597 -0.544779 -0.316175 0.12944 -0.260572 -0.315848 -0.520612 -0.0407151 -0.462903 0.0288745 0.223026 0.0651249 0.0259918 0.422049 0.716643 0.121397 -0.0958904 0.0189565 -0.0995804 0.616034 0.0178746 0.0892928 0.0851844 0.617007 0.631136 0.621645 0.0239099 0.799971 0.142686 0.289868 -0.101986 -0.131509 0.294351 0.629994 -0.0337776 -0.200314 -0.0405151 -0.191632 0.491281 -0.0692211 -0.0440006 0.0604479 0.330339 0.327433 0.485163 -0.0445674 0.718177 -0.00598028 -0.173013 -0.115128 0.351623 0.481501 -0.0666265 -0.249763 -0.11081 -0.18584 0.464402 -0.0763136 -0.209088 -0.0278038 0.443389 0.15971 0.415911 -0.183365 0.574494 -0.210939 -0.227922 0.368643 0.422977 0.0546094 -0.184632 -0.053145 -0.161173 0.407694 -0.0766476 -0.0178286 0.0172002 0.46808 0.252884 0.43351 -0.108239 0.778002 -0.0792547 0.285487 0.661114 -0.00508821 -0.142251 -0.0323394 -0.155932 0.560606 -0.0802353 -0.0163905 0.0411795 0.486102 0.247595 0.447982 -0.091562 0.831976 -0.0929118 -0.0823409 -0.216193 -0.369078 -0.221148 -0.339427 0.284611 -0.331697 -0.349176 -0.0925504 -0.00434504 0.0234988 -0.0338964 -0.286564 0.28098 -0.265534 -0.439748 -0.596534 -0.579578 -0.428668 0.313452 -0.496133 -0.504032 -0.305082 -0.151482 -0.247578 -0.18691 -0.501991 -0.0817853 -0.392387 -0.120027 -0.0565931 -0.116722 0.335276 -0.0306803 -0.0760241 -0.016354 0.224104 0.206186 0.381795 -0.0499048 0.495376 -0.0422748 0.014057 -0.0205583 0.566644 0.0580215 0.123425 0.163033 0.594977 0.347628 0.562626 0.0998996 0.72534 0.0645204 -0.0736266 0.357284 -0.00246597 -0.00321457 0.032631 0.314822 0.403183 0.532733 0.0397733 0.676639 -0.0312057 0.50159 0.142191 0.111363 0.118367 0.630486 0.402647 0.495915 0.0979413 0.65177 0.1089 -0.357241 -0.660062 -0.381923 -0.20122 -0.408498 -0.276809 -0.434937 -0.0883401 -0.439761 -0.0713686 0.0585488 0.25545 0.251362 0.461473 -0.0523951 0.729221 0.00266427 0.123206 0.5667 0.382996 0.485484 0.0543325 0.840918 -0.0282483 0.147284 0.128611 0.382219 -0.0392799 0.43909 -0.0478895 -0.149196 -0.0206112 -0.419424 0.0405857 -0.53668 0.275552 -0.3487 0.360136 -0.300034 -0.502972 0.0701316 -0.285796 0.60265 0.0314526 -0.587516
label 2001 2001657 2004 2004657 20101 20102 2010657 2010658 2011 2011657 20121 20122 2012657 2012658 2021 2021657 20221 20222 2022657 2022658 2023 2024 2024657 2025 2031 2031657 20411 20412 2041657 2041658
probA -4.74907 -5.30992 -4.76251 -4.37749 -4.25456 -4.46116 -4.23369 -4.4398 -4.88505 -4.42774 -4.34028 -4.26529 -4.49529 -4.61292 -4.78034 -3.97107 -3.47366 -3.71199 -3.42779 -4.42313 -3.87946 -3.97269 -4.05504 -4.90308 -5.01564 -4.96044 -4.15839 -4.8915 -4.13903 -5.13088 -4.85062 -4.42038 -4.24298 -4.49231 -4.14932 -4.54317 -4.83117 -4.43892 -4.37417 -4.38494 -4.5903 -4.52079 -4.77316 -3.79731 -3.61747 -3.83631 -3.45414 -4.40494 -3.89133 -3.95335 -3.92194 -4.94642 -5.01032 -4.89964 -4.21159 -4.95361 -4.07354 -4.75296 -4.85844 -4.51316 -4.99857 -4.52687 -4.64589 -5.44693 -4.758 -4.78277 -4.86835 -5.02213 -4.8886 -5.10385 -4.39363 -4.10531 -4.3177 -3.99159 -4.71564 -4.25497 -4.4365 -4.59787 -5.38112 -5.508 -5.25903 -4.61134 -5.28209 -4.55059 -4.40538 -4.11254 -4.38126 -4.12016 -4.2504 -4.79596 -4.41182 -4.34286 -4.27473 -4.41209 -4.55339 -4.49076 -3.98465 -3.55503 -3.71147 -3.44715 -4.41825 -3.90266 -3.84328 -3.98816 -4.90827 -4.88281 -4.81867 -4.17964 -4.92077 -4.01397 -3.71068 -4.14981 -3.73504 -3.9577 -4.55935 -3.96174 -3.93681 -3.93729 -4.11351 -4.21009 -4.20201 -3.66186 -3.23391 -3.52083 -3.16336 -4.03478 -3.47317 -3.54106 -3.73219 -4.57403 -4.54568 -4.53146 -3.8172 -4.51311 -3.7756 -3.816 -3.69673 -3.67769 -4.19722 -3.6596 -3.52835 -3.59444 -3.71081 -4.0058 -4.11365 -3.29488 -2.89636 -3.17015 -2.96414 -3.70135 -3.28308 -3.2795 -3.37338 -4.40105 -4.40989 -4.28352 -3.54597 -4.11553 -3.48251 -3.59833 -4.12363 -4.55101 -4.05176 -3.92516 -4.06483 -4.26445 -4.31194 -4.39699 -3.54223 -3.36737 -3.59935 -3.24284 -4.18005 -3.56497 -3.62077 -3.69256 -4.47772 -4.75829 -4.47446 -3.83756 -4.54863 -3.90636 -3.78081 -4.11793 -3.71377 -3.72902 -3.68659 -3.87922 -3.8593 -4.0485 -3.24828 -2.87388 -3.22544 -2.88426 -3.77909 -3.21219 -3.31779 -3.321 -4.31051 -4.42074 -4.4503 -3.46154 -4.31737 -3.57417 -4.07919 -3.96056 -3.78516 -3.9204 -4.08075 -4.19354 -4.10078 -3.5426 -3.09266 -3.41069 -3.03873 -3.78317 -3.57308 -3.45969 -3.49964 -4.39459 -4.53917 -4.41722 -3.78983 -4.25998 -3.71957 -4.26272 -4.18897 -4.29083 -4.42383 -4.57355 -4.71903 -3.79951 -3.4421 -3.84187 -3.44804 -4.30201 -3.81275 -3.88333 -3.95348 -4.90331 -4.99636 -4.84981 -4.04653 -5.04614 -4.06573 -3.45276 -3.92461 -4.08593 -4.00974 -4.34102 -3.56469 -3.09364 -3.53312 -3.17167 -3.78253 -3.37103 -3.49943 -3.47883 -4.51079 -4.57362 -4.23405 -3.66828 -4.48607 -3.59646 -3.70113 -3.96255 -4.04068 -4.16747 -3.33303 -2.97103 -3.31422 -3.03796 -3.68765 -3.18327 -3.30262 -3.32192 -4.42698 -4.52959 -4.15345 -3.55636 -4.38857 -3.58221 -3.76135 -4.11129 -4.25354 -3.37392 -3.02681 -3.35859 -2.96211 -3.89106 -3.34956 -3.34786 -3.40554 -4.42235 -4.52031 -4.36222 -3.57423 -4.32712 -3.5816 -4.18533 -4.4411 -3.69913 -3.22756 -3.58149 -3.186 -4.04216 -3.55644 -3.60408 -3.66706 -4.67497 -4.65333 -4.61726 -3.86345 -4.61777 -3.72841 -4.14105 -3.48284 -3.28107 -3.55252 -3.20459 -4.00454 -3.57469 -3.64692 -3.68681 -4.54894 -4.83035 -4.53543 -3.77774 -4.69803 -3.89384 -3.82291 -3.46147 -3.50953 -3.46032 -4.2282 -3.73698 -3.85354 -3.89238 -4.78649 -4.89995 -4.69268 -4.04928 -4.76734 -3.99644 -2.56628 -2.8913 -2.49716 -3.37456 -2.94644 -2.91938 -2.97967 -3.97385 -4.07094 -3.77613 -3.17959 -4.14508 -3.3235 -2.47214 -2.02 -3.14962 -2.52292 -2.45762 -2.54488 -3.57998 -3.89958 -3.66926 -2.79973 -3.75026 -2.83904 -2.51533 -3.41507 -2.91968 -2.82671 -2.95034 -4.04401 -4.02008 -3.91081 -3.1925 -3.97575 -3.18558 -3.05595 -2.41694 -2.45013 -2.49005 -3.62893 -3.73572 -3.61779 -2.71981 -3.72836 -2.78287 -3.47949 -3.31591 -3.32579 -4.36923 -4.58685 -4.436 -3.57943 -4.44495 -3.65188 -2.88376 -2.89366 -3.93902 -4.04345 -3.884 -3.16306 -4.05736 -3.19307 -2.89704 -4.05896 -4.16141 -3.94378 -3.17367 -3.99328 -3.15074 -4.02373 -4.30162 -3.99292 -3.11967 -4.21594 -3.23077 -5.16743 -5.01867 -4.19997 -5.02724 -4.29629 -5.06412 -4.37775 -5.13018 -4.36322 -4.10332 -4.42198 -4.26181 -4.28262 -3.56323 -4.1729
probB 0.0691204 0.566465 -0.0627869 -0.15388 -0.421117 -0.267774 -0.640628 -0.329008 -0.207125 -0.484797 -0.436406 -0.51693 -0.373656 -0.359806 0.104503 -0.843887 -1.07446 -0.803533 -1.25717 -0.56897 -0.913336 -0.929598 -0.87152 0.0401041 0.106746 0.0151069 -0.879156 -0.0725503 -0.75939 0.448029 -0.0349936 -0.334524 -0.405456 -0.294145 -0.592773 -0.312381 -0.106742 -0.478356 -0.602955 -0.533427 -0.360986 -0.320027 0.203277 -0.835241 -1.10284 -0.872453 -1.20048 -0.608832 -0.93155 -0.931188 -0.830241 0.102404 0.130896 0.0439866 -0.809593 0.160671 -0.875448 -0.928239 -0.892781 -0.682359 -0.835992 -0.908448 -0.547904 -0.861323 -0.93317 -0.893454 -1.02297 -0.978057 -0.657801 -0.282817 -1.29354 -1.87837 -1.45998 -1.67344 -0.820134 -1.23982 -1.40475 -1.37432 -0.360331 -0.439033 -0.40531 -1.29578 -0.346793 -1.25276 -0.215052 -0.463562 -0.25708 -0.560147 -0.165998 -0.0744801 -0.330265 -0.483782 -0.361977 -0.28178 -0.159803 0.146854 -0.913859 -1.31039 -0.819609 -1.30716 -0.468081 -0.953397 -0.837433 -0.781048 0.0520323 0.141892 0.0800567 -0.722289 0.199887 -0.677603 -0.199361 0.181782 -0.229524 0.0677711 0.189467 -0.111267 -0.229614 -0.350456 0.00681949 0.0273278 0.433233 -0.603709 -0.99205 -0.688964 -1.14582 -0.22428 -0.635603 -0.61169 -0.614596 0.399841 0.359104 0.239557 -0.480024 0.343842 -0.484663 0.318534 -0.075804 0.152404 0.514498 0.130577 0.0499396 0.0159865 0.305956 0.290444 0.455886 -0.353278 -0.763082 -0.285295 -0.647152 0.218069 -0.315882 -0.379977 -0.256575 0.623261 0.718311 0.459545 -0.135309 0.33592 -0.256949 -0.314459 0.00803486 0.111855 -0.185411 -0.293638 -0.208943 -0.170548 -0.0725846 0.375994 -0.719271 -1.02817 -0.612072 -1.20318 -0.2045 -0.76529 -0.683166 -0.584051 0.260468 0.495603 0.349005 -0.538778 0.399026 -0.550851 0.248287 0.51992 0.18931 -0.195323 0.105267 0.251196 0.306923 0.723822 -0.249757 -0.700497 -0.310877 -0.716299 0.0762635 -0.323795 -0.39055 -0.242586 0.630173 0.869582 -0.218759 -0.1743 0.609032 -0.0932976 -0.040695 -0.334862 -0.308572 -0.167459 -0.0301513 0.0299497 0.184077 -0.513221 -0.967607 -0.557902 -1.04748 -0.141141 -0.566176 -0.547931 -0.474372 0.393008 0.346528 0.270556 -0.408156 0.31727 -0.264522 -0.290076 -0.370765 -0.458343 -0.231641 -0.119661 0.20298 -0.821741 -1.29896 -0.811231 -1.28792 -0.374389 -0.806203 -0.851311 -0.73162 0.164266 0.325309 0.174565 -0.612398 0.470792 -0.659273 0.0147309 -0.112008 0.0361668 0.294543 0.420148 -0.298276 -0.994645 -0.436568 -0.940627 -0.0927294 -0.391621 -0.471734 -0.334001 0.596404 0.64019 0.463609 -0.263316 0.643211 -0.316885 -0.0394747 0.180403 0.292147 0.474065 -0.411227 -0.81616 -0.403678 -0.728854 -0.0342935 -0.304603 -0.374053 -0.254747 0.515721 0.684531 0.577178 -0.196511 0.668201 -0.175109 -0.0187831 0.256782 0.456914 -0.420109 -0.910484 -0.360872 -0.847268 0.0995984 -0.473023 -0.344501 -0.404757 0.572007 0.773583 0.585687 -0.192199 0.536763 -0.239708 0.0412756 0.407911 -0.591273 -1.00087 -0.571547 -1.08725 -0.215899 -0.631873 -0.593522 -0.567335 0.448366 0.59966 0.342311 -0.445793 0.596817 -0.419668 0.481702 -0.671036 -1.09456 -0.627328 -1.12119 -0.209499 -0.719242 -0.643955 -0.516502 0.381454 0.483846 0.126199 -0.491089 0.311735 -0.454365 -0.865249 -1.26118 -0.876715 -1.33962 -0.568638 -0.867562 -0.693599 -0.778593 -0.0811016 0.0715731 -0.219825 -0.731829 0.0202954 -0.652084 -0.415355 -0.00274565 -0.487782 0.407235 -0.087511 -0.00733821 0.00369469 0.928191 1.18846 0.835209 0.140563 1.09636 0.307637 0.271694 -0.0568324 0.924038 0.349603 0.406662 0.469462 1.40037 1.38569 1.31597 0.654989 1.5608 0.758831 -0.483572 0.517086 0.00141833 -0.00812996 0.0362608 0.990262 1.03468 1.0089 0.256238 0.979277 0.178988 0.920231 0.455243 0.393453 0.520897 1.40058 1.59822 1.46099 0.719894 1.44841 0.777628 -0.511993 -0.502971 -0.314931 0.471001 0.657097 0.552425 -0.181356 0.585838 -0.244273 0.0327206 0.0586274 1.02861 1.19385 0.926415 0.239477 0.921032 0.288647 0.0549241 0.962151 1.05756 0.908537 0.259045 0.90311 0.320536 0.731566 1.0231 0.873391 0.197894 0.803329 0.266446 0.0907009 0.0361166 -0.891785 -0.0611728 -0.842489 -0.12069 -0.956215 0.0636855 -0.896709 -0.80923 0.530733 -0.693837 0.860885 0.0441081 -0.764644
nr_sv 111 112 275 121 67 37 69 37 40 59 49 39 45 41 61 106 14 6 12 6 40 14 18 10 110 124 130 18 158 22
SV
0 0 0 0 0 0 0 0 0 0 0 0 0 0.1741513220440898 0 0 0 0 0 0 0 0 0 0 0 0 0 0 0 1:0.45230356 2:0.40093157 3:0.36642596 4:0.64878726 5:0.34454131 6:0.66416001 7:0.51198816 8:0.47652641 9:0.54966778 10:0.62825698 11:0.33765966 12:0.54553336 13:0.61448145 14:0.56911302 15:0.41280088 16:0.20442539 17:0.45883861 18:0.49969569 19:0.3766256 20:0.58463395 21:0.5194481 22:0.38272467 23:0.24119417 24:0.53134078 25:0.64158875 26:0.46096435 27:0.44634253 28:0.75005263 29:0.14378256 30:0.59038335 31:0.21777168 32:0.44908509 33:0.61034954 34:0.3737427 35:0.67728651 36:0.35868457 37:0.73954982 38:0.35537237 39:0.73383033 40:0.57949901 41:0.61523265 42:0.45285287 43:0.37233803 44:0.34750739 45:0.54945469 46:0.46108311 47:0.46749854 48:0.7872358 49:0.26938513 50:0.41540819 51:0.36958164 52:0.45055062 53:0.46161768 54:0.068257913 55:0.49656799 56:0.60749155 57:0.76732969 58:0.37035391 
0 0 0 0 0 0 0 0 0 0 0 0 0 0 0 0 0 0 0 0 0.7598159770887533 0 0 0 0 0 0.8105717003896963 0 0 1:0.37618533 2:0.59323055 3:0.18967122 4:0.48128456 5:0.44933718 6:0.3755185 7:0.43816039 8:0.30603352 9:0.45495626 10:0.3182784 11:0.41679841 12:0.52212662 13:0.55144835 14:0.97121751 15:0.19566956 16:0.42576599 17:0.29448912 18:0.34599307 19:0.64081061 20:0.37315661 21:0.47986716 22:0.44017339 23:0.60004014 24:0.5954411 25:0.80777073 26:0.46638823 27:0.49156523 28:0.42104062 29:0.43916082 30:0.71259344 31:0.3020927 32:0.76325411 33:0.52914006 34:0.68094802 35:0.486058 36:0.64856094 37:0.68939269 38:0.51963359 39:0.48061416 40:0.45603043 41:0.64054298 42:0.60342318 43:0.44698498 44:0.29842266 45:0.61251736 46:0.42192081 47:0.38543957 48:0.57559663 49:0.31086043 50:0.5005576 51:0.50872755 52:0.32266963 53:0.50080329 54:0.20578545 55:0.51292437 56:0.55721384 57:0.67747754 58:0.28217423 
0.2532379949908097 0 0 0 0 0 0 0 0 0 0 0 0 0 0 0.4963663602649801 0 0 1.68421616505854 1.205643248626473 0 0 0 0.876914315545586 0 0 0 0 0.1847891027684693 1:0.43870342 2:0.61975276 3:0.21944587 4:0.55618602 5:0.46445543 6:0.59515619 7:0.2854273 8:0.34957477 9:0.50929683 10:0.47566858 11:0.59017503 12:0.41562045 13:0.38093537 14:0.53952771 15:0.3354457 16:0.58000487 17:0.42738551 18:0.44789958 19:0.58674186 20:0.37560952 21:0.37401855 22:0.48435313 23:0.42234105 24:0.20450959 25:0.41836146 26:0.46306607 27:0.67243242 28:0.45417944 29:0.33700904 30:0.51781869 31:0.5084995 32:0.63959152 33:0.4487907 34:0.65502238 35:0.79031402 36:0.53336209 37:0.67250246 38:0.63089293 39:0.46955535 40:0.48131809 41:0.47688258 42:0.46654484 43:0.55267745 44:0.26953131 45:0.88920623 46:0.5499354 47:0.42588955 48:0.54604352 49:0.29867342 50:0.42438871 51:0.48963115 52:0.45297739 53:0.33232161 54:0.12963608 55:0.46736202 56:0.65813851 57:0.60258859 58:0.33654839 
0 0 0.8135255321453295 0 0 0 0 0 0 0 0 0 0 0 0 0 0 0 0 0 0 0 0 0 0 0 0 0 0 1:0.60930955 2:0.63498819 3:0.47172359 4:0.40336126 5:0.55524474 6:0.39377591 7:0.45510572 8:0.27079338 9:0.37998509 10:0.26584858 11:0.45128623 12:0.3386369 13:0.57219797 14:0.7683742 15:0.07512752 16:0.48346075 17:0.51081163 18:0.33877671 19:0.50131005 20:0.55786449 21:0.60841757 22:0.29245222 23:0.49235088 24:0.54965138 25:0.73375088 26:0.28781539 27:0.47750837 28:0.43268767 29:0.40037313 30:0.57545102 31:0.46269768 32:0.73821586 33:0.60330021 34:0.59459168 35:0.52981818 36:0.47109511 37:0.70662808 38:0.54802901 39:0.47522885 40:0.39054891 41:0.61753291 42:0.63332444 43:0.46153596 44:0.35299641 45:0.50676674 46:0.47793433 47:0.50125921 48:0.61934513 49:0.45123833 50:0.52075118 51:0.61469591 52:0.30881035 53:0.36207339 54:0.19755463 55:0.41876951 56:0.62830359 57:0.72462517 58:0.38863397 
3.518828510089473 6.068822317278588 0 5.026986214559702 0.5607753000204626 1.033585376670268 0 0 0.1732745610271301 0 0 0 0 0 0 0 0 0 1.648334873040645 1.696538233422681 0 0 0 0 3.174990701976896 0 0 6.121388096715545 0 1:0.68658972 2:0.81019408 3:0.56860644 4:0.49443677 5:0.55956388 6:0.38274828 7:0.49624956 8:0.30521408 9:0.40341783 10:0.51573712 11:0.22264293 12:0.50472784 13:0.52654141 14:0.86711675 15:0.33101529 16:0.51690137 17:0.30735409 18:0.49264944 19:0.60994869 20:0.58131456 21:0.49812695 22:0.33130991 23:0.64021063 24:0.45353666 25:0.54988074 26:0.32680833 27:0.35496488 28:0.50067842 29:0.49692532 30:0.54161918 31:0.47062266 32:0.67237306 33:0.63040638 34:0.59317273 35:0.62501299 36:0.66483861 37:0.59711051 38:0.45807984 39:0.43857554 40:0.45601106 41:0.76795167 42:0.51821607 43:0.43030334 44:0.62219727 45:0.40533838 46:0.52689731 47:0.59939498 48:0.62346882 49:0.33304039 50:0.53116637 51:0.5633142 52:0.41641408 53:0.35048622 54:0.15979636 55:0.42236024 56:0.58936548 57:0.68887532 58:0.4306924 
0 0 0.2645491494112003 0 0 0 0 0 0 0 0 0 0 0 0 0 0 0 0 0 0 0 0 0 0 0 0 0 0 1:0.39961845 2:0.54877102 3:0.50592369 4:0.417411 5:0.37094373 6:0.44348735 7:0.54309779 8:0.50224435 9:0.58893156 10:0.55495244 11:0.4594211 12:0.61661762 13:0.30859187 14:0.80656612 15:0.28310442 16:0.52984321 17:0.4486343 18:0.37819386 19:0.67945731 20:0.46508542 21:0.41369522 22:0.27494329 23:0.69338727 24:0.45977911 25:0.6753813 26:0.40618342 27:0.36206484 28:0.52888095 29:0.37774077 30:0.59127301 31:0.32978016 32:0.60987884 33:0.70520157 34:0.61586326 35:0.49483848 36:0.81002939 37:0.49090308 38:0.35507083 39:0.43446314 40:0.40377179 41:0.72668833 42:0.48133928 43:0.52082872 44:0.45240057 45:0.58892936 46:0.44846269 47:0.51202124 48:0.73286432 49:0.23877949 50:0.46377483 51:0.40632227 52:0.42135048 53:0.3912828 54:0.18744253 55:0.41988856 56:0.60756028 57:0.65970743 58:0.29534978 
0 0 0 0 0 0 0 0 0 0 0 0 0 0 0.2604142556869599 0 0 0 0 1.779551453758379 0 0 0 0 0 1.295646970122223 0 0 0 1:0.69543564 2:0.42582098 3:0.43315133 4:0.43620992 5:0.47691733 6:0.44613221 7:0.77254885 8:0.37269133 9:0.47229883 10:0.61441964 11:0.3542763 12:0.49425706 13:0.35876352 14:0.70666468 15:0.39472803 16:0.41833693 17:0.55406213 18:0.5257563 19:0.49003905 20:0.75931263 21:0.61667341 22:0.24902491 23:0.49583536 24:0.43229941 25:0.48131827 26:0.50653595 27:0.339219 28:0.84021634 29:0.40160748 30:0.6696527 31:0.24389337 32:0.44417775 33:0.67862505 34:0.46310189 35:0.58258867 36:0.52936065 37:0.5315941 38:0.36583719 39:0.60457736 40:0.50621301 41:0.70142621 42:0.45836315 43:0.50300723 44:0.4400129 45:0.38181302 46:0.51492447 47:0.4629139 48:0.69483024 49:0.28602037 50:0.50469673 51:0.42851785 52:0.51274323 53:0.34602031 54:0.095653392 55:0.44273964 56:0.58201706 57:0.7371335 58:0.40949953 
0 0 0 0 0 4.234129688734827 0 0 0 0 0 0 0 0 0 0 0 0 0 0 0 0 0 0 0 0 0 0 0 1:0.46456549 2:0.60645902 3:0.33065584 4:0.43376082 5:0.51974881 6:0.65817606 7:0.4922072 8:0.58805609 9:0.54920739 10:0.56120557 11:0.42329216 12:0.51638699 13:0.5195142 14:0.89204568 15:0.058796115 16:0.53789061 17:0.4478524 18:0.20463288 19:0.52148533 20:0.49768388 21:0.55403775 22:0.34613001 23:0.66243589 24:0.50540346 25:0.49810737 26:0.39737046 27:0.41188315 28:0.49177143 29:0.4050642 30:0.67723346 31:0.3247028 32:0.57523143 33:0.47093815 34:0.59261096 35:0.46014595 36:0.62928605 37:0.63560754 38:0.23834433 39:0.48402193 40:0.51666635 41:0.61421537 42:0.51291007 43:0.50878 44:0.4195531 45:0.43542147 46:0.38912344 47:0.5117991 48:0.63192654 49:0.27101973 50:0.40015155 51:0.50267702 52:0.43011174 53:0.36623386 54:0.21824706 55:0.47503385 56:0.56529546 57:0.69877982 58:0.32491457 
0 0 0 2.989986821185513 0.1374214365071637 0 0 0 0 0 0 0 0 0.8179857696771 0 0 0.5450528373586188 0 0 0 0 0 0 0 0.4845036105373146 0.07118715408833443 0.2140256391074966 0.6077688711551964 0 1:0.40219265 2:0.65451699 3:0.46138296 4:0.28503472 5:0.43135893 6:0.4431932 7:0.40645659 8:0.50452131 9:0.60530394 10:0.29894406 11:0.58311599 12:0.45434415 13:0.81247008 14:0.48446426 15:0.36006054 16:0.44747961 17:0.34583268 18:0.48407015 19:0.32164165 20:0.46040311 21:0.46075583 22:0.40819907 23:0.52392203 24:0.52924627 25:0.73264122 26:0.67228526 27:0.53367698 28:0.46212217 29:0.30477679 30:0.54408884 31:0.37306842 32:0.57289094 33:0.44629675 34:0.56675106 35:0.45296299 36:0.60412163 37:0.56142449 38:0.51181632 39:0.57327408 40:0.56668174 41:0.6350897 42:0.29929703 43:0.53891885 44:0.25086224 45:0.75879622 46:0.55830401 47:0.36717758 48:0.55836195 49:0.13221079 50:0.34650427 51:0.34079388 52:0.58274221 53:0.41113982 54:0.28904641 55:0.47587481 56:0.43547049 57:0.67523652 58:0.25295883 
0 0 0 0 0 0 0 0 0 0 0 0 0 0 0 0 0 0 0 0 1.515758695966665 0.699345484037376 0 0 0 0 0 0 0 1:0.58590436 2:0.63743651 3:0.45116925 4:0.34874719 5:0.57726836 6:0.19720876 7:0.42695573 8:0.60482979 9:0.58331025 10:0.43366966 11:0.35597968 12:0.49016681 13:0.33811775 14:0.92338055 15:0.27979878 16:0.77616185 17:0.46109241 18:0.23681016 19:0.45604083 20:0.67343885 21:0.46661377 22:0.33742666 23:0.67017043 24:0.51033252 25:0.46892339 26:0.3597185 27:0.35101238 28:0.46889871 29:0.36735532 30:0.61449516 31:0.45554119 32:0.61612344 33:0.59972823 34:0.6689623 35:0.49551624 36:0.50955164 37:0.39292192 38:0.45813933 39:0.49496251 40:0.51219887 41:0.63933772 42:0.48754513 43:0.55548495 44:0.4164243 45:0.67421991 46:0.51724416 47:0.57757455 48:0.61611253 49:0.16739528 50:0.48790625 51:0.51924443 52:0.48364976 53:0.38244867 54:0.19911748 55:0.46467072 56:0.58004022 57:0.67963868 58:0.29475266 
0 0 0 0 0 0 0 0 0 0 0.6866090553876339 0 0 0 0.2805520485509971 0 0 0 1.534254482220757 0.9707282006321386 0 0 0 0 0 0 0 0 0 1:0.7005018 2:0.50201106 3:0.5279147 4:0.66170913 5:0.39291799 6:0.58401579 7:0.40662482 8:0.31235036 9:0.56740665 10:0.6688419 11:0.37180448 12:0.20626043 13:0.86851412 14:0.51577872 15:0.48021892 16:0.38957021 17:0.65515566 18:0.62275916 19:0.50018042 20:0.79454517 21:0.33568153 22:0.66564238 23:0.22291906 24:0.56108201 25:0.59537512 26:0.23510119 27:0.59350544 28:0.46756247 29:0.23778693 30:0.42369568 31:0.44974789 32:0.52572995 33:0.62481225 34:0.63012064 35:0.54070944 36:0.46357614 37:0.45818073 38:0.81237239 39:0.59584057 40:0.59488153 41:0.43288067 42:0.34907585 43:0.49167022 44:0.22280107 45:0.61791158 46:0.53287172 47:0.50341147 48:0.58030277 49:0.36566797 50:0.35725835 51:0.44083175 52:0.71706909 53:0.45520115 54:0.17482862 55:0.49344933 56:0.51200557 57:0.8147487 58:0.38266981 
0 0 0 0 0 0 0 0 0 0 0 0 0 0.8288905773881892 0 0 0 0.1725111808988221 0 0 0 0 0 0 0 0 0 0 0 1:0.5494709 2:0.76827228 3:0.4833872 4:0.43668512 5:0.54688722 6:0.5856809 7:0.34171581 8:0.56254989 9:0.54278213 10:0.551682 11:0.48408157 12:0.34718442 13:0.5093382 14:0.6911276 15:0.18837456 16:0.6194768 17:0.28109947 18:0.42827484 19:0.59654915 20:0.55463129 21:0.55939949 22:0.19562528 23:0.61602253 24:0.5520125 25:0.4117296 26:0.49999949 27:0.45654976 28:0.65499091 29:0.36402687 30:0.55651116 31:0.52148098 32:0.45488989 33:0.26872858 34:0.43212298 35:0.46077129 36:0.51019663 37:0.69840705 38:0.39559838 39:0.58246642 40:0.46099481 41:0.58037359 42:0.35890782 43:0.42785099 44:0.4049778 45:0.52435207 46:0.41006169 47:0.49346623 48:0.57433987 49:0.31035826 50:0.44530162 51:0.46439049 52:0.41547909 53:0.37646794 54:0.1519952 55:0.58790267 56:0.58389181 57:0.64356697 58:0.32279837 
0 0 0 0 0 0 0 0 0 0 0 0 0 0 0 0 0.3276388749977651 0 0 0 0 0 0 0 0 0 0 0 0 1:0.4227584 2:0.84064317 3:0.36430535 4:0.44259459 5:0.39976522 6:0.46313292 7:0.33680707 8:0.50692123 9:0.33415776 10:0.42146522 11:0.27812958 12:0.37218782 13:0.48633066 14:0.65304738 15:0.27430707 16:0.2599557 17:0.29815316 18:0.60181117 19:0.49935538 20:0.47621164 21:0.50602478 22:0.36078271 23:0.66748476 24:0.46147165 25:0.60072494 26:0.56703645 27:0.39023286 28:0.54305071 29:0.30915037 30:0.57992899 31:0.41816112 32:0.61543393 33:0.35648239 34:0.48499253 35:0.42559507 36:0.51297504 37:0.73105103 38:0.50865519 39:0.66970772 40:0.42579165 41:0.60747588 42:0.43554232 43:0.44386339 44:0.30821392 45:0.51015687 46:0.51506907 47:0.40421906 48:0.61457562 49:0.27479127 50:0.4456867 51:0.38381976 52:0.42591742 53:0.34755129 54:0.14175071 55:0.54692858 56:0.58456713 57:0.5883624 58:0.29531875 
0 0 0 0 0 0 0 0 0 0 0 0 0 0 0 0 0 0 0 0 0.5947569015414161 0 0 0 0 0 0 0 0 1:0.4645029 2:0.62202239 3:0.43679968 4:0.56599689 5:0.27017444 6:0.52620506 7:0.44369587 8:0.32656109 9:0.52497846 10:0.53383666 11:0.44650397 12:0.26317126 13:0.69154841 14:0.41001686 15:0.41230381 16:0.33365914 17:0.49505168 18:0.56967634 19:0.33060691 20:0.54345071 21:0.66454887 22:0.51171529 23:0.46712518 24:0.74612188 25:0.42541274 26:0.51422542 27:0.54732686 28:0.48606518 29:0.26604319 30:0.68443888 31:0.20294431 32:0.75018293 33:0.43440059 34:0.49316132 35:0.33248025 36:0.2636722 37:0.69775593 38:0.44695172 39:0.74461257 40:0.73038065 41:0.5719611 42:0.31425071 43:0.39591902 44:0.32143062 45:0.68255424 46:0.33941925 47:0.44285238 48:0.58903772 49:0.22794408 50:0.48561892 51:0.39205086 52:0.49591395 53:0.40255326 54:0.05584408 55:0.57008141 56:0.62221992 57:0.66822124 58:0.35398862 
0 0 0 0 0 0 0 0 0 0 0 0 0 0 0 0 0.9591497760028723 0 0 0 0 0 0 0 0 0 0 0 0 1:0.57442451 2:0.49254242 3:0.54337031 4:0.47136647 5:0.45128927 6:0.79509759 7:0.51747417 8:0.54403734 9:0.56790078 10:0.60488188 11:0.50364035 12:0.41662869 13:0.51596159 14:0.4531503 15:0.33048552 16:0.43088406 17:0.41001028 18:0.4818165 19:0.3538112 20:0.76454854 21:0.51171732 22:0.39011484 23:0.58333629 24:0.44798261 25:0.48899651 26:0.35838172 27:0.67212081 28:0.50271451 29:0.19503714 30:0.40611312 31:0.37491819 32:0.46248433 33:0.39558336 34:0.44243571 35:0.62859327 36:0.37037462 37:0.71676534 38:0.5217697 39:0.62067384 40:0.51970536 41:0.6120885 42:0.40936416 43:0.39223689 44:0.25382411 45:0.57823473 46:0.50737363 47:0.57005525 48:0.63365698 49:0.35621804 50:0.47757751 51:0.4087097 52:0.5215326 53:0.45104024 54:0.13508768 55:0.55086452 56:0.69031161 57:0.73815799 58:0.33903301 
0 0 0 0 0 0 0 0 0 0 0.9455853086888809 0 0 0 0 0 0 0 0 0 0 0.6561128530746898 1.431095026818481 0 0 0 0 0 0.5421673547971054 1:0.51133978 2:0.5925653 3:0.45639867 4:0.46838498 5:0.42979047 6:0.57920688 7:0.55482417 8:0.48584452 9:0.37493876 10:0.6416325 11:0.48906195 12:0.46895716 13:0.30556136 14:0.64241385 15:0.50436938 16:0.26517901 17:0.41951013 18:0.68290162 19:0.44685873 20:0.59947115 21:0.64255005 22:0.21161087 23:0.45200551 24:0.4916805 25:0.50825024 26:0.67726529 27:0.47676486 28:0.64039153 29:0.26541066 30:0.58643848 31:0.064515725 32:0.52852011 33:0.55495149 34:0.43764803 35:0.4501155 36:0.43665621 37:0.76065874 38:0.30464402 39:0.62961102 40:0.52840424 41:0.6886068 42:0.29032734 43:0.46933916 44:0.39156204 45:0.55342126 46:0.44834808 47:0.47826296 48:0.72336191 49:0.38212538 50:0.47290441 51:0.39878929 52:0.53441197 53:0.41003272 54:0.13258731 55:0.42408979 56:0.5977878 57:0.67287958 58:0.40123832 
0 0 0 0 0 0 0 0 0 0 0 0 0 0 0 0 1.515094884578863 0 0 0 0 0 0 0 0 0 0 0 0 1:0.29309067 2:0.73092449 3:0.45729873 4:0.54433817 5:0.69833237 6:0.28283808 7:0.27371517 8:0.54774237 9:0.54162276 10:0.53162223 11:0.51061898 12:0.4763065 13:0.29080197 14:0.78143275 15:0.17666772 16:0.22665511 17:0.40863103 18:0.52534133 19:0.52165204 20:0.42649236 21:0.49572158 22:0.43358365 23:0.64854813 24:0.44805241 25:0.69962353 26:0.51201832 27:0.4276582 28:0.52338433 29:0.28070456 30:0.70491934 31:0.47338694 32:0.71855301 33:0.53173286 34:0.56705987 35:0.55685025 36:0.67005485 37:0.61167848 38:0.26243794 39:0.55455172 40:0.40089557 41:0.61376071 42:0.53069341 43:0.40395918 44:0.42133009 45:0.42303091 46:0.39156109 47:0.4651148 48:0.5997526 49:0.18403135 50:0.40828961 51:0.42994711 52:0.51791394 53:0.40248382 54:0.27595261 55:0.42893329 56:0.6372208 57:0.67137122 58:0.31713945 
0 0 0 0 3.15404252595936 0 0 0 0 0.08113232285139688 0 0 0 0 0.621141055038596 0 0 0 0 0 0 0 0 0 0 0 0 0 0.3452831259944766 1:0.57487977 2:0.32201517 3:0.42174956 4:0.46582532 5:0.48530811 6:0.48522738 7:0.62078983 8:0.74617928 9:0.60288113 10:0.56952846 11:0.54098117 12:0.46030986 13:0.2867192 14:0.42429185 15:0.5622915 16:0.39287296 17:0.3134312 18:0.4833189 19:0.43903905 20:0.72232687 21:0.67827904 22:0.43711656 23:0.4447374 24:0.3890726 25:0.3717486 26:0.48089758 27:0.65120226 28:0.58395302 29:0.25182316 30:0.53546882 31:0.16498323 32:0.58433139 33:0.50011879 34:0.46177748 35:0.48054022 36:0.4827427 37:0.65821224 38:0.44209731 39:0.6749835 40:0.5061487 41:0.63391405 42:0.32408145 43:0.36663875 44:0.4291977 45:0.47444159 46:0.49141011 47:0.61498529 48:0.68495327 49:0.38054779 50:0.55304861 51:0.34290671 52:0.47732499 53:0.34419978 54:0.1076476 55:0.47644243 56:0.72290564 57:0.65237194 58:0.32162324 
0 0 0 0 0 0 0 0 0 0 0 0 0 0 0 0 0 0 0 0.3598571195049532 0 0 0 0 0 0 0 0 0 1:0.59551507 2:0.55066574 3:0.38407108 4:0.52936 5:0.53319329 6:0.62782323 7:0.27186272 8:0.26284683 9:0.586182 10:0.53414536 11:0.5287841 12:0.50383008 13:0.6610083 14:0.36493224 15:0.46516427 16:0.35711914 17:0.284311 18:0.39953235 19:0.2577008 20:0.54424298 21:0.66349119 22:0.43588877 23:0.5274213 24:0.75264692 25:0.55401176 26:0.52252215 27:0.63157475 28:0.65412545 29:0.1620367 30:0.62564749 31:0.186481 32:0.60114574 33:0.52219957 34:0.40854535 35:0.63695264 36:0.37830734 37:0.74038881 38:0.3134796 39:0.83856511 40:0.6541518 41:0.564713 42:0.37212205 43:0.32066691 44:0.39268336 45:0.6355769 46:0.34692293 47:0.56085336 48:0.58429885 49:0.14389366 50:0.47608277 51:0.28410453 52:0.54502553 53:0.39052725 54:0.099417992 55:0.52031273 56:0.62913001 57:0.66499162 58:0.30852523 
0 0 0 0 0 0 0 0 0 0 0 0 0 0 0.5896063547664419 2.049267706928738 0 0 0 0 0 0 0 0 0 0 0 0 0 1:0.4699468 2:0.45378119 3:0.44439018 4:0.45111781 5:0.4236376 6:0.49886379 7:0.60326952 8:0.35757494 9:0.42780793 10:0.6178447 11:0.50216091 12:0.60585982 13:0.56966484 14:0.61145115 15:0.5819506 16:0.14401208 17:0.51577395 18:0.49608043 19:0.3492099 20:0.86101508 21:0.53864294 22:0.34785607 23:0.4071891 24:0.40346187 25:0.48852977 26:0.4558717 27:0.54894739 28:0.5922817 29:0.19735432 30:0.56524378 31:0.20741554 32:0.59213829 33:0.55921078 34:0.52128142 35:0.59944463 36:0.43691254 37:0.74396706 38:0.44854999 39:0.65288472 40:0.58323061 41:0.60076791 42:0.42221427 43:0.35094887 44:0.25722426 45:0.54995036 46:0.57008636 47:0.52827215 48:0.65362394 49:0.3712948 50:0.55285394 51:0.35146263 52:0.44738421 53:0.42355648 54:0.11367101 55:0.4884837 56:0.66534823 57:0.71996176 58:0.35442021 
0 0 0 0 0 0 0 2.436946891877827 0 0 0 0 0 0 0 0 0 0 0 0 0 0 0 0 0 0 0 0 0 1:0.56463766 2:0.35805774 3:0.47218329 4:0.56233495 5:0.51802826 6:0.47659436 7:0.59409493 8:0.68991822 9:0.44955474 10:0.63099462 11:0.51078767 12:0.4635683 13:0.35474443 14:0.71350449 15:0.55422056 16:0.30498528 17:0.41011247 18:0.43663472 19:0.3918874 20:0.67627817 21:0.68916631 22:0.26642042 23:0.42765555 24:0.47484261 25:0.36594531 26:0.50523472 27:0.47678295 28:0.72617638 29:0.21324129 30:0.5108096 31:0.14391841 32:0.46430615 33:0.67567569 34:0.40162331 35:0.42661458 36:0.44310808 37:0.70053601 38:0.46924421 39:0.6173045 40:0.54339063 41:0.55145222 42:0.41366768 43:0.39749616 44:0.42489243 45:0.4753159 46:0.41908613 47:0.53139704 48:0.74901801 49:0.31250152 50:0.5317117 51:0.50442308 52:0.47801918 53:0.30756721 54:0.077869587 55:0.42700082 56:0.62532854 57:0.67441034 58:0.37559807 
0 0 0 0 0 0 0 0 0 0 0 0 0 0 0 0 0 0 0 0 1.050781628197532 0 0 0 0 0 0 0 0 1:0.45178702 2:0.50282633 3:0.22695513 4:0.57740456 5:0.58102 6:0.52592957 7:0.54276824 8:0.24891625 9:0.38001853 10:0.54912579 11:0.45528579 12:0.43863919 13:0.44849145 14:0.53354657 15:0.43500254 16:0.22595115 17:0.4855094 18:0.54960978 19:0.37565798 20:0.63690144 21:0.71212471 22:0.48961455 23:0.44146848 24:0.62910861 25:0.38560483 26:0.39337963 27:0.48966318 28:0.49959517 29:0.31282189 30:0.61393446 31:0.37366968 32:0.59596682 33:0.36480865 34:0.57535249 35:0.49732414 36:0.27597001 37:0.66135001 38:0.56549317 39:0.84452772 40:0.70032412 41:0.69298226 42:0.35529381 43:0.35957921 44:0.32347149 45:0.39488226 46:0.49865466 47:0.48485214 48:0.69086015 49:0.34250069 50:0.51422274 51:0.42500243 52:0.48326564 53:0.48698148 54:0.042091362 55:0.51034445 56:0.59723401 57:0.72188753 58:0.39394504 
0.2926734134940356 0 0 0 0.4687744359382565 0 2.301694705940893 0.4694610829707239 2.051478298110867 2.253830631735362 0 0 0 0.07615572823243498 3.285233340787588 0.9521662599883982 0.4886070504850379 3.136891378547824 0 0 0 2.553891331312307 0.6110054941877906 0 0 4.491236505025181 0 1.438744786956885 0 1:0.33991051 2:0.81296754 3:0.42447871 4:0.51429659 5:0.5159142 6:0.46572515 7:0.34122103 8:0.44592541 9:0.29639685 10:0.42189544 11:0.43786672 12:0.44672024 13:0.69969183 14:0.85895532 15:0.33050188 16:0.43379566 17:0.393199 18:0.50962579 19:0.44307265 20:0.77184629 21:0.59613222 22:0.43582585 23:0.73856664 24:0.81503183 25:0.62203819 26:0.45989451 27:0.41091079 28:0.52981347 29:0.40727907 30:0.68180543 31:0.49587145 32:0.73113793 33:0.37173468 34:0.61995173 35:0.36987427 36:0.59344786 37:0.52493346 38:0.42047542 39:0.59731239 40:0.49752599 41:0.59958154 42:0.43344826 43:0.49048489 44:0.31210938 45:0.51200014 46:0.57054377 47:0.36839518 48:0.52864468 49:0.25937358 50:0.49465641 51:0.37862191 52:0.42822042 53:0.42053536 54:0.24043804 55:0.5551036 56:0.51288146 57:0.55164176 58:0.26320618 
0 0 0 0 0 0 0 0 0 0 0 0 0 1.551669281746001 0 0 0 0 0 0 0 0 0 0 0 0 0 0 0 1:0.54514319 2:0.59325159 3:0.3692033 4:0.58051223 5:0.45862362 6:0.59454173 7:0.59943068 8:0.34052747 9:0.47140735 10:0.6590119 11:0.53486776 12:0.31501657 13:0.47743133 14:0.60018885 15:0.46599075 16:0.27859098 17:0.53307527 18:0.47167283 19:0.26399267 20:0.62455571 21:0.64757502 22:0.36808228 23:0.42465419 24:0.3906211 25:0.39077783 26:0.49874783 27:0.53228319 28:0.78183228 29:0.11651059 30:0.54948992 31:0.28005072 32:0.47077924 33:0.60744965 34:0.43143934 35:0.59251606 36:0.35348585 37:0.51923823 38:0.44727662 39:0.64221072 40:0.59877801 41:0.67396039 42:0.40892026 43:0.38878608 44:0.32718578 45:0.48470688 46:0.4995639 47:0.60081625 48:0.72914046 49:0.30950558 50:0.50169051 51:0.38167 52:0.52597708 53:0.47654897 54:0.13354996 55:0.51082271 56:0.63240445 57:0.77688158 58:0.40728194 
0 0 2.394992747953148 0.3173079613889667 0 0 0 0 0 0 0 0 0 0 0.475166597036275 0 0 0 0 0.6517510914072698 0 0 0 0 1.999078714897077 0 0 0 0.6960228487909508 1:0.56663918 2:0.62804765 3:0.27012566 4:0.38603425 5:0.74130362 6:0.45262992 7:0.6266076 8:0.49846718 9:0.43775231 10:0.53465009 11:0.29307222 12:0.64224279 13:0.44595823 14:0.78988343 15:0.32896668 16:0.74059361 17:0.36285979 18:0.34146565 19:0.64069217 20:0.47242603 21:0.5200882 22:0.22540615 23:0.68676561 24:0.62742633 25:0.49492824 26:0.45738715 27:0.36044061 28:0.76163828 29:0.58239418 30:0.55913794 31:0.54509437 32:0.49441573 33:0.51216352 34:0.66546887 35:0.37950197 36:0.60763967 37:0.52114946 38:0.39362264 39:0.41726935 40:0.48423445 41:0.66107935 42:0.55767983 43:0.6174745 44:0.4809005 45:0.37712362 46:0.50194216 47:0.58263177 48:0.62025553 49:0.41923043 50:0.49632803 51:0.60296679 52:0.34437832 53:0.30589145 54:0.15881468 55:0.38096964 56:0.57058847 57:0.68689901 58:0.3727023 
0 0 0 0 0 0 0 0 0 0 0 0 0 0 0 0 0 0 0 0 0 0 0 0 0 0 1.294611951611572 0 0 1:0.69933552 2:0.52686542 3:0.43533811 4:0.51090187 5:0.48152506 6:0.58225131 7:0.63114387 8:0.34237435 9:0.48169523 10:0.57237405 11:0.46477571 12:0.47677243 13:0.42422506 14:0.7031408 15:0.45985383 16:0.22245489 17:0.28011289 18:0.54891092 19:0.44536409 20:0.66778666 21:0.77800697 22:0.27915701 23:0.29051057 24:0.49574348 25:0.56384784 26:0.70778173 27:0.51202404 28:0.8651275 29:0.40480897 30:0.62420374 31:0.30373359 32:0.44847178 33:0.67377293 34:0.25293162 35:0.50435758 36:0.46845895 37:0.6067127 38:0.31501392 39:0.58038181 40:0.50375992 41:0.59211916 42:0.3982766 43:0.36861795 44:0.35860181 45:0.40859765 46:0.50947988 47:0.42584556 48:0.70729518 49:0.24351572 50:0.51309431 51:0.3613984 52:0.50584984 53:0.35586774 54:0.18673079 55:0.39893121 56:0.59905922 57:0.73133916 58:0.3688421 
0 0.9358779113274365 0 0 0 0 0 0 0.6455465940162254 0 0 0 0 0 0 0 0 0 0 0 0 0 0 0 0 0 0 0 0 1:0.54661316 2:0.52533543 3:0.51888204 4:0.50917423 5:0.37981856 6:0.54780442 7:0.68952751 8:0.51032162 9:0.47251505 10:0.56633878 11:0.48224813 12:0.60430831 13:0.3589153 14:0.66868371 15:0.32720682 16:0.40907824 17:0.30402753 18:0.52920711 19:0.41280299 20:0.64179301 21:0.78671634 22:0.23019424 23:0.35196629 24:0.41966689 25:0.51985312 26:0.34038305 27:0.39588216 28:0.77103269 29:0.23993497 30:0.45715949 31:0.21370026 32:0.43015707 33:0.7976802 34:0.45123211 35:0.55705893 36:0.35069811 37:0.58388495 38:0.42677715 39:0.5532465 40:0.59002972 41:0.58003783 42:0.43064407 43:0.36213753 44:0.47550544 45:0.50257498 46:0.43251133 47:0.52728146 48:0.80842549 49:0.22444643 50:0.46529263 51:0.4817912 52:0.56311291 53:0.45158392 54:0.09910848 55:0.37494633 56:0.62109292 57:0.73039317 58:0.4181039 
0 0 0 0 0 0 0 0 0 0 0 0 0 0 0 0 0 0 0 0.1010793579462817 0 0 2.041055428506533 0 0 0 0 0 0 1:0.33058429 2:0.35822555 3:0.0290621 4:0.61555415 5:0.54924732 6:0.71303892 7:0.44437516 8:0.28080618 9:0.47428849 10:0.6512118 11:0.60211217 12:0.5216552 13:0.58763993 14:0.64764947 15:0.33496511 16:0.73292804 17:0.54519945 18:0.542772 19:0.69958562 20:0.81528789 21:0.78907907 22:0.45073369 23:0.68132162 24:0.80568749 25:0.34490433 26:0.58845186 27:0.69306302 28:0.63478184 29:0.48490688 30:0.67554879 31:0.45512661 32:0.50414026 33:0.48455533 34:0.51696748 35:0.32581469 36:0.37322345 37:0.58277786 38:0.49868703 39:0.83436847 40:0.77422559 41:0.55328673 42:0.4592036 43:0.44903862 44:0.28410724 45:0.61746055 46:0.29498819 47:0.38176742 48:0.60072017 49:0.27584529 50:0.48211303 51:0.45889908 52:0.59928405 53:0.58550775 54:0.18884316 55:0.3953073 56:0.48999724 57:0.86745644 58:0.35792479 
0.9147167033987746 1.271838844564493 1.570660018974297 1.046514411808131 0.5782360511020724 0.622636530041804 2.364008002990718 2.515820340485221 0 0 0 0.2370805487293262 0.02343231662255997 0 0 0 6.542162575846638 0 0.8289198375666723 0 0 0.02534717440195324 1.029655036853394 0.02462740823110197 1.732468574930566 0 0 2.266753997769105 0 1:0.51020724 2:0.71456158 3:0.44418877 4:0.5719611 5:0.84796619 6:0.16800846 7:0.31229538 8:0.25868312 9:0.4908365 10:0.55318904 11:0.50206459 12:0.37346235 13:0.73932916 14:0.10748182 15:0.56403226 16:0.33422488 17:0.26787713 18:0.39097485 19:0.18114664 20:0.36524001 21:0.52508056 22:0.38061199 23:0.64290041 24:0.70737666 25:0.57689369 26:0.72290742 27:0.65312636 28:0.5766291 29:0.23514827 30:0.51685196 31:0.25427377 32:0.67474425 33:0.33018267 34:0.35283327 35:0.60600537 36:0.45348868 37:0.57576758 38:0.15377524 39:0.85075635 40:0.50182021 41:0.67266393 42:0.37081197 43:0.32259476 44:0.58530343 45:0.6686247 46:0.29670709 47:0.58699572 48:0.58285552 49:0.13252971 50:0.57505637 51:0.2689372 52:0.54445451 53:0.33106264 54:0.17200397 55:0.63934094 56:0.62036574 57:0.67633909 58:0.30552527 
3.529563320155445 0.9202793057604286 0.3539356666413426 0 0 2.432634119976481 0 0 0.3350280001969936 3.779501692463784 0 0 3.923863062895594 0 0 0 0 0 0 0 0.1515104099888546 0 0 0 0 4.190813769864882 0 0 4.427286712814005 1:0.46585208 2:0.84258497 3:0.3230083 4:0.53097874 5:0.58812958 6:0.226574 7:0.4807952 8:0.42859811 9:0.50300652 10:0.36991444 11:0.37155882 12:0.45299169 13:0.45528209 14:0.69988781 15:0.24452391 16:0.37655342 17:0.28115121 18:0.47314799 19:0.46172643 20:0.46030667 21:0.59830976 22:0.22510086 23:0.6335088 24:0.42893955 25:0.51771492 26:0.60111153 27:0.50147706 28:0.49362755 29:0.41056469 30:0.66997564 31:0.27304098 32:0.75457096 33:0.4931789 34:0.65296555 35:0.51043802 36:0.65357524 37:0.66738904 38:0.42030445 39:0.59000182 40:0.55636281 41:0.66565001 42:0.48915866 43:0.44726896 44:0.51652485 45:0.54427403 46:0.55115169 47:0.41866055 48:0.65354866 49:0.32559815 50:0.35832453 51:0.42160109 52:0.44435903 53:0.38678285 54:0.17929395 55:0.55337995 56:0.52468431 57:0.56440318 58:0.27865949 
0 0 0 0 5.184079828130575 0 1.169872235676746 1.468005018590738 0 0 0 0.1156069099135849 1.225547959724157 0 0 0.2274822503951897 0 0 0 0 0 0 0 0 0 0 0 0 0 1:0.55776006 2:0.64971387 3:0.44987595 4:0.47698027 5:0.4866128 6:0.23081653 7:0.5092833 8:0.464497 9:0.29943457 10:0.51298261 11:0.3601405 12:0.41999581 13:0.45714036 14:0.77245897 15:0.33616033 16:0.6147067 17:0.39587912 18:0.27703893 19:0.55672657 20:0.57790077 21:0.51839477 22:0.37448773 23:0.66876543 24:0.48137 25:0.5483315 26:0.30135778 27:0.38498694 28:0.45300892 29:0.26632282 30:0.49623507 31:0.39477929 32:0.63456291 33:0.70537508 34:0.61098808 35:0.60065424 36:0.65725172 37:0.49144307 38:0.39972296 39:0.48697039 40:0.49793756 41:0.69333553 42:0.60380942 43:0.39832887 44:0.44331673 45:0.35584044 46:0.48814049 47:0.57633173 48:0.67676467 49:0.28013179 50:0.50336301 51:0.49893442 52:0.49665499 53:0.35441333 54:0.16508992 55:0.43172351 56:0.60286409 57:0.63151145 58:0.39680308 
1.139754366284283 0 3.546399453340837 2.513139382729991 0 0.6553924828874312 2.880388058748927 0 0 0 0 0 0 0 1.705387065526413 0.4293932276269815 1.682486531526533 0 0.1261773212798612 0 0 0 0 0 0 1.554648610109528 0 0 0 1:0.47713646 2:0.63322014 3:0.3017953 4:0.50183558 5:0.54799354 6:0.54144514 7:0.33894074 8:0.47199956 9:0.53042132 10:0.61039954 11:0.41957253 12:0.22780988 13:0.63017029 14:0.67311352 15:0.19839756 16:0.63751888 17:0.39011848 18:0.44923869 19:0.46096042 20:0.63544416 21:0.46039429 22:0.41765079 23:0.75080109 24:0.52486134 25:0.64091527 26:0.36034912 27:0.50198925 28:0.47422376 29:0.2808857 30:0.47226542 31:0.49975866 32:0.6630491 33:0.43043402 34:0.52002931 35:0.66843897 36:0.49786073 37:0.60020196 38:0.42685536 39:0.56571674 40:0.43195078 41:0.50674891 42:0.53405905 43:0.43548018 44:0.38531607 45:0.68257695 46:0.56576073 47:0.46566737 48:0.53597301 49:0.3318437 50:0.42661563 51:0.40138915 52:0.44122347 53:0.43826041 54:0.1609392 55:0.51621133 56:0.58404261 57:0.67790037 58:0.33175769 
0 0 0 0 0.6372173299260797 0 0 0.2213638191180557 0 0 0 0 0 0 0 0 0 0 0 0.2378628154313642 0 0 0 2.785961464076908 0 0 0 0 0 1:0.50804269 2:0.47887924 3:0.42036223 4:0.46909547 5:0.36314467 6:0.29719284 7:0.67126894 8:0.50095278 9:0.39549482 10:0.72104979 11:0.36236897 12:0.73419952 13:0.3573516 14:0.74064875 15:0.37503937 16:0.52466518 17:0.54984212 18:0.5149101 19:0.58780164 20:0.62795526 21:0.58555573 22:0.36510032 23:0.4946284 24:0.47330335 25:0.46802938 26:0.48937586 27:0.47787261 28:0.72524989 29:0.34189668 30:0.57411045 31:0.28030735 32:0.3344315 33:0.62555188 34:0.44977173 35:0.53250414 36:0.48010466 37:0.48412749 38:0.4391655 39:0.56065184 40:0.50798541 41:0.58734185 42:0.44741637 43:0.48317212 44:0.31572744 45:0.56359708 46:0.40909535 47:0.45586801 48:0.73455572 49:0.25766549 50:0.48120967 51:0.50043058 52:0.5909946 53:0.38076407 54:0.14509596 55:0.37316614 56:0.66555643 57:0.62708545 58:0.43091702 
0 0.6638998454377975 1.550320686289403 0 0 0 1.735684161483334 0 0.4963023577404719 0.3434958261863777 1.306403838557006 1.562651737501943 0.4356946198281904 0.681083786063064 2.313800451602315 0.2795463618980986 0 0 0 0 0.8234485864938911 0 0 3.103688986750302 0 0 0 0 0 1:0.65098643 2:0.53486401 3:0.43201962 4:0.35163027 5:0.3624706 6:0.25644723 7:0.34565929 8:0.51522529 9:0.47780746 10:0.38298303 11:0.27826461 12:0.37523195 13:0.47046849 14:0.73872232 15:0.32488871 16:0.45698166 17:0.38329598 18:0.54704124 19:0.65764123 20:0.60223532 21:0.64903259 22:0.30647403 23:0.76002365 24:0.30629981 25:0.63393527 26:0.60326397 27:0.49904418 28:0.48231387 29:0.33316451 30:0.57871914 31:0.26317096 32:0.71434659 33:0.50999439 34:0.63935143 35:0.66253591 36:0.69179994 37:0.71417445 38:0.59677827 39:0.45595285 40:0.38901857 41:0.71788943 42:0.3992146 43:0.36587551 44:0.45060483 45:0.5103361 46:0.52521873 47:0.48716864 48:0.70812106 49:0.30987462 50:0.41609862 51:0.3815746 52:0.4337478 53:0.37786603 54:0.23801525 55:0.451747 56:0.52836132 57:0.56959558 58:0.33048815 
0 0 0 0 0 0 0 1.502183502312699 0.5318634711673867 0 0 0 0 0 0 0 0 0 0 0.4714143105816579 0 0 0 0 0 0 0.9670618202000163 0 0 1:0.42768681 2:0.48330429 3:0.24738663 4:0.48553175 5:0.46052259 6:0.50955129 7:0.60902566 8:0.46310943 9:0.33961982 10:0.53706634 11:0.41521722 12:0.50902486 13:0.4377436 14:0.66676897 15:0.60629803 16:0.44171098 17:0.35559213 18:0.69085097 19:0.48825997 20:0.89927769 21:0.7781291 22:0.47049722 23:0.47474602 24:0.64454651 25:0.62171382 26:0.4759298 27:0.70231652 28:0.55678248 29:0.27391911 30:0.43804216 31:0.21036464 32:0.58539802 33:0.43057829 34:0.40913218 35:0.43961662 36:0.36055681 37:0.82027096 38:0.64928192 39:0.81061655 40:0.67637783 41:0.58733839 42:0.39212778 43:0.26108217 44:0.35784656 45:0.54662108 46:0.33705124 47:0.53843945 48:0.67950994 49:0.36371142 50:0.43947095 51:0.52382839 52:0.5747903 53:0.52705592 54:0.14354855 55:0.39380535 56:0.59053165 57:0.72540903 58:0.36498928 
0 0 0 0 0 0 0 0 0 0 0 0 0 0 0 0 0 1.244234590881178 0 0 0 0 0 0 3.412804608353836 0 0 0 0 1:0.39043373 2:0.20410228 3:0.31137168 4:0.56530452 5:0.46210098 6:0.73986387 7:0.58712858 8:0.38550836 9:0.23301324 10:0.64528757 11:0.41399738 12:0.43317822 13:0.48596099 14:0.45785469 15:0.55364484 16:0.26772642 17:0.44640139 18:0.4566482 19:0.24555644 20:0.63893235 21:0.59743965 22:0.47469872 23:0.29908723 24:0.53677654 25:0.55466169 26:0.45742428 27:0.49585319 28:0.6372537 29:0.12429032 30:0.67013979 31:0.099130057 32:0.57942045 33:0.63521624 34:0.45770127 35:0.53925705 36:0.43456483 37:0.68573868 38:0.29706654 39:0.6824016 40:0.56951118 41:0.60151863 42:0.47681853 43:0.3666327 44:0.33398554 45:0.42262563 46:0.51781034 47:0.49690288 48:0.74563253 49:0.30694452 50:0.4969742 51:0.31836119 52:0.40491012 53:0.41782603 54:0.15418424 55:0.4874858 56:0.55267811 57:0.81481868 58:0.34303832 
0 2.005808713866912 0.9805181638902243 0 5.769693102839699 0 0 0.7507604323329933 0 0 0.4939208767835929 1.775768408706113 0.5039600604532154 0 0 0 0 0 0 0 0 0 0 0 0.1078052019372467 0 0 4.291607505268778 0 1:0.62294662 2:0.57525784 3:0.22262695 4:0.47254917 5:0.44617584 6:0.52209866 7:0.39755106 8:0.65379369 9:0.47351035 10:0.52285147 11:0.32613155 12:0.53701341 13:0.25472128 14:0.5615961 15:0.25815177 16:0.43045685 17:0.35515767 18:0.53738314 19:0.63764739 20:0.52317387 21:0.33071741 22:0.27691424 23:0.55527526 24:0.54033643 25:0.53862983 26:0.44302428 27:0.39944884 28:0.55858845 29:0.35870782 30:0.61088312 31:0.22905922 32:0.64161867 33:0.57525277 34:0.60179603 35:0.60146797 36:0.58797997 37:0.49378675 38:0.50616646 39:0.41735336 40:0.34041202 41:0.781892 42:0.4814401 43:0.54010028 44:0.47245708 45:0.5062933 46:0.57236725 47:0.52901274 48:0.70485926 49:0.3073411 50:0.44134179 51:0.43059459 52:0.46916908 53:0.38004437 54:0.19658427 55:0.32259104 56:0.57460505 57:0.59747434 58:0.31110764 
0 0 0 0 0 2.456602168675831 0 0 0 0 0 0 0 0 0 0 0 0 0 0 0 0 0 0.1593274718562587 0 0 0 0 0 1:0.5195595 2:0.45554048 3:0.38586175 4:0.35565093 5:0.4262307 6:0.65336114 7:0.55833822 8:0.50060952 9:0.5043788 10:0.66280431 11:0.45575511 12:0.57010597 13:0.39775962 14:0.46661127 15:0.42279461 16:0.39620912 17:0.60489881 18:0.59400177 19:0.48789173 20:0.70965165 21:0.50768548 22:0.3041293 23:0.49883673 24:0.5177179 25:0.38878265 26:0.38039052 27:0.46728107 28:0.70755315 29:0.23424414 30:0.6224283 31:0.11291713 32:0.54888612 33:0.70135808 34:0.40214315 35:0.51569569 36:0.47534281 37:0.66341108 38:0.35879204 39:0.55528176 40:0.55931872 41:0.71120512 42:0.45498732 43:0.42120761 44:0.40567994 45:0.45320851 46:0.51054353 47:0.52939308 48:0.77938819 49:0.3243174 50:0.46978611 51:0.45106655 52:0.55700558 53:0.45625675 54:0.12753767 55:0.45453605 56:0.63926619 57:0.71851653 58:0.37632531 
0 0 0 0 0 0 0 0 0 0 0 0 0 0 0 0 0 0 0 0 0 0.9538127280264205 0 0 0 0 0 0 0 1:0.72159231 2:0.50241464 3:0.43066657 4:0.55487442 5:0.42217276 6:0.76613814 7:0.61576033 8:0.52665704 9:0.47155842 10:0.610861 11:0.31533155 12:0.48604557 13:0.39115801 14:0.54535872 15:0.41905811 16:0.34412709 17:0.33616397 18:0.44711211 19:0.50961554 20:0.54357922 21:0.65183443 22:0.32234439 23:0.36324567 24:0.53422064 25:0.61035639 26:0.62897933 27:0.52879769 28:0.65836018 29:0.30674076 30:0.64373142 31:0.16321316 32:0.47259572 33:0.61540961 34:0.44798589 35:0.48693344 36:0.42172432 37:0.66918647 38:0.33768341 39:0.656241 40:0.45629784 41:0.60646087 42:0.37552679 43:0.52951539 44:0.40083817 45:0.54528701 46:0.4045161 47:0.4409011 48:0.71934664 49:0.2769317 50:0.51816165 51:0.36720401 52:0.59321135 53:0.35928121 54:0.1470848 55:0.37875938 56:0.60120648 57:0.67167133 58:0.31523293 
1.457676522506188 4.623178711673812 3.940778509555015 1.836259898854815 4.489232384058832 2.556450019711986 4.987458688640517 2.27219783997392 2.088508024233077 0.7528621717055619 0 2.347018473937527 2.021400021161352 2.062639955226875 1.756649812175843 0 0 1.310455335363303 1.212872731659053 1.214922878738994 0.9821973103998187 0 0 2.13828854811355 3.775158383819501 2.210756709546787 0 6.879208915712312 0.6355241883045649 1:0.56297851 2:0.24740918 3:0.33409458 4:0.34728324 5:0.33728248 6:0.59767717 7:0.26947665 8:0.36262122 9:0.87317455 10:0.42892981 11:0.46588743 12:0.43108052 13:0.47522211 14:0.46704975 15:0.52591538 16:0.44709909 17:0.40426192 18:0.62952232 19:0.55345476 20:0.66846472 21:0.47666475 22:0.51789951 23:0.91923827 24:0.84444529 25:0.28016472 26:0.77960783 27:0.26051828 28:0.69007748 29:0.55954671 30:0.93349814 31:0.98061979 32:0.600878 33:0.23832326 34:0.87438387 35:0.45114839 36:0.74719369 37:0.57787877 38:0.57883042 39:0.64501643 40:0.54710776 41:0.68386668 42:0.55494112 43:0.5305047 44:0.31540623 45:0.6413554 46:0.43429297 47:0.52282608 48:0.57461762 49:0.29964176 50:0.3769249 51:0.64996076 52:0.39729753 53:0.54119557 54:0.2875303 55:0.51591688 56:0.43948999 57:0.61330211 58:0.23683262 
0 0 0 0 0 0 0 0 0 0 0 0 0 0 0 0 0 0 0 0 0 1.093309132773925 0 0 0 0 0 0 0 1:0.73653859 2:0.49544698 3:0.43420622 4:0.2932668 5:0.41839465 6:0.55404544 7:0.7741971 8:0.31195667 9:0.369504 10:0.53591728 11:0.42580113 12:0.46920043 13:0.72594094 14:0.38169777 15:0.46972916 16:0.67852843 17:0.6072101 18:0.5462907 19:0.43882719 20:0.62904942 21:0.58881146 22:0.43731445 23:0.36447534 24:0.69846845 25:0.34206054 26:0.4653993 27:0.55866802 28:0.42200893 29:0.45667905 30:0.71709198 31:0.69173908 32:0.41690093 33:0.38993812 34:0.50928372 35:0.35174116 36:0.68601364 37:0.42157045 38:0.46089321 39:0.65560693 40:0.52528059 41:0.57275814 42:0.36286649 43:0.69136238 44:0.22540525 45:0.51336265 46:0.44464791 47:0.60080093 48:0.55449575 49:0.18537512 50:0.40190041 51:0.3028045 52:0.58145863 53:0.31474707 54:0.28554294 55:0.41832736 56:0.52936423 57:0.789612 58:0.32859513 
0 0 0 0 0 0 0 0 0 0 0 0 0 0 0 0 0 0 0 0 0 0 0 1.744842988870329 0 0 0 0 0 1:0.6689685 2:0.45607889 3:0.48158318 4:0.29984182 5:0.43658406 6:0.38928434 7:0.74525577 8:0.49936867 9:0.49572334 10:0.53933293 11:0.4435586 12:0.51236773 13:0.84178877 14:0.43061218 15:0.32549033 16:0.81383914 17:0.50859749 18:0.47010544 19:0.52783018 20:0.71156752 21:0.63783205 22:0.53685635 23:0.63441288 24:0.73500031 25:0.24465929 26:0.45140117 27:0.61979502 28:0.57734603 29:0.47171694 30:0.72477579 31:0.70487905 32:0.53357035 33:0.38573003 34:0.56862879 35:0.33278894 36:0.55390435 37:0.44887701 38:0.37899315 39:0.70778424 40:0.49643445 41:0.47801045 42:0.40534768 43:0.49646777 44:0.29278889 45:0.25294226 46:0.29105049 47:0.67890733 48:0.48885456 49:0.36400828 50:0.58427298 51:0.3870751 52:0.52758259 53:0.29375291 54:0.36336425 55:0.393819 56:0.69145733 57:0.77483559 58:0.43428266 
1.979672143151155 3.646528019519663 0 0 0 1.174158523628888 0 0 0 0 2.731509875874349 0 0 0 0.2148452764280891 0 0 0 0 0 0 0 0 1.078533025169995 0.8378134296617169 0 0.4843746292794233 0 0 1:0.40970418 2:0.33514228 3:0.13236669 4:0.45816472 5:0.45594588 6:0.42939556 7:0.65285975 8:0.41779032 9:0.44343162 10:0.6146124 11:0.52521461 12:0.58200377 13:0.65699351 14:0.46596256 15:0.45180452 16:0.50923997 17:0.30314827 18:0.51942551 19:0.25656641 20:0.39515099 21:0.50204885 22:0.45144269 23:0.37733883 24:0.75292802 25:0.38864997 26:0.503241 27:0.58953577 28:0.37273809 29:0.46236411 30:0.70205593 31:0.71771127 32:0.61832517 33:0.44201732 34:0.50730085 35:0.49260753 36:0.42425311 37:0.42028829 38:0.38644892 39:0.80310553 40:0.55619574 41:0.66543198 42:0.46492803 43:0.46036139 44:0.25841621 45:0.25656444 46:0.52451515 47:0.63786215 48:0.51870722 49:0.42271367 50:0.5560236 51:0.29962862 52:0.58992952 53:0.4264887 54:0.32931003 55:0.53998762 56:0.66204363 57:0.85396063 58:0.40995497 
0 0 0 0 0 0 0 0 0 0 0 0 0 0 0 0 0 0 0 0 0 0 0 0 0 0 0 0 0.1831418429077881 1:0.4516007 2:0.4368417 3:0.29798374 4:0.57993084 5:0.46985891 6:0.43222845 7:0.73415941 8:0.34371951 9:0.53004855 10:0.59220338 11:0.42286894 12:0.33936408 13:0.4617683 14:0.32048354 15:0.53205186 16:0.48875287 17:0.44859749 18:0.47402185 19:0.18454194 20:0.38335365 21:0.56001908 22:0.53398132 23:0.34221384 24:0.63791919 25:0.50201589 26:0.56491494 27:0.63891286 28:0.47921631 29:0.312543 30:0.72612959 31:0.8132056 32:0.39960879 33:0.30089736 34:0.44640809 35:0.38104174 36:0.64982563 37:0.50114816 38:0.50296515 39:0.67046541 40:0.63211292 41:0.51356155 42:0.45339218 43:0.68599129 44:0.090166911 45:0.45571923 46:0.4731437 47:0.70078045 48:0.56589562 49:0.41446304 50:0.44328853 51:0.38749149 52:0.34326744 53:0.46231857 54:0.23703408 55:0.61199498 56:0.61810124 57:0.82681584 58:0.21958286 
0 0 0 0 0 0 0 0 0 0 0 0.4632694743281404 0 0 0 0 0 0 0 0 0 0 0 0 0 0 0 0 0 1:0.58128524 2:0.46691543 3:0.29851058 4:0.55886066 5:0.37968042 6:0.36477739 7:0.75405717 8:0.31216425 9:0.39986745 10:0.65683824 11:0.4675436 12:0.3887915 13:0.58299553 14:0.29816619 15:0.39874718 16:0.49935386 17:0.54083818 18:0.29226899 19:0.3861022 20:0.40465263 21:0.62336564 22:0.46895602 23:0.45869887 24:0.5823825 25:0.48136619 26:0.45830536 27:0.6121527 28:0.49458438 29:0.31598932 30:0.56978077 31:0.60979962 32:0.46547595 33:0.55278766 34:0.33439589 35:0.42854437 36:0.55042422 37:0.37430498 38:0.52698606 39:0.73730171 40:0.62477285 41:0.55257326 42:0.49803877 43:0.52490044 44:0.15270118 45:0.42492515 46:0.48395702 47:0.64905107 48:0.63486975 49:0.27351332 50:0.36657041 51:0.32639447 52:0.60229713 53:0.4713532 54:0.26628238 55:0.45434922 56:0.55344647 57:0.914397 58:0.31987622 
0 0 0 1.487498116921976 1.638678127906648 0 0 0 1.741790214902089 0 0.8423009148712278 0 0 0 0 0 0 0 0 0.6465610381659075 0 0 0 0 0 0 0 0 0 1:0.44392535 2:0.36897784 3:0.22129864 4:0.53017235 5:0.44265753 6:0.44115505 7:0.64614558 8:0.43433565 9:0.52621615 10:0.6111601 11:0.46063375 12:0.58066183 13:0.64636427 14:0.47795674 15:0.44551316 16:0.5266813 17:0.30565676 18:0.50332922 19:0.22839919 20:0.37161744 21:0.45022389 22:0.48680976 23:0.36895484 24:0.69172072 25:0.35628808 26:0.47199115 27:0.61370891 28:0.42768392 29:0.40094104 30:0.68862498 31:0.72570831 32:0.61801511 33:0.47472763 34:0.48128775 35:0.46413887 36:0.42094335 37:0.41510996 38:0.38069379 39:0.73991662 40:0.54141086 41:0.65542036 42:0.48524743 43:0.46549818 44:0.24735288 45:0.24896273 46:0.50770295 47:0.65214133 48:0.48675257 49:0.40210876 50:0.58484119 51:0.31196469 52:0.60340047 53:0.41073725 54:0.32677904 55:0.54149312 56:0.66615397 57:0.84336698 58:0.41794962 
0 0 0 0 0 0 0 0 0 0 0 0 0 0 0.5551346306496846 0 0 2.356696155690413 0 0 0 0 0 0 0 0 0 0 0 1:0.83092982 2:0.46076107 3:0.58535266 4:0.28641117 5:0.35725155 6:0.72778386 7:0.67990226 8:0.25194216 9:0.55864722 10:0.4226183 11:0.32837445 12:0.56308675 13:0.44714314 14:0.44129637 15:0.25131515 16:0.39787093 17:0.4495098 18:0.43714437 19:0.45672998 20:0.64459503 21:0.61957151 22:0.34616902 23:0.30796483 24:0.54890865 25:0.54305255 26:0.43257162 27:0.51363969 28:0.68930817 29:0.45733267 30:0.65088868 31:0.36540115 32:0.46264601 33:0.53919631 34:0.34120053 35:0.42545149 36:0.54833913 37:0.6001417 38:0.31273112 39:0.64030302 40:0.51818842 41:0.68605888 42:0.45535532 43:0.41544035 44:0.40728739 45:0.34624913 46:0.37639856 47:0.56141376 48:0.81735671 49:0.32690474 50:0.55515784 51:0.41752228 52:0.39507997 53:0.2417365 54:0.16386984 55:0.49483791 56:0.64310491 57:0.72008735 58:0.37222594 
0 0 0 0 0 0 0 0 0 0 0 0 0 0 0.4638026713707914 0 0 0 0 0 0.3238864936599552 0 0 0 0 0 0 0 0 1:0.78848237 2:0.51194257 3:0.44402668 4:0.25047329 5:0.32465228 6:0.71426976 7:0.82814842 8:0.30543172 9:0.44558001 10:0.38200045 11:0.32787487 12:0.50833821 13:0.68253034 14:0.36548835 15:0.41174185 16:0.56812048 17:0.37229452 18:0.37022257 19:0.56520414 20:0.68870157 21:0.77305555 22:0.42987719 23:0.58120388 24:0.66227943 25:0.29788962 26:0.54461694 27:0.51663864 28:0.76955599 29:0.4910118 30:0.68504173 31:0.58073646 32:0.4323068 33:0.31035447 34:0.54437351 35:0.31453592 36:0.51069087 37:0.59902626 38:0.51646721 39:0.66405547 40:0.61432999 41:0.52664894 42:0.3776623 43:0.54605281 44:0.2060485 45:0.48247078 46:0.40449953 47:0.43251508 48:0.69875211 49:0.3377606 50:0.56406969 51:0.56260061 52:0.37166756 53:0.3403118 54:0.21753491 55:0.47836372 56:0.5661031 57:0.77456963 58:0.35228646 
0 0 0 0 0 0 0 0 0 0 0 0 0 0 0 0.3619237734573447 0 0 0 0 0 0 0 0 0 0 0.6829883472841916 0 0.2829846024451483 1:0.62423205 2:0.46465567 3:0.50524002 4:0.49098933 5:0.46483612 6:0.47345784 7:0.7031672 8:0.45776832 9:0.52373236 10:0.37821746 11:0.37164113 12:0.30075607 13:0.48059836 14:0.3968969 15:0.44835863 16:0.57768399 17:0.49542058 18:0.53295064 19:0.3721768 20:0.66315353 21:0.6999284 22:0.4737924 23:0.33125442 24:0.75780147 25:0.34845704 26:0.49614194 27:0.58097851 28:0.65120256 29:0.58484846 30:0.79920852 31:1 32:0.38375396 33:0.28521371 34:0.59945244 35:0.40955314 36:0.64352977 37:0.53818661 38:0.57440299 39:0.5481866 40:0.57319605 41:0.48503652 42:0.22524676 43:0.8218568 44:0.12596218 45:0.47133529 46:0.44606182 47:0.69699591 48:0.50625157 49:0.35857069 50:0.50118464 51:0.48555246 52:0.26193377 53:0.24801049 54:0.23905012 55:0.55439091 56:0.64930052 57:0.65192294 58:0.22886038 
0 0 0 0 0 0 0 0 0 0 0 0 0 0 0 0 0 0 0 0 0 0.5644076607526947 0 0 0 0 0 0 0 1:0.73383331 2:0.54573917 3:0.53302985 4:0.44698086 5:0.30022258 6:0.70168394 7:0.84299892 8:0.31088799 9:0.56491083 10:0.63557637 11:0.43728033 12:0.67594862 13:0.72322661 14:0.46068621 15:0.2509377 16:0.79961735 17:0.58511657 18:0.3870928 19:0.47032067 20:0.6057685 21:0.51617026 22:0.47730875 23:0.38353163 24:0.5241679 25:0.32682583 26:0.32584816 27:0.55066317 28:0.51428634 29:0.46831012 30:0.63944161 31:0.70355618 32:0.47197202 33:0.52188486 34:0.52637428 35:0.43550307 36:0.539747 37:0.39230403 38:0.56062031 39:0.62616807 40:0.48007134 41:0.56405485 42:0.42411065 43:0.5831399 44:0.24190536 45:0.5535388 46:0.45584118 47:0.65310872 48:0.60470378 49:0.28275466 50:0.45758614 51:0.38277736 52:0.51355696 53:0.30506402 54:0.22544111 55:0.3896724 56:0.65411562 57:0.7511068 58:0.39428467 
0 0 0 0 0 0 0 0 0 0 0 0 0 1.244621888456836 0 0.4014333360014373 0 0 0 0 0 0.4499900261496592 0 0 0 0 0 0 0 1:0.62952465 2:0.46123981 3:0.40557408 4:0.32790086 5:0.45763814 6:0.51419818 7:0.75112814 8:0.38872516 9:0.43981579 10:0.55710286 11:0.41075611 12:0.51086438 13:0.70531011 14:0.46526155 15:0.31290546 16:0.82824379 17:0.50030923 18:0.54907578 19:0.37622204 20:0.54080802 21:0.64822674 22:0.41671598 23:0.39806211 24:0.68953681 25:0.37837553 26:0.54715502 27:0.58512723 28:0.53474545 29:0.51439083 30:0.77865613 31:0.71145338 32:0.56899005 33:0.2777445 34:0.59167743 35:0.38542381 36:0.52551317 37:0.38395128 38:0.39904973 39:0.70694309 40:0.44952297 41:0.54216653 42:0.24370447 43:0.53063089 44:0.26525813 45:0.34357402 46:0.4306919 47:0.72197807 48:0.52559781 49:0.3190518 50:0.55683059 51:0.34661776 52:0.41651699 53:0.22410637 54:0.33242795 55:0.48924255 56:0.67725587 57:0.7114197 58:0.35991266 
2.092318695887522 3.390647598409034 0 2.803491919340801 0 0 0 1.042817088462595 0.02911635981006967 0 1.960873011372726 8.167516914266752 2.526220821007106 0 0 0.09540476380297562 0 0 0.3263496856544565 0.07934870805874156 0 0.719561339332086 0.03708614020778029 2.409921869641911 0 3.629388166288369 0 2.309929204500419 0 1:0.75686902 2:0.50512022 3:0.49989682 4:0.28923145 5:0.47726297 6:0.4929024 7:0.69285387 8:0.3585093 9:0.39327928 10:0.48871946 11:0.40773448 12:0.49189794 13:0.5568074 14:0.45199734 15:0.43972385 16:0.54106361 17:0.584319 18:0.47049537 19:0.25906274 20:0.61931747 21:0.54035968 22:0.4907248 23:0.28972918 24:0.59419191 25:0.5548383 26:0.3305383 27:0.41269922 28:0.50410193 29:0.34507266 30:0.68194872 31:0.42010629 32:0.50524998 33:0.60768384 34:0.4950991 35:0.45894793 36:0.69387162 37:0.4026984 38:0.39332908 39:0.57205564 40:0.43240508 41:0.64319766 42:0.31839707 43:0.56919163 44:0.44810155 45:0.4610199 46:0.50581419 47:0.69287181 48:0.73349857 49:0.19862895 50:0.44055009 51:0.23702778 52:0.5461449 53:0.18789022 54:0.24924871 55:0.43985438 56:0.62546587 57:0.64382291 58:0.37626687 
0 0 0 0 0 0 0 0 0 0 0 0 0 0 0 0 0 0 0.04106339343183151 1.248899634246138 0 0 0 0 0 0 0 0 0 1:0.5493561 2:0.4813858 3:0.34604549 4:0.54577833 5:0.40106708 6:0.34289181 7:0.36537412 8:0.73174721 9:0.48689353 10:0.70199454 11:0.54909807 12:0.60278946 13:0.63553637 14:0.68579453 15:0.18732315 16:0.60765874 17:0.40460277 18:0.42582271 19:0.68375713 20:0.44870192 21:0.37056455 22:0.58507049 23:0.65034741 24:0.53639281 25:0.61994863 26:0.42496797 27:0.6184051 28:0.18001728 29:0.45870581 30:0.67373985 31:0.58346075 32:0.82039416 33:0.49777612 34:0.81318432 35:0.43919811 36:0.69505298 37:0.50639099 38:0.38168669 39:0.67607391 40:0.21827504 41:0.60818362 42:0.55576307 43:0.45355144 44:0.34208274 45:0.44124922 46:0.4158954 47:0.7103408 48:0.4504256 49:0.37471724 50:0.65093893 51:0.39991757 52:0.5032897 53:0.24374093 54:0.31330428 55:0.36667004 56:0.66810113 57:0.65458584 58:0.40326115 
0 0 0 0 0 0 0 0 0 0 0 0 0 0 0 1.986974905692429 0.8257035267364436 0 0 0 0 1.48303052281503 0 0 0 0 0 0 0 1:0.37174067 2:0.67183173 3:0.29295751 4:0.60513681 5:0.56622505 6:0.33607414 7:0.4769339 8:0.68698227 9:0.48952976 10:0.58473384 11:0.4201836 12:0.45898944 13:0.55755895 14:0.90734583 15:0.36689523 16:0.43041891 17:0.52589458 18:0.39721125 19:0.58893728 20:0.53671384 21:0.51885158 22:0.48063198 23:0.5760721 24:0.51410902 25:0.78693563 26:0.46467873 27:0.5237754 28:0.08364173 29:0.34287897 30:0.74432367 31:0.54496115 32:0.8248679 33:0.56761473 34:0.83688802 35:0.57389885 36:0.8409887 37:0.37579483 38:0.5698992 39:0.63234466 40:0.22090465 41:0.60656434 42:0.43688732 43:0.5260877 44:0.32391992 45:0.66582239 46:0.50289679 47:0.54978573 48:0.45531902 49:0.1826891 50:0.5004425 51:0.3242563 52:0.44700396 53:0.28690752 54:0.25968665 55:0.44409794 56:0.49723607 57:0.64588398 58:0.25431359 
0 0 0 0 0 0 0 0 0 0 0 0 0 0 0 0 0 0 0 0 0 0 0.4306655191773957 0 0 0 0 0 0 1:0.27204213 2:0.63186795 3:0.2703065 4:0.36593327 5:0.28669441 6:0.34809363 7:0.51402384 8:0.6743629 9:0.60958844 10:0.70716274 11:0.44072697 12:0.51191777 13:0.67171216 14:0.75232679 15:0.18336199 16:0.53499156 17:0.48921785 18:0.33508122 19:0.72621918 20:0.4713425 21:0.39969021 22:0.36992949 23:0.65012932 24:0.36707208 25:0.75597858 26:0.45458251 27:0.51536292 28:0.28124198 29:0.32495522 30:0.70030999 31:0.51548815 32:0.6637522 33:0.64434189 34:0.68385673 35:0.40025768 36:0.761316 37:0.37449011 38:0.65905666 39:0.67664528 40:0.30324212 41:0.57514316 42:0.6254943 43:0.4819808 44:0.33214688 45:0.59006584 46:0.42854807 47:0.60870188 48:0.49487984 49:0.21373565 50:0.4960615 51:0.42239982 52:0.54706109 53:0.43331569 54:0.2937524 55:0.3097001 56:0.56442499 57:0.76047862 58:0.29460704 
0.1602029018779211 0.462042468479663 0 0 0 0.8353226730077273 0 0.1495392253070232 0 0.7034067535334158 0.1120327348424283 0 0 0 0 1.763635429837365 0 0 0 0.129304804060408 0.02213870586679268 0.487486774673314 0 0 0 0 0 0.03191877195222095 0 1:0.50505406 2:0.41309613 3:0.37721869 4:0.40884557 5:0.39335594 6:0.40053931 7:0.30210602 8:0.70092082 9:0.41994721 10:0.81204969 11:0.575432 12:0.64692426 13:0.50860465 14:0.63314593 15:0.099930577 16:0.58661389 17:0.33061501 18:0.35213423 19:0.89192647 20:0.49489853 21:0.46889362 22:0.4916285 23:0.64358473 24:0.57514119 25:0.4899216 26:0.37744862 27:0.57520926 28:0.28816879 29:0.48073035 30:0.76746249 31:0.58212841 32:0.78505039 33:0.46582332 34:0.79184723 35:0.47804892 36:0.71902621 37:0.45951864 38:0.39123639 39:0.65348005 40:0.1639834 41:0.68514842 42:0.53311062 43:0.49819574 44:0.28808817 45:0.41602606 46:0.39355907 47:0.65043503 48:0.44068941 49:0.40781954 50:0.68856287 51:0.42693225 52:0.48363143 53:0.28881451 54:0.35106176 55:0.38731542 56:0.66939938 57:0.56188965 58:0.41137385 
0 0 0 0 0 1.110029697523271 0 0.3455732825369475 0.28492216532492 0 0 0 0 0 0 0 0 0 0.2577334648706859 0 0 0 0 0 0 0.05182880178335139 0 0 0 1:0.38891843 2:0.44913906 3:0.47155684 4:0.44047391 5:0.46306512 6:0.69840932 7:0.34113285 8:0.54661196 9:0.33800167 10:0.91240984 11:0.3307316 12:0.41144338 13:0.46944231 14:0.70991892 15:0.2929284 16:0.39618048 17:0.30215508 18:0.40737027 19:0.81049395 20:0.59134358 21:0.64348066 22:0.38786775 23:0.64336985 24:0.60622036 25:0.7306205 26:0.42239028 27:0.47052541 28:0.19578804 29:0.29051608 30:0.74278998 31:0.3778449 32:0.65436053 33:0.76229525 34:0.82964969 35:0.47908223 36:0.89792144 37:0.52553815 38:0.49548557 39:0.5142287 40:0.25758687 41:0.66523206 42:0.56260902 43:0.73562932 44:0.29664397 45:0.77849042 46:0.53317976 47:0.4817943 48:0.52791786 49:0.18007621 50:0.37358642 51:0.32088321 52:0.66808051 53:0.45478517 54:0.24222648 55:0.40100431 56:0.42635405 57:0.61067498 58:0.2828556 
0 0 0 0 0 0 0 0 0 0.5812177655301748 0 0.3305741779659806 0 0 3.308744266785159 0.4554711685285631 0 0 0 1.134258741444027 0.8739996928085765 0 2.089185754691102 0 0 1.215747747899905 0 0.9668841761722526 0 1:0.4893831 2:0.40658087 3:0.33916682 4:0.57017452 5:0.23811156 6:0.40532893 7:0.45735142 8:0.45238951 9:0.40705585 10:0.73179942 11:0.35028797 12:0.46217999 13:0.68420798 14:0.32685098 15:0.2634328 16:0.67428368 17:0.45937386 18:0.51239699 19:0.49401969 20:0.56738675 21:0.41051081 22:0.67053789 23:0.47931984 24:0.69536036 25:0.2823953 26:0.27399114 27:0.60892934 28:0.4745723 29:0.3788093 30:0.54574329 31:0.62625545 32:0.46877202 33:0.26182359 34:0.46619681 35:0.40313691 36:0.37790057 37:0.5098117 38:0.50514859 39:0.88302934 40:0.52844518 41:0.4851715 42:0.41285634 43:0.36335498 44:0.26403591 45:0.34889704 46:0.35846585 47:0.75562733 48:0.54223531 49:0.50608152 50:0.60540408 51:0.41665074 52:0.47539344 53:0.28077063 54:0.16849598 55:0.560458 56:0.75877362 57:0.65539372 58:0.3982968 
0 0 0 0 0 0 0 0 0 0 0 0 0.6279688589282882 0 0 0 0 0 0 0 0 0 0 0 0 0 0 0 0 1:0.38588044 2:0.53706807 3:0.34143227 4:0.56882256 5:0.51221234 6:0.74342233 7:0.59835565 8:0.42532709 9:0.30417329 10:0.73986143 11:0.42263821 12:0.29528144 13:0.62282217 14:0.26743928 15:0.42110077 16:0.5015493 17:0.38958567 18:0.40508473 19:0.62142158 20:0.57553959 21:0.61008841 22:0.62853581 23:0.4886263 24:0.7321589 25:0.35018513 26:0.36548719 27:0.73778981 28:0.40097389 29:0.20139353 30:0.32276982 31:0.6556707 32:0.47435153 33:0.30331802 34:0.42123592 35:0.42038414 36:0.35223767 37:0.63429958 38:0.58745617 39:0.80715317 40:0.68097091 41:0.42381972 42:0.34960252 43:0.40402699 44:0.20367561 45:0.70895189 46:0.44249678 47:0.69413096 48:0.55258483 49:0.33224401 50:0.36889628 51:0.35067555 52:0.52469063 53:0.43245614 54:0.14357646 55:0.58860219 56:0.5694862 57:0.7476539 58:0.2774699 
1.688944478854147 0 0 0 0 0.4771011854418732 0 0 0 0 0 0 0 0 0 0 0 3.257786514871928 3.096344092465402 0 1.543735183144848 0 0 0 0 0 0 0 0 1:0.43363169 2:0.33607101 3:0.41371492 4:0.38376138 5:0.24875973 6:0.50790209 7:0.44559133 8:0.38968971 9:0.43944722 10:0.79684579 11:0.42240074 12:0.4516086 13:0.77807319 14:0.38667902 15:0.27851361 16:0.67106241 17:0.40064496 18:0.56413424 19:0.58114809 20:0.55161881 21:0.46369147 22:0.64728612 23:0.54178768 24:0.7381928 25:0.27452758 26:0.38183433 27:0.66702551 28:0.44087678 29:0.41000658 30:0.47583142 31:0.57602757 32:0.4651975 33:0.29116997 34:0.54587799 35:0.41070551 36:0.34522513 37:0.58956003 38:0.51201069 39:0.84314507 40:0.52486187 41:0.44814599 42:0.42451021 43:0.34030652 44:0.23260209 45:0.41349745 46:0.38255662 47:0.74808729 48:0.57290572 49:0.52763307 50:0.57484299 51:0.43893933 52:0.49064428 53:0.33344263 54:0.17275956 55:0.59473354 56:0.75034285 57:0.69790047 58:0.39516607 
0 0 0 0 0 0 0 0 0 0 0 0.2737656280763858 0 0 0 0 0 0 0 0 2.235988532230843 0 0 0 0 0.8364740388441615 0 0.03120006777550495 0 1:0.38815576 2:0.52568555 3:0.31224933 4:0.56135809 5:0.49424416 6:0.72068506 7:0.60370404 8:0.4555335 9:0.30938506 10:0.75161326 11:0.41298631 12:0.35298613 13:0.60966283 14:0.30185568 15:0.44371092 16:0.53793466 17:0.38714337 18:0.38664719 19:0.60580128 20:0.56426418 21:0.59065783 22:0.65870267 23:0.48404184 24:0.73934966 25:0.38072214 26:0.36953223 27:0.73190135 28:0.3862206 29:0.19139937 30:0.30284303 31:0.66657066 32:0.46273658 33:0.29608855 34:0.42014644 35:0.40983212 36:0.36014479 37:0.65308273 38:0.60628229 39:0.78225499 40:0.67058206 41:0.41918752 42:0.35149187 43:0.42003492 44:0.1908327 45:0.70854342 46:0.4358941 47:0.70965564 48:0.54488021 49:0.32840213 50:0.35849124 51:0.33490327 52:0.52627724 53:0.43777773 54:0.1499429 55:0.58867514 56:0.56784242 57:0.74286377 58:0.27200085 
2.157727562604167 0 0 0 0 0 0 0 0 0 0 0 0 0 0 0 3.268587388549515 0 0.2899444712874792 0 0 0 0 0 0 0 0 0 0 1:0.43270406 2:0.47961229 3:0.35039026 4:0.66227907 5:0.52116525 6:0.48882273 7:0.50787586 8:0.52631164 9:0.42165342 10:0.6118474 11:0.40030858 12:0.23710956 13:0.51427245 14:0.38108203 15:0.35641292 16:0.43716043 17:0.48565507 18:0.52061355 19:0.50874025 20:0.69589156 21:0.49463293 22:0.45571971 23:0.34180251 24:0.60934943 25:0.27592176 26:0.3575111 27:0.63846368 28:0.44761604 29:0.26217765 30:0.38396242 31:0.69985473 32:0.43066889 33:0.25363237 34:0.58806843 35:0.50704986 36:0.37108749 37:0.69070554 38:0.704956 39:0.70877117 40:0.65602702 41:0.39703566 42:0.24267752 43:0.55911934 44:0.15414466 45:0.63047552 46:0.40795955 47:0.73703724 48:0.52293128 49:0.45128819 50:0.47349465 51:0.49193367 52:0.30351388 53:0.3913624 54:0.10266989 55:0.6439324 56:0.70058179 57:0.64748639 58:0.22884774 
0 0 0 4.297427097526939 0 0 0 0 0 0 0 0 0 0 0 0 0 0 0 0 0 0 0 0 0 0 0 0 0 1:0.4041369 2:0.42519513 3:0.31721121 4:0.54469794 5:0.30275673 6:0.62290084 7:0.61976284 8:0.39774394 9:0.40313888 10:0.71559727 11:0.4664987 12:0.30486095 13:0.61956215 14:0.34433091 15:0.39176881 16:0.39337885 17:0.5562551 18:0.48993996 19:0.56897843 20:0.57925022 21:0.58423162 22:0.69991183 23:0.61674845 24:0.65502298 25:0.33623782 26:0.33806643 27:0.6821391 28:0.50659984 29:0.19871621 30:0.38548496 31:0.69099194 32:0.45977756 33:0.26519603 34:0.43924883 35:0.2512444 36:0.36046228 37:0.63402426 38:0.69331402 39:0.79034275 40:0.62944478 41:0.46145394 42:0.46468833 43:0.36875644 44:0.19574864 45:0.50698233 46:0.42633793 47:0.65321863 48:0.59587222 49:0.47245497 50:0.36014244 51:0.47196394 52:0.55379498 53:0.48547506 54:0.15164737 55:0.5714255 56:0.62488687 57:0.7786085 58:0.34999004 
0 0 3.422355769826039 0 0 0 0 0 0.6505556883116357 0 0 0 0 0 0 0 0 0 0 0 0 0 0 0 0.6462433899592589 0 0 0 0 1:0.64657825 2:0.44754088 3:0.31177193 4:0.48629141 5:0.43971956 6:0.37326071 7:0.74635154 8:0.53405929 9:0.52115291 10:0.6260618 11:0.53683418 12:0.31077597 13:0.33480191 14:0.29386276 15:0.51604795 16:0.44714484 17:0.37755251 18:0.47623509 19:0.2526305 20:0.36480311 21:0.66498578 22:0.43596879 23:0.33021528 24:0.59666979 25:0.63604176 26:0.45151472 27:0.57711881 28:0.59795594 29:0.28271478 30:0.81975359 31:0.72946227 32:0.44175422 33:0.36307538 34:0.41079554 35:0.4443104 36:0.6103586 37:0.46492308 38:0.4162389 39:0.57436305 40:0.58429426 41:0.48582089 42:0.45873991 43:0.61230761 44:0.15894997 45:0.48860434 46:0.48741987 47:0.71486634 48:0.60381138 49:0.41020873 50:0.4943561 51:0.36959955 52:0.29327142 53:0.3979719 54:0.20268784 55:0.62264597 56:0.64109492 57:0.76034105 58:0.19281341 
0 0 0 0 0 0 0 0 0 0 0 0 0 0 0 0 0 0 0 0 0 0 0 0 0.8160261459649781 0 0 0 0 1:0.43898824 2:0.35702178 3:0.27526939 4:0.59395289 5:0.45598716 6:0.41010222 7:0.73864639 8:0.42199266 9:0.46642607 10:0.63296074 11:0.48632732 12:0.35768676 13:0.54535204 14:0.28217292 15:0.48866421 16:0.56990296 17:0.48914868 18:0.30063206 19:0.45372829 20:0.45316726 21:0.63393086 22:0.51967359 23:0.50713032 24:0.63790232 25:0.4080146 26:0.51063299 27:0.63950008 28:0.54649931 29:0.30448258 30:0.64609694 31:0.64059311 32:0.44303727 33:0.44504449 34:0.43288684 35:0.41593599 36:0.49678972 37:0.38452747 38:0.50104868 39:0.76769757 40:0.62681592 41:0.53768092 42:0.50954378 43:0.48573166 44:0.16809621 45:0.44015592 46:0.47239709 47:0.6123662 48:0.55568385 49:0.27732766 50:0.44083887 51:0.38850653 52:0.57269531 53:0.51637739 54:0.2740249 55:0.52224672 56:0.52237844 57:0.91653585 58:0.29838398 
0 0 0 0 0 0 0.264995427090161 0 0 0 0 0 0 0 0 0 0 0 0 0 0 0 0 0 0 0 0 0 0 1:0.50721776 2:0.39582527 3:0.34419096 4:0.53763258 5:0.45860922 6:0.29614159 7:0.54253674 8:0.34299043 9:0.48339316 10:0.68133152 11:0.50340652 12:0.51016515 13:0.65705472 14:0.4940539 15:0.41711882 16:0.57671744 17:0.35598201 18:0.53219235 19:0.33115432 20:0.47759357 21:0.46571442 22:0.46265987 23:0.33396515 24:0.59932441 25:0.38149518 26:0.42225227 27:0.62748808 28:0.48124629 29:0.37653843 30:0.68223524 31:0.77477598 32:0.60658455 33:0.35411581 34:0.50195217 35:0.59545004 36:0.48259836 37:0.46850836 38:0.4548285 39:0.76529694 40:0.53561383 41:0.72389382 42:0.37020561 43:0.54663569 44:0.19319512 45:0.26975542 46:0.50932533 47:0.66843289 48:0.57580405 49:0.3962985 50:0.61767042 51:0.31674451 52:0.51378798 53:0.29781222 54:0.26231563 55:0.56353545 56:0.65888661 57:0.74614185 58:0.38902402 
0 0 0 0 0 0 0 0 0 0 0 0 0 0 0 0 0.8501481611111679 0.09897061109343851 0 0 0 0 0 0 0 0 0 0 0 1:0.28560108 2:0.61628973 3:0.37935427 4:0.39788342 5:0.61843848 6:0.41735455 7:0.50983679 8:0.61116707 9:0.53298372 10:0.55486 11:0.35371837 12:0.57756513 13:0.6132738 14:0.795286 15:0.24397838 16:0.39174962 17:0.41688833 18:0.47292033 19:0.40020522 20:0.26606125 21:0.36707866 22:0.52209371 23:0.59747165 24:0.58781129 25:0.91173685 26:0.48382086 27:0.41078749 28:0.28253001 29:0.26883879 30:0.84564799 31:0.57474566 32:0.78478712 33:0.45619574 34:0.75309324 35:0.33896369 36:0.81617981 37:0.41309392 38:0.6629492 39:0.67048895 40:0.30226913 41:0.70991635 42:0.63637936 43:0.54501593 44:0.34544396 45:0.50076807 46:0.54927289 47:0.54655397 48:0.54272616 49:0.23086774 50:0.39605358 51:0.38389447 52:0.46487799 53:0.3108198 54:0.26022869 55:0.43047267 56:0.49539593 57:0.66015637 58:0.29911199 
0 0 0 0 0 0 0 0 0 0 0 0 0 0 0 0 0 0 0 0.06226487440181012 0 0 0 0 0 0 0 0 0 1:0.3672246 2:0.64390022 3:0.28771928 4:0.41610885 5:0.63983709 6:0.47988686 7:0.45419157 8:0.57905573 9:0.51765037 10:0.61317599 11:0.32840741 12:0.49988762 13:0.56294948 14:0.84466428 15:0.34713408 16:0.46818817 17:0.42586249 18:0.53076631 19:0.39434451 20:0.24280356 21:0.34365249 22:0.57301337 23:0.60376352 24:0.57682854 25:0.92692763 26:0.43428534 27:0.44445574 28:0.36999381 29:0.31628683 30:0.85205215 31:0.60654533 32:0.74380821 33:0.46149305 34:0.84572619 35:0.3550761 36:0.86227161 37:0.45661539 38:0.60734284 39:0.6196059 40:0.33157727 41:0.67863458 42:0.59817916 43:0.48563397 44:0.33116013 45:0.45464075 46:0.61024815 47:0.5947997 48:0.5259198 49:0.2661626 50:0.44091335 51:0.39350486 52:0.47744635 53:0.34112334 54:0.32527697 55:0.41165528 56:0.49623284 57:0.70203573 58:0.28960618 
0 0 0 0 0 0 0 0 0 0 0 0 0 0 0 0 0 0 0 0 0 0 0 0 0 0 0 0 0.322454762500476 1:0.099523149 2:0.61140907 3:0.30022553 4:0.4768295 5:0.41162169 6:0.48106298 7:0.36118117 8:0.66275251 9:0.52382064 10:0.72735047 11:0.28373057 12:0.38740402 13:0.68936503 14:0.84611732 15:0.41637179 16:0.53964037 17:0.4522576 18:0.56867874 19:0.59620422 20:0.45263198 21:0.52496129 22:0.60696417 23:0.63278759 24:0.62513268 25:0.70059717 26:0.47810188 27:0.41222459 28:0.30191848 29:0.36039647 30:0.87178338 31:0.59307069 32:0.67025608 33:0.44746253 34:0.7490595 35:0.3437106 36:0.81168872 37:0.44213837 38:0.6939764 39:0.74953049 40:0.39962456 41:0.62948906 42:0.63285279 43:0.59588617 44:0.22430837 45:0.61619014 46:0.54720372 47:0.49626765 48:0.44500005 49:0.18902484 50:0.39568588 51:0.36247402 52:0.61207294 53:0.48270446 54:0.30216017 55:0.40899563 56:0.3673763 57:0.79306954 58:0.32215428 
0 0 0 0 0 0 0 0 0 0 0 0.02396353812174559 0 0 0 0 0 0 0 0 0 0 0 0 0 0 0 0 0 1:0.062381487 2:0.39147961 3:0.1923193 4:0.53546578 5:0.46412426 6:0.33945164 7:0.35287008 8:0.55490583 9:0.74767965 10:0.70570993 11:0.36261377 12:0.23306043 13:0.60596544 14:0.67391235 15:0.44348457 16:0.58082873 17:0.51561445 18:0.55046737 19:0.6931591 20:0.36350539 21:0.47518545 22:0.63689947 23:0.86909759 24:0.68193811 25:0.64690226 26:0.6745615 27:0.48500693 28:0.38836858 29:0.47515276 30:0.84116066 31:0.55736309 32:0.75133693 33:0.33804756 34:0.72278965 35:0.3598794 36:0.74375916 37:0.43817806 38:0.54818881 39:0.77017814 40:0.42895687 41:0.62000048 42:0.55525762 43:0.45445704 44:0.25433049 45:0.54149038 46:0.49178267 47:0.4987379 48:0.516599 49:0.23191601 50:0.49400955 51:0.4015083 52:0.59176129 53:0.48845273 54:0.34997618 55:0.41308939 56:0.42861301 57:0.89394796 58:0.300459 
0 0 0 0 0.4871203058055001 0 0 0 0.1947335562600239 0 0 0 0 0 0 0 0 0 0 0.1108955455669133 0 0 0 0 3.592063986482343 0 0 0 0 1:0.38132572 2:0.60264468 3:0.20838846 4:0.62773389 5:0.60747063 6:0.76674736 7:0.6423617 8:0.30359834 9:0.69068247 10:0.45915297 11:0.33665362 12:0.42733061 13:0.62706399 14:0.40947533 15:0.66430742 16:0.7885586 17:0.38733885 18:0.53565133 19:0.52792454 20:0.60367811 21:0.60359061 22:0.40907183 23:0.73872763 24:0.78417498 25:0.30691454 26:0.7009514 27:0.6931892 28:0.66420549 29:0.47868681 30:0.74461228 31:0.83888775 32:0.486283 33:0.21326795 34:0.45345855 35:0.54741842 36:0.58665049 37:0.47480994 38:0.55258274 39:0.75951159 40:0.68701458 41:0.66155881 42:0.50925112 43:0.49555567 44:0.22197999 45:0.55503076 46:0.38742808 47:0.4972952 48:0.4946602 49:0.25344491 50:0.3789711 51:0.31969407 52:0.63253653 53:0.6098581 54:0.37705886 55:0.50593972 56:0.43148765 57:0.96372873 58:0.29702926 
0 0 0 0 0 0 0 0 0 0 0 0 0 0 0 0 0 0 0 0 0 0 0 0 0 0 0 0 0.4534721857394466 1:0.29316485 2:0.56575757 3:0.49058402 4:0.43494001 5:0.40710321 6:0.63433313 7:0.35608768 8:0.47636342 9:0.5754953 10:0.76780856 11:0.43529645 12:0.44768506 13:0.46471652 14:0.61272138 15:0.36830887 16:0.18235154 17:0.28594315 18:0.5993554 19:0.65625197 20:0.35433048 21:0.55649859 22:0.46424553 23:0.60680664 24:0.66222131 25:0.72311813 26:0.62456882 27:0.55735642 28:0.37509927 29:0.24557604 30:0.88377255 31:0.63016397 32:0.73588163 33:0.54906237 34:0.78140742 35:0.28973627 36:0.92978406 37:0.40100908 38:0.44784239 39:0.6168552 40:0.19451417 41:0.53631961 42:0.46046013 43:0.63633978 44:0.19763498 45:0.72252607 46:0.5025757 47:0.45426443 48:0.51218295 49:0.29754016 50:0.43032131 51:0.37910458 52:0.47028062 53:0.41427258 54:0.3824794 55:0.46378979 56:0.48482066 57:0.6038537 58:0.19084466 
0.6658798881258293 0.6297911058095739 0 1.532908384778981 0 2.751818000898667 0 2.138907264183495 0.5802905889683401 0.9003333007173507 2.966414364519407 0 0.8626216665063569 3.123934234246733 3.231299808355293 0.1696784749468885 0 0 0 0.6257557956604234 0 1.185735923557797 0 4.490916473648872 3.223987702265743 0 0.784309235703522 2.049606600426614 0 1:0.39571923 2:0.73793864 3:0.37228987 4:0.62028605 5:0.5175643 6:0.58733207 7:0.426974 8:0.58325768 9:0.70122689 10:0.63536358 11:0.49273133 12:0.23628266 13:0.72487557 14:0.57410669 15:0.42655209 16:0.58566982 17:0.43020487 18:0.64183426 19:0.76806498 20:0.56799567 21:0.74364948 22:0.31445965 23:0.71556985 24:0.74395198 25:0.5236578 26:0.63486093 27:0.57517326 28:0.36095846 29:0.26640394 30:0.91260457 31:0.69192815 32:0.76801175 33:0.29289809 34:0.60853583 35:0.42055622 36:0.74843103 37:0.45553312 38:0.30773243 39:0.68226898 40:0.26749632 41:0.66719657 42:0.44300273 43:0.47564045 44:0.23313913 45:0.61818808 46:0.43665609 47:0.58931541 48:0.40067789 49:0.34101737 50:0.52314568 51:0.27104041 52:0.52869552 53:0.46904352 54:0.49045464 55:0.42207092 56:0.48047024 57:0.64992338 58:0.28126866 
0.347682596931099 0 0.3074966615091771 0 0 0 0 0.6423713420444837 0 0 0 0 0 0 0.634646191247632 0 0 0 0 0 0 0 0 0 0 0 0 0 0 1:0.25460544 2:0.38970286 3:0.3066023 4:0.42601988 5:0.39896199 6:0.51851016 7:0.31040016 8:0.54882091 9:0.58372378 10:0.7795372 11:0.57526606 12:0.39267391 13:0.38606578 14:0.76742107 15:0.27692196 16:0.34532678 17:0.38017744 18:0.39311627 19:0.91177785 20:0.50033551 21:0.45641884 22:0.37353191 23:0.65739101 24:0.53779209 25:0.65007854 26:0.50723219 27:0.53903353 28:0.36075246 29:0.32936573 30:0.75053138 31:0.61191529 32:0.72495621 33:0.59688759 34:0.76953483 35:0.35395831 36:0.86285537 37:0.48377499 38:0.56086564 39:0.56125498 40:0.20036753 41:0.65602833 42:0.52916235 43:0.60989118 44:0.1698278 45:0.61336404 46:0.53843635 47:0.56764275 48:0.49530447 49:0.34452617 50:0.53670341 51:0.44394758 52:0.41825145 53:0.41678846 54:0.40075094 55:0.38160729 56:0.56154478 57:0.5903843 58:0.21815762 
0 0 0 0 0 0 0 0 0 0 0 0 0 0 0 0 0 0 0 0 0 0 0 0 0 0 1.017057725106111 0 0 1:0.34359899 2:0.42444149 3:0.33449423 4:0.42912909 5:0.3068926 6:0.53573602 7:0.302751 8:0.52859366 9:0.55075449 10:0.90407646 11:0.5126912 12:0.37874296 13:0.48656347 14:0.65105247 15:0.27494776 16:0.43212646 17:0.24500708 18:0.38389453 19:0.95063549 20:0.55842036 21:0.48443875 22:0.33140096 23:0.71010077 24:0.56438982 25:0.69969523 26:0.59010381 27:0.61246574 28:0.53645331 29:0.3840583 30:0.7194488 31:0.43573731 32:0.69224238 33:0.6105243 34:0.72919583 35:0.3802875 36:0.75278485 37:0.62583059 38:0.51331234 39:0.54649776 40:0.27008128 41:0.65310788 42:0.48588189 43:0.5656184 44:0.14459144 45:0.5596261 46:0.44953609 47:0.47572449 48:0.5026899 49:0.35364354 50:0.55819273 51:0.4761273 52:0.45660746 53:0.43350232 54:0.40055674 55:0.35020521 56:0.53428113 57:0.64754397 58:0.24019319 
0 0 0 0 0 0 0 0 0 0 0 0.6485555309401861 0 0 0 0 0 0 0 0 0 0 0 0 0 0 0 0 0 1:0.20687766 2:0.48903769 3:0.4670392 4:0.30708024 5:0.37144527 6:0.50790876 7:0.24049576 8:0.63582712 9:0.46206322 10:0.82195616 11:0.31721669 12:0.45411611 13:0.45445108 14:0.79524481 15:0.29610726 16:0.28996846 17:0.21565829 18:0.49537277 19:0.7044903 20:0.29145461 21:0.59168351 22:0.56497854 23:0.66320992 24:0.64625049 25:0.8601191 26:0.51452672 27:0.37796 28:0.4190138 29:0.24492033 30:0.89969581 31:0.57613534 32:0.67670864 33:0.6230042 34:0.793841 35:0.30905259 36:0.88039899 37:0.45529994 38:0.6245876 39:0.61548388 40:0.32938612 41:0.66776764 42:0.58782613 43:0.70120054 44:0.17614186 45:0.72754043 46:0.5309332 47:0.44196305 48:0.53950411 49:0.18245229 50:0.34141621 51:0.38676518 52:0.6093592 53:0.50151217 54:0.29254276 55:0.37557819 56:0.37573594 57:0.66859287 58:0.2661761 
0 1.399615096103212 0 0 0 0 0 0.1092633460756957 0 0 0 0 0 0 0 0 0 0 0 0 0 0 0 0.195725373675308 0 0 0 0 0 1:0.28898221 2:0.47368708 3:0.25450093 4:0.54691672 5:0.35702917 6:0.49382135 7:0.32567456 8:0.4260976 9:0.51336622 10:0.94542348 11:0.54304504 12:0.59356064 13:0.35114127 14:0.69668436 15:0.1538689 16:0.49334782 17:0.33463705 18:0.32356176 19:0.7846505 20:0.27643731 21:0.44829026 22:0.3879602 23:0.72992712 24:0.60029566 25:0.6575309 26:0.42593065 27:0.50557119 28:0.48509204 29:0.40520039 30:0.56267279 31:0.39994887 32:0.62714899 33:0.80524421 34:0.70650709 35:0.43679354 36:0.60725236 37:0.38319278 38:0.5108757 39:0.56687158 40:0.27884245 41:0.65127206 42:0.62329364 43:0.49423203 44:0.27658939 45:0.56920487 46:0.48786429 47:0.421202 48:0.67943752 49:0.21767446 50:0.46954364 51:0.44932106 52:0.63547295 53:0.48370326 54:0.35344249 55:0.26227528 56:0.47729948 57:0.74958599 58:0.34439376 
0 0 0 0 0 0 0 0 0 0 0 0 0 0 0 0 0 0 0 0 0 0 0.4126906114596673 0 0 0 0 0 0 1:0.23817301 2:0.4567692 3:0.50815219 4:0.31306469 5:0.5910967 6:0.4443481 7:0.39597496 8:0.53647566 9:0.4110736 10:0.80576843 11:0.4265528 12:0.63725895 13:0.4497869 14:0.70106053 15:0.19418754 16:0.52166998 17:0.3157416 18:0.39869925 19:0.8473233 20:0.4455159 21:0.61286187 22:0.43794721 23:0.70027268 24:0.65314889 25:0.66806889 26:0.50048012 27:0.43245855 28:0.38139206 29:0.39136001 30:0.77121919 31:0.35348091 32:0.75221187 33:0.62587386 34:0.73381531 35:0.38262546 36:0.68424511 37:0.46158433 38:0.3963536 39:0.70088118 40:0.30162358 41:0.69731957 42:0.52672321 43:0.47572258 44:0.31160167 45:0.50975323 46:0.50851864 47:0.39780489 48:0.59036571 49:0.2320541 50:0.55751723 51:0.42003906 52:0.56193393 53:0.43875197 54:0.33903223 55:0.36131415 56:0.47646162 57:0.66835749 58:0.35277113 
0 0 0.2201059245434588 0 0 0 0 0.6756016350557432 0.004474524587916877 0 0 0.490662235425386 0 0.5225495847506696 0 0 0 0 0 0.3000081917531052 0 0 0 0 0.6011272038355931 0 0 0 0 1:0.33156961 2:0.62496358 3:0.5203442 4:0.34329134 5:0.53486091 6:0.59824401 7:0.45679688 8:0.59495264 9:0.4601461 10:0.85511923 11:0.41821685 12:0.52340943 13:0.32092065 14:0.83771038 15:0.14949605 16:0.41775742 17:0.27459455 18:0.39229277 19:0.67393309 20:0.32543308 21:0.5339064 22:0.35621294 23:0.7160781 24:0.59955925 25:0.86864161 26:0.45606428 27:0.48258498 28:0.49481258 29:0.31611842 30:0.68570322 31:0.43183139 32:0.62076247 33:0.7019527 34:0.64335018 35:0.41807067 36:0.76051557 37:0.40199128 38:0.43928766 39:0.56059372 40:0.25897819 41:0.71342224 42:0.52594471 43:0.57744443 44:0.30757606 45:0.61118954 46:0.48182246 47:0.50638998 48:0.59497696 49:0.23474291 50:0.38574979 51:0.3103697 52:0.5684827 53:0.46261364 54:0.39316866 55:0.32109249 56:0.44782183 57:0.66532779 58:0.259664 
0 0 0 0 0 0 0 0 0 0 0 0 0 0 0 0 0 0 0 0 0 0 0 0 0.8910688618449187 0 0 0 0 1:0.70935351 2:0.48078039 3:0.47438601 4:0.46728432 5:0.3509641 6:0.75084865 7:0.75405943 8:0.27708411 9:0.40379682 10:0.49980247 11:0.45384836 12:0.40888277 13:0.68582946 14:0.50967264 15:0.32439864 16:0.73488182 17:0.58529556 18:0.49617761 19:0.47482929 20:0.63577694 21:0.63621163 22:0.39568385 23:0.55291736 24:0.71832031 25:0.29774836 26:0.514714 27:0.58804482 28:0.60235679 29:0.49558583 30:0.77488643 31:0.57200956 32:0.71214813 33:0.43566248 34:0.51196355 35:0.27614826 36:0.3955358 37:0.38885465 38:0.5101732 39:0.8421303 40:0.59498125 41:0.60908937 42:0.43052095 43:0.44577459 44:0.3436552 45:0.49453399 46:0.39477882 47:0.4088679 48:0.55039865 49:0.22823966 50:0.50985646 51:0.31850353 52:0.58685851 53:0.42179331 54:0.29519984 55:0.42667654 56:0.49453542 57:0.88352561 58:0.38377193 
0 0 0 0 0 0 0 0 0 0.9428107482916037 0 0 0 0 0 0 0 0 0 0 0 0 0 0 0 0 0 0 0 1:0.39714262 2:0.5152005 3:0.3623625 4:0.46115392 5:0.3100329 6:0.66916609 7:0.39739004 8:0.31221053 9:0.44250655 10:0.64753962 11:0.45545468 12:0.29493326 13:0.65799195 14:0.41909787 15:0.54906476 16:0.31046948 17:0.45187539 18:0.37878719 19:0.67321473 20:0.75649095 21:0.61431819 22:0.51225859 23:0.66932631 24:0.65353072 25:0.24283768 26:0.47010472 27:0.70543665 28:0.68039304 29:0.16533872 30:0.43419677 31:0.44495788 32:0.51072299 33:0.30204299 34:0.49563015 35:0.36285898 36:0.34455752 37:0.80914229 38:0.6767925 39:0.85394955 40:0.63822818 41:0.48399132 42:0.3637712 43:0.35894498 44:0.16165644 45:0.49565604 46:0.4521063 47:0.61421579 48:0.59463382 49:0.41224691 50:0.43092585 51:0.39605299 52:0.46835226 53:0.47595346 54:0.16544014 55:0.59987622 56:0.6068086 57:0.75349241 58:0.2847124 
2.673388041782369 0 0 0 0 1.411202374324767 2.23015679479002 0 0 3.113678049553288 1.52881935079189 0.6974559372699959 0 1.721061748426239 1.278439801869147 0 0 0 0 0 0 0 0 0 0 0 0 3.093820152033427 2.807706552218341 1:0.4690091 2:0.45243114 3:0.32538787 4:0.56500298 5:0.38286635 6:0.67751259 7:0.65819323 8:0.31903777 9:0.37032813 10:0.56787997 11:0.41885725 12:0.55050904 13:0.54155403 14:0.35588706 15:0.479911 16:0.49033043 17:0.49803725 18:0.56663853 19:0.44805858 20:0.3937386 21:0.40891793 22:0.54733145 23:0.46311834 24:0.45541683 25:0.53849882 26:0.31332377 27:0.66739893 28:0.50236708 29:0.1388118 30:0.38268584 31:0.61307091 32:0.47856483 33:0.34955493 34:0.38199285 35:0.3656396 36:0.47844231 37:0.61530209 38:0.71729076 39:0.72998768 40:0.58493692 41:0.55254191 42:0.40887809 43:0.4108426 44:0.1597179 45:0.4723312 46:0.4975549 47:0.72404361 48:0.59145868 49:0.47259656 50:0.3062118 51:0.40516889 52:0.56158912 53:0.50317222 54:0.20831341 55:0.52503085 56:0.63363552 57:0.78651565 58:0.31882671 
0 0 0 0 0 0 0.3868382258731023 0 0 0 0 0 0 0 0 0 0 0 0 0 0 0 0 0 0 0 0 0 0 1:0.42458311 2:0.52217466 3:0.26114225 4:0.53090066 5:0.3743853 6:0.82984692 7:0.47702497 8:0.33280033 9:0.29324773 10:0.66010171 11:0.416105 12:0.49541906 13:0.51367474 14:0.40120938 15:0.45197526 16:0.45568994 17:0.4580822 18:0.60698706 19:0.53093362 20:0.54684985 21:0.49497578 22:0.59126985 23:0.47837481 24:0.65798426 25:0.48355269 26:0.41729426 27:0.66273761 28:0.39381066 29:0.16893256 30:0.45701215 31:0.72265583 32:0.47618401 33:0.28260323 34:0.31805766 35:0.36362642 36:0.47156471 37:0.64488429 38:0.72405928 39:0.90522301 40:0.59470284 41:0.54610401 42:0.47061142 43:0.35208875 44:0.11178134 45:0.45642292 46:0.42644608 47:0.64787763 48:0.55619711 49:0.40832183 50:0.31324181 51:0.40491223 52:0.61630625 53:0.48130497 54:0.17288145 55:0.56481308 56:0.55982286 57:0.80423641 58:0.37198073 
0 0 0 0 0 0 0 0 0 0 0 0 0 0.2732917481287017 0 0 0 0 0 0 0 0 0 0 0 0 0 0 0 1:0.33712703 2:0.5839076 3:0.1736663 4:0.55938095 5:0.44568571 6:0.95618272 7:0.5363307 8:0.35072291 9:0.29176548 10:0.66427428 11:0.37678701 12:0.36867449 13:0.57229888 14:0.36721954 15:0.53578734 16:0.36405966 17:0.35569566 18:0.45880815 19:0.49909183 20:0.46698111 21:0.58530712 22:0.64968121 23:0.45773259 24:0.71017468 25:0.43526742 26:0.49428585 27:0.68798637 28:0.50695968 29:0.17177771 30:0.48419529 31:0.72404689 32:0.48968393 33:0.21007892 34:0.32892787 35:0.34701127 36:0.42761242 37:0.6542902 38:0.71853095 39:0.95379096 40:0.64447153 41:0.48945549 42:0.47035387 43:0.34934095 44:0.12068412 45:0.47500426 46:0.49154302 47:0.64439023 48:0.5773105 49:0.41307697 50:0.33442086 51:0.41234845 52:0.55596399 53:0.53181934 54:0.16978021 55:0.58577925 56:0.5404886 57:0.81433594 58:0.32484862 
2.331662551422679 0.2712633736968212 3.016322248991736 0 3.109332243924467 0 0 0 0 0.3554614338406374 0 0.5597190494381743 1.760791260316655 0 0.1562105461016035 0 0 0 0 0.203618154725264 0 0 0 0.5332797189110898 0 1.14705759069288 0 0 0 1:0.36570844 2:0.63264674 3:0.25977907 4:0.62178087 5:0.40835801 6:0.91099244 7:0.43627867 8:0.30011758 9:0.35230029 10:0.61625832 11:0.42493841 12:0.24995264 13:0.61538029 14:0.44247648 15:0.49776569 16:0.37392861 17:0.45455328 18:0.55811411 19:0.66236401 20:0.53830117 21:0.63064021 22:0.64057636 23:0.66946423 24:0.71795666 25:0.35295433 26:0.55082917 27:0.67023128 28:0.53888232 29:0.24644366 30:0.43493319 31:0.68114573 32:0.48339507 33:0.37577695 34:0.27817038 35:0.38439366 36:0.30615032 37:0.60239077 38:0.74769336 39:0.95616317 40:0.64476478 41:0.56514233 42:0.50856924 43:0.38904837 44:0.22860746 45:0.36636907 46:0.49665073 47:0.56141973 48:0.5493595 49:0.44280034 50:0.31332266 51:0.39033696 52:0.70636922 53:0.70254773 54:0.23128821 55:0.5274533 56:0.48249948 57:0.92499208 58:0.37327647 
0 0 0 0 0 0 0 0 0 0 0 0 0.2704067447663807 0 0 0 0 0 0 0 0 0 0 0 0 0 0 0 0 1:0.39135703 2:0.44646436 3:0.37744603 4:0.67577064 5:0.4443973 6:0.67430753 7:0.44630224 8:0.40821978 9:0.44987878 10:0.78333271 11:0.36328688 12:0.37710375 13:0.51559967 14:0.3575491 15:0.41340235 16:0.48855194 17:0.49896917 18:0.38039353 19:0.50645912 20:0.60726404 21:0.44002807 22:0.53575587 23:0.519283 24:0.63507557 25:0.31272861 26:0.3884643 27:0.52379513 28:0.49457973 29:0.24237159 30:0.3576043 31:0.29352242 32:0.4632242 33:0.48725027 34:0.41025427 35:0.4434303 36:0.35753968 37:0.64832747 38:0.49565762 39:0.73422062 40:0.58106005 41:0.53090668 42:0.45004785 43:0.28800169 44:0.31448546 45:0.43979964 46:0.46908894 47:0.6433031 48:0.68609893 49:0.30354741 50:0.45934987 51:0.36441511 52:0.59338754 53:0.40654498 54:0.13009746 55:0.51993221 56:0.62678343 57:0.79592967 58:0.39000693 
0 4.432112146236808 0 0 0 0 0 0 0 0 0 0 0 0 0 0 0 0 0 0 0 0 0.2225606974860975 0 0.2762696175296721 0.5635041702260543 0 0 0 1:0.39265016 2:0.35786566 3:0.17511787 4:0.63435715 5:0.37898734 6:0.81348437 7:0.50255638 8:0.38017651 9:0.30962321 10:0.66862977 11:0.50063348 12:0.35956067 13:0.41052356 14:0.45904595 15:0.49312595 16:0.52968228 17:0.59619021 18:0.55439359 19:0.7019037 20:0.66622543 21:0.55500829 22:0.46792835 23:0.85317266 24:0.64278954 25:0.29923368 26:0.54254186 27:0.54146248 28:0.58993995 29:0.36783007 30:0.35626766 31:0.45323884 32:0.41981474 33:0.32830426 34:0.45375934 35:0.45195267 36:0.32352105 37:0.64876902 38:0.72544593 39:0.88617897 40:0.50998175 41:0.48222089 42:0.46599892 43:0.35779285 44:0.24706537 45:0.47621268 46:0.47341448 47:0.51801217 48:0.62421024 49:0.37482655 50:0.40478122 51:0.36269742 52:0.70697713 53:0.61203462 54:0.24769349 55:0.52254188 56:0.54173654 57:0.92402291 58:0.39222842 
0 0 0 0 0 0 0 0 0.1168391793311684 2.247487291736373 0 0 0.8651638507725209 0 0 0 0 0 0 0 0.3087976414821003 0 0 0 0 0 0 0 0.36645216854838 1:0.31805944 2:0.33689556 3:0.35867077 4:0.5740447 5:0.37916917 6:0.72237235 7:0.39562166 8:0.36703476 9:0.57856214 10:0.63949597 11:0.39183316 12:0.46891487 13:0.65846348 14:0.33792043 15:0.57499778 16:0.41257602 17:0.36446229 18:0.40531936 19:0.52183509 20:0.66952217 21:0.57444042 22:0.60657269 23:0.50437832 24:0.6502825 25:0.38675717 26:0.34503525 27:0.67630106 28:0.73245227 29:0.055143267 30:0.3403022 31:0.31763619 32:0.43474141 33:0.29694736 34:0.5832994 35:0.37214899 36:0.32452336 37:0.85044187 38:0.74806792 39:0.83515799 40:0.67787135 41:0.47202489 42:0.38242999 43:0.39328098 44:0.27914679 45:0.79598653 46:0.44107652 47:0.56134915 48:0.7036097 49:0.32832253 50:0.34238473 51:0.37298736 52:0.59699821 53:0.47943363 54:0.074140958 55:0.57985258 56:0.56094074 57:0.70297074 58:0.25691688 
0 0 0 0 0 0 0 0 0 0 0 0 0 0 0 0 0 0 1.309464606321137 0 0 1.378250646007755 0 0 0 0 0 0 0 1:0.62230843 2:0.53592038 3:0.42242345 4:0.63411313 5:0.5228067 6:0.65745056 7:0.37283343 8:0.35666257 9:0.29790381 10:0.68451566 11:0.4049257 12:0.34294596 13:0.58064699 14:0.43461883 15:0.49227515 16:0.30620706 17:0.56120276 18:0.60553497 19:0.46768945 20:0.56977463 21:0.58343577 22:0.5664205 23:0.47964001 24:0.69974595 25:0.30309463 26:0.37747246 27:0.57045257 28:0.46985656 29:0.17851475 30:0.46519104 31:0.38223889 32:0.6620425 33:0.3542465 34:0.499672 35:0.42505139 36:0.3084859 37:0.65645975 38:0.57625073 39:0.88160586 40:0.54236794 41:0.48956686 42:0.37506288 43:0.27911723 44:0.36166838 45:0.5111686 46:0.50874543 47:0.57519895 48:0.61834347 49:0.28682902 50:0.48036736 51:0.35414019 52:0.61065191 53:0.44855317 54:0.13066453 55:0.53568357 56:0.55208302 57:0.76995951 58:0.35397348 
0 0 0 0 0 0 0 0 0 0 0 0 0 0 0 0 0 0 0 0 0.2370182288141842 0 0 0 0 0 0 0 0 1:0.46412221 2:0.56048554 3:0.28102309 4:0.55928683 5:0.46595985 6:0.58368248 7:0.3893666 8:0.27561378 9:0.55820596 10:0.60880101 11:0.50327396 12:0.39305472 13:0.54485136 14:0.35429335 15:0.36381733 16:0.36568257 17:0.48775002 18:0.46301761 19:0.59965348 20:0.63602167 21:0.57537568 22:0.54574734 23:0.50139415 24:0.70279521 25:0.23304303 26:0.39824826 27:0.66901934 28:0.54341322 29:0.25663012 30:0.42339823 31:0.38797179 32:0.63870215 33:0.43855941 34:0.51581925 35:0.41759595 36:0.20190002 37:0.72334117 38:0.55903643 39:0.92433441 40:0.58298302 41:0.51412743 42:0.37550342 43:0.22482978 44:0.33342168 45:0.47956279 46:0.43372574 47:0.5881713 48:0.57509488 49:0.38522062 50:0.53581542 51:0.3420698 52:0.52705616 53:0.41133547 54:0.13082661 55:0.54317248 56:0.64351362 57:0.72656804 58:0.35845482 
0 0 0 0 0 0 0 0 0 0 0 0 0 0 0 0 0 0 0 0 0 0 0 0 0 0 0 0 0.3944670596089137 1:0.18422295 2:0.60157984 3:0.30779222 4:0.4096975 5:0.36435542 6:0.49420008 7:0.4317027 8:0.59946823 9:0.53633702 10:0.64405257 11:0.30062237 12:0.33506328 13:0.70632529 14:0.79902548 15:0.36869341 16:0.38835862 17:0.46518636 18:0.61091846 19:0.54056299 20:0.42120931 21:0.43062684 22:0.67444301 23:0.55200255 24:0.61352921 25:0.83275473 26:0.5752939 27:0.48193139 28:0.39835906 29:0.32994688 30:0.77704549 31:0.59013033 32:0.72133738 33:0.47271472 34:0.90884608 35:0.33469537 36:0.86069214 37:0.50591236 38:0.71995658 39:0.61616862 40:0.38869616 41:0.58646613 42:0.61992526 43:0.6181013 44:0.1730423 45:0.76636255 46:0.54915619 47:0.43292782 48:0.46944913 49:0.1964732 50:0.33020371 51:0.43073434 52:0.54384488 53:0.45306516 54:0.26334095 55:0.41792756 56:0.38301861 57:0.74883521 58:0.2554411 
0 0.3643922584806654 2.019626324172676 3.24262520245776 0 0 0 0 0.948936451061103 0.6085025738222329 1.577643218296928 0.3083357239033003 0 0 1.410812174065979 0 0 0.3027613028568548 0 0 1.966028786124948 0 0.138432971713438 1.16756979265719 1.455741826826154 0.5408349545061186 0 3.853531049062198 0 1:0.3489424 2:0.41744193 3:0.46267533 4:0.36182758 5:0.49162862 6:0.52320045 7:0.44272012 8:0.56661963 9:0.49740186 10:0.83689177 11:0.35071182 12:0.68301213 13:0.29383659 14:0.69995266 15:0.20806625 16:0.32862908 17:0.076632194 18:0.22237104 19:0.72458935 20:0.29273856 21:0.3457413 22:0.33796272 23:0.78480083 24:0.58650088 25:0.71897382 26:0.41027838 27:0.48173311 28:0.55060011 29:0.32633156 30:0.60396093 31:0.30129737 32:0.67082226 33:0.71240848 34:0.69697678 35:0.42325702 36:0.72878897 37:0.50346577 38:0.28902882 39:0.52664286 40:0.22955088 41:0.73915815 42:0.492778 43:0.53032804 44:0.39467821 45:0.48148397 46:0.46255767 47:0.51628363 48:0.65180373 49:0.26210785 50:0.53975767 51:0.35341939 52:0.53176361 53:0.36763167 54:0.35415784 55:0.36613098 56:0.5505603 57:0.59167302 58:0.31376857 
0 1.503160705770964 0.02379144848479142 0 0 0 0 0 0 0 0 0 0 0 0 0 0 0 0 0.9566216230156526 0 0 0 0 0 0 0 0 0 1:0.39967874 2:0.6739822 3:0.27498072 4:0.69231349 5:0.4746947 6:0.77913302 7:0.39860544 8:0.36884081 9:0.36092204 10:0.610174 11:0.42340359 12:0.33208889 13:0.51850414 14:0.61137497 15:0.31178173 16:0.61014336 17:0.63772357 18:0.6216436 19:0.77066559 20:0.62034112 21:0.70536065 22:0.51359439 23:0.61817974 24:0.67024499 25:0.28072435 26:0.4899596 27:0.59809506 28:0.62275356 29:0.3335458 30:0.46892434 31:0.55642688 32:0.55080658 33:0.44929695 34:0.44729 35:0.2842612 36:0.15318303 37:0.70474714 38:0.77897006 39:0.99158508 40:0.58112395 41:0.58195323 42:0.56255913 43:0.31479448 44:0.35348156 45:0.37991291 46:0.34729871 47:0.56017107 48:0.6245631 49:0.49055517 50:0.45155531 51:0.50023454 52:0.64784098 53:0.63417494 54:0.16668174 55:0.53138053 56:0.52942431 57:0.9250322 58:0.43581659 
0 0 0 0 0 0 0 0 0 0 0 0 0 0 0 0 0 0 0 0 0 0 0.3659556515812677 0 0 0 0 0 0 1:0.23654561 2:0.44013274 3:0.32344842 4:0.34177801 5:0.44610202 6:0.60363507 7:0.37300315 8:0.51428342 9:0.54685098 10:0.94936126 11:0.57999361 12:0.539639 13:0.50026476 14:0.60616314 15:0.32325646 16:0.38692456 17:0.24926169 18:0.45164666 19:0.92527926 20:0.45583948 21:0.59189594 22:0.3352828 23:0.71976799 24:0.57738477 25:0.7372182 26:0.56872892 27:0.48916221 28:0.40437773 29:0.37265378 30:0.8785938 31:0.50883788 32:0.69336736 33:0.51910555 34:0.81377971 35:0.28553867 36:0.74136561 37:0.58074152 38:0.51754379 39:0.64913869 40:0.25025147 41:0.66850752 42:0.55867082 43:0.60558593 44:0.11127501 45:0.65676516 46:0.51804161 47:0.43791595 48:0.50361478 49:0.34984142 50:0.47186559 51:0.44632837 52:0.46027508 53:0.43992966 54:0.34766918 55:0.38049498 56:0.47664356 57:0.6123721 58:0.28375444 
