svm_type c_svc
kernel_type rbf
gamma 0.09
nr_class 22
total_sv 2104
rho 0.412589 0.110028 0.578978 0.401883 0.00533777 0.28846 0.341345 0.232653 0.237719 0.697912 0.758702 0.382926 0.0540872 0.584883 0.425194 0.864538 0.436252 0.843001 0.816371 0.473874 0.158688 -0.131785 0.203579 -0.0250842 -0.183214 -0.148832 -0.117766 -0.099429 -0.0952655 0.191814 0.305367 -0.0535688 -0.112322 0.183797 -0.0789782 0.21373 -0.0498018 0.237535 0.373025 0.203627 -0.0150028 0.628139 0.105908 -0.0407585 0.051913 -0.0192751 0.224361 0.0868394 0.274538 0.519558 0.118793 0.0301789 0.416389 0.079385 0.321884 0.208163 0.427391 0.367962 0.152838 0.217409 -0.238677 -0.407344 -0.351493 -0.409671 -0.128086 -0.3376 -0.10935 0.0925211 -0.409373 -0.327051 -0.0742704 -0.214848 -0.152074 -0.167332 0.196915 0.0924837 -0.311697 -0.404801 -0.170749 -0.115589 -0.0841351 -0.106186 -0.141136 0.171489 0.29806 -0.109974 -0.154719 0.178528 -0.0452925 0.321086 -0.0616662 0.306828 0.252149 -0.00185596 0.0360862 0.21781 0.164887 0.134584 0.387954 0.47622 0.628992 0.165605 -0.0361244 0.483017 0.301597 0.468161 0.386475 0.39406 0.554283 0.128014 0.227019 0.222428 -0.00597866 0.050658 0.275639 0.584614 0.106628 -0.136506 0.359852 0.195218 0.474727 0.0831921 0.339233 0.445042 -0.0119264 0.150259 0.0969553 -0.0130019 0.263787 0.514322 0.335236 -0.0356362 0.29399 0.195912 0.237496 0.2753 0.386795 0.38911 0.0867991 0.161975 -0.00179254 0.429023 0.326424 0.057812 0.0404196 0.337243 0.153003 0.216467 0.184153 0.405494 0.40578 0.126497 -0.0573409 0.181752 0.467178 0.162141 -0.120888 0.405336 0.31438 0.354097 0.18692 0.50965 0.54484 -0.0718665 0.0725303 0.17005 -0.2125 -0.273257 -0.0544935 -0.166359 -0.237665 -0.0381873 0.114636 0.305115 -0.10831 -0.328914 -0.446031 -0.63841 -0.116 -0.599972 -0.251668 -0.478022 -0.00364919 0.0325962 -0.507754 -0.280838 -0.155468 0.298231 -0.0943892 0.194837 0.133825 0.408269 0.407771 0.113418 -0.0351987 0.421648 0.226454 0.654505 0.157214 0.481613 0.444527 0.233044 0.0911434 -0.334053 -0.106626 -0.353487 0.26973 0.250562 -0.306319 -0.285232 0.0608687 0.0769932 0.453055 0.416537 -0.0232546 -0.0677932 -0.115568 0.292424 0.282395 -0.348786 -0.414143 0.343682 0.451585 -0.283974 0.00265121 0.0951164 -0.16395 -0.480034 -0.56222 -0.352697 -0.00289821
label 2002 2003 20131 20132 20133 2013657 2013658 2013659 2014 2014657 2020 2020657 2051 2051657 2061 2061657 2062 2062657 2071 2071657 2100 2100657
probA -4.36386 -4.07392 -4.58039 -4.31163 -4.07267 -4.79633 -4.50866 -4.58821 -4.71367 -4.46287 -4.57184 -5.01311 -4.94221 -4.97285 -4.84179 -4.78826 -4.95786 -4.46404 -4.52923 -4.2064 -4.22045 -3.79177 -4.27169 -4.15733 -3.79026 -4.65246 -4.25768 -4.3444 -4.62443 -4.37931 -4.34102 -4.69506 -4.74854 -4.70318 -4.57758 -4.70665 -4.79872 -4.21995 -4.31957 -3.97283 -3.8563 -4.07049 -3.87211 -3.36602 -4.19929 -3.80435 -3.8825 -4.26411 -4.06779 -4.01867 -4.45964 -4.55885 -4.33862 -4.43776 -4.39711 -4.49532 -3.93958 -3.9399 -3.63628 -3.54654 -4.33192 -3.93801 -4.75436 -4.33229 -4.34404 -4.65996 -4.52797 -4.45845 -4.90581 -4.93352 -4.7759 -4.90173 -5.0536 -4.95008 -4.47762 -4.41261 -4.08848 -4.00255 -3.80071 -4.5048 -4.13202 -4.31956 -4.54997 -4.36817 -4.28732 -4.72987 -4.74725 -4.68857 -4.67399 -4.58255 -4.79516 -4.2514 -4.36577 -3.82862 -3.90134 -4.2065 -3.82816 -4.05051 -4.26259 -4.06314 -3.99042 -4.46197 -4.63197 -4.35588 -4.37191 -4.49091 -4.45809 -3.90083 -3.9683 -3.45729 -3.40718 -4.58274 -4.78566 -4.86032 -4.787 -4.77455 -5.1969 -5.13799 -5.15845 -5.10244 -5.12391 -5.19696 -4.72083 -4.75557 -4.38999 -4.37392 -4.37367 -4.59896 -4.45444 -4.28339 -4.71203 -4.85045 -4.70859 -4.74165 -4.70731 -4.8044 -4.32448 -4.29433 -3.90011 -3.94073 -4.74109 -4.58149 -4.48343 -4.71433 -4.9927 -4.82797 -4.87898 -4.91638 -4.92875 -4.43972 -4.4727 -4.14974 -4.0441 -4.76049 -4.73735 -5.1721 -5.05382 -5.13427 -5.04152 -5.11481 -5.23865 -4.74676 -4.68057 -4.23013 -4.39136 -4.50829 -4.98387 -4.95863 -4.92519 -4.8371 -4.85188 -5.02707 -4.5269 -4.55006 -4.23299 -4.1813 -4.81369 -4.90675 -4.7531 -4.82411 -4.87658 -4.76665 -4.46105 -4.43293 -4.07118 -4.13919 -5.38234 -5.27395 -5.28289 -5.30922 -5.24521 -4.9125 -4.89398 -4.59671 -4.52961 -5.32162 -5.31674 -5.29266 -5.48027 -4.90824 -5.00099 -4.61097 -4.72423 -5.13019 -5.22404 -5.11328 -4.78846 -4.75338 -4.47601 -4.54003 -5.09543 -5.27102 -4.76232 -4.80006 -4.4471 -4.50215 -5.27785 -4.81885 -4.92243 -4.31932 -4.45814 -4.85537 -4.90324 -4.51755 -4.56671 -4.3364 -4.12326 -3.90517 -4.06122 -4.07352 -3.35127
probB -0.238971 -0.606128 -0.0796916 -0.197822 -0.506605 0.186552 -0.126057 -0.091096 0.140066 0.0454328 -0.0438499 0.348651 0.322227 0.344805 0.299296 0.433359 0.421826 0.0271497 -0.13019 0.12324 -0.271797 -0.388423 0.174568 0.0255334 -0.405164 0.489853 0.119358 0.110903 0.41308 0.208162 0.177491 0.624883 0.640848 0.585611 0.483362 0.585377 0.650707 0.114018 0.172748 0.0997148 -0.171435 -0.222844 0.25555 0.00824638 0.773661 0.443308 0.297574 0.709042 0.593487 0.445047 0.610475 0.903217 0.842969 0.702108 0.922406 0.966123 0.529713 0.483849 0.0998912 0.222065 -0.263223 -0.418229 0.235526 -0.0255756 -0.051977 0.214209 0.124029 -0.0851349 -0.19422 0.454361 0.412351 0.0954574 -0.0934907 0.358525 -0.00182372 0.00443974 -0.177687 -0.111184 -0.25402 0.425916 0.059317 0.145812 0.323853 0.105388 0.109993 0.5377 0.530223 0.261122 0.473535 0.535397 0.496095 0.0899239 0.0523421 0.0527499 -0.12827 0.00141598 0.410013 0.451111 0.470191 0.570115 0.512231 0.854812 0.433202 0.805886 0.759322 0.66567 0.841042 0.521792 0.419114 0.229045 0.15605 -0.286085 -0.287078 -0.132907 -0.173116 -0.224668 0.141437 0.166345 0.127811 0.15996 0.13567 0.229565 -0.316893 -0.258414 -0.178828 -0.442619 0.0552255 0.207671 0.0642138 0.058635 0.470844 0.51576 0.443446 0.318689 0.468732 0.519528 0.0753233 0.0303337 -0.286807 -0.00937533 0.189041 0.163601 0.0451577 0.392612 0.501837 0.401404 0.42891 0.525371 0.506815 0.0351722 0.0235115 -0.259327 -0.147293 -0.0980713 -0.194813 0.206052 0.179131 0.165452 0.19784 0.293948 0.34666 -0.200355 -0.215689 -0.330168 -0.37576 -0.0768503 0.317138 0.326931 0.327742 0.323304 0.32732 0.434824 -0.0305926 -0.0744385 0.302061 -0.252854 0.351038 0.388563 0.319156 0.375813 0.45664 0.430319 -0.046999 0.0716854 -0.184743 0.238456 0.0410755 -0.0242344 -0.0105694 0.0929745 0.170492 -0.412061 -0.431931 -0.333882 -0.304374 -0.026426 -0.0480453 0.0564001 0.109682 -0.486676 -0.492819 -0.30231 -0.260144 -0.0641129 0.0523241 0.115229 -0.396942 -0.354772 -0.234186 -0.0835608 0.144253 0.149691 -0.350663 -0.401078 -0.0886265 -0.252302 0.0634057 -0.421166 -0.366843 -0.177968 -0.256983 -0.561913 -0.408428 -0.35376 -0.161875 0.0362849 -0.12724 -0.257109 -0.0626936 -0.283534 0.0717401
nr_sv 81 47 25 79 49 21 111 60 66 103 86 73 162 189 180 171 196 208 66 72 29 30
SV
1.668722216633111 0 0 0 0 0.9869802959607533 0.1824472100311113 1.230023764039921 0.01749968415181643 0 0 0.7107303022593501 0.4687881688495146 0.1930417476729343 1.450826060794736 3.612814001009151 1.929278163312516 0 0.5584017918906663 0 1.181739701620492 1:0.53666228 2:0.49481535 3:0.38708514 4:0.50073993 5:0.70955259 6:0.41532949 7:0.72500718 8:0.5305593 9:0.46104839 10:0.36148247 11:0.30392793 12:0.460237 13:0.55939782 14:0.44922584 15:0.4801794 16:0.63395602 17:0.55777472 18:0.3677122 19:0.54053366 20:0.5393225 21:0.40805548 22:0.25010648 23:0.52650392 24:0.70226616 25:0.4687795 26:0.4579424 27:0.7649411 28:0.49228176 29:0.34089172 30:0.43438485 31:0.37477556 32:0.48647681 33:0.91093832 34:0.32002914 35:0.3520464 36:0.61344796 37:0.67090225 38:0.45173711 39:0.47643122 40:0.61468691 41:0.59920472 42:0.5013966 43:0.45065486 44:0.42424738 45:0.15449761 46:0.46788415 47:0.35715404 48:0.13088721 49:0.52880299 50:0.34436461 51:0.59592605 52:0.346762 53:0.46560457 54:0.5351882 55:0.45464933 56:0.60533845 57:0.46051589 58:0.61925238 59:0.55516392 60:0.56876427 61:0.49650988 62:0.5655573 63:0.52577603 64:0.27944863 65:0.56282866 66:0.26483235 67:0.57518119 68:0.61549699 69:0.2060564 70:0.6319387 71:0.26398319 72:0.2311886 73:0.21228883 74:0.24000356 75:0.59952641 76:0.43839183 77:0.47325253 78:0.5279038 79:0.60633796 80:0.68704289 81:0.70449245 82:0.51482648 
0 0.1323859976614077 0 0 0 0 0 0 0 0 0 0 0 0 0 0 0 0 0 0 0 1:0.56556207 2:0.76286811 3:0.64116615 4:0.7445876 5:0.46994665 6:0.38103285 7:0.72080904 8:0.61282736 9:0.70701075 10:0.25132042 11:0.29175243 12:0.55195969 13:0.4749459 14:0.56260574 15:0.62512487 16:0.55237961 17:0.59076524 18:0.34483182 19:0.53231555 20:0.59647268 21:0.51884568 22:0.39281401 23:0.20513587 24:0.64957935 25:0.56355572 26:0.49922293 27:0.56481296 28:0.65853953 29:0.42355332 30:0.58409983 31:0.39667156 32:0.52459633 33:0.51834738 34:0.59300166 35:0.64008749 36:0.71004915 37:0.61735016 38:0.58335602 39:0.44997466 40:0.31519306 41:0.49688208 42:0.50359797 43:0.47585624 44:0.20404541 45:0.40541187 46:0.58407271 47:0.23869975 48:0.58725584 49:0.69601363 50:0.2331457 51:0.59651744 52:0.47580937 53:0.56595415 54:0.27870953 55:0.43139097 56:0.7384842 57:0.86018616 58:0.55895931 59:0.60272354 60:0.49016014 61:0.43837044 62:0.66278416 63:0.39399487 64:0.10562722 65:0.46604225 66:0.28267285 67:0.56498164 68:0.5833053 69:0.41091907 70:0.58648503 71:0.32897195 72:0.45118627 73:0.35596624 74:0.36815661 75:0.53515834 76:0.71299314 77:0.3993713 78:0.6131224 79:0.51525515 80:0.68058765 81:0.7201522 82:0.42036819 
0 0 0 0 0 0 0 0 0 0 0.1660952675528693 0 0 0 0 0 0 0 0.2953768633409948 0 0 1:0.51568639 2:0.55447567 3:0.41569 4:0.56980062 5:0.72710347 6:0.48227537 7:0.51420522 8:0.5837844 9:0.59023517 10:0.7099275 11:0.3102167 12:0.79754835 13:0.31083104 14:0.50576651 15:0.51787579 16:0.40581194 17:0.55583894 18:0.34625933 19:0.4260866 20:0.77736545 21:0.4908917 22:0.5134002 23:0.38657191 24:0.37932178 25:0.45713782 26:0.30286717 27:0.55199075 28:0.71010572 29:0.22220431 30:0.6015206 31:0.41115284 32:0.55094332 33:0.59109092 34:0.4806183 35:0.41625619 36:0.65765655 37:0.79630619 38:0.53099668 39:0.3797968 40:0.27880809 41:0.49131075 42:0.52749026 43:0.38141912 44:0.16304652 45:0.3424271 46:0.69321823 47:0.19276659 48:0.63747674 49:0.66789734 50:0.32307816 51:0.60211664 52:0.29846397 53:0.47376704 54:0.26444197 55:0.50207126 56:0.77721083 57:0.74860102 58:0.46424419 59:0.61414039 60:0.51492441 61:0.41166937 62:0.50318122 63:0.47180864 64:0.082476914 65:0.48142201 66:0.22455463 67:0.57571846 68:0.66210347 69:0.44169652 70:0.56944174 71:0.19584307 72:0.27518469 73:0.41384214 74:0.30130872 75:0.54563004 76:0.47816879 77:0.56381714 78:0.47045904 79:0.59418815 80:0.65856564 81:0.7580986 82:0.53728664 
0 0 0 0.7833671965206014 0 0 0.123667460130574 0 0 0 0 0 0 0 0 0 0 0 0 0 0 1:0.64946902 2:0.67105556 3:0.51709902 4:0.75508147 5:0.59270644 6:0.46665308 7:0.62443191 8:0.48582089 9:0.51806229 10:0.52264386 11:0.321733 12:0.4855428 13:0.47606423 14:0.58617979 15:0.49422693 16:0.54135883 17:0.49160847 18:0.40948591 19:0.50473279 20:0.64342576 21:0.59241152 22:0.36654842 23:0.34396607 24:0.47566736 25:0.39468804 26:0.4736259 27:0.50281948 28:0.59030765 29:0.3689689 30:0.51847744 31:0.44616982 32:0.59956771 33:0.67314929 34:0.54698861 35:0.72174227 36:0.67397785 37:0.74791712 38:0.52733707 39:0.42266652 40:0.26747516 41:0.61357975 42:0.49225119 43:0.51797187 44:0.082547836 45:0.34958538 46:0.54473448 47:0.16794094 48:0.49290526 49:0.67570263 50:0.34399283 51:0.63704056 52:0.4363049 53:0.58208436 54:0.32494864 55:0.46405926 56:0.64750105 57:0.75270319 58:0.60912043 59:0.53209841 60:0.4258548 61:0.44131765 62:0.5841822 63:0.55248898 64:0.14595129 65:0.40045267 66:0.29193705 67:0.44060844 68:0.51698226 69:0.3730146 70:0.5294801 71:0.19090359 72:0.41737074 73:0.30916491 74:0.31961825 75:0.59567857 76:0.69550371 77:0.34249499 78:0.65862948 79:0.4563238 80:0.71973771 81:0.69146037 82:0.42971104 
0 0 0 0 0 1.259658643795864 0 0 1.895172327722763 0 0 0 0.3055254324832916 0 0 0 0 0 0.03040169521788065 0 0 1:0.55498624 2:0.52931714 3:0.30417201 4:0.43211395 5:0.46357304 6:0.5179953 7:0.70478106 8:0.54047143 9:0.71084839 10:0.45417097 11:0.59228814 12:0.33449394 13:0.47868899 14:0.44011214 15:0.44511452 16:0.66622043 17:0.4936868 18:0.41992256 19:0.48832414 20:0.5415746 21:0.47696331 22:0.49584931 23:0.47516641 24:0.42248917 25:0.62107104 26:0.61141598 27:0.49656209 28:0.40761963 29:0.63101929 30:0.5739761 31:0.560561 32:0.51077014 33:0.67789632 34:0.41784778 35:0.35949844 36:0.5445686 37:0.67124951 38:0.53812289 39:0.43151185 40:0.58120251 41:0.52202457 42:0.53364605 43:0.59591669 44:0.57127637 45:0.62961 46:0.69184655 47:0.41096643 48:0.68180883 49:0.73520446 50:0.6544705 51:0.36380163 52:0.31985319 53:0.50619477 54:0.24860939 55:0.57544452 56:0.60208488 57:0.45892909 58:0.47390383 59:0.44491008 60:0.49841157 61:0.24339314 62:0.77758151 63:0.47161007 64:0.069612019 65:0.46329129 66:0.1644838 67:0.48457336 68:0.56238693 69:0.24509411 70:0.51844782 71:0.27753064 72:0.54005963 73:0.38272732 74:0.4720296 75:0.79424846 76:0.5775122 77:0.16742797 78:0.52434194 79:0.70685714 80:0.58493358 81:0.66697818 82:0.48781908 
0 0 1.47400284510231 0 0 0 0 0 0 0 0 0 0 0 0 0 0 0 1.487068121892468 0 0 1:0.43881026 2:0.58274978 3:0.39210582 4:0.40711632 5:0.4062092 6:0.51205987 7:0.68061393 8:0.43649918 9:0.43907467 10:0.42126 11:0.4566319 12:0.4156127 13:0.65397388 14:0.4348371 15:0.5653159 16:0.51165813 17:0.42566761 18:0.61421239 19:0.50516081 20:0.65291071 21:0.35365036 22:0.49862769 23:0.45346713 24:0.4332929 25:0.50921398 26:0.62773639 27:0.56547558 28:0.36963981 29:0.64874512 30:0.64624161 31:0.62675482 32:0.55903172 33:0.54495275 34:0.43181059 35:0.36516076 36:0.45633736 37:0.78369868 38:0.59380215 39:0.42608002 40:0.6112442 41:0.61336601 42:0.40027168 43:0.64264536 44:0.41165945 45:0.55603957 46:0.71150684 47:0.4393805 48:0.39950114 49:0.70461857 50:0.5110094 51:0.47949293 52:0.30203867 53:0.43473104 54:0.22338675 55:0.44823393 56:0.66152573 57:0.51620871 58:0.5033198 59:0.46193954 60:0.53453034 61:0.3243328 62:0.73073089 63:0.66049361 64:0.039068427 65:0.48877901 66:0.22176549 67:0.45667925 68:0.62695128 69:0.18590802 70:0.35624409 71:0.34817401 72:0.35607478 73:0.29130012 74:0.29979581 75:0.65883231 76:0.60503691 77:0.31434855 78:0.62420702 79:0.52825701 80:0.58079821 81:0.64543664 82:0.45716214 
0 0.5176708625552155 0.04357625233438194 0 0.8873083072401368 0.9739350681976831 0 0.3602618094171129 0 0 0 1.074218670214925 0 1.564961576458521 3.203868113689314 0 2.178481022564246 0 0 0.357318641675122 0 1:0.60401082 2:0.51552171 3:0.32643399 4:0.53092206 5:0.49811339 6:0.47124425 7:0.73551267 8:0.52689952 9:0.64865023 10:0.41826513 11:0.60552704 12:0.29980028 13:0.46692806 14:0.39569697 15:0.4980087 16:0.69594097 17:0.51256645 18:0.51651442 19:0.49372751 20:0.52425885 21:0.445016 22:0.40761921 23:0.43053767 24:0.46786004 25:0.56325763 26:0.55006105 27:0.51730818 28:0.42256019 29:0.65591371 30:0.61347771 31:0.58645093 32:0.55704373 33:0.6294055 34:0.39989972 35:0.33399928 36:0.6028989 37:0.64758474 38:0.61437327 39:0.49822494 40:0.64398003 41:0.53278518 42:0.59473735 43:0.64028466 44:0.5452975 45:0.67853373 46:0.69544095 47:0.43565357 48:0.6867798 49:0.7449311 50:0.55795592 51:0.35487124 52:0.367028 53:0.50282657 54:0.2633521 55:0.53191984 56:0.63937968 57:0.46168634 58:0.4797385 59:0.45040295 60:0.53099024 61:0.22848223 62:0.76367527 63:0.47681823 64:0.07139767 65:0.45005369 66:0.19127068 67:0.5101006 68:0.56497276 69:0.2454339 70:0.51869738 71:0.29530299 72:0.51326287 73:0.4042654 74:0.4619883 75:0.76630539 76:0.55102205 77:0.14623114 78:0.52128541 79:0.70182008 80:0.57876754 81:0.67354923 82:0.46325874 
0 1.288518850519978 0 3.777588012068535 0 0 1.932230420852781 0.6984103413518619 0 6.087614159873327 2.937495277555057 1.179707012595666 0 1.378476595496218 0 4.15927509236586 3.465900698314218 3.597555831302745 2.490248205543058 2.964587406151349 0 1:0.70807898 2:0.48307428 3:0.10509691 4:0.53791291 5:0.54334962 6:0.52188498 7:0.50402224 8:0.483098 9:0.60521322 10:0.56556678 11:0.52472728 12:0.48034811 13:0.55967027 14:0.32809821 15:0.62396771 16:0.58265239 17:0.43736556 18:0.55646378 19:0.62836629 20:0.56315529 21:0.39842308 22:0.56320554 23:0.41334993 24:0.4682824 25:0.58908266 26:0.56806374 27:0.57212251 28:0.58425707 29:0.69079387 30:0.58215278 31:0.47802976 32:0.33177751 33:0.5379281 34:0.29781613 35:0.17332663 36:0.5045706 37:0.54973429 38:0.61906314 39:0.29133949 40:0.61813754 41:0.43859503 42:0.21643335 43:0.56582773 44:0.45202425 45:0.45199171 46:0.63864368 47:0.41147918 48:0.49324337 49:0.56018901 50:0.40010437 51:0.52656138 52:0.41726989 53:0.44141945 54:0.38610718 55:0.55916029 56:0.62302482 57:0.43800455 58:0.4848654 59:0.61066139 60:0.60674071 61:0.34608173 62:0.6390689 63:0.2987386 64:0.11012578 65:0.51630986 66:0.45299894 67:0.36397031 68:0.64346206 69:0.42136532 70:0.50132459 71:0.24403217 72:0.47438246 73:0.4923557 74:0.5136174 75:0.68322349 76:0.64622676 77:0.25229207 78:0.45710155 79:0.6378873 80:0.68232918 81:0.76740319 82:0.35739136 
0 0 0 0 0 0 1.980344381828618 0 0 0.8136588546697657 0 0 0 0 0 3.70738860041235 0 0 0 1.036296365279374 0.1928246691843361 1:0.51423842 2:0.47585905 3:0.45422354 4:0.34902543 5:0.44223213 6:0.33946246 7:0.43007955 8:0.50003493 9:0.5263589 10:0.4688108 11:0.31029376 12:0.37864497 13:0.63270986 14:0.43149754 15:0.65080684 16:0.58205622 17:0.52750313 18:0.55674773 19:0.67396134 20:0.49979189 21:0.32909009 22:0.4996354 23:0.30154023 24:0.58635777 25:0.46476412 26:0.54296756 27:0.57421863 28:0.48413125 29:0.63682687 30:0.56790382 31:0.5999431 32:0.39727974 33:0.6601823 34:0.36714062 35:0.26660246 36:0.54758954 37:0.63744676 38:0.65004522 39:0.55348063 40:0.62377703 41:0.54812795 42:0.33921248 43:0.58507228 44:0.39052674 45:0.27785748 46:0.62598187 47:0.58351916 48:0.51312822 49:0.63057566 50:0.40484285 51:0.58681804 52:0.51382315 53:0.47103739 54:0.37343201 55:0.57776499 56:0.60163087 57:0.5649386 58:0.51211143 59:0.51881856 60:0.58707768 61:0.38000888 62:0.62845302 63:0.49028355 64:0.086908497 65:0.47621095 66:0.46370667 67:0.40066338 68:0.71875989 69:0.32181418 70:0.54411709 71:0.27966779 72:0.36875522 73:0.29272813 74:0.41625059 75:0.57771474 76:0.63580579 77:0.33601591 78:0.62242264 79:0.47812399 80:0.68986225 81:0.7441358 82:0.40001678 
0 0 0 0 0 0 0 0 0 0 0.3852536222939351 0 0 0 0 0 0 0 0 0 0 1:0.55992526 2:0.55513543 3:0.45792395 4:0.55044514 5:0.58156878 6:0.59485662 7:0.67874259 8:0.51924676 9:0.41091418 10:0.45614013 11:0.51729816 12:0.44444817 13:0.50829881 14:0.4437052 15:0.58903819 16:0.52816868 17:0.47650445 18:0.42293403 19:0.49216998 20:0.58830094 21:0.28414434 22:0.53377014 23:0.46000314 24:0.40221184 25:0.54941142 26:0.57033008 27:0.56739229 28:0.42400324 29:0.69576788 30:0.64345282 31:0.60464817 32:0.49043596 33:0.67713058 34:0.39709041 35:0.34538826 36:0.63845211 37:0.74626464 38:0.58339977 39:0.43961105 40:0.57071096 41:0.55205905 42:0.45423999 43:0.60826087 44:0.46438345 45:0.47855479 46:0.68005705 47:0.37700039 48:0.44306678 49:0.6922375 50:0.4110716 51:0.36095145 52:0.27703264 53:0.46448153 54:0.21697576 55:0.46477368 56:0.70389915 57:0.5359388 58:0.42412481 59:0.49556303 60:0.65747237 61:0.30804104 62:0.70681268 63:0.62028128 64:0.015817149 65:0.43618175 66:0.24560948 67:0.65688801 68:0.73343152 69:0.24946114 70:0.49063408 71:0.41691798 72:0.22516958 73:0.33664215 74:0.32970127 75:0.57662624 76:0.42783126 77:0.51080871 78:0.49104914 79:0.64506596 80:0.5727855 81:0.71595293 82:0.57921845 
0 0 1.243767510415511 0 0.1651291099442139 0 0 0 0 0 0 1.08632771825136 0 0 2.56063682258577 0 0 0 0 0 2.65189310489727 1:0.70024472 2:0.48967919 3:0.069223531 4:0.5277862 5:0.54898393 6:0.5532096 7:0.47903872 8:0.48381937 9:0.5580079 10:0.59171075 11:0.50740784 12:0.47592527 13:0.58797687 14:0.31434152 15:0.61540246 16:0.5951702 17:0.43106297 18:0.54642457 19:0.61570692 20:0.59302241 21:0.36488616 22:0.53423887 23:0.44770396 24:0.48857987 25:0.57988036 26:0.52943432 27:0.56381369 28:0.58350229 29:0.70517272 30:0.56889766 31:0.47511137 32:0.32700807 33:0.56051826 34:0.32518163 35:0.18827887 36:0.5317176 37:0.57254434 38:0.61190182 39:0.28588554 40:0.64329433 41:0.42802238 42:0.20878173 43:0.56189483 44:0.47297093 45:0.45535484 46:0.65307993 47:0.40335226 48:0.47836849 49:0.56531852 50:0.41304517 51:0.52925366 52:0.41219562 53:0.44629115 54:0.37939546 55:0.56311655 56:0.60956013 57:0.44657746 58:0.49620727 59:0.60672539 60:0.59318268 61:0.34592813 62:0.63795066 63:0.28501907 64:0.10053941 65:0.52303773 66:0.47007197 67:0.36849383 68:0.64218652 69:0.42095864 70:0.4842217 71:0.25095215 72:0.47755378 73:0.49243295 74:0.52140594 75:0.68546212 76:0.64591151 77:0.2568436 78:0.46295315 79:0.64056891 80:0.6861099 81:0.76295984 82:0.36691472 
0 0.8848385357928144 0 0 0 0.9037152218936843 0.5736835909592078 0 1.272786765051414 3.985964035333365 0 0 1.243304757262825 0 0.2958928840501153 0 0.2713538253366673 1.30386986945902 0.699103357408835 2.419683082570692 0.3780794048975401 1:0.44360992 2:0.73396575 3:0.61373299 4:0.72978443 5:0.44361022 6:0.2751337 7:0.46986377 8:0.81646043 9:0.64517826 10:0.43665805 11:0.29987803 12:0.65728158 13:0.56869501 14:0.61145943 15:0.32104412 16:0.49879524 17:0.49087796 18:0.21967159 19:0.45054927 20:0.5917657 21:0.56881601 22:0.30380204 23:0.25477087 24:0.49763796 25:0.49611896 26:0.36310402 27:0.47438437 28:0.6116516 29:0.40521765 30:0.53634685 31:0.43367195 32:0.51997447 33:0.7142368 34:0.47334817 35:0.63534123 36:0.74516684 37:0.73068839 38:0.55809897 39:0.37614521 40:0.5054273 41:0.50211298 42:0.59686226 43:0.54999316 44:0.29063159 45:0.54486799 46:0.61518735 47:0.42038232 48:0.63875765 49:0.61557084 50:0.26592973 51:0.75140023 52:0.39655206 53:0.62480921 54:0.3648918 55:0.4702805 56:0.50729114 57:0.8764286 58:0.37327448 59:0.52053231 60:0.52401215 61:0.44857597 62:0.47463018 63:0.39430174 64:0.2490762 65:0.62217706 66:0.30357975 67:0.61199516 68:0.47170049 69:0.44132024 70:0.62360388 71:0.15040933 72:0.54600453 73:0.42653015 74:0.45740575 75:0.71897793 76:0.65148777 77:0.38391441 78:0.43561938 79:0.72136843 80:0.70160705 81:0.69654149 82:0.52918643 
0 0 0.02374365902080652 0 0 0 0 0 0 0 0 0 0 0 0 0 0 0 0 0 0 1:0.62779266 2:0.52311099 3:0.47464374 4:0.58928025 5:0.51857013 6:0.49150467 7:0.57094771 8:0.49887323 9:0.47137281 10:0.44798625 11:0.58391285 12:0.5436008 13:0.65121156 14:0.58407104 15:0.63518232 16:0.3777729 17:0.37244946 18:0.44423231 19:0.62816799 20:0.74702811 21:0.34307161 22:0.65750968 23:0.60543489 24:0.32107976 25:0.50767869 26:0.59368598 27:0.58549225 28:0.36373484 29:0.63331658 30:0.50144559 31:0.56774771 32:0.60338753 33:0.60390186 34:0.47337389 35:0.40253928 36:0.48753029 37:0.65424371 38:0.59203541 39:0.41854987 40:0.70768577 41:0.60969377 42:0.43424222 43:0.66333079 44:0.5872643 45:0.65943658 46:0.7380175 47:0.30752349 48:0.38836336 49:0.7877211 50:0.56891721 51:0.51751554 52:0.39599001 53:0.42734489 54:0.25192982 55:0.59018791 56:0.65899599 57:0.58936238 58:0.42217484 59:0.46933505 60:0.57626438 61:0.38457236 62:0.64185965 63:0.60086471 64:0.076435536 65:0.52643788 66:0.1901855 67:0.65581167 68:0.61108851 69:0.18770397 70:0.36752635 71:0.3330614 72:0.36192498 73:0.18545669 74:0.29214424 75:0.61977404 76:0.65818769 77:0.37931406 78:0.49574998 79:0.45181331 80:0.60282075 81:0.63616675 82:0.49700445 
0 0 0 0 0 0 0 0 0 0 0 0 1.369714958335269 0 0 0 0 0.9091318116711053 0 0 0 1:0.37770391 2:0.68936151 3:0.50333023 4:0.55240995 5:0.53034019 6:0.33774886 7:0.79625076 8:0.4607169 9:0.67931032 10:0.26013368 11:0.56602198 12:0.40519521 13:0.6710884 14:0.51201123 15:0.70160371 16:0.34480196 17:0.50042897 18:0.47810197 19:0.52498746 20:0.57466102 21:0.48541856 22:0.4839645 23:0.38069078 24:0.54757392 25:0.59425241 26:0.40174729 27:0.68310499 28:0.46275616 29:0.46100843 30:0.48967442 31:0.55144852 32:0.50765008 33:0.61772776 34:0.39593184 35:0.49986625 36:0.61042947 37:0.54412299 38:0.61562294 39:0.51507717 40:0.58193862 41:0.61134052 42:0.50593787 43:0.74676704 44:0.64404744 45:0.62238586 46:0.67051625 47:0.39814478 48:0.59351033 49:0.59619403 50:0.51459605 51:0.47924626 52:0.58607173 53:0.39188859 54:0.36344114 55:0.46874386 56:0.5917393 57:0.44479629 58:0.52930605 59:0.48241222 60:0.62465018 61:0.34986803 62:0.76837349 63:0.65867859 64:0.095841974 65:0.50510412 66:0.11797327 67:0.50737762 68:0.65858024 69:0.19288957 70:0.44394562 71:0.38987666 72:0.38907629 73:0.24519402 74:0.34817213 75:0.53462183 76:0.61031049 77:0.36413962 78:0.4465827 79:0.54073757 80:0.63510102 81:0.59792131 82:0.5157547 
1.629138156560518 0 0 0 0 0 0 0 0 1.765611919683089 0 0 0 0 0 0 0 0 0 0.1260856177881157 0 1:0.60230726 2:0.61003542 3:0.36100194 4:0.69636041 5:0.38323531 6:0.57800668 7:0.53153318 8:0.40912169 9:0.45636448 10:0.32981583 11:0.59511787 12:0.41378722 13:0.51988584 14:0.46157688 15:0.47890833 16:0.40273264 17:0.51779711 18:0.39802173 19:0.48146552 20:0.71306694 21:0.38905472 22:0.54815257 23:0.42375875 24:0.3798593 25:0.54895824 26:0.54873341 27:0.54402208 28:0.38252661 29:0.60983175 30:0.58216518 31:0.5412873 32:0.57757074 33:0.68892568 34:0.39596722 35:0.37209973 36:0.52266151 37:0.73666388 38:0.55953181 39:0.45503947 40:0.81963468 41:0.67140704 42:0.43714696 43:0.68264866 44:0.74964553 45:0.70923018 46:0.64441162 47:0.45851469 48:0.47391251 49:0.7484358 50:0.6195057 51:0.58222908 52:0.39349601 53:0.31400082 54:0.18948211 55:0.55926496 56:0.67170012 57:0.58446395 58:0.39747956 59:0.43187201 60:0.58059835 61:0.37751737 62:0.6921981 63:0.60315323 64:0.13506238 65:0.49658597 66:0.1826424 67:0.62236983 68:0.5517019 69:0.12739573 70:0.40311506 71:0.34382525 72:0.43354809 73:0.13124979 74:0.36870807 75:0.59529775 76:0.5857752 77:0.33823222 78:0.46042708 79:0.42338553 80:0.61031377 81:0.67854774 82:0.53673947 
0 0 0 0 0 0.792757443587941 0 0 0 0 0 0 0 0 0 0 0 0 0 0 0 1:0.30687061 2:0.49441496 3:0.49248263 4:0.47590756 5:0.5375089 6:0.37023479 7:0.39519536 8:0.64477646 9:0.63635814 10:0.29498854 11:0.31429607 12:0.42365831 13:0.57084113 14:0.36379573 15:0.65523297 16:0.53725207 17:0.67927331 18:0.7130782 19:0.60754967 20:0.37328511 21:0.49131978 22:0.45265731 23:0.3887521 24:0.72389179 25:0.66504729 26:0.58225042 27:0.40216985 28:0.569148 29:0.60993361 30:0.42054555 31:0.54297334 32:0.27846098 33:0.4608053 34:0.47175065 35:0.45451275 36:0.57826483 37:0.3470968 38:0.4999783 39:0.47677031 40:0.53373665 41:0.57381648 42:0.3076016 43:0.56233525 44:0.36569822 45:0.3986975 46:0.57213861 47:0.56314176 48:0.40265262 49:0.59957719 50:0.37343895 51:0.6554274 52:0.46379328 53:0.50863332 54:0.40684575 55:0.55581325 56:0.63288492 57:0.45387033 58:0.63221622 59:0.58648002 60:0.58983701 61:0.34510931 62:0.67526603 63:0.5196687 64:0.18619432 65:0.63133174 66:0.4299807 67:0.42076984 68:0.77180862 69:0.29555631 70:0.46797603 71:0.40220839 72:0.37548679 73:0.24300107 74:0.49334171 75:0.47040334 76:0.68932021 77:0.452591 78:0.48230973 79:0.518417 80:0.73732388 81:0.65230203 82:0.50762701 
0 1.018906677301518 1.036638501743651 0 0 0 0 0 0 0 0 0 0 0 1.145300514461844 0.8774218685890546 0 0 0 0 0 1:0.4049499 2:0.55996305 3:0.49562666 4:0.56825954 5:0.48884988 6:0.31931919 7:0.5249055 8:0.613478 9:0.48216823 10:0.41377637 11:0.43071729 12:0.6210739 13:0.69288254 14:0.61833853 15:0.61298347 16:0.49862194 17:0.66112119 18:0.60260606 19:0.65600336 20:0.62967765 21:0.38806862 22:0.45318392 23:0.49963856 24:0.84971082 25:0.60945863 26:0.39667037 27:0.44877589 28:0.49465057 29:0.56059194 30:0.34808037 31:0.48169276 32:0.42502731 33:0.50793493 34:0.39766937 35:0.25190398 36:0.59352666 37:0.69585651 38:0.52679402 39:0.47092953 40:0.74270165 41:0.52085882 42:0.41766858 43:0.54354686 44:0.39797452 45:0.42372862 46:0.65071279 47:0.55981064 48:0.48895988 49:0.74111271 50:0.3939898 51:0.75558186 52:0.58808905 53:0.57612002 54:0.47806665 55:0.65567553 56:0.5452168 57:0.58603841 58:0.38270584 59:0.54576355 60:0.62470138 61:0.39629582 62:0.50816715 63:0.49207932 64:0.18399251 65:0.74943256 66:0.32508001 67:0.50053596 68:0.66407704 69:0.30995971 70:0.56761128 71:0.25566643 72:0.49553448 73:0.48421916 74:0.52227724 75:0.67788291 76:0.57710713 77:0.40893006 78:0.44839302 79:0.74115127 80:0.7614519 81:0.67892021 82:0.49482247 
0 0 0 0 0 0 0 0.3362918669921043 0 0 0 0 0 0 0 0 0 0 0 0 0.05801397779086559 1:0.48533183 2:0.52968961 3:0.38700691 4:0.46828306 5:0.46169108 6:0.64484656 7:0.75983739 8:0.45233306 9:0.56160963 10:0.39882243 11:0.64883846 12:0.40453255 13:0.45257714 14:0.34204277 15:0.4765321 16:0.56640434 17:0.51195502 18:0.57538283 19:0.45386857 20:0.62967408 21:0.41461253 22:0.49114728 23:0.34234989 24:0.45611286 25:0.55335373 26:0.60631281 27:0.49796548 28:0.41805637 29:0.83703488 30:0.60034072 31:0.55818933 32:0.47977686 33:0.66446584 34:0.35745421 35:0.529468 36:0.50670797 37:0.50280243 38:0.5218094 39:0.51292944 40:0.5516994 41:0.50538963 42:0.54604959 43:0.57187712 44:0.57567173 45:0.62137485 46:0.75572723 47:0.47569478 48:0.61602801 49:0.76830363 50:0.5301646 51:0.47438008 52:0.40247732 53:0.44770381 54:0.21966507 55:0.46672329 56:0.57570642 57:0.602458 58:0.55516773 59:0.51303464 60:0.74632359 61:0.35436893 62:0.78111541 63:0.5839994 64:0.13466336 65:0.53911239 66:0.16899602 67:0.62789398 68:0.71173918 69:0.24185736 70:0.38814712 71:0.3728539 72:0.39704838 73:0.26574531 74:0.38150889 75:0.51997524 76:0.64331448 77:0.47351065 78:0.50200814 79:0.52562076 80:0.60861003 81:0.63045681 82:0.52750868 
0 0 0 0 0 0 0.0272425950116218 0 0 0 0 0 0 0 0 0 0 0 0 0 0 1:0.56111324 2:0.48622417 3:0.31579304 4:0.47432879 5:0.47312033 6:0.42265168 7:0.73342091 8:0.42361584 9:0.55690587 10:0.42936835 11:0.5963552 12:0.41358662 13:0.47526011 14:0.35810646 15:0.39709628 16:0.69486284 17:0.57790488 18:0.4058055 19:0.51063639 20:0.54683834 21:0.4205972 22:0.5389545 23:0.46239087 24:0.48883083 25:0.62875855 26:0.51825541 27:0.47602925 28:0.36289278 29:0.56324035 30:0.56267422 31:0.61284131 32:0.50460875 33:0.60551113 34:0.45036256 35:0.2928316 36:0.52835244 37:0.64921957 38:0.58886558 39:0.40925139 40:0.63204563 41:0.62247908 42:0.47588766 43:0.60944307 44:0.60116059 45:0.6448949 46:0.74876708 47:0.42337981 48:0.64291811 49:0.74976796 50:0.62354934 51:0.34277469 52:0.40491042 53:0.54559523 54:0.24419239 55:0.57781506 56:0.59807765 57:0.44849873 58:0.45096609 59:0.4583326 60:0.51900029 61:0.23645832 62:0.73695791 63:0.46765581 64:0.078862995 65:0.48746347 66:0.16336027 67:0.54663247 68:0.58183211 69:0.244506 70:0.51481122 71:0.24610707 72:0.52372992 73:0.39670309 74:0.45852163 75:0.80333197 76:0.52484411 77:0.22842592 78:0.44842926 79:0.77660817 80:0.58273321 81:0.65055633 82:0.48610809 
0 0.3380566680883842 0 0 0 0.8192066054957716 0.164717108011842 0 0 0 0.4235891879671284 0 0 0 0 0 0 0.3584533546548739 0.02097351835853502 0 0 1:0.44771984 2:0.56741536 3:0.30420926 4:0.50508505 5:0.52661979 6:0.57632709 7:0.68533939 8:0.494434 9:0.48492888 10:0.46657452 11:0.48438662 12:0.44036418 13:0.61817676 14:0.54204202 15:0.58093768 16:0.40889606 17:0.44253588 18:0.43671104 19:0.55158204 20:0.57677442 21:0.33082661 22:0.51707661 23:0.49008805 24:0.59085119 25:0.6065321 26:0.43084988 27:0.538867 28:0.43516523 29:0.58148074 30:0.58980411 31:0.62761307 32:0.55961668 33:0.53540289 34:0.52700806 35:0.34699023 36:0.64204717 37:0.76218659 38:0.69717133 39:0.43964651 40:0.562365 41:0.60033417 42:0.53632224 43:0.62126088 44:0.52229172 45:0.47627041 46:0.75032765 47:0.37576154 48:0.47836909 49:0.70392609 50:0.39993772 51:0.4375433 52:0.33645445 53:0.3242867 54:0.20511299 55:0.50805986 56:0.70341241 57:0.48940769 58:0.37395522 59:0.52087492 60:0.68941212 61:0.29938367 62:0.61402404 63:0.65141457 64:0.088715963 65:0.49826276 66:0.21909679 67:0.72060788 68:0.70325202 69:0.29440469 70:0.46664533 71:0.37845063 72:0.21724172 73:0.38303363 74:0.31043094 75:0.54950505 76:0.34640786 77:0.54184324 78:0.45051646 79:0.68588215 80:0.60709256 81:0.67421544 82:0.61160457 
0 0 0 0 0.9110153624733578 0.03855061083242044 0 0 0 0 0 0 0 0 0 0 0 0 0.3152102181202439 0 0 1:0.60527003 2:0.63363379 3:0.27416632 4:0.70132655 5:0.51305407 6:0.7012077 7:0.52999192 8:0.42793727 9:0.5831055 10:0.71616757 11:0.33691135 12:0.57753509 13:0.4615413 14:0.52560562 15:0.47491667 16:0.68227595 17:0.62292844 18:0.28452939 19:0.5023284 20:0.54613662 21:0.52655429 22:0.50850022 23:0.33846357 24:0.37931719 25:0.39842945 26:0.32549784 27:0.57724619 28:0.78905994 29:0.36730003 30:0.53975904 31:0.55089086 32:0.55600411 33:0.61806703 34:0.47798589 35:0.62209779 36:0.69716483 37:0.55685514 38:0.57435697 39:0.42520902 40:0.34931779 41:0.56252998 42:0.50835282 43:0.51382113 44:0.15130635 45:0.5851177 46:0.60419816 47:0.23128086 48:0.67517823 49:0.80372828 50:0.26824397 51:0.54837215 52:0.30729228 53:0.47068772 54:0.22926331 55:0.52576691 56:0.63750666 57:0.651757 58:0.49840832 59:0.53988004 60:0.42228094 61:0.35535786 62:0.57637256 63:0.30897921 64:0.21869509 65:0.59161294 66:0.20859712 67:0.47859398 68:0.47714284 69:0.42361814 70:0.55070275 71:0.017646158 72:0.56804436 73:0.49488851 74:0.43198562 75:0.68998212 76:0.62976122 77:0.28699434 78:0.42395341 79:0.67844087 80:0.63403946 81:0.69949675 82:0.40941328 
0 0 0 0 1.011066803724735 0.510395816748332 0 0 0 0 0.2186884575273604 0.08766977389347658 0 0 0 0 0.3283759776437628 0 0 0 1.002849784533381 1:0.51790154 2:0.74283433 3:0.33086762 4:0.59817982 5:0.56577408 6:0.44668591 7:0.69021785 8:0.45278731 9:0.59409541 10:0.53062898 11:0.32507285 12:0.55728704 13:0.44639269 14:0.44152892 15:0.45728049 16:0.521743 17:0.36779732 18:0.30201048 19:0.36934352 20:0.66257977 21:0.51388282 22:0.38669482 23:0.27939552 24:0.40700251 25:0.37753269 26:0.27871004 27:0.50863379 28:0.69770986 29:0.31111053 30:0.54964775 31:0.45841682 32:0.52656001 33:0.85336846 34:0.66840804 35:0.64306384 36:0.73026174 37:0.66564101 38:0.49281791 39:0.5757516 40:0.27506378 41:0.55661935 42:0.43999282 43:0.44533554 44:0.19810654 45:0.52176356 46:0.56909311 47:0.25596762 48:0.50164622 49:0.67849946 50:0.2216962 51:0.55240166 52:0.35759196 53:0.5626471 54:0.33539745 55:0.42821771 56:0.68540984 57:0.74262321 58:0.58616406 59:0.55921686 60:0.49057114 61:0.51269174 62:0.59265536 63:0.42161459 64:0.2374308 65:0.47284162 66:0.26128981 67:0.5718438 68:0.54505837 69:0.39638174 70:0.57346177 71:0.1828391 72:0.48247421 73:0.27850622 74:0.36427286 75:0.52158976 76:0.62978244 77:0.36420277 78:0.57431847 79:0.46207142 80:0.657848 81:0.7237227 82:0.42010394 
0 0 0 0 0 1.083254539065283 0 0 0 0 0 0.4402356336077316 0 0.1459762346991458 0 0 1.121111049928899 0 0.495898210626976 0 0.5584652689125692 1:0.40858459 2:0.56206769 3:0.59932089 4:0.6758517 5:0.46789268 6:0.55754048 7:0.56380701 8:0.51103377 9:0.55624276 10:0.35500062 11:0.33881873 12:0.61567062 13:0.42126212 14:0.50311559 15:0.67733198 16:0.53367394 17:0.64433986 18:0.32595614 19:0.55619001 20:0.55425096 21:0.68170089 22:0.51139039 23:0.28816226 24:0.64041221 25:0.62075388 26:0.42940012 27:0.52547979 28:0.66595483 29:0.39681289 30:0.65192682 31:0.46533439 32:0.54040599 33:0.59021616 34:0.57469374 35:0.64732671 36:0.68374473 37:0.65536261 38:0.60273886 39:0.52836472 40:0.13420647 41:0.50209904 42:0.55892158 43:0.50117397 44:0.39444426 45:0.50377506 46:0.64851642 47:0.22145621 48:0.52565372 49:0.71849549 50:0.24990101 51:0.59612149 52:0.38134354 53:0.53926599 54:0.17538269 55:0.46841151 56:0.63805807 57:0.80867004 58:0.57550162 59:0.60279685 60:0.60600668 61:0.47539952 62:0.65778917 63:0.33185929 64:0.1620754 65:0.5976367 66:0.2709277 67:0.59117061 68:0.64866406 69:0.42607689 70:0.58465958 71:0.28456101 72:0.46837944 73:0.36454037 74:0.45563728 75:0.45256004 76:0.73691142 77:0.48945487 78:0.58054435 79:0.51424211 80:0.65464383 81:0.71619129 82:0.45604566 
0 0 0 0 0 0 0 0 0 0 0 0 0 0 0 0 0 1.828058812773293 0 0 0 1:0.65910059 2:0.50499243 3:0.21824932 4:0.46922424 5:0.61121541 6:0.63085872 7:0.58858037 8:0.44976372 9:0.58800954 10:0.52119523 11:0.5282253 12:0.52947301 13:0.4973602 14:0.37201998 15:0.62577367 16:0.57488436 17:0.50353146 18:0.45884994 19:0.51182586 20:0.5260244 21:0.54907352 22:0.43991899 23:0.50817496 24:0.58937752 25:0.5687263 26:0.50311053 27:0.6219911 28:0.6918788 29:0.65291506 30:0.39822185 31:0.45593554 32:0.41697839 33:0.43713897 34:0.51284271 35:0.41928962 36:0.63397014 37:0.64393795 38:0.62059629 39:0.47981593 40:0.65320736 41:0.62202275 42:0.33801809 43:0.67907584 44:0.50314933 45:0.50052929 46:0.59476143 47:0.44356507 48:0.62528551 49:0.78146011 50:0.5328837 51:0.44884962 52:0.30521408 53:0.32024953 54:0.23217571 55:0.47202301 56:0.57388639 57:0.6142599 58:0.46706548 59:0.57497513 60:0.584288 61:0.29952946 62:0.60455245 63:0.37771505 64:0.17335355 65:0.61144739 66:0.26841161 67:0.54072487 68:0.56610423 69:0.38868409 70:0.49562627 71:0.14664531 72:0.50653124 73:0.42954332 74:0.48702028 75:0.69619656 76:0.55385286 77:0.27796033 78:0.32961842 79:0.83201313 80:0.66173309 81:0.73701811 82:0.40158719 
0 0.8151928661730853 0 0 0 0 0 0.7660570743328773 0 0 0 0.4592942309037921 0 0 0 0 0 0 1.563787519268239 0.3516305471327688 0 1:0.364342 2:0.70023507 3:0.44598639 4:0.38301167 5:0.39153764 6:0.50456917 7:0.72383755 8:0.44116166 9:0.46305838 10:0.39805761 11:0.48411411 12:0.3977803 13:0.61992842 14:0.35649249 15:0.57779288 16:0.5383637 17:0.40652177 18:0.57549387 19:0.48648846 20:0.61861324 21:0.42322752 22:0.58746362 23:0.40920585 24:0.45082286 25:0.44627789 26:0.66554689 27:0.60388446 28:0.45454645 29:0.62966865 30:0.61387855 31:0.61732018 32:0.51591992 33:0.62210214 34:0.54852265 35:0.45018107 36:0.5405302 37:0.72919858 38:0.59154022 39:0.5231095 40:0.60541302 41:0.61453587 42:0.38944092 43:0.59698969 44:0.47525179 45:0.64138317 46:0.69420773 47:0.40572745 48:0.43881723 49:0.70671409 50:0.4378421 51:0.47078401 52:0.34733322 53:0.48477516 54:0.25228825 55:0.41816929 56:0.69310963 57:0.48961586 58:0.4590148 59:0.52523148 60:0.58628851 61:0.38408044 62:0.74936593 63:0.58277136 64:0.13802579 65:0.54008073 66:0.18543813 67:0.52657288 68:0.61342895 69:0.23734963 70:0.3574197 71:0.27664927 72:0.35448849 73:0.26780379 74:0.31051764 75:0.65977317 76:0.57874835 77:0.32083896 78:0.54809612 79:0.56715268 80:0.5696913 81:0.60172331 82:0.4622187 
0 0 0 0 0.8223334324731538 0.911526679232706 0.5508012962559894 0 0 0 0 0 0 0.7320273329564219 0 1.239273388557042 0 1.130672701122125 1.601090677449908 0.1084560256706152 0 1:0.52023399 2:0.50793731 3:0.45673105 4:0.37774935 5:0.60388464 6:0.59718937 7:0.68105394 8:0.34919634 9:0.44296199 10:0.52567816 11:0.40847236 12:0.46517205 13:0.56608522 14:0.39536479 15:0.46843958 16:0.54074317 17:0.64861041 18:0.37042329 19:0.30430177 20:0.62319601 21:0.5460915 22:0.51762617 23:0.45391154 24:0.38163716 25:0.304912 26:0.4490675 27:0.6292727 28:0.47850758 29:0.3285991 30:0.58317143 31:0.50649923 32:0.34154871 33:0.57423884 34:0.41551834 35:0.49275586 36:0.63420683 37:0.4544059 38:0.5470742 39:0.42104518 40:0.45295826 41:0.57170188 42:0.24641162 43:0.73482627 44:0.38617375 45:0.41802666 46:0.49410003 47:0.36032686 48:0.42798975 49:0.63075536 50:0.68435204 51:0.54714936 52:0.4398798 53:0.46171319 54:0.2819142 55:0.59184021 56:0.63494062 57:0.55617076 58:0.68242252 59:0.58107847 60:0.5018177 61:0.35843122 62:0.66789198 63:0.54873776 64:0.11304233 65:0.5902046 66:0.20403577 67:0.51513481 68:0.62588936 69:0.35427758 70:0.4970023 71:0.29697239 72:0.42549366 73:0.33073157 74:0.39593163 75:0.55839467 76:0.60370934 77:0.40538287 78:0.49708143 79:0.64187843 80:0.67339587 81:0.73731333 82:0.40520838 
1.646748363088695 0 0.3604137059994629 0 0.421272646911931 0 0.7357794328427814 0 2.790742993840365 0.3364122140953433 0 0.2888192418658526 2.66557967735555 2.715269006281636 0 0 0.2165420019962413 0 0.9421039432574129 0 0 1:0.65723777 2:0.54638624 3:0.084931239 4:0.46795538 5:0.50241661 6:0.55132604 7:0.53942305 8:0.56593823 9:0.47721073 10:0.52610958 11:0.42163196 12:0.59521627 13:0.49115381 14:0.47191355 15:0.67138863 16:0.63608092 17:0.5641951 18:0.65622163 19:0.54580826 20:0.60355872 21:0.38383183 22:0.60148972 23:0.49601343 24:0.68849635 25:0.54861534 26:0.59191889 27:0.51765788 28:0.63231951 29:0.58985597 30:0.47309873 31:0.54998893 32:0.39403442 33:0.54564786 34:0.28019926 35:0.31832713 36:0.49912095 37:0.56973255 38:0.61063665 39:0.41925776 40:0.58582664 41:0.48514816 42:0.32385635 43:0.54221207 44:0.35034284 45:0.43220037 46:0.75952095 47:0.51067942 48:0.48481801 49:0.69628143 50:0.36181715 51:0.45763811 52:0.45324796 53:0.40383956 54:0.43737558 55:0.54171288 56:0.54536206 57:0.48387107 58:0.37784472 59:0.61230582 60:0.59993148 61:0.28112552 62:0.49966809 63:0.35874805 64:0.22286534 65:0.60814112 66:0.4500795 67:0.44369429 68:0.61121368 69:0.40465158 70:0.53147089 71:0.14331426 72:0.4596509 73:0.56865823 74:0.50020498 75:0.75419545 76:0.58014756 77:0.27809727 78:0.34333873 79:0.83639145 80:0.71125627 81:0.71833974 82:0.43547013 
0 0 0 0 0 0 0 0 0 0 0 0 1.396228973862074 0 0 0 1.475146436655323 0 0.7850135208768402 0 0 1:0.52887523 2:0.64115834 3:0.2155879 4:0.52989608 5:0.53262317 6:0.51008713 7:0.57319403 8:0.50939381 9:0.60151708 10:0.43514004 11:0.62717813 12:0.55325222 13:0.51934218 14:0.40029192 15:0.60241485 16:0.59729058 17:0.55630612 18:0.61829609 19:0.45960307 20:0.61604476 21:0.5714395 22:0.53410935 23:0.44814986 24:0.72958893 25:0.67247975 26:0.37885424 27:0.48745418 28:0.5539735 29:0.70983785 30:0.30027208 31:0.58024925 32:0.30278867 33:0.63657057 34:0.40935513 35:0.46577886 36:0.54992914 37:0.54407167 38:0.66353023 39:0.46440375 40:0.60848504 41:0.48777568 42:0.20803586 43:0.40465328 44:0.42875502 45:0.47569144 46:0.72746938 47:0.61463314 48:0.351915 49:0.49192372 50:0.25686139 51:0.57681966 52:0.55986351 53:0.47400856 54:0.36636683 55:0.56210583 56:0.60249275 57:0.58224219 58:0.52235228 59:0.58502638 60:0.70836359 61:0.43304491 62:0.61566484 63:0.31104618 64:0.26185724 65:0.6416958 66:0.47231945 67:0.54592246 68:0.75521785 69:0.31352958 70:0.43919775 71:0.36487579 72:0.40615532 73:0.28973323 74:0.50432396 75:0.43075892 76:0.70847714 77:0.50166827 78:0.44138572 79:0.49278411 80:0.66427314 81:0.74224567 82:0.474691 
0 0.04978338061869981 2.007667526668376 0 0.4133928175753014 0 0 1.221327721648392 0 0 0 0 1.482637953186804 1.488711681405986 1.379241110736075 3.477919119554102 0 0 1.107785083032267 0 0.1525370930549893 1:0.4917689 2:0.58129847 3:0.1575363 4:0.3994776 5:0.54716825 6:0.50185841 7:0.51374644 8:0.55624682 9:0.38439909 10:0.6298278 11:0.37806803 12:0.55394071 13:0.52757293 14:0.26892266 15:0.60623038 16:0.64754289 17:0.6355263 18:0.69911736 19:0.56392759 20:0.56509048 21:0.30534694 22:0.47158375 23:0.46430501 24:0.62456959 25:0.53299326 26:0.45219582 27:0.46930146 28:0.63534921 29:0.66597354 30:0.42298707 31:0.43144181 32:0.4319095 33:0.64659894 34:0.39862117 35:0.17249323 36:0.55859244 37:0.56604499 38:0.56311178 39:0.40620577 40:0.6044147 41:0.52981913 42:0.32546145 43:0.54288882 44:0.4718172 45:0.33986327 46:0.69135797 47:0.41352999 48:0.43711063 49:0.50165939 50:0.35904485 51:0.64396316 52:0.51620948 53:0.36009172 54:0.35544083 55:0.5681237 56:0.64828467 57:0.48092371 58:0.37803045 59:0.59474611 60:0.70598638 61:0.42316556 62:0.54995775 63:0.5055576 64:0.29220727 65:0.62077212 66:0.47737241 67:0.61918926 68:0.75272417 69:0.37980267 70:0.49149719 71:0.27213073 72:0.2018186 73:0.44839758 74:0.37755239 75:0.48124203 76:0.45115468 77:0.59067094 78:0.40145057 79:0.63630712 80:0.72146547 81:0.73384643 82:0.53301734 
0 0.06440008961564657 0 3.26325685400019 1.1125168764074 0 0 0 1.308411588314571 0 0 0.7992638790306134 0 0.2047440241093741 0.3405608524317941 0 1.818116171987493 0 0 0 0 1:0.35079074 2:0.59392488 3:0.28192818 4:0.34294111 5:0.64641315 6:0.32159457 7:0.43871889 8:0.42345142 9:0.54736251 10:0.45293599 11:0.41783285 12:0.3996492 13:0.7264359 14:0.4394381 15:0.59880108 16:0.51005179 17:0.64630479 18:0.67460716 19:0.51177949 20:0.51389128 21:0.40110371 22:0.46135995 23:0.47498068 24:0.58921593 25:0.52298832 26:0.46378469 27:0.47282419 28:0.51144958 29:0.41718787 30:0.57579064 31:0.55214232 32:0.42218426 33:0.51177824 34:0.38996962 35:0.4119758 36:0.48643905 37:0.70778459 38:0.57891017 39:0.4765484 40:0.54001242 41:0.59799081 42:0.3189784 43:0.48406729 44:0.22685044 45:0.27811056 46:0.69713402 47:0.43446225 48:0.36407328 49:0.62708443 50:0.25529513 51:0.65549612 52:0.5080744 53:0.48197338 54:0.39536184 55:0.59643036 56:0.67819983 57:0.47488427 58:0.52362448 59:0.59587133 60:0.53474343 61:0.41030887 62:0.60334861 63:0.54965681 64:0.16470648 65:0.55785418 66:0.39294016 67:0.47260547 68:0.62030834 69:0.29614756 70:0.54052198 71:0.29192734 72:0.38031012 73:0.40645665 74:0.42474812 75:0.57475638 76:0.57576537 77:0.39193085 78:0.53307861 79:0.66669232 80:0.68498027 81:0.72574222 82:0.42408812 
0 0 0 0 0 0 0 0.801121063104539 0 0 0 0 0 0 0 0 0 0 0.02418947646190874 0 0 1:0.3842636 2:0.5027107 3:0.42519677 4:0.58349609 5:0.41892084 6:0.53541553 7:0.48940748 8:0.50743657 9:0.34823069 10:0.3613252 11:0.48646796 12:0.3073394 13:0.55830866 14:0.43650681 15:0.46006593 16:0.36071989 17:0.46383765 18:0.52380097 19:0.55543721 20:0.6775105 21:0.52756691 22:0.52074808 23:0.44167569 24:0.54237032 25:0.55056882 26:0.61684883 27:0.40346876 28:0.33975914 29:0.61825061 30:0.55930704 31:0.6002683 32:0.42134461 33:0.57945544 34:0.38086954 35:0.16171974 36:0.48649108 37:0.57564414 38:0.62444878 39:0.35790819 40:0.67519408 41:0.57332134 42:0.45473757 43:0.64766359 44:0.63896143 45:0.69935995 46:0.75253981 47:0.48757508 48:0.5677954 49:0.81340647 50:0.52285755 51:0.50622594 52:0.3474682 53:0.48371592 54:0.25501475 55:0.55265051 56:0.56174999 57:0.68679321 58:0.44793665 59:0.52416235 60:0.65987074 61:0.40131649 62:0.68956494 63:0.67603296 64:0.076404847 65:0.62995893 66:0.12357999 67:0.61119497 68:0.59405416 69:0.24599524 70:0.5075556 71:0.29515496 72:0.41653165 73:0.38506621 74:0.37206262 75:0.67224288 76:0.53786838 77:0.3941133 78:0.37066558 79:0.70484442 80:0.56118 81:0.57897007 82:0.55889851 
0.9439035801813201 0.5019815399184218 0 0 0 0 0 1.209877248682689 1.844572407144541 4.828983002251479 1.569593879600833 2.79611692217668 2.982152896910769 0.4125925369193278 0 0 0 0 0 1.566633105939968 0 1:0.49904546 2:0.42159879 3:0.28375232 4:0.37204468 5:0.55363601 6:0.46118939 7:0.50301862 8:0.43772838 9:0.40697443 10:0.5347352 11:0.43010566 12:0.35277975 13:0.52958149 14:0.36320835 15:0.73550725 16:0.50759906 17:0.71344924 18:0.64756322 19:0.51155496 20:0.48172253 21:0.33453056 22:0.47074729 23:0.56002158 24:0.68905592 25:0.56542945 26:0.57194835 27:0.63103092 28:0.38902575 29:0.51115757 30:0.40264565 31:0.47907838 32:0.47105139 33:0.62937498 34:0.3521288 35:0.34403586 36:0.45025811 37:0.4678728 38:0.68383169 39:0.33551762 40:0.39381707 41:0.49845558 42:0.3628051 43:0.58668804 44:0.25643423 45:0.38065949 46:0.7086218 47:0.35134792 48:0.32835981 49:0.66406894 50:0.29900056 51:0.55127281 52:0.63670421 53:0.52469605 54:0.43207112 55:0.52958727 56:0.60223758 57:0.42648187 58:0.61547953 59:0.59847432 60:0.64710122 61:0.39832258 62:0.72819966 63:0.59244353 64:0.36701703 65:0.60152072 66:0.47944415 67:0.5737341 68:0.74583858 69:0.34614748 70:0.42703974 71:0.29853883 72:0.29568684 73:0.11333822 74:0.44622883 75:0.39733344 76:0.674357 77:0.52540517 78:0.49758166 79:0.24341132 80:0.75765669 81:0.62715316 82:0.47864342 
0.1940250762422228 0 0 0.5786797844669919 1.162140806736741 1.482488907283624 0 0 0 0 0 0 1.01084813669238 0 0.04123159316929793 0 0 0 0 0 0 1:0.46224925 2:0.47611991 3:0.48350999 4:0.41268986 5:0.45364907 6:0.29989037 7:0.42876995 8:0.64909279 9:0.44102123 10:0.47323078 11:0.37404931 12:0.49110684 13:0.62635851 14:0.51911581 15:0.75792968 16:0.65188861 17:0.64119726 18:0.56768125 19:0.69121182 20:0.51395816 21:0.34991243 22:0.51510364 23:0.39776605 24:0.62927544 25:0.61530948 26:0.35118574 27:0.5373413 28:0.50809205 29:0.65885127 30:0.50659215 31:0.46014506 32:0.3951517 33:0.51101285 34:0.3941943 35:0.16348644 36:0.52676654 37:0.57131165 38:0.58796036 39:0.57975411 40:0.79438114 41:0.45954743 42:0.41393307 43:0.54852879 44:0.36204502 45:0.47795475 46:0.80345911 47:0.56754118 48:0.55413443 49:0.73816878 50:0.35508794 51:0.69186062 52:0.67079705 53:0.63064754 54:0.44667953 55:0.68089145 56:0.52493119 57:0.67666245 58:0.43162602 59:0.51809168 60:0.67936873 61:0.38165545 62:0.52358949 63:0.55629063 64:0.17539692 65:0.74893147 66:0.4708629 67:0.53841662 68:0.72183251 69:0.36032325 70:0.61659181 71:0.27430877 72:0.39063987 73:0.38192561 74:0.54628289 75:0.62223911 76:0.60691166 77:0.44600907 78:0.40548229 79:0.67107242 80:0.69698858 81:0.64653039 82:0.52656209 
0 1.843726056965048 1.012598663152312 0 0 0 1.450512054829549 0.4434703468624957 0 0 0 0 0 0 0 0 0 0 0 0 0 1:0.47289652 2:0.50820154 3:0.5925464 4:0.62589979 5:0.52898788 6:0.41738272 7:0.59230131 8:0.56687063 9:0.76150829 10:0.41219622 11:0.3215948 12:0.65677279 13:0.44431141 14:0.58472538 15:0.71123058 16:0.6483081 17:0.6274339 18:0.33418718 19:0.45534277 20:0.58783007 21:0.60556304 22:0.42836171 23:0.3196291 24:0.62113696 25:0.59782958 26:0.34584948 27:0.55197906 28:0.78640527 29:0.26898557 30:0.36540779 31:0.41095507 32:0.5774343 33:0.64609879 34:0.5470444 35:0.65887815 36:0.7473169 37:0.4936617 38:0.53866476 39:0.49890649 40:0.27795643 41:0.57226139 42:0.45549044 43:0.57109344 44:0.15886435 45:0.38555971 46:0.511163 47:0.23882911 48:0.5802598 49:0.64951748 50:0.21429875 51:0.61718953 52:0.45691198 53:0.5403893 54:0.44184515 55:0.41713595 56:0.64457226 57:0.66853762 58:0.57280278 59:0.53205848 60:0.46721679 61:0.37697208 62:0.58520269 63:0.48911145 64:0.24710172 65:0.45595485 66:0.3001028 67:0.49472764 68:0.54897618 69:0.42972144 70:0.5724048 71:0.3229081 72:0.51604962 73:0.37853745 74:0.38056865 75:0.59675866 76:0.65720874 77:0.28781188 78:0.57328939 79:0.50709593 80:0.72818446 81:0.74605757 82:0.44003162 
0 0 0 0 0 0 0 0 0 0 0 0 0 0 0 0 0 0.3335648651823139 0 0 0 1:0.68783361 2:0.58364576 3:0.55323797 4:0.50185472 5:0.53522259 6:0.30543077 7:0.68963212 8:0.54705983 9:0.38383341 10:0.57758182 11:0.36004299 12:0.35771847 13:0.52535075 14:0.34134236 15:0.57444888 16:0.47809371 17:0.73338366 18:0.4124465 19:0.48140258 20:0.63403797 21:0.73950195 22:0.55434358 23:0.67709309 24:0.58497906 25:0.27402189 26:0.63574356 27:0.6548965 28:0.52002937 29:0.41698998 30:0.56880069 31:0.47532594 32:0.56925499 33:0.47266993 34:0.37911239 35:0.39512497 36:0.61671489 37:0.31845993 38:0.61836421 39:0.44877642 40:0.70223135 41:0.71685201 42:0.38449988 43:0.8050139 44:0.55755347 45:0.5626018 46:0.58968037 47:0.46663377 48:0.44151023 49:0.70539731 50:0.54508847 51:0.59021956 52:0.70183253 53:0.46728051 54:0.28222796 55:0.51689452 56:0.56300992 57:0.67243135 58:0.58788377 59:0.53123325 60:0.58951819 61:0.33517247 62:0.62497151 63:0.6412667 64:0.11495014 65:0.64595914 66:0.15421052 67:0.68764895 68:0.59119344 69:0.39502341 70:0.5205 71:0.32085058 72:0.39473617 73:0.3193087 74:0.4728547 75:0.54407388 76:0.62637281 77:0.49502373 78:0.34733996 79:0.54472625 80:0.72344679 81:0.67811197 82:0.53046036 
0 0 0 0 1.415876197613959 0 0 0 0 0 0 0 0 0 0.03203936519001008 0 1.167945562632378 0 0 0 0 1:0.46600538 2:0.40968725 3:0.49747002 4:0.52801311 5:0.57277393 6:0.52171862 7:0.4992522 8:0.54599744 9:0.54296976 10:0.3373127 11:0.39325705 12:0.48168233 13:0.57732069 14:0.4076142 15:0.62377071 16:0.70119739 17:0.64450908 18:0.58037752 19:0.59506667 20:0.47734746 21:0.75138426 22:0.49042231 23:0.51628178 24:0.60371059 25:0.51981789 26:0.53670037 27:0.77202857 28:0.45232019 29:0.65429997 30:0.31422058 31:0.60287595 32:0.45160761 33:0.51869094 34:0.46728957 35:0.48911667 36:0.63732749 37:0.59679753 38:0.63429904 39:0.47758073 40:0.72347713 41:0.67879534 42:0.36619318 43:0.72926182 44:0.44577819 45:0.33187002 46:0.43406913 47:0.38389015 48:0.41202 49:0.6724956 50:0.57327521 51:0.58919346 52:0.6339094 53:0.39883485 54:0.32588777 55:0.46370187 56:0.52363569 57:0.5345028 58:0.6363343 59:0.49160266 60:0.5042845 61:0.29538187 62:0.48740846 63:0.57868439 64:0.083007529 65:0.62377954 66:0.16951995 67:0.49401554 68:0.52185935 69:0.24135464 70:0.47184631 71:0.29295173 72:0.62307763 73:0.41718099 74:0.46303615 75:0.70855457 76:0.5936861 77:0.22888198 78:0.5066303 79:0.55564624 80:0.67933184 81:0.70059252 82:0.41231835 
0 0.10746567580456 0.04554429661419319 0 0 0 0 0.1061908834262716 1.876104656495259 0 0 0.9763541880727787 0 0 0 0 0 0 0 0 0 1:0.32535067 2:0.69194305 3:0.43989247 4:0.63753182 5:0.47796822 6:0.44987911 7:0.27730107 8:0.59872061 9:0.48905951 10:0.28763837 11:0.36923686 12:0.4616119 13:0.51771688 14:0.45697948 15:0.4633719 16:0.62690955 17:0.74981409 18:0.52331758 19:0.41848096 20:0.49102548 21:0.62323695 22:0.43215224 23:0.59751213 24:0.60019058 25:0.31419626 26:0.64482015 27:0.79302889 28:0.42038748 29:0.43572628 30:0.41978979 31:0.47083011 32:0.45243943 33:0.72363675 34:0.4628742 35:0.59035748 36:0.66422945 37:0.46932912 38:0.74020427 39:0.47699434 40:0.70258683 41:0.56576103 42:0.35959476 43:0.79976743 44:0.42134798 45:0.46226877 46:0.43372861 47:0.44115573 48:0.61495966 49:0.83746374 50:0.4389613 51:0.50232565 52:0.57713252 53:0.5696488 54:0.35097671 55:0.4689579 56:0.569965 57:0.46759805 58:0.60212767 59:0.55453402 60:0.53722447 61:0.33296689 62:0.52626961 63:0.48610738 64:0.14559425 65:0.60430336 66:0.19059432 67:0.55360442 68:0.68055755 69:0.28380784 70:0.45879033 71:0.45574585 72:0.59377021 73:0.41159865 74:0.4835704 75:0.59934831 76:0.7021445 77:0.29962569 78:0.51870704 79:0.61714381 80:0.69379121 81:0.6577009 82:0.44231418 
0 0 0 0 0.1947085461240658 0 0 0 0 0 0 0 0 0 0 0 0 0 0 0 0.1583352264342236 1:0.28427854 2:0.6679911 3:0.4540998 4:0.59154993 5:0.58836758 6:0.42765674 7:0.34328145 8:0.55555505 9:0.40747622 10:0.35626686 11:0.34778655 12:0.32065248 13:0.5577088 14:0.40098375 15:0.49349171 16:0.61741424 17:0.67072719 18:0.54652703 19:0.3898645 20:0.35168779 21:0.56372774 22:0.48516625 23:0.3924545 24:0.56492907 25:0.29729763 26:0.49688819 27:0.80882365 28:0.45806146 29:0.53104931 30:0.64869696 31:0.55067778 32:0.39257929 33:0.60977805 34:0.4530344 35:0.61629367 36:0.71902984 37:0.54171139 38:0.6402874 39:0.56909943 40:0.68216914 41:0.57713753 42:0.41916022 43:0.70178378 44:0.45333201 45:0.46181947 46:0.45263076 47:0.40234053 48:0.5108732 49:0.66931772 50:0.48540246 51:0.63125336 52:0.56721306 53:0.52397877 54:0.39412975 55:0.39887106 56:0.56518298 57:0.43167835 58:0.75126702 59:0.57304227 60:0.56022668 61:0.31728813 62:0.4993816 63:0.61560053 64:0.14790824 65:0.60483956 66:0.19513111 67:0.50470996 68:0.68987322 69:0.26078448 70:0.44229692 71:0.39251804 72:0.51033551 73:0.39603138 74:0.50362194 75:0.51947433 76:0.6903761 77:0.33345401 78:0.49309909 79:0.58721161 80:0.70713985 81:0.66261923 82:0.42194444 
0.7401315513296245 0 0.8994436067820765 1.224379031257537 0 1.781490086938335 0.7256883965512739 0 0 0 0 0 1.025629551947305 1.049780474138168 2.431906885987424 2.910893396022004 1.596256450920986 0 0 0 0 1:0.27501914 2:0.50953609 3:0.41241828 4:0.58401442 5:0.64158857 6:0.5979138 7:0.29077041 8:0.47867626 9:0.33062139 10:0.61102968 11:0.3958945 12:0.31107396 13:0.43482032 14:0.5058006 15:0.34464815 16:0.55754817 17:0.63891959 18:0.47927344 19:0.47626573 20:0.45150083 21:0.52732188 22:0.47938561 23:0.51350546 24:0.52729833 25:0.36161613 26:0.54818571 27:0.6245203 28:0.43152505 29:0.48895374 30:0.53903049 31:0.43126172 32:0.52204138 33:0.5426777 34:0.43320331 35:0.45641303 36:0.53872299 37:0.45197761 38:0.68368047 39:0.34709311 40:0.67945796 41:0.5292173 42:0.33747575 43:0.68768996 44:0.40814275 45:0.49564537 46:0.48182717 47:0.38583213 48:0.47301653 49:0.7472707 50:0.56760895 51:0.60763699 52:0.55656278 53:0.4257389 54:0.28500718 55:0.46018603 56:0.66447926 57:0.6157707 58:0.64799649 59:0.58913672 60:0.55330014 61:0.31561747 62:0.51245487 63:0.55338514 64:0.23287803 65:0.67162251 66:0.2007817 67:0.43802887 68:0.61348975 69:0.24658799 70:0.52558035 71:0.30925608 72:0.50969887 73:0.4867644 74:0.45622054 75:0.63281399 76:0.61116982 77:0.31112269 78:0.40272394 79:0.77826059 80:0.69268942 81:0.7121709 82:0.45730856 
0 1.647528244360575 0 0 0 0 0 0 0 0 0.1623168242952379 0 0.3000357539603525 0 0 0 0 0 0 0 0 1:0.41812736 2:0.55237979 3:0.21879022 4:0.47763699 5:0.57778829 6:0.43831664 7:0.54324645 8:0.79979724 9:0.44876543 10:0.48444438 11:0.4627538 12:0.33707306 13:0.44758683 14:0.42302355 15:0.32676309 16:0.57021052 17:0.61468244 18:0.70367682 19:0.32989186 20:0.34343144 21:0.50259042 22:0.42666391 23:0.457445 24:0.69050419 25:0.4524644 26:0.7091738 27:0.64021558 28:0.44568178 29:0.38967183 30:0.28932837 31:0.43429956 32:0.38371032 33:0.52236885 34:0.33189368 35:0.48283339 36:0.68906361 37:0.38844684 38:0.60533428 39:0.48466271 40:0.7143845 41:0.59692156 42:0.20747826 43:0.76841956 44:0.48226583 45:0.22047581 46:0.44571114 47:0.34474769 48:0.44242772 49:0.71267426 50:0.39522564 51:0.52288359 52:0.92755336 53:0.43042755 54:0.37198842 55:0.42655376 56:0.79947257 57:0.36330685 58:0.60121518 59:0.6989674 60:0.68981093 61:0.35440981 62:0.63351595 63:0.68238753 64:0.40517354 65:0.70290279 66:0.094348334 67:0.50574672 68:0.64354926 69:0.321394 70:0.5036031 71:0.40033391 72:0.3941454 73:0.2965396 74:0.4650532 75:0.41792434 76:0.61546057 77:0.44232678 78:0.35621992 79:0.43778867 80:0.81348735 81:0.64550871 82:0.4861643 
0 0 0 0.5642137813907904 0 0 0 0 0 0 0 0 0 0 0 0 0 0 0 0 0 1:0.29171488 2:0.60749102 3:0.4511103 4:0.60747558 5:0.67830259 6:0.5868237 7:0.38894132 8:0.62033635 9:0.33688694 10:0.44439551 11:0.32065344 12:0.3210324 13:0.51326621 14:0.42996898 15:0.63652217 16:0.65094429 17:0.68828225 18:0.57909244 19:0.38845548 20:0.3144035 21:0.47871637 22:0.54598033 23:0.56380832 24:0.58403647 25:0.33761501 26:0.44981149 27:0.7524792 28:0.43668395 29:0.4656443 30:0.49932796 31:0.50123769 32:0.44000798 33:0.53998339 34:0.43635002 35:0.52797854 36:0.68753982 37:0.51626813 38:0.56445563 39:0.49179047 40:0.5646733 41:0.53941065 42:0.31940374 43:0.70859313 44:0.44333604 45:0.34261295 46:0.41673067 47:0.30308962 48:0.45196158 49:0.64140242 50:0.4841094 51:0.54728156 52:0.58722574 53:0.48513463 54:0.37257043 55:0.2733776 56:0.56056231 57:0.44965562 58:0.73169112 59:0.60041004 60:0.57921135 61:0.27260289 62:0.53057992 63:0.68690914 64:0.12386496 65:0.5198915 66:0.2013353 67:0.42076519 68:0.7007969 69:0.24054298 70:0.42580134 71:0.41704938 72:0.47911575 73:0.37900764 74:0.40981546 75:0.54872769 76:0.62342972 77:0.31592393 78:0.53802693 79:0.52563792 80:0.76022995 81:0.65272826 82:0.39831033 
0.006326149974692473 0 0.9874258116001842 0.3480990471720565 0 0.1763215842934473 0.1226128614320179 0 0 0 0 0.6689364772738072 2.123424457808459 1.19259719233727 0.01970948869227255 0 1.209407574434879 0 0 0 1.978674960316325 1:0.28661996 2:0.366705 3:0.4456037 4:0.63124067 5:0.5031535 6:0.44053245 7:0.53692943 8:0.61712617 9:0.30296925 10:0.53742999 11:0.37952733 12:0.49852896 13:0.33779648 14:0.51260352 15:0.56320065 16:0.5967285 17:0.55661052 18:0.42382303 19:0.36729458 20:0.59163672 21:0.55056351 22:0.5999499 23:0.48133671 24:0.5886234 25:0.45366821 26:0.57634979 27:0.62794644 28:0.41660795 29:0.30991414 30:0.62503809 31:0.55206972 32:0.44824827 33:0.61961251 34:0.43939203 35:0.35257083 36:0.50028664 37:0.38604638 38:0.61091495 39:0.55968571 40:0.83371675 41:0.61263311 42:0.51060432 43:0.63612372 44:0.4297362 45:0.44695672 46:0.42028317 47:0.43652317 48:0.39523202 49:0.75391084 50:0.47421551 51:0.6138764 52:0.56687975 53:0.5141477 54:0.2703867 55:0.54680771 56:0.57774466 57:0.62358469 58:0.63531095 59:0.63655496 60:0.57356274 61:0.4159185 62:0.55211395 63:0.62386334 64:0.20234919 65:0.67343825 66:0.19552945 67:0.62310225 68:0.7831381 69:0.30012968 70:0.50674343 71:0.34860682 72:0.44074735 73:0.40211689 74:0.4257347 75:0.5452472 76:0.59316707 77:0.45343834 78:0.34422418 79:0.66428196 80:0.67461181 81:0.64817625 82:0.47883001 
0 0 0 1.299760637702057 0 0 0 0 0.3224186359020746 0 0 0 0 0 0 0 0 0.003171630220667948 0 0 0 1:0.34030163 2:0.51505303 3:0.5753938 4:0.47463259 5:0.4346869 6:0.45651612 7:0.34570348 8:0.77225488 9:0.32756105 10:0.38127291 11:0.32086724 12:0.35674495 13:0.47176269 14:0.41828126 15:0.58847129 16:0.66589785 17:0.59551841 18:0.59488994 19:0.4499937 20:0.3322655 21:0.59115523 22:0.62594378 23:0.41242081 24:0.60026443 25:0.14598848 26:0.68800366 27:0.73999906 28:0.33994296 29:0.61795086 30:0.61830372 31:0.48332149 32:0.41109219 33:0.69659257 34:0.52607805 35:0.38218519 36:0.60454434 37:0.50861865 38:0.62514538 39:0.63864464 40:0.70607573 41:0.50564361 42:0.29961589 43:0.69342554 44:0.57899165 45:0.61979753 46:0.49768203 47:0.47655454 48:0.49429047 49:0.727045 50:0.55456764 51:0.58243442 52:0.63513094 53:0.56157708 54:0.42014617 55:0.42030901 56:0.60468912 57:0.56731838 58:0.72320169 59:0.56513149 60:0.57490939 61:0.30037495 62:0.58333254 63:0.68584698 64:0.093387939 65:0.57302141 66:0.19792344 67:0.59197628 68:0.79402727 69:0.3392354 70:0.4369109 71:0.37796971 72:0.48892999 73:0.29098207 74:0.57302934 75:0.41307494 76:0.67711222 77:0.43812275 78:0.39362398 79:0.52674741 80:0.71711457 81:0.59711379 82:0.48336747 
0 0 0.7103795647649753 0 0.1435463895329807 0 0.8952696813958538 0.3188446848004853 0 0 0 0.3990084757582766 0 0 0 0 0 0 0 0 0 1:0.24277809 2:0.73287022 3:0.31542262 4:0.50396103 5:0.6562078 6:0.67111081 7:0.35797575 8:0.59099489 9:0.38679892 10:0.7453739 11:0.35774636 12:0.47244772 13:0.473481 14:0.37238786 15:0.4863618 16:0.6429376 17:0.70636237 18:0.51832002 19:0.41589862 20:0.47876668 21:0.53810281 22:0.70942593 23:0.57566106 24:0.58565438 25:0.20604844 26:0.53356779 27:0.72132272 28:0.39074856 29:0.47624764 30:0.43567556 31:0.47586009 32:0.3457301 33:0.49922457 34:0.50332898 35:0.5556581 36:0.65282118 37:0.54670441 38:0.52396029 39:0.44916159 40:0.47714064 41:0.5587799 42:0.38007948 43:0.76419693 44:0.39411032 45:0.23482873 46:0.5388518 47:0.28613946 48:0.36591074 49:0.64894801 50:0.53308207 51:0.58758044 52:0.61813593 53:0.43626741 54:0.43459412 55:0.29961008 56:0.59107536 57:0.44383818 58:0.69097883 59:0.60373211 60:0.52086174 61:0.31610292 62:0.50811958 63:0.67272228 64:0.2217873 65:0.56838626 66:0.22465517 67:0.4373641 68:0.69423181 69:0.25338355 70:0.47638565 71:0.29367679 72:0.37611181 73:0.36238185 74:0.34460828 75:0.58839095 76:0.52733964 77:0.36684495 78:0.45208752 79:0.56955552 80:0.82913882 81:0.65263963 82:0.41287157 
0 0 0 0 0 0 0 0 0 0 0 0 0.1138369891017447 0 0.02962316603220423 0 0 0 0 0 0 1:0.22205335 2:0.69981575 3:0.4685168 4:0.58436686 5:0.69852602 6:0.55044013 7:0.39486137 8:0.51699066 9:0.35284486 10:0.41312754 11:0.45036295 12:0.33382145 13:0.54086453 14:0.48824266 15:0.60707802 16:0.63999766 17:0.63445383 18:0.57934058 19:0.42885277 20:0.26713556 21:0.46897945 22:0.55373222 23:0.42445391 24:0.62501663 25:0.39636809 26:0.47918311 27:0.7508322 28:0.40897685 29:0.55584627 30:0.56047702 31:0.39933568 32:0.35864583 33:0.54653221 34:0.36148542 35:0.63537568 36:0.63457042 37:0.59006351 38:0.62200052 39:0.52623045 40:0.56028837 41:0.61757135 42:0.38124791 43:0.70862579 44:0.4426401 45:0.39277142 46:0.51628268 47:0.3431752 48:0.47152415 49:0.64819056 50:0.46432939 51:0.53467864 52:0.46667194 53:0.49032554 54:0.36005074 55:0.35119832 56:0.6086272 57:0.41901767 58:0.68313456 59:0.55619144 60:0.55242538 61:0.31052259 62:0.55794078 63:0.60396892 64:0.14119211 65:0.50645077 66:0.2760776 67:0.44819638 68:0.6899758 69:0.23600191 70:0.44477683 71:0.3969444 72:0.40199739 73:0.37402135 74:0.36841092 75:0.57808256 76:0.59066522 77:0.31971708 78:0.51628095 79:0.58793378 80:0.73459381 81:0.69175506 82:0.43888545 
0.6985103464678777 0 0 0 0 0 0 0 0 0 0 0 0 0.03317041000146584 0 0 0 0 0 0 0 1:0.29462728 2:0.63955939 3:0.31121621 4:0.53589559 5:0.62147975 6:0.61750698 7:0.41913438 8:0.69700843 9:0.40069747 10:0.49571928 11:0.36995336 12:0.51764536 13:0.41144636 14:0.28858048 15:0.43193698 16:0.70938122 17:0.53144467 18:0.3757728 19:0.40822753 20:0.49724841 21:0.56462783 22:0.63024652 23:0.53566068 24:0.42220137 25:0.36693487 26:0.56632322 27:0.69597471 28:0.38075566 29:0.56996971 30:0.5362488 31:0.53548259 32:0.33757666 33:0.69402075 34:0.3744103 35:0.41433442 36:0.57746148 37:0.56599963 38:0.61916429 39:0.51850164 40:0.58217049 41:0.59680784 42:0.2167182 43:0.69830495 44:0.41630256 45:0.4421601 46:0.51320642 47:0.38574612 48:0.37631509 49:0.6727255 50:0.46485105 51:0.51002282 52:0.53507745 53:0.50321829 54:0.33597875 55:0.40504643 56:0.5905453 57:0.44876939 58:0.5635882 59:0.59082365 60:0.50708008 61:0.30066273 62:0.48299238 63:0.55329221 64:0.21771501 65:0.47276744 66:0.25799957 67:0.47020939 68:0.73990822 69:0.22098358 70:0.46710584 71:0.41627941 72:0.34660292 73:0.38349938 74:0.41793615 75:0.61263818 76:0.59662628 77:0.30044526 78:0.49404639 79:0.55696231 80:0.71664387 81:0.75617701 82:0.42859071 
0.5501935781376229 0 0 0 2.356494714387018 1.214257551476996 0 0.1266580533611767 0.9016631807843748 0.1921829633914492 0.7433923375574214 0.5470811155773484 0.6864311893044817 1.239294897460087 1.638903817473271 0.762364882224331 2.648303725125097 2.361038189367215 0 2.200509539206097 2.094192288176159 1:0.42819008 2:0.52509683 3:0.34944877 4:0.28564191 5:0.69183201 6:0.55745375 7:0.44709715 8:0.53377599 9:0.36987492 10:0.44349107 11:0.31272748 12:0.35885364 13:0.32315835 14:0.21107817 15:0.49904612 16:0.58818251 17:0.44422367 18:0.60709161 19:0.46384808 20:0.29152307 21:0.63792562 22:0.84512013 23:0.26419082 24:0.51487172 25:0.52058965 26:0.59557045 27:0.77398455 28:0.32556066 29:0.70553708 30:0.45359939 31:0.4172481 32:0.37437817 33:0.51531601 34:0.52925098 35:0.47898754 36:0.5488314 37:0.5207839 38:0.61115694 39:0.60563755 40:0.46283591 41:0.53791606 42:0.32620135 43:0.61961746 44:0.5550614 45:0.30520672 46:0.59722972 47:0.39208791 48:0.39278772 49:0.65138334 50:0.49889719 51:0.44786134 52:0.66229433 53:0.3844294 54:0.31629029 55:0.32984042 56:0.55116534 57:0.4725877 58:0.59051341 59:0.58545321 60:0.61689132 61:0.34054211 62:0.56608564 63:0.66622019 64:0.22494754 65:0.48709205 66:0.27863705 67:0.64164138 68:0.79425812 69:0.28894392 70:0.39746395 71:0.36051908 72:0.39147383 73:0.1429496 74:0.41806582 75:0.36121255 76:0.55637783 77:0.49804723 78:0.46174869 79:0.32295606 80:0.70287156 81:0.64312911 82:0.47141194 
0 0 0.05338226318347554 0 0 0 0 0 0 0 0 0 1.142288233777897 0 0 0 0 0 0 0 0 1:0.6555028 2:0.7121408 3:0.41556263 4:0.7324664 5:0.59749997 6:0.51430851 7:0.63608408 8:0.44369331 9:0.61669606 10:0.46026033 11:0.47024587 12:0.53368193 13:0.66278279 14:0.52067941 15:0.37870106 16:0.35611814 17:0.55113137 18:0.54087478 19:0.45170397 20:0.64349419 21:0.52546293 22:0.46321291 23:0.60402238 24:0.33850631 25:0.51966214 26:0.39044082 27:0.62837893 28:0.53245038 29:0.76325977 30:0.48510981 31:0.58956909 32:0.57888061 33:0.68159956 34:0.42655641 35:0.35365438 36:0.6901381 37:0.75689471 38:0.53823888 39:0.46486315 40:0.71890301 41:0.70182848 42:0.47552967 43:0.6961295 44:0.69775236 45:0.69203442 46:0.69557554 47:0.38549668 48:0.47569492 49:0.68681008 50:0.54288834 51:0.48675931 52:0.38385755 53:0.48499805 54:0.35428751 55:0.52011454 56:0.57451475 57:0.59812188 58:0.47019303 59:0.40451068 60:0.58071619 61:0.34017837 62:0.69036478 63:0.51271099 64:0 65:0.55211717 66:0.16137975 67:0.5100311 68:0.55408853 69:0.18818097 70:0.48710066 71:0.34360734 72:0.56782436 73:0.3739728 74:0.39683264 75:0.72186261 76:0.62874079 77:0.25307843 78:0.49276373 79:0.65424919 80:0.58305633 81:0.63689351 82:0.49927345 
0 0 0 1.548512109556106 0 0 0 0.6415145990170205 2.844229787661167 0 1.450826973541874 0 0 0 0 0 0 0 0 0 0.2165196533117204 1:0.30479163 2:0.61366713 3:0.39844501 4:0.56905413 5:0.44444028 6:0.44224948 7:0.52672863 8:0.43431613 9:0.63976991 10:0.33068022 11:0.40455911 12:0.46107924 13:0.61995465 14:0.40575889 15:0.46592188 16:0.42691803 17:0.52240479 18:0.52447593 19:0.4942731 20:0.49536455 21:0.45052162 22:0.50552076 23:0.55910236 24:0.49811018 25:0.63224089 26:0.4010112 27:0.52595997 28:0.45285502 29:0.79446661 30:0.46905661 31:0.54181778 32:0.51048893 33:0.67481959 34:0.40873197 35:0.2954182 36:0.56737375 37:0.68728304 38:0.60286427 39:0.60313296 40:0.68405724 41:0.5920915 42:0.50522006 43:0.68096489 44:0.63999879 45:0.84364319 46:0.70851254 47:0.46437225 48:0.63008994 49:0.71558589 50:0.53721362 51:0.47472936 52:0.3387087 53:0.48754531 54:0.29952067 55:0.47401801 56:0.57452923 57:0.51302522 58:0.48247662 59:0.39284217 60:0.55586582 61:0.38535988 62:0.73936379 63:0.5558871 64:0.040505294 65:0.56497562 66:0.18329221 67:0.52644646 68:0.6210593 69:0.25490025 70:0.46232113 71:0.43906495 72:0.55874407 73:0.3799808 74:0.44201824 75:0.66002029 76:0.70902324 77:0.26609173 78:0.51558739 79:0.58533895 80:0.53427279 81:0.59852654 82:0.4884097 
0 0 0 0 0 0 0 0.1432399164031735 0 0 0 0.6915075850531656 0 0 0 0 0 0 0.04774658873653907 2.294204508189509 0.757678849019739 1:0.36729765 2:0.54008675 3:0.53064489 4:0.42352277 5:0.33884153 6:0.31592825 7:0.55767196 8:0.60669887 9:0.50729823 10:0.51151997 11:0.62629485 12:0.36050943 13:0.59758115 14:0.17829575 15:0.31387177 16:0.51616472 17:0.52175379 18:0.52358377 19:0.40567228 20:0.58967555 21:0.55045617 22:0.65114069 23:0.42765573 24:0.36166885 25:0.33831939 26:0.70319742 27:0.47584614 28:0.52721357 29:0.80107373 30:0.67009038 31:0.57617122 32:0.44091487 33:0.6428327 34:0.3645072 35:0.1633441 36:0.56730765 37:0.78476936 38:0.50637162 39:0.45532468 40:0.76391208 41:0.6577391 42:0.38581437 43:0.65424603 44:0.72345549 45:0.79592657 46:0.7783249 47:0.52957636 48:0.40790886 49:0.8239606 50:0.68031389 51:0.5343262 52:0.43040195 53:0.5242824 54:0.22151075 55:0.5830133 56:0.53240681 57:0.48062938 58:0.47164437 59:0.41050524 60:0.72022122 61:0.41775355 62:0.74736953 63:0.56134486 64:0.13015072 65:0.60792798 66:0.14719582 67:0.71646965 68:0.7122584 69:0.2575368 70:0.39293191 71:0.31618935 72:0.38676226 73:0.21731004 74:0.43487296 75:0.54966301 76:0.6357128 77:0.44513997 78:0.37984049 79:0.47821257 80:0.60306954 81:0.53762203 82:0.55641997 
0 0 0 0 0 0 0 0.5874290024125272 0 0 0 0 0 0 0 0 0 0 0 0 0 1:0.32457671 2:0.60903352 3:0.49381348 4:0.62497836 5:0.46416196 6:0.3993732 7:0.47518441 8:0.50458485 9:0.54535908 10:0.29577214 11:0.58035934 12:0.27735028 13:0.55503255 14:0.47126132 15:0.40660965 16:0.52339542 17:0.42736694 18:0.52322972 19:0.51655275 20:0.610425 21:0.42283472 22:0.42081711 23:0.48780936 24:0.54802012 25:0.54704851 26:0.66445059 27:0.45735666 28:0.39793813 29:0.67669821 30:0.53963494 31:0.62290889 32:0.48528942 33:0.63401365 34:0.36760911 35:0.21031897 36:0.52858156 37:0.52332145 38:0.64982367 39:0.35328767 40:0.66795802 41:0.57157689 42:0.4837251 43:0.67793572 44:0.56598246 45:0.73016381 46:0.67849731 47:0.45663095 48:0.63862246 49:0.77138114 50:0.50572801 51:0.48995543 52:0.46070904 53:0.49046457 54:0.27105185 55:0.57574397 56:0.57659149 57:0.52918261 58:0.51376408 59:0.47794181 60:0.60008603 61:0.24090384 62:0.6841898 63:0.578309 64:0.21844491 65:0.62762845 66:0.11985524 67:0.50584704 68:0.55659068 69:0.21619502 70:0.50727963 71:0.32695791 72:0.50210601 73:0.3582038 74:0.38960075 75:0.74225432 76:0.64430648 77:0.24141215 78:0.41654935 79:0.70218831 80:0.60509574 81:0.60902357 82:0.50988519 
0 0 0.2159480766160934 0 0 0 0 0 0 0 0 0 0 0 0 0 0 0 0 0 0 1:0.43867528 2:0.55656976 3:0.61110067 4:0.44719729 5:0.39428151 6:0.38425776 7:0.57173038 8:0.52976489 9:0.42484736 10:0.46364817 11:0.51565474 12:0.55765641 13:0.73841792 14:0.50289232 15:0.50475639 16:0.46321073 17:0.58945727 18:0.42945206 19:0.47894594 20:0.69572353 21:0.41051531 22:0.61116552 23:0.51666623 24:0.45625418 25:0.40347382 26:0.61276317 27:0.5316726 28:0.41996601 29:0.70095068 30:0.55298442 31:0.53811359 32:0.53534156 33:0.64908838 34:0.44013402 35:0.20719799 36:0.3881993 37:0.67360193 38:0.60833031 39:0.43844143 40:0.84261882 41:0.63821965 42:0.40897653 43:0.61359066 44:0.66925645 45:0.71251142 46:0.65825754 47:0.45349941 48:0.46011809 49:0.83730978 50:0.59472269 51:0.51108927 52:0.49784473 53:0.52304643 54:0.26961535 55:0.58876091 56:0.64265847 57:0.56437343 58:0.45828396 59:0.45286122 60:0.63086569 61:0.38691923 62:0.79032469 63:0.62348843 64:0.08137209 65:0.60221225 66:0.16230124 67:0.62898356 68:0.72589517 69:0.2474042 70:0.3423188 71:0.38560477 72:0.41749755 73:0.21622148 74:0.38580361 75:0.62390572 76:0.65016532 77:0.41589168 78:0.41555923 79:0.51124477 80:0.58674562 81:0.54803288 82:0.55125666 
0 0.4531704147348409 0.2205867322356069 0 0 0 0.008034423078026119 0 0 0 0 0.5402465519942634 1.294655167168224 0.07588455700469836 0 0 0 0.4516851282825511 0.3595317493413932 0 0 1:0.50099593 2:0.50819814 3:0.46370846 4:0.37963647 5:0.46259236 6:0.35630405 7:0.52415437 8:0.43469054 9:0.53224587 10:0.38771847 11:0.6392988 12:0.23597747 13:0.45846432 14:0.33649585 15:0.40289134 16:0.59183598 17:0.5709855 18:0.44161975 19:0.5939616 20:0.64089507 21:0.60035825 22:0.52325344 23:0.53638864 24:0.5235675 25:0.41713715 26:0.62436855 27:0.48178726 28:0.58651727 29:0.82566363 30:0.63482016 31:0.62563741 32:0.42167038 33:0.6369158 34:0.36301234 35:0.15651317 36:0.46731412 37:0.63855273 38:0.58069068 39:0.37174451 40:0.62323737 41:0.72448981 42:0.49834281 43:0.79567939 44:0.65324461 45:0.84374315 46:0.77707374 47:0.51999861 48:0.64091176 49:0.7619518 50:0.66570103 51:0.55333865 52:0.45699069 53:0.49148232 54:0.20548455 55:0.58465421 56:0.57129526 57:0.5322389 58:0.45201108 59:0.40206245 60:0.67359096 61:0.32041085 62:0.71005994 63:0.53274828 64:0.14011544 65:0.56425065 66:0.059135262 67:0.53669995 68:0.63977456 69:0.25847402 70:0.41657108 71:0.40476194 72:0.52603751 73:0.31777257 74:0.4738574 75:0.55856669 76:0.73600894 77:0.33536804 78:0.44771379 79:0.4298704 80:0.58180302 81:0.59623414 82:0.53356433 
0 2.31524334422808 0.3563304082471851 1.1005518233966 0 0.2095286054034929 0 0 0.4983255316436153 0 0.2252808656410387 0 0 1.04664291828007 0 0 0.8099456919273229 0 0 0 0 1:0.12364665 2:0.69972605 3:0.44318935 4:0.53220701 5:0.46033645 6:0.4755252 7:0.69784588 8:0.40507588 9:0.5699572 10:0.40583494 11:0.41536349 12:0.41944432 13:0.57572627 14:0.38746375 15:0.5636856 16:0.52573001 17:0.49070731 18:0.51927447 19:0.42529145 20:0.57303083 21:0.34699756 22:0.65270299 23:0.51135159 24:0.50668526 25:0.51509881 26:0.52564508 27:0.53790468 28:0.35223204 29:0.62887567 30:0.48419067 31:0.61922622 32:0.56187779 33:0.56011921 34:0.45869642 35:0.45673773 36:0.63347727 37:0.55369568 38:0.57048243 39:0.57138741 40:0.53571439 41:0.62787294 42:0.40903804 43:0.60548013 44:0.61327767 45:0.56762022 46:0.74038106 47:0.37754694 48:0.45289996 49:0.56731468 50:0.50005078 51:0.53639656 52:0.4813908 53:0.40120417 54:0.33126301 55:0.38421291 56:0.65726203 57:0.46787894 58:0.56854957 59:0.4767172 60:0.57515323 61:0.29580516 62:0.7252261 63:0.64721948 64:0.13987157 65:0.46878403 66:0.22139457 67:0.44911596 68:0.65409571 69:0.19381501 70:0.44167179 71:0.38208988 72:0.33558244 73:0.29811943 74:0.31166977 75:0.62987208 76:0.59019583 77:0.30169123 78:0.53831547 79:0.59107512 80:0.60997081 81:0.62650764 82:0.45306373 
0 0 0 0 0 0 2.058780520943685 0 0 0 0 0 0 0 0 0 0 0 0 0 0 1:0.1374785 2:0.67842114 3:0.44980955 4:0.51830059 5:0.45256346 6:0.46738559 7:0.70662755 8:0.41396272 9:0.57173622 10:0.41496643 11:0.40274745 12:0.44857544 13:0.55906123 14:0.37002444 15:0.59477913 16:0.50841308 17:0.53440338 18:0.50115144 19:0.42901227 20:0.56241089 21:0.35533562 22:0.65065885 23:0.51904613 24:0.5086118 25:0.52752054 26:0.53645307 27:0.52518409 28:0.35314658 29:0.63384986 30:0.47563535 31:0.62473339 32:0.57468164 33:0.56736082 34:0.43315235 35:0.47563499 36:0.62924343 37:0.53969681 38:0.55987638 39:0.53777808 40:0.52647108 41:0.63543433 42:0.41842037 43:0.5987072 44:0.62281555 45:0.56063938 46:0.71736062 47:0.37328526 48:0.44646299 49:0.57385653 50:0.50704259 51:0.54944968 52:0.49670208 53:0.37838939 54:0.32608041 55:0.37921581 56:0.66616547 57:0.44876993 58:0.57655412 59:0.47543696 60:0.59249395 61:0.29309854 62:0.73033941 63:0.64725888 64:0.1591167 65:0.47680211 66:0.20057085 67:0.4438886 68:0.64809728 69:0.19850278 70:0.44122866 71:0.36233875 72:0.34273851 73:0.29301009 74:0.31469521 75:0.64108229 76:0.58490425 77:0.29766795 78:0.53515685 79:0.59113818 80:0.61011696 81:0.62715781 82:0.45534784 
0 0 0.4731477603064284 0 0 0 0.08174581437338148 0 0 0 0.190762337955603 0 0.01312309534780876 0 0 0 0 0 0 0 0 1:0.48130232 2:0.58219004 3:0.37402713 4:0.66798097 5:0.5518713 6:0.68150538 7:0.68928832 8:0.43261483 9:0.39411616 10:0.4612222 11:0.49199596 12:0.43893468 13:0.39288211 14:0.48914897 15:0.63903069 16:0.60710216 17:0.49059969 18:0.54491556 19:0.4456155 20:0.53504479 21:0.51944298 22:0.61398691 23:0.5947724 24:0.46493489 25:0.5079723 26:0.61828572 27:0.74041891 28:0.38716143 29:0.70099437 30:0.52544594 31:0.47840178 32:0.52912444 33:0.58747238 34:0.32952008 35:0.31743631 36:0.519844 37:0.51577961 38:0.7163353 39:0.32303932 40:0.65342867 41:0.5546661 42:0.47771585 43:0.74009228 44:0.56313139 45:0.47683886 46:0.68360341 47:0.30978391 48:0.56214613 49:0.65531522 50:0.6307897 51:0.45218408 52:0.61734188 53:0.40480995 54:0.24719715 55:0.39442587 56:0.6807586 57:0.49325669 58:0.62586874 59:0.43999934 60:0.65765649 61:0.31415427 62:0.7386114 63:0.61512089 64:0.21022232 65:0.47563565 66:0.16776778 67:0.48756728 68:0.65947264 69:0.16381298 70:0.38763967 71:0.40966168 72:0.38651115 73:0.21986227 74:0.34812817 75:0.51417941 76:0.65158027 77:0.37355471 78:0.61903059 79:0.31985056 80:0.69059008 81:0.69497079 82:0.43466994 
0 0 0.2387335227331656 0 0 0 0.611522975348053 1.589604841193224 0 0 0 0 0 1.343106343460011 0 0 0.6658672818162712 0 1.959905937471149 1.796523755782771 1.068291373964974 1:0.57764924 2:0.38866851 3:0.41150624 4:0.59056163 5:0.50059557 6:0.63742971 7:0.38906968 8:0.57107556 9:0.67352152 10:0.47936368 11:0.51909995 12:0.5149129 13:0.74102277 14:0.40526411 15:0.72624308 16:0.52946568 17:0.56787264 18:0.29667804 19:0.35066092 20:0.3735418 21:0.70873338 22:0.4301748 23:0.57254297 24:0.52487826 25:0.46221167 26:0.41241521 27:0.66515857 28:0.62928373 29:0.39404786 30:0.39679208 31:0.54755515 32:0.34321389 33:0.55828249 34:0.38728824 35:0.44189301 36:0.68798387 37:0.54491925 38:0.52405572 39:0.39501098 40:0.79459924 41:0.69500399 42:0.33493811 43:0.79972237 44:0.51843995 45:0.43718153 46:0.45127761 47:0.45560351 48:0.37414911 49:0.67302179 50:0.50687265 51:0.52891976 52:0.66803473 53:0.40298221 54:0.3525888 55:0.47175074 56:0.50182867 57:0.66609579 58:0.4472464 59:0.56663775 60:0.5514195 61:0.20925488 62:0.62576258 63:0.53249532 64:0.079099342 65:0.53469348 66:0.19569132 67:0.54451048 68:0.37282157 69:0.33981779 70:0.52027315 71:0.32068643 72:0.47400215 73:0.3882139 74:0.41820058 75:0.71044135 76:0.67287451 77:0.2738547 78:0.48045415 79:0.51360166 80:0.65339053 81:0.74090368 82:0.38634184 
0 0 0 0 0 0 0 0 0 0 0 0 0 0 0 0 0 0 0 0.7867819960948429 0 1:0.72961354 2:0.56939864 3:0.58641011 4:0.48407954 5:0.36299607 6:0.55749154 7:0.5705263 8:0.64498174 9:0.51867616 10:0.66595626 11:0.47960293 12:0.40904385 13:0.3697395 14:0.36304426 15:0.51091868 16:0.42170984 17:0.59525287 18:0.33460972 19:0.46557906 20:0.63184792 21:0.6579507 22:0.52788574 23:0.50731677 24:0.58950931 25:0.31218013 26:0.6144793 27:0.59603363 28:0.4921506 29:0.52667975 30:0.40495998 31:0.54221326 32:0.49159017 33:0.55506885 34:0.50617236 35:0.37058979 36:0.50520182 37:0.4442707 38:0.73686242 39:0.37807471 40:0.56677294 41:0.67591751 42:0.37995186 43:0.75010777 44:0.41016218 45:0.5158338 46:0.57957137 47:0.4432568 48:0.39958122 49:0.83650547 50:0.5860216 51:0.55418319 52:0.57537681 53:0.33524567 54:0.25976774 55:0.52203566 56:0.63265866 57:0.64379436 58:0.45203766 59:0.57520235 60:0.58526975 61:0.41188979 62:0.57149315 63:0.56473744 64:0.16970301 65:0.72775632 66:0.1521714 67:0.73813492 68:0.59845799 69:0.40732834 70:0.521761 71:0.27449679 72:0.44142979 73:0.29291716 74:0.44413954 75:0.56471783 76:0.61169547 77:0.4583593 78:0.32892203 79:0.54971904 80:0.70715171 81:0.72468281 82:0.54734313 
0 0 0 0 0 0.2441980314430587 0 0 0 0 2.371848079331495 0 0 0 0 0 0 0 0 0 0.9938951059306796 1:0.60202211 2:0.50456446 3:0.53450984 4:0.43280935 5:0.43505266 6:0.45631984 7:0.49003935 8:0.64033818 9:0.59240544 10:0.52072823 11:0.46314493 12:0.34295568 13:0.44480208 14:0.51466948 15:0.43239868 16:0.81168288 17:0.72490996 18:0.31765255 19:0.50848478 20:0.4687891 21:0.67306364 22:0.50714213 23:0.39679658 24:0.68134552 25:0.30304056 26:0.58141327 27:0.51033252 28:0.51183522 29:0.61752146 30:0.53978997 31:0.51915789 32:0.36033276 33:0.70060629 34:0.37010625 35:0.30612385 36:0.62322187 37:0.44841373 38:0.65762419 39:0.35906664 40:0.63955188 41:0.71166348 42:0.40414509 43:0.8154127 44:0.57745773 45:0.59499872 46:0.55441803 47:0.52577418 48:0.55931896 49:0.78350711 50:0.48220327 51:0.61187291 52:0.63859105 53:0.52444655 54:0.32591954 55:0.4854207 56:0.57739335 57:0.55390555 58:0.44828513 59:0.57894969 60:0.6629225 61:0.22861956 62:0.69137812 63:0.46944436 64:0.18093817 65:0.581994 66:0.17502253 67:0.55179036 68:0.61788368 69:0.4538106 70:0.53967255 71:0.4636443 72:0.53358978 73:0.35938665 74:0.56825423 75:0.57149255 76:0.80674601 77:0.37025332 78:0.51633376 79:0.52584708 80:0.63748676 81:0.73894811 82:0.476978 
0.7974377233350229 0 0 0.645252351463299 0 0 0 0 0 0 0 0 0 0 0 0 0 0 0 0 0 1:0.6152094 2:0.55266422 3:0.45765322 4:0.53439826 5:0.65703422 6:0.84577954 7:0.70375806 8:0.74797434 9:0.32641688 10:0.62270528 11:0.44744498 12:0.4210555 13:0.24873352 14:0.45183349 15:0.4393822 16:0.5302462 17:0.75947011 18:0.54136443 19:0.22849609 20:0.45567957 21:0.52786714 22:0.5679732 23:0.55004162 24:0.61379278 25:0.61080003 26:0.40310735 27:0.40254787 28:0.59036022 29:0.41929343 30:0.36581546 31:0.53804052 32:0.34279528 33:0.53555483 34:0.46839321 35:0.54546374 36:0.82351363 37:0.31106931 38:0.45137405 39:0.31579164 40:0.61812824 41:0.6413964 42:0.23229022 43:0.67456949 44:0.44507205 45:0.41949347 46:0.51733661 47:0.29995811 48:0.33055076 49:0.59931898 50:0.52235556 51:0.60667622 52:0.70881253 53:0.34214833 54:0.48087355 55:0.307035 56:0.80590463 57:0.50605637 58:0.60421067 59:0.66551894 60:0.69840658 61:0.38549593 62:0.64116371 63:0.79888517 64:0.28338844 65:0.73831153 66:0.18346278 67:0.55986613 68:0.65062797 69:0.39701208 70:0.4432489 71:0.32714382 72:0.43010551 73:0.21435413 74:0.49909487 75:0.37133482 76:0.62446374 77:0.47225124 78:0.4257423 79:0.37393451 80:0.83837622 81:0.66920286 82:0.40940344 
0 0 0 0 0 0 0.4930733630427074 0 0 0 0.01962174656591403 0 0 0 0 0 0 0 0 0.1307332130098486 0 1:0.38170511 2:0.56855524 3:0.62531495 4:0.55075526 5:0.600465 6:0.40797764 7:0.53774059 8:0.6130895 9:0.52932346 10:0.36293364 11:0.45987836 12:0.4912447 13:0.6847558 14:0.49801764 15:0.38015777 16:0.53416908 17:0.55577081 18:0.39706212 19:0.48720983 20:0.43010411 21:0.57093894 22:0.39881355 23:0.49053493 24:0.61624765 25:0.36986345 26:0.7409876 27:0.55050325 28:0.50988531 29:0.37926552 30:0.48556095 31:0.52245218 32:0.42016008 33:0.63735431 34:0.47850525 35:0.32362357 36:0.58967364 37:0.39480585 38:0.59285134 39:0.4357143 40:0.66559732 41:0.56186885 42:0.3388384 43:0.73066342 44:0.44598472 45:0.59030664 46:0.4595162 47:0.5280596 48:0.52687693 49:0.79369128 50:0.495184 51:0.55234754 52:0.54459959 53:0.51994371 54:0.32282209 55:0.55333298 56:0.62003452 57:0.51828754 58:0.51117563 59:0.64279991 60:0.60341948 61:0.29888824 62:0.660456 63:0.47273257 64:0.22100505 65:0.65101039 66:0.1833359 67:0.53136933 68:0.63653862 69:0.4280985 70:0.55469745 71:0.30118325 72:0.51810086 73:0.42105848 74:0.52126265 75:0.74350387 76:0.67954046 77:0.30986664 78:0.37264132 79:0.77294463 80:0.6702854 81:0.67833549 82:0.46743816 
0 0 0.5970867271131034 0 0 0 0.3433264367988295 0 0 0 1.547446667218651 0 0 0 0 0 0 0 0 0 0.02382270661421654 1:0.55966932 2:0.48306528 3:0.5116986 4:0.52770364 5:0.53866661 6:0.55239534 7:0.616539 8:0.72097844 9:0.2795178 10:0.54314297 11:0.54775751 12:0.48244399 13:0.30589008 14:0.47520551 15:0.57346743 16:0.59340924 17:0.72448909 18:0.56950319 19:0.31035513 20:0.37379694 21:0.62308222 22:0.46472278 23:0.52964729 24:0.56905001 25:0.63029414 26:0.5235728 27:0.41207224 28:0.48227859 29:0.49074134 30:0.39176494 31:0.54364246 32:0.41578853 33:0.58266723 34:0.39124319 35:0.46880645 36:0.83144832 37:0.25659293 38:0.5466212 39:0.33371261 40:0.64869106 41:0.70704037 42:0.22598067 43:0.8550964 44:0.49677378 45:0.49978495 46:0.60534829 47:0.39597937 48:0.46124661 49:0.68259233 50:0.51469266 51:0.59517568 52:0.84683782 53:0.40455538 54:0.41787857 55:0.40408078 56:0.784823 57:0.45576036 58:0.60743147 59:0.63243681 60:0.67912543 61:0.29290843 62:0.64055455 63:0.72235817 64:0.33424047 65:0.7352041 66:0.17279409 67:0.54235631 68:0.63870704 69:0.37213159 70:0.45532864 71:0.45339659 72:0.48019293 73:0.22691923 74:0.52373564 75:0.40375164 76:0.67480946 77:0.39864269 78:0.49300221 79:0.3514207 80:0.81315172 81:0.74275714 82:0.3688758 
0 0 0 0.2219467980493317 0 0 0 0.6932437854000576 0.6634414433641753 0 0 0 0 0 0 0 0 0 0 0 0 1:0.39177734 2:0.759534 3:0.4483411 4:0.59531564 5:0.62750733 6:0.59404302 7:0.47700384 8:0.75849926 9:0.52905691 10:0.39684126 11:0.40098366 12:0.51566231 13:0.48066974 14:0.53217512 15:0.65274793 16:0.58464974 17:0.65516198 18:0.54428589 19:0.28043091 20:0.47521996 21:0.61694032 22:0.44978985 23:0.47256723 24:0.73053771 25:0.54403865 26:0.46132386 27:0.44205236 28:0.60366517 29:0.26650599 30:0.41943043 31:0.61156493 32:0.33775318 33:0.38360581 34:0.31988165 35:0.68001842 36:0.79664928 37:0.42796493 38:0.47302201 39:0.54570389 40:0.59776324 41:0.67117876 42:0.29960129 43:0.74910837 44:0.44922128 45:0.49944025 46:0.40421295 47:0.42093045 48:0.59413904 49:0.6331197 50:0.5123018 51:0.58274537 52:0.69658959 53:0.36092141 54:0.47149444 55:0.30652928 56:0.66369176 57:0.50934476 58:0.53252774 59:0.71320862 60:0.59019631 61:0.25191206 62:0.58968794 63:0.72273922 64:0.24019988 65:0.59971011 66:0.25881013 67:0.42365691 68:0.59101284 69:0.33686092 70:0.48988432 71:0.450187 72:0.43058157 73:0.37145248 74:0.44858971 75:0.51136559 76:0.61407119 77:0.35794544 78:0.43157282 79:0.65416813 80:0.80763614 81:0.75343281 82:0.39426938 
1.577195185624745 0 0.3342375351927555 0 0 0 0 0.05393574209471626 0 0 0.04919339585094682 0.7196460833167065 0 0 2.485224844292786 3.800706158212365 0 1.83350032686614 0.1286955387956089 1.130987993085428 0 1:0.45268849 2:0.76770073 3:0.44966915 4:0.5941323 5:0.57048845 6:0.57324708 7:0.52396923 8:0.68841439 9:0.56513983 10:0.46217537 11:0.3709363 12:0.499008 13:0.48001677 14:0.5080784 15:0.67651874 16:0.59315467 17:0.64372128 18:0.54306793 19:0.25782779 20:0.5292443 21:0.64321661 22:0.52936238 23:0.47296497 24:0.79490536 25:0.52468485 26:0.51707548 27:0.46815449 28:0.57218921 29:0.29668194 30:0.4169037 31:0.65639979 32:0.34748694 33:0.40252957 34:0.4143199 35:0.7316969 36:0.82076406 37:0.43886837 38:0.46116346 39:0.5301221 40:0.56110507 41:0.66089416 42:0.29831669 43:0.71807218 44:0.49757433 45:0.5041796 46:0.46861652 47:0.41286251 48:0.62091392 49:0.6013999 50:0.53362733 51:0.61817825 52:0.70251197 53:0.36753824 54:0.49098364 55:0.30644822 56:0.65039718 57:0.50493717 58:0.52236152 59:0.72863573 60:0.54205835 61:0.24405222 62:0.56888378 63:0.73982984 64:0.24660687 65:0.5968352 66:0.25141788 67:0.44078726 68:0.59280777 69:0.33347449 70:0.48556784 71:0.42069846 72:0.44557768 73:0.39394405 74:0.44027141 75:0.53219306 76:0.5835439 77:0.35958943 78:0.42668688 79:0.63101447 80:0.83103561 81:0.75861287 82:0.38377643 
0 0 0 0 1.455921272358639 0 0 0 0 0 0 0 0 0 0 0 0 0 0 0.3108685471119833 0 1:0.62448543 2:0.61571229 3:0.31855354 4:0.46515849 5:0.54006827 6:0.55643624 7:0.50523829 8:0.52345473 9:0.6288771 10:0.59540427 11:0.4966172 12:0.49147356 13:0.73987454 14:0.34147587 15:0.71551788 16:0.48525679 17:0.57226413 18:0.58449751 19:0.5315454 20:0.49181327 21:0.47742409 22:0.51895499 23:0.61287278 24:0.50332958 25:0.45006901 26:0.44596818 27:0.6893245 28:0.59509689 29:0.69263291 30:0.4037998 31:0.49269095 32:0.34339878 33:0.51577777 34:0.35907501 35:0.14777394 36:0.57525522 37:0.64332223 38:0.55445778 39:0.31437066 40:0.7114169 41:0.54678226 42:0.30922037 43:0.68161577 44:0.36892995 45:0.56546181 46:0.77168494 47:0.50911111 48:0.26746279 49:0.71321321 50:0.32148063 51:0.65400505 52:0.53217566 53:0.53110951 54:0.53878254 55:0.63286358 56:0.52419841 57:0.45291147 58:0.42633903 59:0.53949118 60:0.67355633 61:0.33177337 62:0.54616815 63:0.44754463 64:0.067196965 65:0.77051198 66:0.30904493 67:0.52687657 68:0.47642526 69:0.4020482 70:0.46097505 71:0.20878385 72:0.5423944 73:0.39813238 74:0.54886228 75:0.75092208 76:0.69180053 77:0.28961942 78:0.49970964 79:0.46432251 80:0.64502406 81:0.65112531 82:0.43174186 
0 0 0 0 0.4645850142695976 0 0 0 0 0 0 0 0 0 0 0 0 0 0 0 0 1:0.60431153 2:0.61257011 3:0.62180406 4:0.48550066 5:0.26685259 6:0.33758005 7:0.43375576 8:0.61443096 9:0.33161834 10:0.39420933 11:0.33967549 12:0.32115766 13:0.61139083 14:0.36021462 15:0.78374285 16:0.57741594 17:0.63956755 18:0.55495411 19:0.66216236 20:0.58911002 21:0.71017236 22:0.42855629 23:0.44477311 24:0.72391963 25:0.53712457 26:0.43714613 27:0.54753155 28:0.48862746 29:0.68616253 30:0.53088176 31:0.47788778 32:0.28767797 33:0.56729144 34:0.40819046 35:0.21431188 36:0.58066607 37:0.56679219 38:0.5693574 39:0.54537785 40:0.64765936 41:0.51943535 42:0.36459899 43:0.54437768 44:0.44085953 45:0.60730225 46:0.76416945 47:0.62297803 48:0.5082711 49:0.72472316 50:0.38975078 51:0.67004156 52:0.69239509 53:0.58350652 54:0.36437839 55:0.66408819 56:0.48949397 57:0.62960756 58:0.37235618 59:0.47763231 60:0.61203682 61:0.4422352 62:0.58162457 63:0.47393215 64:0.087291084 65:0.7048288 66:0.42479727 67:0.60964996 68:0.7546618 69:0.34870821 70:0.59506267 71:0.28760356 72:0.38167104 73:0.31591767 74:0.56718671 75:0.49814534 76:0.63623518 77:0.52908576 78:0.43769249 79:0.54223591 80:0.69162512 81:0.6532799 82:0.51286697 
0 0 0.3547194996494795 0.1370173467477247 0 0.6723604476824746 0 0 0.6282928147465984 0 2.271891959395804 2.889581261561952 0 0.4873067005111439 0.5062086183356215 1.952049164255849 0.3514115665055325 0.6826017364317396 0 0.4302046877681288 0 1:0.39115497 2:0.55349565 3:0.31961334 4:0.51270431 5:0.41014519 6:0.18756726 7:0.31836045 8:0.68616718 9:0.40999308 10:0.20994689 11:0.37553045 12:0.43490279 13:0.76588726 14:0.62206244 15:0.61721134 16:0.47649705 17:0.62494534 18:0.38644072 19:0.6152662 20:0.5439741 21:0.54312587 22:0.40214816 23:0.58517307 24:0.71025294 25:0.54197484 26:0.44438514 27:0.54012907 28:0.44910881 29:0.51481301 30:0.43038985 31:0.40677556 32:0.36647123 33:0.64494073 34:0.36404943 35:0.22575316 36:0.57840055 37:0.51984608 38:0.64087564 39:0.4436495 40:0.78774655 41:0.45178077 42:0.32490245 43:0.55039108 44:0.4601936 45:0.74082822 46:0.69540197 47:0.46644148 48:0.51124269 49:0.70984381 50:0.33883411 51:0.58122742 52:0.59321433 53:0.60669875 54:0.48730615 55:0.57661325 56:0.53403664 57:0.48227394 58:0.39886928 59:0.57162917 60:0.66884089 61:0.35910892 62:0.59769756 63:0.37916908 64:0.17442991 65:0.67796892 66:0.43434864 67:0.56577575 68:0.68650144 69:0.39321783 70:0.53196579 71:0.3360939 72:0.49497294 73:0.31536126 74:0.56652468 75:0.57740724 76:0.67021465 77:0.37727544 78:0.40212676 79:0.58703709 80:0.66256773 81:0.64329195 82:0.46445861 
0.5551722720122831 0.2625422179770831 0.4179459383354863 0 0 0 0 0 0 0 0 0 0 0 0 0 0 0 0 0 0 1:0.57378429 2:0.43307194 3:0.37568441 4:0.48998892 5:0.53259236 6:0.5217942 7:0.50967091 8:0.36816517 9:0.51853335 10:0.58806407 11:0.32232246 12:0.44655207 13:0.35754499 14:0.43022311 15:0.63059413 16:0.471149 17:0.74390155 18:0.62836468 19:0.59963465 20:0.36965314 21:0.44358692 22:0.68530554 23:0.471946 24:0.82648361 25:0.56850243 26:0.4935545 27:0.59842879 28:0.43983951 29:0.54130977 30:0.24954681 31:0.50547737 32:0.44792911 33:0.45415577 34:0.47156391 35:0.41191334 36:0.5395993 37:0.44972631 38:0.58115143 39:0.40038344 40:0.48114538 41:0.56279027 42:0.18448521 43:0.53776348 44:0.38016304 45:0.29024014 46:0.66471422 47:0.34295994 48:0.25069347 49:0.61154652 50:0.33105579 51:0.70261055 52:0.67040622 53:0.46762818 54:0.46094134 55:0.39085993 56:0.71065199 57:0.46220496 58:0.58224344 59:0.6346764 60:0.6619525 61:0.35414454 62:0.77202827 63:0.57823855 64:0.39080679 65:0.65356123 66:0.43286952 67:0.51794153 68:0.73832124 69:0.29051149 70:0.32458773 71:0.24584101 72:0.36390591 73:0.16203929 74:0.46832985 75:0.42854246 76:0.6731981 77:0.51336354 78:0.46904194 79:0.26121962 80:0.83744884 81:0.6471622 82:0.47448987 
0 0 0 0 0 0 0 0 0 1.798467116274266 0 0 0 0 0 0 0 0 0 0 0 1:0.4913103 2:0.44441605 3:0.44320863 4:0.41584188 5:0.56281608 6:0.36817563 7:0.40505376 8:0.58435363 9:0.47493458 10:0.33689779 11:0.42355454 12:0.3610526 13:0.6546095 14:0.482898 15:0.78028965 16:0.52188575 17:0.60666192 18:0.62798142 19:0.5609135 20:0.62790418 21:0.51451844 22:0.56908828 23:0.56945145 24:0.62234837 25:0.52451265 26:0.48213312 27:0.63793588 28:0.48713583 29:0.67277879 30:0.43480593 31:0.42689827 32:0.46671423 33:0.71615189 34:0.38347173 35:0.24125974 36:0.43498877 37:0.45844024 38:0.62265009 39:0.3780911 40:0.5972144 41:0.48028904 42:0.33823055 43:0.60559732 44:0.28898317 45:0.56593215 46:0.73855257 47:0.4758431 48:0.48879951 49:0.77163911 50:0.40658373 51:0.59920716 52:0.69529212 53:0.52859318 54:0.42473343 55:0.56816638 56:0.56603974 57:0.58373415 58:0.51061457 59:0.58848554 60:0.66432053 61:0.39780897 62:0.67437178 63:0.57953608 64:0.19490631 65:0.72758371 66:0.45132163 67:0.59946609 68:0.76101285 69:0.41500825 70:0.45183331 71:0.32683587 72:0.45673352 73:0.21185072 74:0.59175515 75:0.47566828 76:0.72306484 77:0.44649777 78:0.42668819 79:0.41489422 80:0.70171189 81:0.64357108 82:0.49699005 
0 0.04794807928985127 0 0 0 0 0 0 0 0 0 0 0.09806030554128821 0 0 0 0 0 0 0 0 1:0.42916834 2:0.63242191 3:0.56385666 4:0.32388195 5:0.54576254 6:0.30170843 7:0.4649736 8:0.58055514 9:0.57468903 10:0.35622144 11:0.41907749 12:0.37722528 13:0.71989363 14:0.37247092 15:0.73244238 16:0.66357571 17:0.54182029 18:0.65704215 19:0.53780609 20:0.35748523 21:0.39462104 22:0.48142171 23:0.42732242 24:0.73557425 25:0.65750694 26:0.56821126 27:0.51220345 28:0.54908282 29:0.55636126 30:0.40485194 31:0.58099383 32:0.38353997 33:0.47980449 34:0.47613549 35:0.3696408 36:0.62117195 37:0.53891963 38:0.61364371 39:0.4152374 40:0.57655531 41:0.62192237 42:0.37189582 43:0.65844059 44:0.39537445 45:0.30875254 46:0.5387454 47:0.4297775 48:0.37392876 49:0.56927383 50:0.30637968 51:0.65867579 52:0.5596205 53:0.5034256 54:0.48603424 55:0.58908528 56:0.71099001 57:0.45037138 58:0.55671304 59:0.55644017 60:0.59067607 61:0.31706536 62:0.63876969 63:0.41374144 64:0.20352606 65:0.52205116 66:0.4590081 67:0.42060891 68:0.63327855 69:0.24035195 70:0.48503739 71:0.34162942 72:0.30026332 73:0.26523823 74:0.3970924 75:0.61038375 76:0.6568867 77:0.35172793 78:0.50416052 79:0.54901767 80:0.75242966 81:0.67092556 82:0.44512793 
0 0 0 0 0 0 0 0 0 0.9208655993184661 0 0 0.1999962481746451 0 0 0 0 0 0 0.7036166146003251 0 1:0.49298504 2:0.62733251 3:0.42009503 4:0.42167938 5:0.49994949 6:0.42167792 7:0.46602789 8:0.5030638 9:0.57479572 10:0.42145592 11:0.44512513 12:0.6290977 13:0.61238414 14:0.44916022 15:0.6673547 16:0.70277989 17:0.51778942 18:0.64100844 19:0.57578832 20:0.48552996 21:0.43456125 22:0.56142688 23:0.61657476 24:0.68423086 25:0.62101471 26:0.41188344 27:0.50056762 28:0.54464984 29:0.58217686 30:0.29631665 31:0.54032415 32:0.36019742 33:0.54168636 34:0.39815599 35:0.39194486 36:0.5779286 37:0.63051033 38:0.69493622 39:0.402574 40:0.55311209 41:0.5306477 42:0.20650302 43:0.55663764 44:0.43385819 45:0.3938005 46:0.70606548 47:0.48864275 48:0.38586995 49:0.54328597 50:0.22090532 51:0.63737273 52:0.55730957 53:0.45797196 54:0.47474629 55:0.56660563 56:0.67525154 57:0.45908737 58:0.50979394 59:0.52373928 60:0.56961691 61:0.31043583 62:0.5852766 63:0.39064759 64:0.21574183 65:0.49780509 66:0.50502825 67:0.36454943 68:0.67123693 69:0.2098693 70:0.50071728 71:0.366804 72:0.37692916 73:0.3069742 74:0.44875169 75:0.60018981 76:0.65348148 77:0.2699261 78:0.51335239 79:0.51539493 80:0.72740906 81:0.79810464 82:0.41543952 
2.57158076534398 0 0 0 0.006025120351994736 1.154171384937251 0 0 0 0 0 0 0 0 0 0 0 0 0 2.083033003454774 0 1:0.43066293 2:0.69213289 3:0.54050863 4:0.31731829 5:0.43830559 6:0.32149184 7:0.50036436 8:0.55215782 9:0.58572572 10:0.42506364 11:0.45494545 12:0.38283068 13:0.57155776 14:0.34177932 15:0.66615009 16:0.69889957 17:0.48406669 18:0.6243794 19:0.5328173 20:0.37046409 21:0.42938861 22:0.34935626 23:0.35225528 24:0.65944529 25:0.75908369 26:0.50301218 27:0.44845602 28:0.58907318 29:0.58011377 30:0.40642008 31:0.50154305 32:0.34755349 33:0.52927154 34:0.28091469 35:0.18146135 36:0.59705991 37:0.61067533 38:0.68902916 39:0.47940809 40:0.67111379 41:0.58788186 42:0.27603254 43:0.49168429 44:0.35947514 45:0.42029938 46:0.64229 47:0.57705092 48:0.40126705 49:0.5259009 50:0.22503366 51:0.59806293 52:0.52038342 53:0.5361861 54:0.41424626 55:0.64039236 56:0.63432807 57:0.45359489 58:0.49540535 59:0.50692856 60:0.60213381 61:0.35999665 62:0.55716753 63:0.39809889 64:0.24772562 65:0.53011578 66:0.46907872 67:0.40279678 68:0.66119719 69:0.25944713 70:0.52465516 71:0.40962145 72:0.32351145 73:0.26757076 74:0.48268649 75:0.58552456 76:0.66448164 77:0.34939402 78:0.52245748 79:0.53197515 80:0.70207161 81:0.74157101 82:0.46603829 
1.161708689936591 0 0 0 0 0.5602403964217205 0 0 0 1.476560276985303 0 0 0.5739988410384768 0 2.440046547879462 0 0 0 0 0 0 1:0.52291703 2:0.54292262 3:0.49799848 4:0.50996953 5:0.50791782 6:0.33744735 7:0.40555531 8:0.5265969 9:0.56152928 10:0.46293098 11:0.49693379 12:0.5520131 13:0.51692593 14:0.33261451 15:0.63130623 16:0.65208369 17:0.67098689 18:0.63957226 19:0.49348015 20:0.46327439 21:0.44080019 22:0.75826776 23:0.61590183 24:0.51975882 25:0.52846074 26:0.4813219 27:0.64995021 28:0.53237683 29:0.62175375 30:0.31423473 31:0.60390449 32:0.36902806 33:0.57437956 34:0.40217742 35:0.27265471 36:0.58421654 37:0.57747996 38:0.67291957 39:0.34651077 40:0.60382527 41:0.61447597 42:0.20613442 43:0.49840549 44:0.32824346 45:0.46243194 46:0.63287991 47:0.46923244 48:0.40089959 49:0.63668013 50:0.26173827 51:0.58588988 52:0.63154352 53:0.51619667 54:0.4867759 55:0.58082175 56:0.70644712 57:0.38449612 58:0.54826045 59:0.52098954 60:0.65901941 61:0.32942104 62:0.5628252 63:0.49654818 64:0.27489975 65:0.55760384 66:0.43276471 67:0.46650568 68:0.70266712 69:0.23862141 70:0.47231272 71:0.46063617 72:0.36715257 73:0.20289388 74:0.49311748 75:0.49665016 76:0.66868907 77:0.38480702 78:0.52516514 79:0.38779178 80:0.70317161 81:0.78329825 82:0.47172666 
0.1441875782096241 0 0 0 0 0 0 0 0 0 0 0.02926221403358405 0 0 0 0 0 0 0 0 0 1:0.50854754 2:0.63394731 3:0.49052182 4:0.43322095 5:0.51623577 6:0.32704413 7:0.50392252 8:0.6264118 9:0.47844303 10:0.35755149 11:0.32933584 12:0.41016519 13:0.51929855 14:0.48446888 15:0.76391315 16:0.57771003 17:0.67699486 18:0.47448942 19:0.70345485 20:0.55763894 21:0.46421567 22:0.39258713 23:0.38788122 24:0.67098004 25:0.56785309 26:0.44835898 27:0.45483458 28:0.46086013 29:0.72215706 30:0.61777365 31:0.5118196 32:0.30294475 33:0.56718928 34:0.37478477 35:0.22910827 36:0.46861744 37:0.53119379 38:0.54727918 39:0.53544849 40:0.70852196 41:0.51893485 42:0.4556641 43:0.55854392 44:0.39605829 45:0.59634805 46:0.7826069 47:0.58665872 48:0.55389291 49:0.74322194 50:0.31475782 51:0.68630642 52:0.58548439 53:0.5471518 54:0.33149391 55:0.61277622 56:0.58666128 57:0.61285537 58:0.34476331 59:0.52577412 60:0.65253925 61:0.4475818 62:0.51473075 63:0.43250239 64:0.12042842 65:0.73207682 66:0.46050531 67:0.57227302 68:0.73998356 69:0.34570178 70:0.58414382 71:0.2751914 72:0.38776252 73:0.37582752 74:0.55671793 75:0.61114019 76:0.58944732 77:0.45151418 78:0.44048131 79:0.69676203 80:0.68988639 81:0.64554197 82:0.51345289 
