svm_type c_svc
kernel_type rbf
gamma 0.09
nr_class 26
total_sv 2472
rho 0.586986 -0.0873228 0.178091 -0.651651 -0.400669 -0.321242 -0.504636 -0.156782 -0.546278 -0.358877 -0.566176 -0.296651 -0.684695 -0.595094 -0.363414 0.445552 -0.576599 -0.588442 -0.516101 -0.585469 -0.145691 -0.618729 -0.391526 -0.482812 0.432129 -0.301868 -0.0893466 -0.890174 -0.458757 -1.233 -0.772689 -0.402577 -0.622835 -0.987321 -1.20107 -0.441255 -0.668891 -1.06985 -0.545093 -0.584869 -1.00242 -1.14189 -0.835903 -1.41948 -0.496073 -0.701264 -0.665827 -0.613261 -0.147125 -0.136708 -0.305998 -0.141668 -0.477286 -0.51397 -0.491747 -0.286185 -0.446947 -0.602984 -0.133935 -0.457466 -0.501227 -0.255414 0.527142 -0.435909 -0.496692 -0.196916 -0.500925 -0.213241 -0.405544 -0.246125 -0.43493 0.115725 -0.711026 -0.55159 -0.710827 -0.656782 -0.322127 -0.500192 -0.435506 -0.733917 -0.411612 -0.467004 -0.640885 -0.579841 0.217779 -0.636961 -0.71252 -0.635774 -0.709205 -0.286577 -0.51713 -0.38731 -0.531974 -0.0619302 -0.0961967 -0.0654008 -0.514864 0.250382 0.00136155 0.186892 -0.13786 0.269529 0.384367 -0.399491 0.0373488 1.86676 0.000648498 0.154428 0.143655 0.212265 0.256334 -0.355706 -0.0977735 -0.288559 1.3696 -0.096187 -0.196466 0.324076 -0.266288 0.132143 -0.138109 0.249189 0.0534734 -0.299566 -0.00316285 0.795526 0.0199284 0.119195 0.102225 0.162609 0.153663 -0.348113 -0.095361 -0.218744 0.725384 -0.477944 0.340062 0.0290545 0.122606 -0.180004 0.319554 0.236251 -0.370102 0.203274 1.19477 -0.0404229 0.170987 -0.047802 0.128418 0.459702 -0.305639 0.0435563 -0.336052 0.723365 0.521286 0.255043 0.520885 0.298951 0.38153 0.526348 0.111305 0.390131 0.973093 0.298214 0.382191 0.452554 0.561532 0.407291 -0.0503283 0.0922226 0.00254989 0.647578 0.0282292 -0.291248 -0.559058 -0.170873 -0.203598 -0.490705 -0.269905 0.831073 -0.230902 -0.216044 -0.233935 -0.28673 -0.158045 -0.390412 -0.156365 -0.421504 0.548673 0.0142456 -0.10447 0.261512 0.320827 -0.211936 0.109858 0.653604 0.0769782 0.255165 0.126894 0.0411042 0.209522 -0.234751 -0.173243 -0.248627 0.557666 -1.04772 0.240469 0.0607965 -0.334377 0.0736517 1.20072 -0.1735 -0.0810895 0.0323988 0.202828 0.0640393 -0.389239 -0.148875 -0.294973 0.874576 0.354565 0.225624 -0.17835 0.225184 1.18233 0.0102081 0.248954 0.204765 0.316425 0.430342 -0.261542 -0.0632254 -0.186945 1.06368 -0.256238 -0.669874 -0.145035 0.612952 -0.241386 -0.593461 -0.23589 -0.140418 0.0310919 -0.389286 -0.221093 -0.468757 0.507437 -0.306756 -0.0558284 0.999588 -0.519435 -0.134117 -0.0109967 -0.0989755 0.147059 -0.385059 -0.115432 -0.337566 0.513311 0.520454 1.05434 0.261791 0.301074 0.417712 0.337537 0.585568 -0.175996 -0.0902428 -0.118185 0.785566 0.62947 -0.0399426 0.187342 0.187941 0.0112192 0.0683336 -0.232406 -0.0985094 -0.359668 0.866439 -0.989989 -1.15143 -0.781694 -1.36445 -0.839267 -0.719777 -0.609006 -0.834729 0.998565 0.166051 0.266066 1.0046 0.268772 -0.234063 -0.0445223 -0.329939 0.770425 0.125069 -0.0117327 0.335461 -0.147089 0.0862336 -0.300185 0.765547 -0.0425742 0.254743 -0.258474 -0.118352 -0.298017 0.676871 0.206905 -0.397213 -0.199758 -0.301968 1.08738 -0.460828 -0.306767 -0.517249 0.617188 0.603183 0.00817164 0.550657 -0.169091 0.42623 0.708433
label 10011 10012 10051 10052 10141 10142 1014657 1014658 1031 1032 10401 10402 141 142 151 152 2 22 25 26 29 3 34 35 39 4
probA -4.92047 -4.90495 -4.60619 -5.3768 -4.75697 -5.51786 -4.72436 -4.95962 -4.51568 -4.84178 -4.66664 -5.11298 -4.93672 -4.93155 -4.82006 -5.17058 -4.79498 -4.92671 -5.1735 -4.79227 -4.98505 -3.6787 -3.86148 -4.39287 -4.66362 -4.88111 -4.52933 -5.40193 -4.79339 -5.29468 -4.73393 -4.82432 -4.48266 -4.78309 -4.59367 -4.87278 -4.79705 -4.76374 -4.80502 -5.10247 -4.73551 -4.97107 -5.12176 -4.82771 -4.88162 -3.66274 -3.93215 -4.41632 -4.61568 -3.74165 -5.25372 -4.62906 -5.33727 -4.62818 -4.63597 -4.55701 -4.68741 -4.52374 -4.98585 -4.92584 -4.85585 -4.75084 -4.9759 -4.83341 -4.92544 -5.12085 -4.83539 -4.91171 -3.61595 -3.80344 -4.37881 -4.40303 -5.02349 -4.47474 -5.13433 -4.32286 -4.5174 -4.30366 -4.56152 -4.30137 -4.71758 -4.69781 -4.59149 -4.5032 -4.63694 -4.47639 -4.64307 -4.801 -4.53604 -4.51869 -3.3444 -3.474 -4.00226 -4.0351 -5.04632 -5.71072 -5.01052 -5.05357 -5.10082 -5.06187 -4.8827 -5.43538 -5.44914 -5.27884 -5.077 -5.29225 -5.19864 -5.40185 -5.59156 -5.25864 -5.38051 -4.04577 -4.23137 -4.81813 -4.85108 -5.26819 -4.51665 -4.55097 -4.37193 -4.53998 -4.38228 -4.90232 -4.85344 -4.71079 -4.51758 -4.89434 -4.69162 -4.8473 -4.95289 -4.82267 -4.70172 -3.46675 -3.57739 -4.18499 -4.38307 -4.95114 -5.31571 -5.15185 -5.20808 -5.02754 -5.42531 -5.33757 -5.25879 -5.22433 -5.60695 -5.13 -5.35452 -5.62786 -5.2309 -5.32645 -4.04879 -4.28544 -4.79202 -5.08382 -4.66201 -4.45219 -4.5106 -4.29932 -4.80337 -4.80939 -4.53845 -4.49642 -5.09547 -4.52727 -4.6895 -4.82568 -4.63489 -4.65399 -3.28352 -3.50915 -4.06648 -4.43622 -4.52323 -4.50069 -4.38826 -4.912 -4.88057 -4.6077 -4.61324 -4.87871 -4.73282 -4.80754 -5.06175 -4.73788 -4.68798 -3.72403 -3.8968 -4.35234 -4.39602 -4.4788 -4.25459 -4.64771 -4.68976 -4.51457 -4.4032 -4.70952 -4.51621 -4.66582 -4.77351 -4.50517 -4.60107 -3.37582 -3.54132 -4.15009 -4.19056 -3.39514 -4.98788 -4.95698 -4.54891 -4.53628 -4.8157 -4.607 -4.80371 -4.94224 -4.64017 -4.71385 -3.44413 -3.65216 -4.30977 -4.39902 -4.77444 -4.72166 -4.45731 -4.34652 -4.70956 -4.36795 -4.5789 -4.80384 -4.45068 -4.47388 -3.19536 -3.42868 -4.02131 -4.1506 -4.991 -4.92209 -4.9734 -5.24181 -4.67181 -4.92115 -5.26774 -4.78165 -5.05602 -3.83096 -4.14379 -4.51186 -4.78549 -4.93336 -4.84568 -5.26471 -4.5625 -4.82801 -5.20678 -4.82749 -4.99413 -3.78469 -3.95412 -4.57069 -4.68537 -4.53916 -5.05148 -4.66909 -4.73921 -4.85185 -4.72656 -4.64827 -3.57194 -3.67463 -4.2991 -4.45943 -4.98698 -4.53619 -4.78408 -4.52185 -4.68697 -4.61659 -3.59794 -3.66502 -4.25414 -4.38581 -5.07545 -5.21287 -5.37458 -4.97564 -5.08922 -4.0997 -4.12417 -4.69788 -4.77487 -4.42927 -5.03935 -3.97401 -4.85634 -3.81019 -3.77206 -4.29918 -4.36204 -5.21573 -4.4732 -4.78994 -3.79774 -3.8959 -4.52168 -4.57444 -5.13203 -5.06021 -3.88 -4.12514 -4.61409 -4.64763 -4.85991 -3.93858 -3.86675 -4.42994 -4.49001 -3.67697 -3.91535 -4.3485 -4.66589 -2.52361 -3.15721 -3.40867 -3.17797 -3.56372 -4.0373
probB -0.0513604 -0.163507 0.0681848 0.285835 -0.319335 0.297686 -0.465658 -0.202159 -0.39789 -0.209276 -0.483275 -0.00188748 -0.0123788 -0.291774 -0.190082 0.250633 -0.188836 0.117442 0.00914031 -0.179499 0.112093 -1.13986 -0.875721 -0.659961 -0.0729621 -0.121501 0.210181 0.36705 -0.221041 0.323955 -0.460797 -0.0379967 -0.246542 -0.167439 -0.320378 0.0225611 0.0248009 -0.126872 -0.130669 0.263961 -0.0797051 0.0735308 0.102244 0.097235 0.229176 -1.27389 -0.849156 -0.676209 -0.127697 0.0600178 0.366483 -0.124747 0.385316 -0.318999 -0.0325398 -0.351554 -0.263242 -0.408227 0.192052 0.190485 -0.0898733 -0.140758 0.248116 -0.0352246 0.112341 0.13926 0.00295417 0.0551452 -1.15553 -0.98568 -0.602338 -0.253784 0.287158 -0.227342 -0.118992 -0.132373 -0.0534693 -0.356849 -0.517891 -0.303436 -0.0125358 -0.300282 -0.0111035 -0.159149 0.100484 -0.139479 -0.0580684 -0.0192933 -0.114988 -0.0591944 -0.928702 -0.821403 -0.29463 -0.48194 -0.414805 -0.0646498 -0.799638 -0.300872 -0.768989 -0.453377 -0.622672 -0.286148 -0.108677 -0.621977 -0.476637 0.149647 -0.471539 -0.235114 -0.236806 -0.302591 -0.289736 -1.71517 -1.39715 -1.11316 -0.393319 0.452787 -0.182542 0.129116 -0.0917863 0.097636 -0.229115 0.320055 0.302529 -0.0360279 0.0761952 0.525789 0.0464688 0.273381 0.295761 0.214204 0.183665 -1.1439 -0.988271 -0.448594 0.0378142 -0.802128 -0.5317 -0.784756 -0.553909 -0.775393 -0.25701 -0.0838155 -0.604278 -0.521546 -0.000644781 -0.432297 -0.203363 -0.279726 -0.273528 -0.329444 -1.60931 -1.34927 -1.03737 -0.527649 0.344006 0.121785 0.240436 -0.00917407 0.508721 0.583205 0.246959 0.306514 0.843675 0.252631 0.435837 0.623914 0.383399 0.350958 -1.02584 -0.813685 -0.258234 0.10304 -0.197525 -0.14312 -0.1847 0.180844 0.257419 -0.120425 -0.208861 0.300214 -0.00782191 0.102246 0.304303 0.0824955 0.165866 -1.19641 -1.07444 -0.635102 -0.0201152 0.142973 -0.0837426 0.360757 0.488395 0.174871 0.171744 0.565428 0.19178 0.311912 0.399221 0.313536 0.29052 -1.06852 -0.776541 -0.341838 0.0496246 0.25152 0.299845 0.365387 0.00824338 0.0368323 0.346546 0.0105517 0.208309 0.370311 0.194573 0.248549 -1.18194 -0.956233 -0.518693 0.121705 0.469412 0.546763 0.20129 0.269359 0.590116 0.349654 0.541613 0.538664 0.323368 0.320631 -0.843275 -0.689926 -0.203435 0.117084 0.060868 -0.249705 -0.328762 0.192981 -0.197037 -0.0732679 0.00688434 0.0185556 0.126283 -1.43354 -1.11213 -0.724737 -0.309241 -0.362958 -0.309486 0.0997318 -0.201494 -0.117986 -0.0584172 0.00369962 -0.0104048 -1.27075 -1.15085 -0.78715 -0.241379 0.0760687 0.472388 0.0454554 0.226802 0.364124 0.226881 0.141557 -1.25384 -1.02439 -0.506577 -0.040236 0.437916 0.0840865 0.288938 0.0379494 0.0745357 0.0703585 -1.18644 -1.04251 -0.465565 0.0113167 -0.390107 -0.151721 -0.190777 -0.310068 -0.184563 -1.59588 -1.42631 -0.887634 0.646401 0.188564 0.283015 0.182361 0.0190847 -1.01026 -1.0425 -0.519198 0.0246364 0.0209765 0.046476 0.12188 -1.34681 -1.20902 -0.751672 -0.148438 -0.206241 -0.193885 -1.48946 -1.19208 -0.857151 -0.305616 0.0288924 -1.12824 -1.22451 -0.661191 0.0883278 -1.29462 -0.980973 -0.641608 -0.0238627 0.169639 0.721555 1.07911 0.658892 0.867641 0.397108
nr_sv 144 117 73 47 218 51 214 35 91 44 115 79 124 120 78 89 242 81 130 106 108 67 7 8 25 59
SV
0 0 0 0 0 0 0 0 0 0.1395358891254052 0 0.9065775012214634 0 0 0 0 0 0 0 0 0 0.5912088111579071 0 0.01681309100555817 0 1:0.41160187 2:0.54328734 3:0.43027264 4:0.45375893 5:0.62042177 6:0.51095378 7:0.59849137 8:0.61211944 9:0.64737588 10:0.53917336 11:0.68284672 12:0.38622221 13:0.41062212 14:0.38910893 15:0.52428406 16:0.2947509 17:0.65960997 18:0.45720699 19:0.39629751 20:0.46659315 21:0.53538698 22:0.49987623 23:0.77991837 24:0.64142066 25:0.50934029 26:0.36101586 27:0.76943743 28:0.52265251 29:0.45821714 30:0.43804848 31:0.49434116 32:3.7500322e-16 33:0.42040747 34:0.74115974 35:0.31106943 36:0.51330006 37:0.39027807 38:0.30988315 39:0.76450813 40:0.59317601 41:0.54225856 42:0.38911623 43:0.41165218 44:0.26627511 45:0.65476418 46:0.27537853 47:0.50021833 48:0.49135071 49:0.58504671 50:0.59984159 51:0.52915537 52:0.26034924 53:0.54570109 54:0.31551671 55:0.4939228 56:0.80546141 57:0.50435603 58:0.63363642 59:0.51336151 60:0.76782805 61:0.33586261 62:0.11566627 63:0.56456184 64:0.23521544 65:0.73677385 66:0.22474013 67:0.22951373 68:0.51356351 69:0.20382482 70:0.39876971 71:0.62500602 72:0.81389284 73:0.39798161 74:0.56650829 75:0.28040388 
0 0 0 0 0 0 0 0 0 0 0 0 1.47998395231026 0 0 0 0 0 0 0 3.277821471851126 0 0 0 0 1:0.51098514 2:0.45149499 3:0.59690404 4:0.45304298 5:0.2996369 6:0.53296506 7:0.54463887 8:0.51965451 9:0.46548435 10:0.43183199 11:0.66297412 12:0.58897507 13:0.31208661 14:0.45222217 15:0.57391363 16:0.52981228 17:0.6894362 18:0.51395011 19:0.46653816 20:0.34015173 21:0.4753226 22:0.66458255 23:0.40907782 24:0.38128737 25:0.39714605 26:0.5019272 27:0.58357358 28:0.77758658 29:0.4626492 30:0.39871389 31:0.54535729 32:0.5263921 33:0.44616342 34:0.42948419 35:0.88723505 36:0.3690694 37:0.46954867 38:0.71710795 39:0.62521511 40:0.60332119 41:0.44485369 42:0.47334668 43:0.60907614 44:0.42872411 45:0.6735813 46:0.48093987 47:0.94568121 48:0.56777406 49:0.49405539 50:0.81758088 51:0.41616303 52:0.43352351 53:0.68483871 54:0.41403368 55:0.58369768 56:0.57920057 57:0.48247242 58:0.21819226 59:0.48089033 60:0.47069401 61:0.53533453 62:0.35915682 63:0.70046699 64:0.59774971 65:0.69331431 66:0.20859955 67:0.34390756 68:0.59926689 69:0.28960949 70:0.52637374 71:0.74300516 72:0.58380538 73:0.45592314 74:0.40504673 75:0.30708703 
0 0 0 0 0.56322009843371 0 0 0 0 0 0 0 0.3960809570705184 0 0 0 1.758609561549516 0 0 1.271236934780068 0 0 0 0 0 1:0.41263586 2:0.38072675 3:0.61047751 4:0.58558232 5:0.57076228 6:0.41315868 7:0.50788158 8:0.3880735 9:0.59247571 10:0.2716009 11:0.67293018 12:0.68102503 13:0.35685655 14:0.60379124 15:0.79756075 16:0.49709633 17:0.64965457 18:0.52020454 19:0.39798695 20:0.47520393 21:0.46408114 22:0.65542787 23:0.71784103 24:0.5286544 25:0.55220324 26:0.59425741 27:0.45639336 28:0.31130892 29:0.63136047 30:0.69646025 31:0.40586543 32:0.56970078 33:0.39433572 34:0.63777608 35:0.49773541 36:0.45787501 37:0.61126477 38:0.58214819 39:0.58530688 40:0.70279551 41:0.53891969 42:0.41611481 43:0.51822478 44:0.52216429 45:0.596596 46:0.56411487 47:0.62240779 48:0.41843516 49:0.81002074 50:0.68484801 51:0.31616718 52:0.18522251 53:0.54002213 54:0.37781936 55:0.52901739 56:0.77878016 57:0.60686803 58:0.34525818 59:0.59646016 60:0.4457469 61:0.30617219 62:0.25886583 63:0.49327731 64:0.2989347 65:0.58152455 66:0.32735598 67:0.15112671 68:0.60508537 69:0.35820329 70:0.45518231 71:0.71805751 72:0.73918104 73:0.42843911 74:0.4972235 75:0.26767489 
0.4853212190122563 0 0 1.263756763202539 0 0.5033798140925207 0 0 0 0 0 0 1.214531214474188 0 0 0 1.336743646270341 0.8306435034750612 0 0.5479670504003306 0 0 0 0 0 1:0.55606127 2:0.26789051 3:0.53506327 4:0.66180581 5:0.35908115 6:0.61094111 7:0.49164027 8:0.49376774 9:0.35873002 10:0.46263349 11:0.60732555 12:0.28538638 13:0.54258555 14:0.76546103 15:0.47511992 16:0.30470261 17:0.75919402 18:0.31034648 19:0.38959503 20:0.65465301 21:0.27205876 22:0.67025506 23:0.5878821 24:0.66688764 25:0.43467772 26:0.15231536 27:0.57298821 28:0.54639596 29:0.73496109 30:0.69440639 31:0.73876303 32:0.3383539 33:0.420349 34:0.59854388 35:0.69347095 36:0.38864607 37:0.46167484 38:0.43288365 39:0.36938137 40:0.61063147 41:0.59619123 42:0.27749148 43:0.46373013 44:0.46884036 45:0.6338014 46:0.76509947 47:0.55828655 48:0.50993001 49:0.71604186 50:0.74176317 51:0.43615049 52:0.36659932 53:0.57809311 54:0.29929024 55:0.54058433 56:0.64157563 57:0.50158811 58:0.34067854 59:0.50493157 60:0.40964288 61:0.50792432 62:0.16437273 63:0.58331597 64:0.50007313 65:0.64988595 66:0.11201598 67:0.19797626 68:0.56593549 69:0.43446553 70:0.57262975 71:0.75996649 72:0.47585651 73:0.5038662 74:0.50226432 75:0.39383987 
0 0 0 0 0 0 0 0 0 0 0 0 0.4740114109170294 0 0 0 0 0 0 0 0 1.191256485963877 1.641524669382738 0 0 1:0.65207267 2:0.24918409 3:0.49823406 4:0.42423868 5:0.51658857 6:0.48430601 7:0.5440374 8:0.23845656 9:0.71899813 10:0.40540758 11:0.41995415 12:0.46619698 13:0.47366962 14:0.57050258 15:0.4841412 16:0.43464172 17:0.59752029 18:0.60781395 19:0.63795733 20:0.56395572 21:0.36505911 22:0.84819084 23:0.31272969 24:0.58475012 25:0.70110905 26:0.38956937 27:0.49577588 28:0.56992167 29:0.67170238 30:0.23045398 31:0.6698637 32:0.38166857 33:0.42297637 34:0.54785585 35:0.76778668 36:0.61117083 37:0.48126546 38:0.60616249 39:0.66774404 40:0.58702624 41:0.56257546 42:0.41588822 43:0.65776986 44:0.37060651 45:0.57587731 46:0.68860501 47:0.61512858 48:0.51997042 49:0.3979404 50:0.75646412 51:0.34637964 52:0.49129128 53:0.73829889 54:0.39808783 55:0.44093952 56:0.6721338 57:0.55456871 58:0.27141932 59:0.49069592 60:0.28885412 61:0.40924501 62:0.18755573 63:0.63191444 64:0.40338945 65:0.80651003 66:0.31482729 67:0.1719076 68:0.5997507 69:0.38957903 70:0.51405239 71:0.67760468 72:0.74970239 73:0.46309105 74:0.48557582 75:0.28286716 
0 0.7778854818427566 0 0.570131350982137 0.6825726767731289 0.4452571870428405 0 0.3225444166337576 0 0 0 0.265576573252548 0 0 0 0 0 0 0 0 0 0 0 0 0.05513200015248257 1:0.52184802 2:0.46824694 3:0.48527467 4:0.48245284 5:0.30716315 6:0.49856344 7:0.4748345 8:0.32022962 9:0.62532431 10:0.45657629 11:0.56089491 12:0.50394249 13:0.29978189 14:0.5085842 15:0.71479893 16:0.39730927 17:0.45786834 18:0.56522858 19:0.41829288 20:0.56891644 21:0.49678138 22:0.85646904 23:0.65436023 24:0.5610677 25:0.77158695 26:0.2893419 27:0.49669132 28:0.3884213 29:0.75111502 30:0.3547658 31:0.49776429 32:0.45652252 33:0.36920625 34:0.74795556 35:0.6482265 36:0.48203871 37:0.62596709 38:0.45363927 39:0.57719654 40:0.70531356 41:0.51136577 42:0.49238563 43:0.57582831 44:0.34016716 45:0.56596971 46:0.6463995 47:0.61129385 48:0.53617513 49:0.54124361 50:0.77351415 51:0.42652988 52:0.36691341 53:0.57844806 54:0.34835252 55:0.45891714 56:0.63620526 57:0.59572828 58:0.24106744 59:0.55910176 60:0.39020997 61:0.38093185 62:0.25058511 63:0.5153594 64:0.4007611 65:0.66621035 66:0.2844232 67:0.16855499 68:0.57947993 69:0.41439313 70:0.45712709 71:0.67365694 72:0.80124778 73:0.42095292 74:0.58252668 75:0.33714741 
0 0 0 0 0 0 0 1.461888457695851 0 0 0 0.1427589607268379 0 0 0 0 0 0.3531003828441376 0.746968289907876 0.73121419251412 1.11912430337081 0 0 0 0 1:0.6103971 2:0.3979716 3:0.72063148 4:0.62862808 5:0.35324964 6:0.47572657 7:0.60151243 8:0.53623098 9:0.26781806 10:0.55068338 11:0.65644467 12:0.51692384 13:0.19135411 14:0.74277067 15:0.5334987 16:0.58475041 17:0.82270032 18:0.73541671 19:0.56398022 20:0.3440972 21:0.43579692 22:0.68035966 23:0.30427125 24:0.33956701 25:0.38959071 26:0.2798641 27:0.57926071 28:0.46143544 29:0.56251442 30:0.71840006 31:0.61327684 32:0.20247468 33:0.60022944 34:0.51207525 35:0.57155442 36:0.6117897 37:0.36768401 38:0.34573549 39:0.4664357 40:0.55618596 41:0.74449897 42:0.21218963 43:0.73296475 44:0.51737398 45:0.59098691 46:0.53132427 47:0.50215632 48:0.54180962 49:0.82519001 50:0.64882082 51:0.36117417 52:0.41195258 53:0.61579925 54:0.44101197 55:0.51332366 56:0.83580679 57:0.52280384 58:0.44166315 59:0.38044217 60:0.43716547 61:0.3868452 62:0.28648525 63:0.67692006 64:0.46771944 65:0.61748624 66:0.11208321 67:0.20565985 68:0.62029803 69:0.28944123 70:0.41943705 71:0.63554227 72:0.73784196 73:0.31596267 74:0.51220524 75:0.27518624 
0 0 0 0 0 0 0 0 0 0 0 0 0 0 0 0 0 0.00456403329447701 0 0 0 0 0 0 0 1:0.55848801 2:0.31840008 3:0.5135209 4:0.54806489 5:0.44964805 6:0.38161543 7:0.61974019 8:0.37130687 9:0.62550181 10:0.49672255 11:0.72278649 12:0.82870072 13:0.37651229 14:0.66479993 15:0.58871716 16:0.41152054 17:0.69224024 18:0.51437342 19:0.40080318 20:0.49269024 21:0.24568324 22:0.67296165 23:0.48876914 24:0.50765026 25:0.37559912 26:0.26404712 27:0.50730741 28:0.28187406 29:0.59756935 30:0.69158947 31:0.34004152 32:0.49516356 33:0.5287171 34:0.58649087 35:0.57720816 36:0.5417152 37:0.50856256 38:0.34562933 39:0.44446644 40:0.67555672 41:0.68968123 42:0.3700836 43:0.52452171 44:0.42538649 45:0.79015005 46:0.6134783 47:0.60249507 48:0.5039857 49:0.84115666 50:0.59505618 51:0.34112474 52:0.23966232 53:0.55373722 54:0.33666578 55:0.4322153 56:0.80286086 57:0.67295784 58:0.34742105 59:0.43377551 60:0.46309343 61:0.35089669 62:0.13103816 63:0.45389 64:0.37187663 65:0.56498742 66:0.1831158 67:0.11659387 68:0.5876748 69:0.40429294 70:0.40773797 71:0.70344567 72:0.73017931 73:0.3183834 74:0.49544826 75:0.27461001 
0 0 0 0.1621950086118184 0 0.100447212320088 0 0 0 0 0 1.641518735609791 0 0 0 0 0 0 0 9.933696437646748e-05 0 0 0 0 0 1:0.59159458 2:0.66652697 3:0.5263021 4:0.50196093 5:0.46394774 6:0.53724891 7:0.7181837 8:0.53263849 9:0.34596905 10:0.60041809 11:0.5405671 12:0.50990111 13:0.48913679 14:0.45348996 15:0.45663446 16:0.65885913 17:0.70914876 18:0.5664171 19:0.69283289 20:0.23538318 21:0.34176981 22:0.72037053 23:0.50740892 24:0.56715566 25:0.70466024 26:0.58429557 27:0.24450143 28:0.59346324 29:0.53782493 30:0.38684088 31:0.60625076 32:0.32361639 33:0.46732342 34:0.60073584 35:0.56051582 36:0.55450094 37:0.34501305 38:0.35378823 39:0.55246782 40:0.46661571 41:0.52271086 42:0.46077836 43:0.56183016 44:0.33093473 45:0.60887414 46:0.48052198 47:0.67950821 48:0.51276457 49:0.73329252 50:0.86704898 51:0.59733593 52:0.26125357 53:0.442435 54:0.45029825 55:0.55266136 56:0.62983352 57:0.54263681 58:0.49328494 59:0.57140243 60:0.58532381 61:0.39155525 62:0.17021322 63:0.60134482 64:0.3858099 65:0.79088348 66:0.26646769 67:0.28613237 68:0.58378148 69:0.33635604 70:0.484108 71:0.74938852 72:0.72979915 73:0.56992871 74:0.47410017 75:0.28448996 
0 0 1.421899964204996 0 0 0 0 0 0 0 0 0 0 0 0 0 0 0 0 0 0 0 0 0 0 1:0.49681017 2:0.55142665 3:0.58895129 4:0.64682162 5:0.37245098 6:0.58966929 7:0.43739882 8:0.41696486 9:0.24841331 10:0.54111254 11:0.80033726 12:0.5090946 13:0.28707913 14:0.62778407 15:0.6787504 16:0.70356286 17:0.89442366 18:0.37308544 19:0.55639207 20:0.33084422 21:0.32496321 22:0.5794884 23:0.42551863 24:0.51993221 25:0.53493673 26:0.42042315 27:0.45178229 28:0.40485451 29:0.59208643 30:0.56657153 31:0.2908985 32:0.49912691 33:0.38401371 34:0.80420548 35:0.64836782 36:0.53460586 37:0.59294349 38:0.47333896 39:0.61824441 40:0.59984505 41:0.50331974 42:0.47886169 43:0.65844822 44:0.44338676 45:0.49715379 46:0.59767103 47:0.75916404 48:0.58792919 49:0.92051357 50:0.77863944 51:0.35301176 52:0.19404119 53:0.47693709 54:0.45062697 55:0.5554679 56:0.64971626 57:0.69111502 58:0.25080442 59:0.51826906 60:0.56123489 61:0.4862127 62:0.34605268 63:0.46246833 64:0.51807427 65:0.47922236 66:0.23481597 67:0.20743622 68:0.48119026 69:0.40338928 70:0.48141551 71:0.92149132 72:0.64329743 73:0.50125122 74:0.53519666 75:0.32784376 
0 0 0 0 0 0 0 0 0 0 0 0 0 0 0 0 0 0 0 0 0 0 0 1.022734877035375 0 1:0.36308682 2:0.4298915 3:0.67724228 4:0.46036267 5:0.54007363 6:0.6399011 7:0.39983529 8:0.49087334 9:0.48671713 10:0.64134538 11:0.45715889 12:0.5108853 13:0.56322157 14:0.26938936 15:0.41797149 16:0.69803035 17:0.67625725 18:0.44986206 19:0.47449645 20:0.52582538 21:0.50781745 22:0.49436468 23:0.55729336 24:0.46487206 25:0.63317233 26:0.33123755 27:0.43479276 28:0.58778888 29:0.40619242 30:0.43799058 31:0.54403275 32:0.3571856 33:0.32445148 34:0.60229993 35:0.50313723 36:0.50810117 37:0.56681293 38:0.5730291 39:0.48712441 40:0.49190831 41:0.4090097 42:0.40213117 43:0.34839985 44:0.45064807 45:0.21607974 46:0.65614909 47:0.36664927 48:0.77650952 49:0.48159373 50:0.68667126 51:0.5153082 52:0.40254542 53:0.58883083 54:0.47601461 55:0.47591546 56:0.56542796 57:0.4733609 58:0.63159251 59:0.4325228 60:0.6469605 61:0.32600501 62:0.31053999 63:0.49583888 64:0.46202031 65:0.63938248 66:0.20091209 67:0.12109221 68:0.58885968 69:0.38276213 70:0.52347517 71:0.89392245 72:0.66706854 73:0.62943488 74:0.41762167 75:0.42899495 
0 0 0 0 0 0 0 0.3662338449611395 0 0 0 0 0 0 0 0 0 0 0 0 0 0 0 0 0 1:0.56223583 2:0.37927708 3:0.45988366 4:0.47628886 5:0.53883827 6:0.54358041 7:0.49489316 8:0.3300119 9:0.40722018 10:0.48474565 11:0.60998619 12:0.43144411 13:0.56379962 14:0.48593175 15:0.6128431 16:0.46306273 17:0.50352073 18:0.28198102 19:0.60975391 20:0.459492 21:0.58096236 22:0.5098173 23:0.62952936 24:0.44825995 25:0.39084429 26:0.54238135 27:0.50652063 28:0.88232148 29:0.54151005 30:0.44805166 31:0.36049196 32:0.58595878 33:0.33962172 34:0.26926115 35:0.65577 36:0.2006617 37:0.35924023 38:0.70242292 39:0.48396599 40:0.46488497 41:0.55749071 42:0.34650716 43:0.46785828 44:0.71048784 45:0.58786917 46:0.67005008 47:0.60719258 48:0.5918873 49:0.39453378 50:0.75772035 51:0.33939433 52:0.45439464 53:0.67996824 54:0.48268509 55:0.4765113 56:0.51889265 57:0.45474759 58:0.41940162 59:0.49243519 60:0.64940292 61:0.48972934 62:0.2004451 63:0.64360213 64:0.67113054 65:0.68926698 66:0.42174506 67:0.092257671 68:0.69493157 69:0.43650615 70:0.69168651 71:0.89817053 72:0.56818765 73:0.59713328 74:0.37009305 75:0.41215375 
0 0 0 0 0 0 0 0 0 0 0 0 0 0 0 0 0 0 0 0 0 0 0 0 0.8245017549395534 1:0.60617697 2:0.17105663 3:0.64551759 4:0.56253314 5:0.58357835 6:0.71285468 7:0.60134238 8:0.62211424 9:0.79628682 10:0.69644761 11:0.71326643 12:0.38423884 13:0.57326561 14:0.61995411 15:0.47286049 16:0.35375017 17:0.297158 18:0.19265689 19:0.25249061 20:0.4241716 21:0.37097263 22:0.43822068 23:0.49991298 24:0.62257934 25:0.50917095 26:0.541067 27:0.36942893 28:0.68837023 29:0.51567769 30:1 31:0.49453649 32:0.49980247 33:0.62409329 34:0.28994054 35:0.4782925 36:0.25508082 37:0.3176294 38:0.29657656 39:0.24962415 40:0.44525489 41:0.65238023 42:0.53722507 43:0.43063286 44:0.53104651 45:0.55627561 46:0.8256622 47:0.53110051 48:0.57746154 49:0.51492095 50:0.62410831 51:0.1489208 52:0.45256558 53:0.40034407 54:0.59151405 55:0.68015105 56:0.66140634 57:0.52753913 58:0.49164259 59:0.4032023 60:0.48042673 61:0.49318168 62:0.38030982 63:0.48907971 64:0.47386476 65:0.68288392 66:0.34271443 67:0.16629907 68:0.60560822 69:0.43749583 70:0.5827294 71:0.86588395 72:0.52576625 73:0.55794913 74:0.42984375 75:0.40282848 
1.415083360540365 0 0 0 0 0 0 0 0 0 0 0 0 0.2110935908689867 0 0 0 0 0 0 0 0.7958655114195626 1.013220281491739 0 0 1:0.6492362 2:0.0059115104 3:0.63281894 4:0.62706274 5:0.57140249 6:0.71562082 7:0.39426354 8:0.63569188 9:0.39840063 10:0.42869842 11:0.76021725 12:0.40779352 13:0.57872307 14:0.63947666 15:0.60341603 16:0.27875373 17:0.76596326 18:0.18892215 19:0.43889192 20:0.43831658 21:0.50953895 22:0.3655473 23:0.34938711 24:0.6248036 25:0.35708502 26:0.59140795 27:0.51233077 28:0.86583906 29:0.60099977 30:0.47021616 31:0.46745089 32:0.62849116 33:0.43147007 34:0.35957599 35:0.8527087 36:0.26498777 37:0.1572614 38:0.76408225 39:0.48845208 40:0.38485235 41:0.52819049 42:0.62244385 43:0.52568942 44:0.72027874 45:0.58215278 46:0.8305819 47:0.66131783 48:0.64250523 49:0.13141438 50:0.55599409 51:0.23904823 52:0.41825059 53:0.6078968 54:0.52565289 55:0.45164549 56:0.44704723 57:0.52642751 58:0.49625832 59:0.29728177 60:0.78132313 61:0.5214752 62:0.2953974 63:0.75476068 64:0.72777969 65:0.66772115 66:0.40560398 67:0.22518694 68:0.66826802 69:0.36523217 70:0.65762639 71:0.80581677 72:0.57457322 73:0.64843053 74:0.41088566 75:0.40064707 
0 0 0 0 0 0 0 0 0 0 0 0 0 0 0 0 0 0 0 0 0 0 1.688796282036298 0 0 1:0.41997671 2:0.67184186 3:0.53333938 4:0.26885581 5:0.4371655 6:0.46318889 7:0.3754116 8:0.69023842 9:0.66316432 10:0.58171552 11:0.60701632 12:0.5462724 13:0.35784316 14:0.5298903 15:0.73514545 16:0.40402305 17:0.46229842 18:0.66279978 19:0.1378434 20:0.71378958 21:0.51713765 22:0.52566504 23:0.73208034 24:0.57846087 25:0.4448736 26:0.36037764 27:0.53555512 28:0.66518807 29:0.3188079 30:0.46867779 31:0.26546827 32:0.54461503 33:0.19565031 34:0.63563788 35:0.40658754 36:0.28129402 37:0.60209155 38:0.53816283 39:0.48993817 40:0.58620316 41:0.46286198 42:0.44614318 43:0.09380047 44:0.58686143 45:0.54377902 46:0.64053041 47:0.51374596 48:0.47978204 49:0.40850717 50:0.66801769 51:0.54885668 52:0.41829088 53:0.62012511 54:0.52427113 55:0.33967608 56:0.54057014 57:0.41975108 58:0.60130143 59:0.40538672 60:0.66309148 61:0.34676346 62:0.24827807 63:0.55964106 64:0.50853097 65:0.67016131 66:0.23226617 67:0.11815275 68:0.57770574 69:0.43787062 70:0.63023877 71:0.90724283 72:0.60313046 73:0.59676623 74:0.47593501 75:0.44456205 
0 0 0 0.3650210826669067 0 0 0 0 0 0 0 0 0 0 0 0 0 0 0 1.55132259939691 0 0 0 0 0 1:0.56394136 2:0.32099497 3:0.53741509 4:0.53308153 5:0.37441024 6:0.61161023 7:0.56138921 8:0.40636039 9:0.55715442 10:0.50521308 11:0.44584444 12:0.23569851 13:0.60111052 14:0.47319624 15:0.5292874 16:0.99845642 17:0.52104968 18:0.33979228 19:0.39938092 20:0.45349124 21:0.46992362 22:0.43295997 23:0.46771067 24:0.5206359 25:0.40946516 26:0.54372567 27:0.56531101 28:0.57018685 29:0.51628846 30:0.44754818 31:0.31825754 32:0.52797103 33:0.31284219 34:0.42022777 35:0.4668076 36:0.36972165 37:0.52694798 38:0.69086701 39:0.42932403 40:0.59861201 41:0.56701958 42:0.40595698 43:0.45870364 44:0.62162882 45:0.22447188 46:0.64913678 47:0.42719638 48:0.69766408 49:0.53628296 50:0.67375445 51:0.39820963 52:0.42584804 53:0.54825413 54:0.43596634 55:0.52137154 56:0.56562787 57:0.62335241 58:0.46311998 59:0.48811734 60:0.55579138 61:0.34693256 62:0.38609666 63:0.36430755 64:0.54044151 65:0.63331103 66:0.3552067 67:0.10062154 68:0.63579762 69:0.44297484 70:0.55642611 71:0.92150593 72:0.67004448 73:0.57256478 74:0.41467401 75:0.38191944 
0 0 0 0 0 0 0 0 0 0 0 0 0 0 0 0 0 0 0 0 0 0 0 0.3376777264884012 0 1:0.21295828 2:0.49277574 3:0.65659994 4:0.52494127 5:0.56200391 6:0.5295074 7:0.58667946 8:0.55605769 9:0.33284676 10:0.62949091 11:0.56587172 12:0.54061323 13:0.33150604 14:0.41451493 15:0.44595054 16:0.25870988 17:0.71522224 18:0.45872536 19:0.36816102 20:0.25792342 21:0.7690928 22:0.3008467 23:0.61374807 24:0.76996553 25:0.49038589 26:0.66163158 27:0.69553018 28:0.55994344 29:0.45262134 30:0.38137153 31:0.4570224 32:0.51225913 33:0.45465845 34:0.75862437 35:0.318266 36:0.59961855 37:0.53201377 38:0.43751499 39:0.75407326 40:0.38794437 41:0.4108319 42:0.338909 43:0.3718358 44:0.53534108 45:0.30494612 46:0.32749259 47:0.33565232 48:0.65716273 49:0.38681036 50:0.50821555 51:0.44421953 52:0.45133409 53:0.42674175 54:0.60754132 55:0.45434949 56:0.55014694 57:0.60154015 58:0.68069524 59:0.29332191 60:0.98953438 61:0.36725506 62:0.34030664 63:0.6565181 64:0.40005299 65:0.48364773 66:0.25029922 67:0.2377543 68:0.46355382 69:0.25325209 70:0.45556489 71:0.86123198 72:0.84645325 73:0.46568021 74:0.53276235 75:0.43361828 
0 0 0 0 0 0 0.08300022883510773 0 0 0 0 0 0 0 0 0 0 0 0 0 0 0 0 0 0 1:0.42930183 2:0.31844431 3:0.4111349 4:0.47054175 5:0.51109892 6:0.46175915 7:0.38291469 8:0.51735431 9:0.38733393 10:0.68217814 11:0.40096933 12:0.36592314 13:0.5970735 14:0.35873818 15:0.35351202 16:0.73509729 17:0.3907564 18:0.42716101 19:0.52981627 20:0.4419091 21:0.52336282 22:0.50661618 23:0.5688895 24:0.68241483 25:0.56777966 26:0.51952636 27:0.45351276 28:0.32466584 29:0.4786227 30:0.65987152 31:0.53494853 32:0.51272178 33:0.44119257 34:0.45366856 35:0.52177525 36:0.57900715 37:0.39105889 38:0.53636193 39:0.35962549 40:0.74791896 41:0.54693598 42:0.49740255 43:0.4718335 44:0.43843266 45:0.49193183 46:0.57005221 47:0.51973146 48:0.59314167 49:0.50739002 50:0.52043319 51:0.29759634 52:0.34894311 53:0.57228404 54:0.59227955 55:0.49798229 56:0.53527296 57:0.50855517 58:0.52790242 59:0.50906515 60:0.66991854 61:0.31025094 62:0.4068104 63:0.4611963 64:0.5370276 65:0.44329888 66:0.33888534 67:0.15505348 68:0.62013179 69:0.47401834 70:0.55791283 71:0.94173568 72:0.61517 73:0.65813166 74:0.43824676 75:0.41033113 
0 1.532239193711597 0 0 0 0 0 0 0 0 0 0 0 0 0 0 0 0 0 0 0 0 0 0 0 1:0.35272866 2:0.50338268 3:0.53151357 4:0.39591017 5:0.45468989 6:0.58127844 7:0.24189439 8:0.68570757 9:0.57905304 10:0.41159907 11:0.53315359 12:0.71382469 13:0.29932511 14:0.39235643 15:0.6514923 16:0.74053723 17:0.45243281 18:0.568905 19:0.21702173 20:0.17879614 21:0.5498907 22:0.54725075 23:0.59859794 24:0.66064394 25:0.73351383 26:0.8229357 27:0.41696262 28:0.57824945 29:0.50959772 30:0.47624376 31:0.28432712 32:0.65461773 33:0.31922507 34:0.82544774 35:0.59649229 36:0.44239536 37:0.78416032 38:0.61089867 39:0.43590778 40:0.52520192 41:0.4162901 42:0.35127848 43:0.47815129 44:0.37314489 45:0.36002022 46:0.44728941 47:0.45707795 48:0.59933007 49:0.59482366 50:0.54375499 51:0.39653534 52:0.43096474 53:0.53849244 54:0.4857685 55:0.45308301 56:0.6168704 57:0.56263828 58:0.49013323 59:0.51612097 60:0.58500552 61:0.31026679 62:0.42847279 63:0.54315037 64:0.4348726 65:0.51442838 66:0.47358125 67:0.13677281 68:0.59979612 69:0.40318698 70:0.51853812 71:0.86023843 72:0.76361895 73:0.61156702 74:0.45810533 75:0.40133747 
1.542134055419622 0 0 0 0 0 0 0 0 0 0 0.8935564133611041 0.7670104194550139 0 0 0.9565550156013309 0 0 0 0.9660557395853521 0.628081945455677 0 0 0 0 1:0.3792479 2:0.43193689 3:0.77946156 4:0.29037672 5:0.44486019 6:0.58313781 7:0.40477741 8:0.83564281 9:0.58310491 10:0.57303911 11:0.44685397 12:0.37765199 13:0.51619583 14:0.28414711 15:0.39052901 16:0.62430978 17:0.29442146 18:0.74542898 19:0.079863161 20:0.42443013 21:0.34898987 22:0.24089544 23:0.4027442 24:0.55879939 25:0.77559513 26:0.54644758 27:0.68343562 28:0.48844305 29:0.50330061 30:0.58493739 31:0.30882245 32:0.80054826 33:0.37490875 34:0.526878 35:0.65183067 36:0.34724069 37:0.71359873 38:0.6503107 39:0.35345408 40:0.514036 41:0.45184496 42:0.40855759 43:0.33044299 44:0.57630891 45:0.3804667 46:0.58334261 47:0.59766006 48:0.62011099 49:0.43713635 50:0.57370889 51:0.46002689 52:0.52137005 53:0.59444904 54:0.48157406 55:0.42377031 56:0.59480852 57:0.59503108 58:0.53386468 59:0.40566668 60:0.49570638 61:0.43783852 62:0.52058297 63:0.48907253 64:0.40006047 65:0.59683239 66:0.40506244 67:0.18333083 68:0.60939533 69:0.48845777 70:0.61742175 71:0.87311715 72:0.60487038 73:0.54513907 74:0.33620888 75:0.38150391 
0 0 0 0 0 0 0 0 0 0 0 0 0 0 0 0 0 0 0 0 0 0.4484095490171826 0 0.2436751508111813 0 1:0.58921182 2:0.43053669 3:0.63567632 4:0.57503307 5:0.42023483 6:0.85554904 7:0.35778528 8:0.63639587 9:0.64273208 10:0.57904464 11:0.56603581 12:0.37959126 13:0.55233133 14:0.49032968 15:0.81024569 16:0.4569591 17:0.54188609 18:0.37039024 19:0.048084144 20:0.53125167 21:0.48772031 22:0.5418492 23:0.37874469 24:0.56492281 25:0.55258787 26:0.53591102 27:0.47137359 28:0.74231648 29:0.31848806 30:0.36657488 31:0.27199113 32:0.62757921 33:0.41718242 34:0.36403319 35:0.55886865 36:0.24787669 37:0.36634892 38:0.60148036 39:0.46995425 40:0.20179039 41:0.4052521 42:0.54293263 43:0.40386638 44:0.70475656 45:0.5147897 46:0.73130757 47:0.6191346 48:0.75961667 49:0.2504279 50:0.68853199 51:0.46689925 52:0.39616987 53:0.60625958 54:0.41784632 55:0.48119822 56:0.41919133 57:0.54048318 58:0.56182426 59:0.42650086 60:0.69427305 61:0.42730474 62:0.19788466 63:0.59025741 64:0.67979503 65:0.66420096 66:0.34037128 67:0.084039845 68:0.62923515 69:0.4426302 70:0.67276776 71:0.90175313 72:0.56302994 73:0.62195367 74:0.4388901 75:0.43743473 
0 0.1116929033005369 0 0 0 0 0 0 0 0 0 0 0 0 0 0 0 0 0 0 0 0 0 0 0 1:0.56052583 2:0.46574026 3:0.2733753 4:0.27929464 5:0.56907427 6:0.27631307 7:0.53606945 8:0.70322788 9:0.53425765 10:0.67239964 11:0.51552075 12:0.50327408 13:0.53526598 14:0.30473313 15:0.37518197 16:0.47469473 17:0.39613667 18:0.65867972 19:0.52043003 20:0.4282833 21:0.58993334 22:0.47727185 23:0.56111008 24:0.5840894 25:0.64807099 26:0.35780558 27:0.44690397 28:0.46788064 29:0.50773728 30:0.38233054 31:0.31295502 32:0.36571684 33:0.40657336 34:0.5914728 35:0.40170994 36:0.38201168 37:0.37905583 38:0.32755882 39:0.68019789 40:0.5066691 41:0.4956935 42:0.34728566 43:0.32411218 44:0.44578776 45:0.52729625 46:0.34284258 47:0.52262664 48:0.63341451 49:0.41569918 50:0.55576843 51:0.49118495 52:0.50172055 53:0.55955428 54:0.67820203 55:0.51471031 56:0.64693201 57:0.48508042 58:0.63048351 59:0.29533485 60:0.93708462 61:0.43303722 62:0.34727645 63:0.60903412 64:0.56172794 65:0.50762165 66:0.18633136 67:0.28724602 68:0.44025165 69:0.29312631 70:0.45655546 71:0.93678558 72:0.70229298 73:0.48111114 74:0.56470323 75:0.37610134 
0 0 1.124935947257966 0 0 0 0 0 0 0 0 0 0 0 0 0 0 0 0 0 0 0 0 0 0 1:0.52905226 2:0.56415415 3:0.38004029 4:0.40278473 5:0.357676 6:0.57930458 7:0.4730947 8:0.47896671 9:0.4700067 10:0.44776747 11:0.69935775 12:0.39310306 13:0.30052245 14:0.42949936 15:0.44740921 16:0.53841025 17:0.47278079 18:0.39521548 19:0.41767547 20:0.34219661 21:0.64524341 22:0.44110972 23:0.63454586 24:0.60747993 25:0.3816824 26:0.62472177 27:0.59173334 28:0.4862681 29:0.36390606 30:0.3484633 31:0.44035041 32:0.56458867 33:0.36265206 34:0.44966355 35:0.33105811 36:0.50901598 37:0.50610739 38:0.3977944 39:0.62669265 40:0.34960669 41:0.48967674 42:0.22146757 43:0.4399538 44:0.52582985 45:0.37028065 46:0.31126541 47:0.51043016 48:0.69760388 49:0.41877928 50:0.64141381 51:0.44340244 52:0.4558354 53:0.51031512 54:0.63381708 55:0.59049624 56:0.66756886 57:0.48419586 58:0.54207623 59:0.32978663 60:0.8056221 61:0.40525773 62:0.41712412 63:0.48835009 64:0.62476444 65:0.47209468 66:0.29777241 67:0.20456202 68:0.56567264 69:0.32020921 70:0.4844169 71:0.90391105 72:0.82467347 73:0.45569888 74:0.51594621 75:0.3896046 
0 0 0 0 0 0 0 0.1534798528077678 0 0 0 0 0 0 0 0 0 0 0 0 0 0 0 0 0 1:0.50043148 2:0.7099762 3:0.4579753 4:0.50694174 5:0.22830048 6:0.48203039 7:0.4024013 8:0.49203569 9:0.49540854 10:0.50229889 11:0.67577374 12:0.3899956 13:0.47119761 14:0.44911158 15:0.60113001 16:0.60421854 17:0.40284309 18:0.6732713 19:0.41055748 20:0.35438678 21:0.57839191 22:0.49923134 23:0.60008103 24:0.45730227 25:0.69476658 26:0.55306786 27:0.38817257 28:0.5356155 29:0.65241706 30:0.62691391 31:0.192306 32:0.65177947 33:0.35851508 34:0.52707326 35:0.59477508 36:0.31947812 37:0.56006163 38:0.59283251 39:0.53833574 40:0.4885602 41:0.46230221 42:0.27236214 43:0.47286946 44:0.49723694 45:0.5273397 46:0.46304083 47:0.55736351 48:0.53451544 49:0.62253016 50:0.59870958 51:0.3753154 52:0.37491626 53:0.45207366 54:0.54822135 55:0.42706648 56:0.80012149 57:0.56287575 58:0.47271463 59:0.58276945 60:0.6430524 61:0.40602922 62:0.35827741 63:0.55130124 64:0.64493632 65:0.41704169 66:0.49171969 67:0.10470466 68:0.58379036 69:0.48118827 70:0.51493055 71:0.94264007 72:0.62011945 73:0.55209953 74:0.44738671 75:0.37884456 
0 0 0 0 0.8627146784849155 0.1543595089587504 0 0 0 0 0 0 0 0 0 0 0 0 0 0 0 0 0 0 0.5204045622309809 1:0.60694599 2:0.45680109 3:0.59685504 4:0.4462584 5:0.52014351 6:0.54225546 7:0.46727866 8:0.63765281 9:0.25139967 10:0.33637127 11:0.73475188 12:0.74610829 13:0.58149493 14:0.58677119 15:0.51556307 16:0.37688479 17:0.71879816 18:0.18031599 19:0.80725926 20:0.15709032 21:0.63839573 22:0.5075931 23:0.45254776 24:0.74929798 25:0.18485428 26:0.64689916 27:0.75076497 28:0.67882794 29:0.31980279 30:0.56027937 31:0.60795432 32:0.49240372 33:0.34143549 34:0.6655786 35:0.44427004 36:0.6632669 37:0.31441599 38:0.56342685 39:0.52446169 40:0.23695438 41:0.57727742 42:0.24037892 43:0.67815328 44:0.32748234 45:0.45133078 46:0.33816263 47:0.47566137 48:0.60190773 49:0.51081043 50:0.59588939 51:0.24389449 52:0.39984107 53:0.50182045 54:0.66486031 55:0.57449037 56:0.70014536 57:0.38134879 58:0.55481046 59:0.31560057 60:0.65012956 61:0.52935994 62:0.51122677 63:0.54698616 64:0.60262585 65:0.6201753 66:0.24055865 67:0.25826573 68:0.56489938 69:0.19138364 70:0.44293168 71:0.8230145 72:0.66768813 73:0.51363832 74:0.47215894 75:0.44287562 
0 0 0.3842804534760965 0 0 0.09266291891653444 0 0 0 0 0 0 0 0.5837593887999326 0 0 0 0.7974413178075676 0 0 0 0 0 0 0 1:0.43945444 2:0.47057095 3:0.70209402 4:0.4874379 5:0.24228074 6:0.40085766 7:0.28697208 8:0.71887177 9:0.58852929 10:0.49167457 11:0.57662737 12:0.4818908 13:0.43629202 14:0.40766299 15:0.69237041 16:0.60414332 17:0.90172434 18:0.47488806 19:0.15340401 20:0.39079279 21:0.34440377 22:0.3384538 23:0.50010705 24:0.59320748 25:0.47549781 26:0.4677324 27:0.45340058 28:0.39084816 29:0.27728942 30:0.63474637 31:0.17360097 32:0.73532152 33:0.42584968 34:0.74183095 35:0.38986221 36:0.45034033 37:0.68823594 38:0.56310034 39:0.44095492 40:0.60221446 41:0.49334997 42:0.43593085 43:0.50837129 44:0.62003356 45:0.32081941 46:0.67656976 47:0.47196856 48:0.59615475 49:0.6341511 50:0.50922513 51:0.33001882 52:0.19655901 53:0.5171684 54:0.51314896 55:0.38475636 56:0.54771739 57:0.64473969 58:0.48589364 59:0.41850144 60:0.65711719 61:0.27596635 62:0.38553914 63:0.39817232 64:0.50709409 65:0.44619676 66:0.37166357 67:0.11855812 68:0.528328 69:0.37945178 70:0.48671693 71:0.91896939 72:0.65693241 73:0.56975919 74:0.53070813 75:0.42858902 
0 0 0 0 0 0.8469246194486392 0 0 0 0 0 0 0 0 0 0 0 0 0 0 0 0 0 0 0 1:0.6148864 2:0.28124717 3:0.33654577 4:0.28026512 5:0.54693323 6:0.5307923 7:0.52829736 8:0.57224071 9:0.75151324 10:0.71885931 11:0.39394394 12:0.18402722 13:0.55049759 14:0.44397762 15:0.5031172 16:0.51971614 17:0.46475542 18:0.31804529 19:0.555996 20:0.56059253 21:0.51370078 22:0.40722543 23:0.72757173 24:0.52574998 25:0.72806072 26:0.60002249 27:0.59147394 28:0.61386722 29:0.5944106 30:0.50740254 31:0.37306482 32:0.61915964 33:0.25513369 34:0.39469525 35:0.49289256 36:0.43236333 37:0.48716745 38:0.57169664 39:0.60678655 40:0.53522158 41:0.5757392 42:0.35932833 43:0.3082602 44:0.59373081 45:0.65394825 46:0.56980538 47:0.63041878 48:0.56456769 49:0.38885894 50:0.68330115 51:0.3182241 52:0.40196168 53:0.46511972 54:0.5556761 55:0.45955554 56:0.67138249 57:0.50294209 58:0.47853708 59:0.61850709 60:0.63872778 61:0.40276414 62:0.25622025 63:0.59540987 64:0.47902942 65:0.56214041 66:0.33707213 67:0.097775064 68:0.6363703 69:0.45268032 70:0.62674862 71:0.91797924 72:0.55715692 73:0.57772565 74:0.4372327 75:0.41762158 
0 0 0 0 0 0 0 0 0 0 0 0 0 0 0 0 1.104081140176 0 0 0 0 0 0 0 0 1:0.47335643 2:0.56752884 3:0.53304422 4:0.43394658 5:0.46622002 6:0.67264986 7:0.12168016 8:0.50358421 9:0.32754022 10:0.64039177 11:0.55640751 12:0.62167752 13:0.53252584 14:0.38882399 15:0.34997922 16:0.64756614 17:0.4691287 18:0.51419604 19:0.43943486 20:0.57971734 21:0.33346757 22:0.56783724 23:0.43152937 24:0.62828237 25:0.49125975 26:0.63221961 27:0.27348119 28:0.54120791 29:0.32564414 30:0.6040194 31:0.42203274 32:0.45899922 33:0.29756373 34:0.49686489 35:0.52196145 36:0.33940262 37:0.57792705 38:0.70887524 39:0.51361239 40:0.62650973 41:0.57571191 42:0.31829187 43:0.51818585 44:0.50347334 45:0.63538444 46:0.63669837 47:0.52339649 48:0.61040056 49:0.48783517 50:0.65446287 51:0.31676462 52:0.37739354 53:0.61433929 54:0.52493954 55:0.53845775 56:0.62195098 57:0.42638344 58:0.5363825 59:0.56652743 60:0.58796543 61:0.35397348 62:0.35203293 63:0.47518882 64:0.54860729 65:0.46897036 66:0.30962232 67:0.112234 68:0.69536579 69:0.55000234 70:0.58838981 71:0.87200379 72:0.67418313 73:0.59838945 74:0.45327687 75:0.38553607 
0 0 0 0 0 1.405792144623674 0 0.3363016690536064 1.880344902074291 1.905176411528551 1.335608357663074 0 0 0 0 0 0 0.6968365941677694 0 0.9717968757419467 0.1643031837013322 0 1.214858582183565 0 0 1:0.42532614 2:0.3427977 3:0.31396699 4:0.39272988 5:0.63603753 6:0.58543879 7:0.41015279 8:0.57797205 9:0.3292523 10:0.54501075 11:0.67348254 12:0.23897249 13:0.76395971 14:0.36684403 15:0.73834783 16:0.672979 17:0.69367564 18:0.32424426 19:0.40055558 20:0.458368 21:0.56208682 22:0.37096474 23:0.4100967 24:0.62108046 25:0.72471261 26:0.49104592 27:0.42007968 28:0.77916157 29:0.39933261 30:0.43353257 31:0.26727894 32:0.44789469 33:0.43264917 34:0.52410161 35:0.68515956 36:0.16822104 37:0.34882125 38:0.5885452 39:0.46149835 40:0.55889893 41:0.43950969 42:0.65977842 43:0.46502015 44:0.67600274 45:0.73621762 46:0.70674717 47:0.64048582 48:0.57375282 49:0.32002044 50:0.59159189 51:0.26769242 52:0.35386187 53:0.60664403 54:0.50791126 55:0.5279417 56:0.48313463 57:0.59730148 58:0.4931154 59:0.4366807 60:0.6342867 61:0.43925104 62:0.29828718 63:0.58551008 64:0.54432005 65:0.69390762 66:0.48303148 67:0.16443951 68:0.63993776 69:0.42648742 70:0.66043121 71:0.74848968 72:0.62025774 73:0.59381169 74:0.42871779 75:0.3268353 
0 0 0 0 0 0 0 0 0.1690081246444403 0 0 0 0 0 0 0 0.01891045781671438 0 0 0 0 0 0 0 0 1:0.49027467 2:0.34621039 3:0.80541551 4:0.55661905 5:0.73705405 6:0.87606537 7:0.3943876 8:0.65323061 9:0.33036864 10:0.60841614 11:0.45023224 12:0.2746067 13:0.49097568 14:0.37054288 15:0.42664364 16:0.411892 17:0.33119598 18:0.49171197 19:0.054140434 20:0.41073045 21:0.37069339 22:0.49020171 23:0.57348967 24:0.57899272 25:0.50417954 26:0.68540514 27:0.23868975 28:0.55815154 29:0.37174755 30:0.57012671 31:0.46256599 32:0.53708488 33:0.37717104 34:0.48954666 35:0.57430053 36:0.21878943 37:0.50775057 38:0.52435631 39:0.49789011 40:0.41677162 41:0.5340119 42:0.42077109 43:0.39623868 44:0.58952379 45:0.53829491 46:0.49475652 47:0.58642632 48:0.53803658 49:0.46793312 50:0.7738111 51:0.36302471 52:0.4750095 53:0.51658756 54:0.53840327 55:0.48898178 56:0.62506163 57:0.56380242 58:0.49344483 59:0.43024138 60:0.55845469 61:0.41380471 62:0.33727017 63:0.50300187 64:0.50509453 65:0.65106022 66:0.38448617 67:0.159953 68:0.65924323 69:0.4161174 70:0.63180131 71:0.88927788 72:0.64617759 73:0.56603795 74:0.34929502 75:0.35199216 
0 0 0 0 0 0 0 0 0 0 0 0 0 0 0 0 0.1303782945275902 0 0 0 0 0 0 0 0 1:0.45152125 2:0.84386551 3:0.35734135 4:0.41724709 5:0.53508371 6:0.32750714 7:0.57800049 8:0.5796082 9:0.45929644 10:0.66243422 11:0.64966023 12:0.39397427 13:0.47300383 14:0.43282619 15:0.21162091 16:0.35378733 17:0.23222332 18:0.68227297 19:0.33327949 20:0.60872716 21:0.80781102 22:0.58671474 23:0.82386827 24:0.65494448 25:0.58674109 26:0.52882701 27:0.48204744 28:0.32006162 29:0.66487634 30:0.36502731 31:0.40202412 32:0.31301004 33:0.31952086 34:0.56102884 35:0.40441605 36:0.48251957 37:0.34755662 38:0.14605832 39:0.6416263 40:0.62354171 41:0.46608585 42:0.48190811 43:0.31952167 44:0.37960911 45:0.5624193 46:0.37402526 47:0.55161887 48:0.61517155 49:0.55156302 50:0.56686014 51:0.53648204 52:0.34117559 53:0.46288404 54:0.4733474 55:0.40120506 56:0.64802992 57:0.55742252 58:0.62829292 59:0.5050503 60:0.80555069 61:0.27574053 62:0.3167803 63:0.4695082 64:0.5503692 65:0.46482447 66:0.2660377 67:0.15535212 68:0.61438459 69:0.51548618 70:0.55199754 71:0.90253341 72:0.72463125 73:0.55245507 74:0.51662672 75:0.38362658 
0 0 0 0 0 0 0 0 0 0 0 0 0 0.1434318612294424 0 0 0 0 0 0 0 0 0 0 0 1:0.69293749 2:0.39217699 3:0.52001429 4:0.53287822 5:0.58978778 6:0.31107 7:0.31303117 8:0.59614378 9:0.17236821 10:0.41337112 11:0.54898804 12:0.41565382 13:0.56610346 14:0.50616461 15:0.4143995 16:0.55604827 17:0.58901805 18:0.27000871 19:0.2643863 20:0.4135651 21:0.54607481 22:0.48294562 23:0.39592594 24:0.48862082 25:0.44967386 26:0.61295658 27:0.26181176 28:0.74202532 29:0.77748328 30:0.73661304 31:0.61831188 32:0.66170084 33:0.34843519 34:0.52707213 35:0.70875549 36:0.65102994 37:0.59067357 38:0.60906243 39:0.46088877 40:0.43017974 41:0.58120376 42:0.39347672 43:0.33564469 44:0.30573258 45:0.49356979 46:0.65376002 47:0.53206581 48:0.56465214 49:0.37625271 50:0.64925128 51:0.29793483 52:0.33074686 53:0.46333843 54:0.64579123 55:0.44556054 56:0.64927691 57:0.47686633 58:0.46945208 59:0.48371688 60:0.51624495 61:0.45115209 62:0.38080895 63:0.66715336 64:0.50865471 65:0.53208721 66:0.41119406 67:0.25032192 68:0.65269786 69:0.48010242 70:0.62507123 71:0.79753006 72:0.56820446 73:0.64741856 74:0.35641724 75:0.33920911 
0 0 0 0 0 0 0 0 0 0 0 0 0 0.4715420128666762 0 0 0 0 0 0 0 0 0 0 0 1:0.34927571 2:0.17739503 3:0.61583704 4:0.56612688 5:0.5103063 6:0.36680865 7:0.44354525 8:0.41954419 9:0.69979078 10:0.23621505 11:0.3678489 12:0.46591148 13:0.55994874 14:0.45747316 15:0.40314102 16:0.58193171 17:0.56098676 18:0.31752586 19:0.65440047 20:0.38907719 21:0.49133542 22:0.42747825 23:0.52057034 24:0.37161833 25:0.44482228 26:0.45165196 27:0.56277883 28:0.56995016 29:0.49956778 30:0.67551231 31:0.40610841 32:0.53217685 33:0.2688643 34:0.40186268 35:0.52192664 36:0.51002663 37:0.61499721 38:0.75173426 39:0.47884539 40:0.61874801 41:0.55747777 42:0.41439834 43:0.36491141 44:0.5991838 45:0.30085686 46:0.69286597 47:0.37142843 48:0.68886244 49:0.55900407 50:0.50689924 51:0.3206175 52:0.33291 53:0.65160924 54:0.45901918 55:0.38102078 56:0.62962657 57:0.57137698 58:0.52476662 59:0.49655217 60:0.57397908 61:0.25387508 62:0.17713179 63:0.51345229 64:0.44170791 65:0.62766743 66:0.34874219 67:0.065454885 68:0.56780273 69:0.37287772 70:0.55932325 71:0.91908348 72:0.66302043 73:0.62477082 74:0.36648309 75:0.41961491 
0 1.460713430537337 1.487165969296112 0 0 0 0.1304346870288524 0.1605458695122219 0 0 0 1.180505422473056 0 0 0 0 0 0.3611312441476205 0 0 1.685651284742296 0 0 0 0 1:0.50253159 2:0.44013837 3:0.5416885 4:0.75231475 5:0.53355598 6:0.52724344 7:0.39798805 8:0.29271281 9:0.36645117 10:0.43730828 11:0.68755555 12:0.40592384 13:0.53538531 14:0.69743145 15:0.60310757 16:0.61490923 17:0.65049434 18:0.35285431 19:0.59438986 20:0.52373731 21:0.68740058 22:0.63063073 23:0.47135431 24:0.40783361 25:0.53362107 26:0.66816026 27:0.46428373 28:0.75900543 29:0.54834855 30:0.52100796 31:0.43403327 32:0.46220949 33:0.43057927 34:0.16366985 35:0.79668963 36:0.21850409 37:0.19064419 38:0.85403061 39:0.38516077 40:0.50613463 41:0.44414055 42:0.37660116 43:0.50532907 44:0.75752932 45:0.55525166 46:0.80794388 47:0.78961861 48:0.60699087 49:0.27683291 50:0.7345286 51:0.30800337 52:0.40729818 53:0.61306012 54:0.53460187 55:0.58674026 56:0.45294037 57:0.5746181 58:0.39928311 59:0.46841088 60:0.66094673 61:0.48226175 62:0.26409703 63:0.65455246 64:0.74011904 65:0.60293466 66:0.52930039 67:0.11427855 68:0.6175651 69:0.46258783 70:0.70902818 71:0.88644624 72:0.5435732 73:0.57816786 74:0.3705835 75:0.31425118 
0 0 1.207541525183274 0 0 0 0 0 0 0 0 0 0 0 0 0 0.6568874029488553 0 0 0 0 0 0 0 0 1:0.45379552 2:0.75985342 3:0.78739804 4:0.61875886 5:0.21663614 6:0.46887708 7:0.39875555 8:0.59047472 9:0.71014047 10:0.51727104 11:0.88107705 12:0.37612036 13:0.38269567 14:0.39569846 15:0.61755091 16:0.50339347 17:0.58181226 18:0.65843743 19:0.14646351 20:0.5710814 21:0.43276635 22:0.64644635 23:0.59331048 24:0.47335112 25:0.48682573 26:0.3878125 27:0.27706763 28:0.43232709 29:0.46649322 30:0.47161439 31:0.21659604 32:0.44832012 33:0.57300693 34:0.64472514 35:0.32378009 36:0.39862072 37:0.71666002 38:0.3945927 39:0.45681527 40:0.62677705 41:0.42793748 42:0.36464098 43:0.46104687 44:0.53866178 45:0.32917756 46:0.51967001 47:0.57270765 48:0.64485091 49:0.80560887 50:0.60063672 51:0.39364892 52:0.28692946 53:0.51937151 54:0.45896909 55:0.604195 56:0.63199115 57:0.61914396 58:0.45550564 59:0.40472984 60:0.68709999 61:0.36263588 62:0.40736458 63:0.35625184 64:0.58458203 65:0.54323512 66:0.35450661 67:0.18500841 68:0.60487252 69:0.39410079 70:0.52078009 71:0.96371686 72:0.72492975 73:0.52904493 74:0.44853368 75:0.35464424 
0 0 0 0 0 0 0 0 0 0 0 0 0 0 0 0 0 0 0 0 0 0 0 0.5747494677110777 0 1:0.37646669 2:0.60815728 3:0.4754422 4:0.41239119 5:0.55536073 6:0.4486824 7:0.55883235 8:0.61036968 9:0.52202845 10:0.40168431 11:0.54263121 12:0.70242614 13:0.59594619 14:0.28007117 15:0.47882175 16:0.57537615 17:0.61737764 18:0.52950567 19:0.42069021 20:0.53956848 21:0.58908403 22:0.49280691 23:0.51693624 24:0.39637008 25:0.46808177 26:0.34561497 27:0.49356514 28:0.51736462 29:0.32894903 30:0.41378674 31:0.42984697 32:0.41144308 33:0.311883 34:0.57456994 35:0.3931095 36:0.42754394 37:0.47478431 38:0.56426847 39:0.54565924 40:0.44184381 41:0.51977867 42:0.33679044 43:0.2446256 44:0.49560252 45:0.27455258 46:0.53259742 47:0.48871189 48:0.65221608 49:0.2911129 50:0.63264596 51:0.45141909 52:0.44170779 53:0.6396414 54:0.49229458 55:0.41176286 56:0.5993132 57:0.39242584 58:0.64199954 59:0.30476555 60:0.76959646 61:0.3627024 62:0.39382663 63:0.48421726 64:0.52835482 65:0.55024505 66:0.23836355 67:0.1808224 68:0.51575118 69:0.35382071 70:0.51622301 71:0.93489003 72:0.67268997 73:0.54870504 74:0.51234323 75:0.42936414 
0 0 0 0.08517728544854787 0 0 0 0.8369101971365107 0 0.1410616003691239 0 0 0 0 0.266928498515544 0 0 1.845791480773575 0 0 0 0 0 0 0 1:0.57433355 2:0.47314236 3:0.6433062 4:0.48382562 5:0.58197421 6:0.20678206 7:0.76320326 8:0.54873997 9:0.46876615 10:0.43629304 11:0.61799175 12:0.5693115 13:0.7110424 14:0.4165127 15:0.59461534 16:0.63603014 17:0.61859214 18:0.62970811 19:0.34248579 20:0.50196099 21:0.7285322 22:0.80868393 23:0.55382794 24:0.37715504 25:0.56395686 26:0.6086781 27:0.26152033 28:0.6148873 29:0.71570152 30:0.82472003 31:0.54954588 32:0.82081378 33:0.53833103 34:0.78573179 35:0.69114619 36:0.57611305 37:0.32362247 38:0.35750684 39:0.50137186 40:0.64569592 41:0.43547276 42:0.35508329 43:0.41812032 44:0.44203505 45:0.4214763 46:0.66549301 47:0.60966325 48:0.48072249 49:0.41960323 50:0.66374886 51:0.57402265 52:0.42118177 53:0.60433835 54:0.6465748 55:0.58582842 56:0.54543489 57:0.61086738 58:0.50105023 59:0.45035818 60:0.45576322 61:0.42524689 62:0.35156778 63:0.59315091 64:0.47934413 65:0.58202785 66:0.42812577 67:0.23770511 68:0.72380692 69:0.32607371 70:0.53834957 71:0.84764034 72:0.57915533 73:0.61325645 74:0.41256362 75:0.41554281 
0 0 0 0 0 0 0 0 0 0 0 0 0 0 0.5701496936726428 0 0 0 0 0 0 0 0 0 1.342499275604816 1:0.4456425 2:0.55440396 3:0.42748928 4:0.59966409 5:0.53371972 6:0.47689444 7:0.26927829 8:0.54608804 9:0.48881948 10:0.49121612 11:0.79456294 12:0.55486202 13:0.38948825 14:0.27093059 15:0.67195147 16:0.45535743 17:0.62831014 18:0.2369626 19:0.23863719 20:0.35863045 21:0.46335807 22:0.2894367 23:0.64328921 24:0.67422903 25:0.22555682 26:0.44711658 27:0.6984331 28:0.50069362 29:0.30068335 30:0.65356374 31:0.2634722 32:0.59118336 33:0.3346377 34:0.77085948 35:0.42489162 36:0.44824833 37:0.45082384 38:0.61241794 39:0.58902919 40:0.50069499 41:0.42474163 42:0.79056144 43:0.48165035 44:0.48364857 45:0.48348019 46:0.50606525 47:0.50884128 48:0.53442764 49:0.57882607 50:0.6082747 51:0.23338749 52:0.32755342 53:0.54617625 54:0.47569942 55:0.54055744 56:0.66443348 57:0.60430455 58:0.35315213 59:0.42339876 60:0.69315028 61:0.44475272 62:0.30847591 63:0.51468033 64:0.38307333 65:0.55025363 66:0.22932625 67:0.26056328 68:0.41906199 69:0.20755929 70:0.39334014 71:0.80011243 72:0.6995185 73:0.42930382 74:0.49739215 75:0.40478975 
0 0.4010808429332889 2.018952381077042 3.14104147692509 0 2.004495096318782 1.206477607287911 0 0.1107194994781433 0.2881005861345587 0 0 0.3731127083659405 1.056270175460392 0 2.233915095396094 1.42870214566353 2.673712484920819 0.8013274570724407 1.436259089537665 0.5234310490304562 0 0 0 2.480822786420924 1:0.45128083 2:0.53243846 3:0.52056962 4:0.45835605 5:0.76095062 6:0.27074262 7:0.55400676 8:0.55273706 9:0.47140536 10:0.4703204 11:0.36248511 12:0.67219412 13:0.74212694 14:0.62735349 15:0.71240169 16:0.4466871 17:0.89424813 18:0.44670227 19:0.15141928 20:0.30902761 21:0.59243608 22:0.80143654 23:0.46459389 24:0.46822971 25:0.41099781 26:0.65911949 27:0.24510658 28:0.489609 29:0.67417568 30:0.57262886 31:0.49789894 32:0.74696892 33:0.467457 34:0.70650476 35:0.66198444 36:0.30458727 37:0.28618401 38:0.59345561 39:0.67095745 40:0.60743052 41:0.51881868 42:0 43:0.48784125 44:0.63260239 45:0.61244488 46:0.52719849 47:0.6843428 48:0.63138068 49:0.33433518 50:0.76331824 51:0.48224634 52:0.32882079 53:0.63581222 54:0.72434831 55:0.44331595 56:0.53689706 57:0.59266001 58:0.61053836 59:0.54129297 60:0.51185805 61:0.48788524 62:0.24313059 63:0.72599155 64:0.51170641 65:0.7115736 66:0.46600759 67:0.24116008 68:0.74925393 69:0.21324812 70:0.59294146 71:0.79581577 72:0.5585528 73:0.74167556 74:0.36235258 75:0.42000252 
4.238109112767045 1.280468061865267 3.491222392011015 2.985779348480117 0.6885042619850583 1.791198797865577 0.5752679215425532 0 0.2569036011304024 0 0.1249554687575362 0 0 1.303058892840089 0 2.35042874467493 0 1.768155334003375 0 1.456315216635972 0.247390373671465 2.77015349630248 1.090885739729836 0 0.4049497136353526 1:0.4806028 2:0.54310817 3:0.38959199 4:0.37303528 5:0.55868274 6:0.26648158 7:0.56717169 8:0.60296768 9:0.35290226 10:0.63590896 11:0.54208785 12:0.33624819 13:0.52531958 14:0.48341906 15:0.3242352 16:0.40226087 17:0.57476407 18:0.75875145 19:0.43477517 20:0.70953184 21:0.6817311 22:0.54932523 23:0.6531269 24:0.45056519 25:0.53461671 26:0.3408497 27:0.24272443 28:0.62191254 29:0.98264319 30:0.66003835 31:0.53051269 32:0.44176558 33:0.3186371 34:0.42681307 35:0.33362314 36:0.63826758 37:0.45123747 38:0.33904779 39:0.59256351 40:0.77778763 41:0.52168089 42:0.4410533 43:0.43437004 44:0.28080732 45:0.44342792 46:0.57433838 47:0.52531654 48:0.47707152 49:0.2846278 50:0.6516158 51:0.50200075 52:0.48932755 53:0.55286735 54:0.73431069 55:0.42136002 56:0.65219426 57:0.48164099 58:0.52010256 59:0.29120335 60:0.73380107 61:0.46828857 62:0.38565058 63:0.54218739 64:0.48095334 65:0.41179577 66:0.11802501 67:0.40882814 68:0.58079159 69:0.46716383 70:0.49471724 71:0.71714967 72:0.64324361 73:0.51523125 74:0.55260843 75:0.42755878 
1.389090712295701 0 0 0 0.1036986103659375 0 0 0 0 2.448324104302606 2.046907317563454 0 0 0.1899971661517075 0 0.8821328485763482 1.656916698876521 0 0 0.2191873890466427 0 0 0 0 1.066133617972154 1:0.43536168 2:0.74829096 3:0.60897964 4:0.51459849 5:0.55001819 6:0.43315294 7:0.43179524 8:0.55106443 9:0.65506703 10:0.55938518 11:0.38926354 12:0.7338503 13:0.55932033 14:0.44411361 15:0.45181325 16:0.30667982 17:0.42705336 18:0.63499153 19:0.34661818 20:0.25568855 21:0.62600523 22:0.50331593 23:0.56503814 24:0.5103448 25:0.24492437 26:0.50772792 27:0.12245195 28:0.47946554 29:0.73075676 30:0.73319805 31:0.71184647 32:0.25580499 33:0.50911021 34:0.69189531 35:0.39877838 36:0.52291238 37:0.36339787 38:0.1805823 39:0.68756533 40:0.44242182 41:0.51083833 42:0.25795102 43:0.37979043 44:0.29377344 45:0.54286891 46:0.63117731 47:0.49501467 48:0.60818148 49:0.57784837 50:0.59295213 51:0.46460226 52:0.34734038 53:0.52161276 54:0.5685038 55:0.36843863 56:0.63874537 57:0.37189323 58:0.75297469 59:0.47211584 60:0.81783545 61:0.34240076 62:0.15238625 63:0.47919074 64:0.61629993 65:0.58739728 66:0.38457412 67:0.16221665 68:0.69866258 69:0.24394599 70:0.54451042 71:0.77281588 72:0.56173956 73:0.71360749 74:0.34324777 75:0.48007998 
0 0 0 0 0 0 0.02906913646749122 0 0.05377421982281119 0 0 0 0 0 0 1.039417485543551 0 0 0 0 0 0 0 0 0 1:0.72903365 2:0.45541734 3:0.38677663 4:0.2540957 5:0.52268982 6:0.45843047 7:0.33752218 8:0.73560596 9:0.43618867 10:0.70677459 11:0.33303264 12:0.77728498 13:0.41406101 14:0.58274168 15:0.52918333 16:0.52466142 17:0.61079699 18:0.5408113 19:0.19199394 20:0.24052735 21:0.27725911 22:0.58549398 23:0.36329508 24:0.55149293 25:0.54731184 26:0.58895558 27:0.28665552 28:0.65691632 29:0.50599784 30:0.68862814 31:0.2805056 32:0.46976906 33:0.39658958 34:0.61133444 35:0.70475596 36:0.75131816 37:0.58346498 38:0.31708196 39:0.45268643 40:0.63991272 41:0.41288882 42:0.39597058 43:0.52696782 44:0.2628243 45:0.61943829 46:0.74403453 47:0.66790444 48:0.72401619 49:0.9088189 50:0.68946058 51:0.27177483 52:0.39014995 53:0.51164597 54:0.58401185 55:0.39777884 56:0.66100156 57:0.63920206 58:0.577986 59:0.34286198 60:0.63999528 61:0.42371234 62:0.22934233 63:0.57243872 64:0.50285619 65:0.47819787 66:0.35626212 67:0.24105597 68:0.68945742 69:0.31364596 70:0.44992363 71:0.75963753 72:0.6838482 73:0.6346736 74:0.40081304 75:0.45255575 
0 0 0 0 0 0 0 0 0 1.253694634315888 0.3326808962840135 0 0.8683395874740679 0 0 0 0 2.434999681658705 0 0 0.1240616622736233 0 0 0 0 1:0.45512772 2:0.19369142 3:0.58943367 4:0.57769305 5:0.80247039 6:0.45828113 7:0.6426416 8:0.53368813 9:0.45796996 10:0.54564875 11:0.49377051 12:0.47618398 13:0.27582115 14:0.30590299 15:0.46548453 16:0.41797492 17:0.67653286 18:0.36140454 19:0.20782538 20:0.28287092 21:0.37174851 22:0.62928617 23:0.48937157 24:0.60790104 25:0.35885 26:0.74100465 27:0.26502049 28:0.70356822 29:0.37945932 30:0.54531187 31:0.66677839 32:0.65197676 33:0.51308358 34:0.38456562 35:0.4869796 36:0.42849407 37:0.31806383 38:0.51753348 39:0.46802458 40:0.52216107 41:0.66492051 42:0.36793533 43:0.36925352 44:0.56745613 45:0.55671149 46:0.58462483 47:0.59691793 48:0.4351137 49:0.50645274 50:0.86392444 51:0.19840366 52:0.54875821 53:0.49027622 54:0.72051108 55:0.46422359 56:0.50092053 57:0.66144031 58:0.52666044 59:0.3763133 60:0.55429059 61:0.4527159 62:0.33399856 63:0.51268393 64:0.61771214 65:0.77758747 66:0.4624728 67:0.18536481 68:0.74123174 69:0.33034199 70:0.68443257 71:0.87280113 72:0.53807563 73:0.65599656 74:0.22172722 75:0.37767604 
0.7045606372952524 0 0 0 0.0363552797034561 0.7625047235909683 0 0 0 0 0 0 0 0.8170477180830875 0 0 0 0 0 0 0 0 0 0 0 1:0.40450555 2:0.34874496 3:0.34125885 4:0.53035128 5:0.53221709 6:0.4486582 7:0.31973591 8:0.4267768 9:0.7375319 10:0.47967261 11:0.63123602 12:0.54887128 13:0.42686516 14:0.65490937 15:0.60208887 16:0.61983252 17:0.60407341 18:0.2345144 19:0.35123 20:0.26750407 21:0.62732852 22:0.28851572 23:0.53373635 24:0.83814961 25:0.44327143 26:0.84312558 27:0.35050538 28:0.22986978 29:0.34463191 30:0.70262575 31:0.40612864 32:0.65402645 33:0.39038426 34:0.71730286 35:0.37943935 36:0.56968218 37:0.68789899 38:0.51578468 39:0.41804707 40:0.44118544 41:0.41742069 42:0.47620481 43:0.46410227 44:0.46168634 45:0.3658424 46:0.69176006 47:0.57920474 48:0.69793695 49:0.65705794 50:0.5393914 51:0.32692426 52:0.17499118 53:0.40618944 54:0.50289476 55:0.42556673 56:0.54034996 57:0.65681094 58:0.48804405 59:0.5640462 60:0.78141826 61:0.39224061 62:0.20083828 63:0.47429222 64:0.52020723 65:0.55297732 66:0.43572286 67:0.16264401 68:0.67363107 69:0.3159503 70:0.52990454 71:0.85595083 72:0.69798368 73:0.74079502 74:0.35110414 75:0.42146826 
0 0 0 1.400192691195895 0 0 0 0 0 0 0 0 0 0 0 0 0 0 0 0 0 0 0 1.140618459679969 0 1:0.42187506 2:0.4795478 3:0.54628968 4:0.65233928 5:0.61181122 6:0.6100046 7:0.42819092 8:0.47600636 9:0.63646686 10:0.78384691 11:0.75528282 12:0.6649406 13:0.34225589 14:0.30193996 15:0.42851344 16:0.65830863 17:0.56467909 18:0.059294213 19:0.066370256 20:0.39615792 21:0.42350063 22:0.5497092 23:0.30712801 24:0.72491395 25:0.48979753 26:0.75177628 27:0.49609542 28:0.58937997 29:0.21092777 30:0.42946494 31:0.57464087 32:0.64113039 33:0.41004688 34:0.96119398 35:0.40794569 36:0.53239286 37:0.58152437 38:0.61079472 39:0.58762944 40:0.4043954 41:0.44882432 42:0.42984942 43:0.51818353 44:0.42797798 45:0.4166173 46:0.59792429 47:0.55162257 48:0.5854696 49:0.61106652 50:0.71323729 51:0.47924942 52:0.26774904 53:0.55760086 54:0.4799749 55:0.55466121 56:0.48815647 57:0.68453974 58:0.70293176 59:0.65095752 60:0.6785726 61:0.31357756 62:0.33760121 63:0.52497858 64:0.36307833 65:0.64565247 66:0.33821014 67:0.20003378 68:0.62169135 69:0.53190678 70:0.50051397 71:0.83716655 72:0.57176608 73:0.71085739 74:0.37881264 75:0.49146724 
0 0 0 0 0 0.1612829641841155 0 0 0 0 0 0 1.817594501846594 0.7270958502583948 0 0 1.427673574518548 0 0 1.080092017283196 0 0 0 0 0 1:0.41330811 2:0.52912176 3:0.4335714 4:0.45560202 5:0.61264879 6:0.50535363 7:0.59992081 8:0.6084494 9:0.64298856 10:0.54409772 11:0.69099593 12:0.37508416 13:0.41470549 14:0.38571861 15:0.52936786 16:0.28884718 17:0.66895676 18:0.4603318 19:0.38174903 20:0.4653683 21:0.54295307 22:0.50328016 23:0.78508723 24:0.64705521 25:0.51270944 26:0.36649516 27:0.76571119 28:0.53494805 29:0.45894167 30:0.43468702 31:0.49152377 32:0.0018631815 33:0.41210309 34:0.73949528 35:0.31513852 36:0.50718182 37:0.38962528 38:0.31578499 39:0.76622945 40:0.58841038 41:0.53973091 42:0.39357716 43:0.41584739 44:0.27019364 45:0.65978503 46:0.27656591 47:0.49388075 48:0.49922264 49:0.58522546 50:0.59829754 51:0.52557337 52:0.26166898 53:0.54673207 54:0.31264913 55:0.49749696 56:0.80286962 57:0.51034606 58:0.63454336 59:0.51451159 60:0.76649499 61:0.33933997 62:0.11505007 63:0.5696094 64:0.23256345 65:0.7359671 66:0.22369941 67:0.2254196 68:0.51342309 69:0.20370559 70:0.39975661 71:0.62401509 72:0.81380427 73:0.39714712 74:0.5671553 75:0.28129509 
0.03487862196813969 0 0.2197731599777293 0 0 0 0 0 0.4899726762509038 0 0 3.550998314007723 0 0.06327440879997899 0 0.4089052338567646 0 0.8045136358564642 0.1356072787282804 0 0.04284204369814124 0 0 0 1.184723758599333 1:0.56053191 2:0.29207802 3:0.39236405 4:0.56364179 5:0.57387477 6:0.41498119 7:0.32168978 8:0.49290544 9:0.46063536 10:0.67765284 11:0.82949346 12:0.44603038 13:0.58784992 14:0.36324602 15:0.46529061 16:0.29170692 17:0.58159101 18:0.85860711 19:0.42417544 20:0.38003951 21:0.54136407 22:0.49893084 23:0.40676242 24:0.5023793 25:0.41297817 26:0.23330998 27:0.40069085 28:0.41727644 29:0.35297269 30:0.69206035 31:0.51032072 32:0.40950054 33:0.51864409 34:0.4688684 35:0.29425117 36:0.69950247 37:0.3692638 38:0.38950968 39:0.48852247 40:0.6453557 41:0.44523746 42:0.25270608 43:0.5803706 44:0.53323352 45:0.50401056 46:0.51099062 47:0.5803985 48:0.78482741 49:0.76589984 50:0.57569933 51:0.24563973 52:0.44464967 53:0.50818998 54:0.7051844 55:0.42734975 56:0.66282815 57:0.51876539 58:0.56523877 59:0.34785345 60:0.78741735 61:0.54000115 62:0.35807833 63:0.52288043 64:0.59604067 65:0.50732833 66:0.26190153 67:0.23339094 68:0.64100003 69:0.31708595 70:0.5310843 71:0.84074402 72:0.60816187 73:0.57164425 74:0.37725565 75:0.38445297 
0 0 0 0 0 0 0 0 0 0 0 0 0 0 0 0 0 0 0 0 0 0 0 0.3461426124411434 0 1:0.50824571 2:0.28583315 3:0.56362677 4:0.51960689 5:0.67216235 6:0.53750312 7:0.38561803 8:0.55845237 9:0.46856979 10:0.43311673 11:0.45811638 12:0.56247801 13:0.6728909 14:0.29223433 15:0.32819334 16:0.55292284 17:0.5135709 18:0.339757 19:0.60170937 20:0.52797657 21:0.39454189 22:0.32923076 23:0.39981261 24:0.61154497 25:0.52468556 26:0.5609355 27:0.46914369 28:0.67560029 29:0.35778689 30:0.6019429 31:0.40827149 32:0.46444798 33:0.48784661 34:0.60248297 35:0.48562229 36:0.43398878 37:0.55514598 38:0.62359792 39:0.50162417 40:0.74703723 41:0.48740968 42:0.73016721 43:0.48349932 44:0.24382985 45:0.56064063 46:0.60791564 47:0.67652547 48:0.4492785 49:0.49221957 50:0.6906262 51:0.26722437 52:0.24884795 53:0.59294647 54:0.38023394 55:0.45902374 56:0.66608924 57:0.6423952 58:0.49065071 59:0.6322946 60:0.43727216 61:0.21183208 62:0.11437151 63:0.60277784 64:0.2857708 65:0.77594388 66:0.34382617 67:0.13402028 68:0.63545275 69:0.29194143 70:0.41347778 71:0.62589276 72:0.83262795 73:0.50518453 74:0.46765864 75:0.32891944 
0 0 0 0.9499709243962217 1.294110882347195 0.5515180813655776 0 0 0 0 0 0 1.84019248112366 0.1103384935260725 1.662526205895925 1.731920609590403 0 0 0.9076896997834196 0 0 0 0 0 2.827202238913769 1:0.48936281 2:0.35591722 3:0.60179621 4:0.87777936 5:0.75568658 6:0.53424221 7:0.31354976 8:0.32849514 9:0.57868528 10:0.25580651 11:0.68865901 12:0.51062697 13:0.69530052 14:0.41319633 15:0.57059568 16:0.22844417 17:0.52421761 18:0.20843197 19:0.31758663 20:0.50118417 21:0.52172798 22:0.46388346 23:0.67156482 24:0.44516984 25:0.39046571 26:0.47937062 27:0.76462322 28:0.68767053 29:0.36667222 30:0.60937756 31:0.43004769 32:0.67076153 33:0.4059639 34:0.37534434 35:0.63922173 36:0.4363842 37:0.51799512 38:0.84598094 39:0.51773393 40:0.46193567 41:0.53857422 42:0.37033564 43:0.3833721 44:0.61181092 45:0.58777213 46:0.81900519 47:0.48313403 48:0.52364612 49:0.42976701 50:0.51149201 51:0.20540543 52:0.41405988 53:0.72573477 54:0.52158582 55:0.38481826 56:0.52349931 57:0.3951923 58:0.46972921 59:0.43543568 60:0.47048071 61:0.42139167 62:0.37488794 63:0.5175724 64:0.42432633 65:0.50897884 66:0.34299213 67:0.094751902 68:0.6258707 69:0.36580858 70:0.59396338 71:0.85762769 72:0.49810666 73:0.55343246 74:0.4206762 75:0.52431697 
0 0 0 0 0 0 0 0 0.808353335728034 0 0 0 0 0 0 0 0 0 0 0 0 0 0 0 0 1:0.50147051 2:0.34502187 3:0.37028304 4:0.51678747 5:0.36390331 6:0.45820048 7:0.69884205 8:0.53203803 9:0.48580652 10:0.76626903 11:0.58857465 12:0.39421305 13:0.6339035 14:0.55792022 15:0.64275163 16:0.47396874 17:0.53665286 18:0.32899535 19:0.2058112 20:0.49549642 21:0.34069276 22:0.28595233 23:0.47117543 24:0.75181156 25:0.41770992 26:0.52698547 27:0.34419817 28:0.33561602 29:0.5106777 30:0.65775931 31:0.28356931 32:0.60978037 33:0.34988403 34:0.5157572 35:0.43818298 36:0.52005458 37:0.43749821 38:0.32709599 39:0.54012543 40:0.59302479 41:0.45028347 42:0.71666092 43:0.50652164 44:0.53504944 45:0.5032196 46:0.6606586 47:0.58643955 48:0.58742011 49:0.58541626 50:0.71640044 51:0.18343261 52:0.28787783 53:0.44368574 54:0.59738618 55:0.39561889 56:0.58063483 57:0.52162832 58:0.37706935 59:0.44544998 60:0.7116785 61:0.40734309 62:0.23794229 63:0.58739406 64:0.51894581 65:0.43467447 66:0.19903189 67:0.25925827 68:0.59001207 69:0.44318441 70:0.5088535 71:0.86609417 72:0.64050341 73:0.49445158 74:0.43482929 75:0.40938124 
2.481960354758516 0 0.34897428163778 1.258739437402099 0 0 0 0.8166248339216197 0.7647023427004987 0.5186575258959124 0.03181889514687766 0 0.4533509978916886 0 0 1.884144939585391 0 0.2585867219611743 0 1.764214578369268 0 0.4437682018302703 0.3037394878255178 0 0 1:0.69228452 2:0.4599883 3:0.59329367 4:0.51883286 5:0.52828902 6:0.62765336 7:0.41821834 8:0.68825305 9:0.58696997 10:0.8648653 11:0.69826615 12:0.71043193 13:0.21510099 14:0.46895963 15:0.28645259 16:0.65392017 17:0.64613843 18:0.50464237 19:0.17862163 20:0.38557091 21:0.52785891 22:0.61241013 23:0.61717504 24:0.54325575 25:0.44728744 26:0.37016612 27:0.32535625 28:0.70166886 29:0.46067309 30:0.39400217 31:0.71259737 32:0.17644684 33:0.37925023 34:0.83043402 35:0.40623844 36:0.64388198 37:0.35240662 38:0.5080381 39:0.58312303 40:0.47300372 41:0.67282361 42:0.64167839 43:0.76889789 44:0.3315585 45:0.4979015 46:0.30735841 47:0.52901429 48:0.51297438 49:0.88081038 50:0.86198562 51:0.4091574 52:0.31611782 53:0.44203311 54:0.44654778 55:0.4577632 56:0.67376727 57:0.45947614 58:0.48388842 59:0.37821057 60:0.69344568 61:0.45631763 62:0.28890222 63:0.39446771 64:0.49186787 65:0.50861186 66:0.1319454 67:0.28077501 68:0.57797331 69:0.52679694 70:0.54146063 71:0.72881931 72:0.57820356 73:0.56447792 74:0.45409393 75:0.45859078 
0 0 0 0 0 0 0 0.1071105336623858 0 0 0 0 0 0.722318200609032 0 0 0 0 1.313971902862038 0 0 0 0 0 0 1:0.68966049 2:0.43011329 3:0.17788349 4:0.55159843 5:0.559479 6:0.37303755 7:0.61550897 8:0.48075494 9:0.3058722 10:0.62388605 11:0.37429416 12:0.58411431 13:0.34094089 14:0.3252261 15:0.32421586 16:0.52594995 17:0.54927605 18:0.41271448 19:0.38154399 20:0.27178261 21:0.4633472 22:0.5884524 23:0.62614089 24:0.44938052 25:0.4195829 26:0.64223915 27:0.49163353 28:0.5458318 29:0.43727249 30:0.59848541 31:0.591667 32:0.5886727 33:0.28386688 34:0.6924687 35:0.48397884 36:0.64137703 37:0.55300206 38:0.7840147 39:0.65555352 40:0.59522748 41:0.61607897 42:0.49920589 43:0.62015229 44:0.50632936 45:0.47951412 46:0.59267223 47:0.52706033 48:0.40083671 49:0.47146657 50:0.68949991 51:0.30004075 52:0.31968158 53:0.63322413 54:0.36685941 55:0.4194504 56:0.6028651 57:0.411818 58:0.38375881 59:0.41569716 60:0.64369714 61:0.44346046 62:0.2789802 63:0.73749655 64:0.37682194 65:0.45343113 66:0.31703871 67:0.2322489 68:0.58152229 69:0.42808983 70:0.51114714 71:0.75774431 72:0.63647544 73:0.55473894 74:0.42492855 75:0.42894214 
1.03508746416869 0.2894804537577987 0 0 0 0 0 0.4900660104584335 0 1.105869615992425 0 0.9752448356577598 0 0.1666251358113023 0.19415152285409 2.324651201614466 0 0 0.6683268528960948 0.3675982746044237 0 0 0 0 0.7604953720706399 1:0.44033858 2:0.41669667 3:0.44867894 4:0.70442992 5:0.38711801 6:0.3389374 7:0.55725288 8:0.71368188 9:0.43401816 10:0.63400584 11:0.46877608 12:0.59148967 13:0.49443281 14:0.49239108 15:0.3945092 16:0.40680906 17:0.27111426 18:0.62562966 19:0.60798085 20:0.24287781 21:0.47552708 22:0.61798328 23:0.81280202 24:0.77071995 25:0.1214179 26:0.49619862 27:0.47290158 28:0.62905484 29:0.61770004 30:0.49691841 31:0.38762429 32:0.70099354 33:0.064266317 34:0.68488348 35:0.55158126 36:0.59006661 37:0.52113467 38:0.64369756 39:0.60132426 40:0.70297152 41:0.62454659 42:0.63962102 43:0.70653224 44:0.40230405 45:0.55130094 46:0.49544874 47:0.32061762 48:0.57940942 49:0.7040481 50:0.58336478 51:0.44721755 52:0.40856248 53:0.50724494 54:0.43720561 55:0.40797496 56:0.66168439 57:0.43140674 58:0.49431249 59:0.58209074 60:0.63999164 61:0.32664093 62:0.21974266 63:0.53901434 64:0.48519343 65:0.32420227 66:0.25500005 67:0.13760544 68:0.65905434 69:0.55380768 70:0.6016959 71:0.78493631 72:0.64746398 73:0.52362388 74:0.49373335 75:0.47923258 
0 0 0 0 0 0 0 0 0 0 0 0 0 0 0 0 0.3998849562295499 0 0 0 0 0 0 0 0 1:0.44943416 2:0.54954898 3:0.45352045 4:0.44302323 5:0.61480689 6:0.33350965 7:0.60528541 8:0.52227682 9:0.49585742 10:0.33227107 11:0.58145988 12:0.54246473 13:0.680641 14:0.35725412 15:0.42884961 16:0.66767764 17:0.22885963 18:0.46457753 19:0.33689553 20:0.46678424 21:0.50923043 22:0.37300423 23:0.74793524 24:0.51873606 25:0.28806511 26:0.58590472 27:0.49477357 28:0.33351228 29:0.44973016 30:0.4678092 31:0.48706168 32:0.38013721 33:0.37557897 34:0.58887649 35:0.40642557 36:0.4789716 37:0.43827224 38:0.24136421 39:0.70089835 40:0.70167029 41:0.47203147 42:0.49324307 43:0.38094506 44:0.49571413 45:0.53492695 46:0.45360261 47:0.62915885 48:0.50253087 49:0.5985688 50:0.54069132 51:0.34776154 52:0.43774137 53:0.6768803 54:0.62942195 55:0.4606398 56:0.59381676 57:0.46311426 58:0.44011632 59:0.37205943 60:0.6296652 61:0.28802529 62:0.37321723 63:0.3721745 64:0.55420685 65:0.41668528 66:0.23121731 67:0.1339529 68:0.59505421 69:0.46760142 70:0.61849684 71:0.87402308 72:0.61721241 73:0.49810767 74:0.52186549 75:0.44991243 
2.711599559189371 0 0 0.1098236198008107 1.270582265540495 0 0 0 0 0 0 1.607317418466972 0 0 0 0 0 0 0 0.200579378076415 0 0 0 0 0.3316201632575109 1:0.48840633 2:0.58934158 3:0.51040649 4:0.65369391 5:0.64507127 6:0.55831313 7:0.76294339 8:0.28957221 9:0.34867695 10:0.67841709 11:0.63637227 12:0.37891847 13:0.45148441 14:0.37705553 15:0.74636233 16:0.52433932 17:0.46247947 18:0.2143402 19:0.39252809 20:0.31188104 21:0.49442899 22:0.34375444 23:0.57882559 24:0.6242972 25:0 26:0.46149415 27:0.79764456 28:0.64102763 29:0.46437407 30:0.48045933 31:0.28795138 32:0.42815199 33:0.3921628 34:0.62380391 35:0.47419885 36:0.58912629 37:0.46157736 38:0.46182641 39:0.45150551 40:0.53864193 41:0.55323052 42:0.4773654 43:0.50010949 44:0.51373696 45:0.72273004 46:0.58542901 47:0.58189029 48:0.46528742 49:0.94283313 50:0.62724119 51:0.25577891 52:0.21474209 53:0.56256944 54:0.49973285 55:0.58790219 56:0.64689106 57:0.44349378 58:0.3571153 59:0.59371525 60:0.58122885 61:0.45665139 62:0.26393858 63:0.37446055 64:0.48236597 65:0.46089557 66:0.14051487 67:0.15553482 68:0.56758302 69:0.60684019 70:0.50472224 71:0.7641257 72:0.45803604 73:0.51145381 74:0.50715309 75:0.44971016 
0 0 0 0 0 0 0 0 0 0 0 0 0 0 0 0 0 0 0 0 1.430968997117139 0 0 0 0 1:0.74774212 2:0.353699 3:0.39634424 4:0.4855805 5:0.47562462 6:0.46168864 7:0.57028502 8:0.35848427 9:0.53216225 10:0.83489984 11:0.61702716 12:0.33973315 13:0.65471441 14:0.15876153 15:0.34800205 16:0.74640059 17:0.43763438 18:0.45184302 19:0.41542324 20:0.46683824 21:0.44021663 22:0.34654433 23:0.5962162 24:0.47122389 25:0.31997576 26:0.39958438 27:0.3817876 28:0.74870497 29:0.51896513 30:0.51138943 31:0.48822534 32:0.26351321 33:0.3273091 34:0.67235774 35:0.42979103 36:0.47010118 37:0.37486202 38:0.61017919 39:0.57125729 40:0.40562457 41:0.51800573 42:0.48505542 43:0.62524855 44:0.39854825 45:0.63205749 46:0.54050285 47:0.36483517 48:0.56209284 49:0.42527428 50:0.81055874 51:0.33852553 52:0.43693674 53:0.52889454 54:0.43252254 55:0.51268327 56:0.64706933 57:0.48771217 58:0.48368764 59:0.48126081 60:0.63993001 61:0.39885235 62:0.30998865 63:0.53604156 64:0.62416971 65:0.52203476 66:0.22691327 67:0.20904972 68:0.50917155 69:0.48947921 70:0.5719952 71:0.89258891 72:0.5412395 73:0.59488732 74:0.47537926 75:0.44282418 
0 0 0 0 0 0 0 0 0 0 0 0 0 0 0 0 0 0 0 0 0 0 0 0 0.2045044219879318 1:0.32803747 2:0.7349478 3:0.56824636 4:0.80716926 5:0.46614182 6:0.61595857 7:0.57876372 8:0.58571142 9:0.45575112 10:0.60691404 11:0.6879493 12:0.44475269 13:0.3836343 14:0.31712818 15:0.47351739 16:0.72391856 17:0.21084899 18:0.33492866 19:0.43445683 20:0.51245856 21:0.44006529 22:0.42216727 23:0.64667302 24:0.55055761 25:0.19788383 26:0.59229571 27:0.32181469 28:0.55679137 29:0.45121565 30:0.31014258 31:0.42220137 32:0.31793779 33:0.38641089 34:0.47415254 35:0.48651323 36:0.72352368 37:0.47639906 38:0.56361622 39:0.25763893 40:0.53608793 41:0.50415659 42:0.5530898 43:0.61310387 44:0.49333483 45:0.34992039 46:0.61639595 47:0.38210994 48:0.52471054 49:0.64678615 50:0.72906029 51:0.38666803 52:0.40760723 53:0.4606747 54:0.4108479 55:0.51540828 56:0.64771891 57:0.52273166 58:0.54738343 59:0.46601081 60:0.66685015 61:0.33351761 62:0.32142293 63:0.50329858 64:0.481976 65:0.57174879 66:0.23183089 67:0.17450145 68:0.64862311 69:0.53124356 70:0.57960445 71:0.81216615 72:0.67061383 73:0.5429545 74:0.42115334 75:0.42225158 
0 0 0 0 0 0 0 0 0 0 0 0 0 0 0.2730394704817446 0 0 0 0.3351818347463273 0 0 0 0 0 0 1:0.41677621 2:0.37945113 3:0.55373716 4:0.39876014 5:0.48536703 6:0.3276813 7:0.7287603 8:0.60631317 9:0.54119962 10:0.57051468 11:0.47745967 12:0.50037712 13:0.47117782 14:0.16396631 15:0.070470557 16:0.34827575 17:0.60691136 18:0.78037679 19:0.28767213 20:0.42805499 21:0.57181793 22:0.62058508 23:0.69634986 24:0.59847337 25:0.34253359 26:0.42606246 27:0.37996173 28:0.86751908 29:0.55356652 30:0.45929787 31:0.54848421 32:0.36116686 33:0.46380833 34:0.63891447 35:0.36947271 36:0.43939164 37:0.32792917 38:0.32116053 39:0.56343061 40:0.66296452 41:0.55645859 42:0.41446555 43:0.47693875 44:0.4251107 45:0.59475982 46:0.56021649 47:0.47234163 48:0.59014326 49:0.55514956 50:0.78444362 51:0.39951158 52:0.34910554 53:0.41464597 54:0.40037587 55:0.53540432 56:0.6727035 57:0.52724963 58:0.79208422 59:0.40682977 60:0.67647719 61:0.21677501 62:0.24431306 63:0.7087816 64:0.36092201 65:0.58816761 66:0.25303346 67:0.24354427 68:0.49313864 69:0.42180932 70:0.36723271 71:0.70488471 72:0.78849232 73:0.39368719 74:0.51648873 75:0.33332756 
0 0 0.9798928842068517 0 0 0 0 0 0 0 0 0 0 0 0 0 0 0 0 0 0 0 0 0 0 1:0.29901785 2:0.49611321 3:0.41146317 4:0.63013417 5:0.62588346 6:0.66403818 7:0.41411757 8:0.4182083 9:0.14985766 10:0.32617116 11:0.58839983 12:0.61053747 13:0.48839074 14:0.3966231 15:0.33157763 16:0.54043132 17:0.52645224 18:0.45418194 19:0.20785104 20:0.51637042 21:0.49814996 22:0.50637001 23:0.61518866 24:0.48918086 25:0.28195938 26:0.53626281 27:0.77281588 28:0.65705281 29:0.44357899 30:0.44052345 31:0.19372512 32:0.33773777 33:0.2298734 34:0.63401824 35:0.58313507 36:0.46398509 37:0.39505988 38:0.62811565 39:0.52622253 40:0.46304509 41:0.58200693 42:0.39369872 43:0.63502538 44:0.47422972 45:0.63588595 46:0.5255354 47:0.51697195 48:0.4853017 49:0.52236664 50:0.62403387 51:0.32549191 52:0.2575731 53:0.60414493 54:0.39743635 55:0.42531282 56:0.45841533 57:0.43978876 58:0.43852475 59:0.49960208 60:0.74423593 61:0.3903482 62:0.31117067 63:0.5132252 64:0.5267843 65:0.47186247 66:0.30806896 67:0.15623638 68:0.56643534 69:0.57896411 70:0.53474182 71:0.91385156 72:0.57131946 73:0.52479011 74:0.49335966 75:0.52705699 
0 0 0 0 0 0 0 0 0 0 0 0 0 0 0 0 0 0 0 0 0 0 0 0 0.6202418296451152 1:0.56144965 2:0.39856178 3:0.41854122 4:0.52768928 5:0.54307336 6:0.45226112 7:0.68632817 8:0.573044 9:0.35080749 10:0.63443476 11:0.54492009 12:0.64821833 13:0.29768515 14:0.34235224 15:0.47931057 16:0.50625861 17:0.57617986 18:0.27690455 19:0.29213533 20:0.33627096 21:0.52148163 22:0.49460879 23:0.60414165 24:0.62290615 25:0.47329444 26:0.71185678 27:0.30963334 28:0.53018266 29:0.30945554 30:0.35116255 31:0.47697583 32:0.62817949 33:0.43383652 34:0.68767482 35:0.61620933 36:0.53944206 37:0.5879916 38:0.76126826 39:0.43542019 40:0.50371289 41:0.5167737 42:0.6173619 43:0.53433049 44:0.47663897 45:0.58998901 46:0.61199832 47:0.4987103 48:0.50110924 49:0.77563661 50:0.55157208 51:0.2282083 52:0.36585361 53:0.50919408 54:0.51309037 55:0.59426504 56:0.52578819 57:0.53231889 58:0.67255503 59:0.41070816 60:0.70933217 61:0.28751388 62:0.35424453 63:0.60359716 64:0.47108522 65:0.45715788 66:0.28161684 67:0.25930008 68:0.41428921 69:0.57730657 70:0.4228538 71:0.87582338 72:0.54311359 73:0.49010384 74:0.42146322 75:0.4388482 
0 1.638193239179581 0.8763191275372969 0 0.07096311762003936 0.2361625947645344 0 0.8233654683990409 1.946662260814843 0 0.01526156852816117 0.3374486103395457 4.221666198698156 0 3.365383889809421 0.3335309508927075 0.7826443571009007 2.537108321722001 2.492458627172338 0 0 1.256807845114887 0.9729044845609177 0 1.342562906408124 1:0.63756645 2:0.61337322 3:0.50448251 4:0.36051655 5:0.36061931 6:0.64031094 7:0.60413176 8:0.65120095 9:0.52760154 10:0.23180902 11:0.67595321 12:0.61976415 13:0.74849248 14:0.13035873 15:0.48941234 16:0.39035949 17:0.59448713 18:0.52784872 19:0.30945814 20:0.59537375 21:0.31999862 22:0.44555205 23:0.75176245 24:0.62639153 25:0.45606634 26:0.40264514 27:0.50526702 28:0.55114573 29:0.39052489 30:0.42829558 31:0.41342506 32:0.34704003 33:0.47584257 34:0.58500409 35:0.41430917 36:0.3707259 37:0.44774821 38:0.62270421 39:0.58238131 40:0.61501986 41:0.52459061 42:0.68577856 43:0.58603239 44:0.41354969 45:0.67679495 46:0.51745242 47:0.61124212 48:0.42948112 49:0.67952472 50:0.57280511 51:0.30213907 52:0.33778042 53:0.46686673 54:0.38473162 55:0.47433376 56:0.71457195 57:0.43682835 58:0.56146741 59:0.36088496 60:0.69913226 61:0.30801082 62:0.30457839 63:0.52006847 64:0.38844028 65:0.59497172 66:0.29961151 67:0.29458773 68:0.40785798 69:0.3924945 70:0.34738481 71:0.59316725 72:0.69645625 73:0.24604605 74:0.60798889 75:0.27262303 
0 0 0 0 0 0 0.1585556183434015 0 0 0 0 0 0 0 0 0 0 0 0 0 0 0 0.1969747342936598 0 0 1:0.37876555 2:0.67353916 3:0.46410814 4:0.54778558 5:0.45847195 6:0.29383123 7:0.6622557 8:0.46645519 9:0.75172478 10:0.70752966 11:0.59478635 12:0.6082198 13:0.66669297 14:0.37678915 15:0.59710801 16:0.48155579 17:0.58165109 18:0.52548027 19:0.48349711 20:0.40918118 21:0.44085637 22:0.53146273 23:0.32677442 24:0.62772995 25:0.29956949 26:0.45995009 27:0.52283859 28:0.57260185 29:0.60458064 30:0.46662948 31:0.39279637 32:0.70912367 33:0.34894928 34:0.48964012 35:0.47824043 36:0.55987936 37:0.32078707 38:0.59109968 39:0.46118385 40:0.70185161 41:0.56646615 42:0.46596184 43:0.52969491 44:0.4817709 45:0.49720022 46:0.67599946 47:0.48158193 48:0.56103826 49:0.46117109 50:0.68154675 51:0.41213432 52:0.3425898 53:0.76502633 54:0.69310087 55:0.3779079 56:0.6982255 57:0.43774763 58:0.50207669 59:0.51934373 60:0.54713112 61:0.34760657 62:0.35058808 63:0.51682347 64:0.52446604 65:0.47962117 66:0.089806348 67:0.086446442 68:0.61624175 69:0.48323134 70:0.60307902 71:0.82174605 72:0.49861267 73:0.49754581 74:0.4874332 75:0.43555939 
3.119528493541723 2.162752396325443 0 0 0 0.7713477119013487 0 0 0 0.182463540409754 2.055352457158517 0 2.401725117370191 0 0.5152058950403025 0.7822074287226857 0.8530329717778562 1.516261066979972 1.297263943351872 0.03521089987698694 1.036926034323154 0 0.6823389673635717 0 0 1:0.44691256 2:0.51670998 3:0.71903139 4:0.43478113 5:0.41966656 6:0.4443672 7:0.56036073 8:0.53609133 9:0.51864749 10:0.29369643 11:0.38281816 12:0.23208126 13:0.87548184 14:0.68238199 15:0.4058001 16:0.76552129 17:0.44664255 18:0.71700859 19:0.41612458 20:0.43427855 21:0.73095757 22:0.77085972 23:0.37969097 24:0.51413804 25:0.55042696 26:0.41894844 27:0.065598473 28:0.46527424 29:0.81976271 30:0.57491028 31:0.43864277 32:0.52877253 33:0.39576307 34:0.41153756 35:0.6101141 36:0.58802038 37:0.49262622 38:0.32809463 39:0.41196406 40:0.81241065 41:0.35362789 42:0.50390077 43:0.44101489 44:0.5721221 45:0.27976209 46:0.64350289 47:0.6022135 48:0.61191732 49:0.20081052 50:0.68684423 51:0.45143801 52:0.5414325 53:0.62096214 54:0.65473849 55:0.42735308 56:0.56917918 57:0.5681811 58:0.54697561 59:0.45219865 60:0.41427061 61:0.2467619 62:0.4587833 63:0.48116916 64:0.54928488 65:0.51106179 66:0.40083408 67:0.25010112 68:0.62193245 69:0.53496528 70:0.55704188 71:0.79263979 72:0.60631341 73:0.61088461 74:0.45702517 75:0.33303991 
0 0.185629924767824 0 0 0 0 0 0 0.8035139212134443 0 0 1.638864536389044 0.9681136094248965 0 0 0 0 0 0 0.6282143295903082 0 0.5241576176453048 0.5726064039364055 0.7118893956678408 0 1:0.74322104 2:0.43740189 3:0.49001747 4:0.26459524 5:0.61335152 6:0.458379 7:0.72194159 8:0.71801925 9:0.47368932 10:0.50957036 11:0.39925325 12:0.41279656 13:0.41007462 14:0.50515771 15:0.56803524 16:0.35264444 17:0.59581262 18:0.60327083 19:0.3011027 20:0.643722 21:0.42203322 22:0.27715731 23:0.56379241 24:0.62780845 25:0.45753634 26:0.576792 27:0.41441491 28:0.42642835 29:0.7191726 30:0.33829805 31:0.41202626 32:0.48185515 33:0.34360993 34:0.52265406 35:0.62389302 36:0.45336553 37:0.3643924 38:0.35314551 39:0.7180751 40:0.52271891 41:0.52638769 42:0.41937917 43:0.23489757 44:0.55845356 45:0.64612228 46:0.59986812 47:0.5288499 48:0.40718818 49:0.41350126 50:0.75898516 51:0.47134709 52:0.42355907 53:0.60740376 54:0.46347189 55:0.41683781 56:0.57834405 57:0.47983739 58:0.48100117 59:0.43734556 60:0.64931196 61:0.38135371 62:0.12487488 63:0.73924315 64:0.38960755 65:0.72990036 66:0.27752379 67:0.29160318 68:0.55630636 69:0.36099562 70:0.54332715 71:0.72304511 72:0.76836222 73:0.45587367 74:0.53757352 75:0.27826405 
0 0.2226928667730238 0.8494025911124433 0 0 0 0 1.882699382423227 0 0 0.7446835527091058 0 0 0 0 0 0 0 0.9233145820876257 0.6751349658470177 1.514170041204127 0 0 0 1.93693492073338 1:0.25574252 2:0.38759351 3:0.49159345 4:0.53389865 5:0.45021844 6:0.59824944 7:0.46782795 8:0.3408626 9:0.11720557 10:0.54854387 11:0.46583974 12:0.31989959 13:0.60730743 14:0.21360749 15:0.23153746 16:0.63515598 17:0.32406104 18:0.53541338 19:0.52631974 20:0.448899 21:0.53119504 22:0.48336563 23:0.40014613 24:0.62174278 25:0.66531652 26:0.79098433 27:0.40769675 28:0.53075123 29:0.70985514 30:0.62159991 31:0.52951151 32:0.44142184 33:0.41252938 34:0.56551188 35:0.65415365 36:0.45778728 37:0.57065403 38:0.71155763 39:0.52034104 40:0.60102528 41:0.5931837 42:0.4086093 43:0.59085745 44:0.27920127 45:0.51038235 46:0.59908736 47:0.57195318 48:0.37600148 49:0.35816541 50:0.71916395 51:0.2987676 52:0.42080581 53:0.56348526 54:0.5214628 55:0.50378317 56:0.67836529 57:0.54501665 58:0.38499361 59:0.51920617 60:0.49051762 61:0.45155498 62:0.4162991 63:0.64471012 64:0.45711488 65:0.40815273 66:0.45882294 67:0.30874532 68:0.47793123 69:0.71287513 70:0.51189607 71:0.80479854 72:0.4851664 73:0.52703959 74:0.38706735 75:0.3224881 
0 0 0 0 0 0 0 0.05571803205987175 0 0 0 0 0 0 0 0 0 0 0 0 0 0 0 0 0 1:0.37585634 2:0.63059479 3:0.54744595 4:0.29079387 5:0.45631748 6:0.3044188 7:0.55041903 8:0.467336 9:0.66617864 10:0.61320186 11:0.5887934 12:0.56103086 13:0.52809018 14:0.23583557 15:0.32134101 16:0.30413106 17:0.33386844 18:0.765266 19:0.39981902 20:0.43160468 21:0.50465184 22:0.59403402 23:0.57281893 24:0.46762171 25:0.42141357 26:0.55722386 27:0.17206204 28:0.46059543 29:0.63907218 30:0.36629534 31:0.3877936 32:0.42989969 33:0.35133284 34:0.73092484 35:0.3286514 36:0.40800911 37:0.53436643 38:0.31909752 39:0.67207646 40:0.58938926 41:0.52765846 42:0.49833918 43:0.56366247 44:0.44059163 45:0.59345132 46:0.45111102 47:0.54161263 48:0.45254061 49:0.51359761 50:0.59220588 51:0.3920038 52:0.41171801 53:0.6201371 54:0.51775271 55:0.43131247 56:0.70797527 57:0.49202231 58:0.52162671 59:0.44014087 60:0.7011295 61:0.46004933 62:0.25475788 63:0.51987308 64:0.61207181 65:0.41250718 66:0.21769959 67:0.14819512 68:0.57569635 69:0.59848374 70:0.53488678 71:0.93070215 72:0.60920292 73:0.54364288 74:0.56210279 75:0.45861143 
0 0 0 0 0 0 0 0 0 0 0 0 0 0 0 0 0 0 0 0 0.1126264545161363 0 0 0.4886408257236162 0 1:0.59899575 2:0.43984279 3:0.24259029 4:0.56245065 5:0.68566817 6:0.23738734 7:0.45819777 8:0.56205416 9:0.21404807 10:0.75806481 11:0.76064342 12:0.66390151 13:0.56211799 14:0.3853468 15:0.33898929 16:0.804331 17:0.46459404 18:0.38035297 19:0.42220962 20:0.21963668 21:0.49491245 22:0.42642394 23:0.71577501 24:0.3859303 25:0.24447881 26:0.47211507 27:0.58708459 28:0.72563887 29:0.58678138 30:0.64335543 31:0.49144968 32:0.45297948 33:0.24063288 34:0.68223906 35:0.53227168 36:0.65953308 37:0.47948578 38:0.53250802 39:0.39791667 40:0.57263237 41:0.62926233 42:0.49432707 43:0.59191775 44:0.29385829 45:0.63852847 46:0.6699006 47:0.53243804 48:0.46771193 49:0.71777761 50:0.81884474 51:0.37715426 52:0.4897123 53:0.49685341 54:0.40833721 55:0.48706648 56:0.63128006 57:0.51740474 58:0.49525639 59:0.47154188 60:0.52734399 61:0.41754878 62:0.27463061 63:0.69136041 64:0.40759116 65:0.49127924 66:0.15953778 67:0.19584407 68:0.59307218 69:0.46386701 70:0.50943685 71:0.78088897 72:0.58293277 73:0.53967702 74:0.40966889 75:0.40170911 
0 0 0 1.281135179184179 0 0.01917259470068424 0.3966281353519895 0 0 0.5922296603373559 0 0 0 0 0 0 0 0 0 0 0 0 0 0.2737826868559016 0 1:0.56747639 2:0.60344172 3:0.64550614 4:0.56224561 5:0.50245559 6:0.6702255 7:0.79021883 8:0.43016487 9:0.34569275 10:0.49338713 11:0.57634366 12:0.51731229 13:0.47924986 14:0.49710888 15:0.71736199 16:0.74802351 17:0.3481161 18:0.50891817 19:0.41273737 20:0.58227253 21:0.75228804 22:0.64726222 23:0.57732075 24:0.44916549 25:0.43157357 26:0.41274267 27:0.31849611 28:0.42193586 29:0.65066528 30:0.77478898 31:0.5358656 32:0.4863452 33:0.40977114 34:0.65636092 35:0.53791296 36:0.5833835 37:0.69298601 38:0.78434187 39:0.49708563 40:0.45825046 41:0.54540187 42:0.45029771 43:0.48685524 44:0.29578444 45:0.34245527 46:0.54060763 47:0.58967572 48:0.46931288 49:0.36907127 50:0.68223965 51:0.39779887 52:0.29611287 53:0.73489618 54:0.51159686 55:0.39137501 56:0.51627403 57:0.39589736 58:0.400626 59:0.32101789 60:0.44731793 61:0.43896177 62:0.34804487 63:0.53943694 64:0.28094506 65:0.5435797 66:0.35933432 67:0.17323874 68:0.5824244 69:0.60926837 70:0.58680624 71:0.71443105 72:0.61449111 73:0.61238503 74:0.4550274 75:0.45853084 
0 0 0 0 0 0 0 0 0 0 0 0 0 0 0.2581104939147035 0 0 0 0.4373843831890092 0 0 0 0 0 0 1:0.7304334 2:0.59114695 3:0.5881744 4:0.66415143 5:0.47658336 6:0.4470154 7:0.61756378 8:0.53582388 9:0.53255564 10:0.33257291 11:0.52692622 12:0.43481624 13:0.55331177 14:0.54500836 15:0.47011894 16:0.43045965 17:0.65282339 18:0.73768437 19:0.30793852 20:0.34296811 21:0.4061479 22:0.71565413 23:0.4938603 24:0.60637611 25:0.42749518 26:0.65986347 27:0.38066024 28:0.47724545 29:0.36448038 30:0.53681856 31:0.36031792 32:0.42426226 33:0.35276967 34:0.76308459 35:0.52419102 36:0.45202342 37:0.39666948 38:0.56741041 39:0.51832753 40:0.65411663 41:0.45222825 42:0.48426539 43:0.70318675 44:0.5346517 45:0.6091339 46:0.50016069 47:0.66777968 48:0.45571405 49:0.624201 50:0.69556063 51:0.22612947 52:0.43972129 53:0.52840793 54:0.59169614 55:0.38367978 56:0.66251159 57:0.43959495 58:0.49368528 59:0.30663887 60:0.56642658 61:0.41087326 62:0.39789766 63:0.56264532 64:0.51066804 65:0.39639387 66:0.18497324 67:0.35681513 68:0.59773791 69:0.52750337 70:0.47645763 71:0.84593558 72:0.53656536 73:0.54171902 74:0.42008185 75:0.43430087 
0 0 0 0.1285366336277993 0 0 0 0.8160531789967743 0.5250484229102441 0 0 0 0 0 0 0 0 0 0 1.215445337487151 0 0 0 0 0 1:0.66261172 2:0.14796655 3:0.48257983 4:0.47301638 5:0.45356983 6:0.33051774 7:0.5575906 8:0.44345018 9:0.46176264 10:0.46374655 11:0.36487508 12:0.39476448 13:0.76713282 14:0.31996676 15:0.56664407 16:0.57923037 17:0.71312064 18:0.39371768 19:0.47054404 20:0.53128916 21:0.38721892 22:0.36361635 23:0.40146351 24:0.49339247 25:0.34620425 26:0.44477451 27:0.36271378 28:0.40024042 29:0.63965082 30:0.47267625 31:0.76460016 32:0.47175655 33:0.32673311 34:0.37082517 35:0.60271782 36:0.41949609 37:0.43054941 38:0.64911169 39:0.60411042 40:0.51979983 41:0.54242992 42:0.40792516 43:0.54924119 44:0.56430221 45:0.52058113 46:0.69754857 47:0.5759083 48:0.5403772 49:0.53890544 50:0.6102224 51:0.35026798 52:0.43087 53:0.6978637 54:0.40838039 55:0.50351787 56:0.62319016 57:0.59850341 58:0.25808251 59:0.57029629 60:0.34755769 61:0.34500259 62:0.20479615 63:0.59401351 64:0.39233044 65:0.68282282 66:0.34392092 67:0.12723467 68:0.68196255 69:0.44212383 70:0.61972612 71:0.70864803 72:0.7467702 73:0.56171012 74:0.44181401 75:0.31861216 
0 0 0 0 1.368765515677814 0 0.08715384090313193 1.397895353634517 0 0 0 0 0 0 0 0 0 0 0 0 0 0 0 0 1.812337681534472 1:0.6216253 2:0.55675799 3:0.45577818 4:0.36928758 5:0.4407413 6:0.29541513 7:0.42144203 8:0.4363603 9:0.36717051 10:0.78063828 11:0.42710784 12:0.59871721 13:0.29834184 14:0.3318899 15:0.27008402 16:0.41206494 17:0.46086851 18:0.32915953 19:0.06194479 20:0.37075257 21:0.44957477 22:0.71272177 23:0.54957736 24:0.55410576 25:0.34793028 26:0.4887363 27:0.41669676 28:0.62368953 29:0.43273306 30:0.58367437 31:0.37649429 32:0.55909973 33:0.37779397 34:0.88219064 35:0.39224616 36:0.59756607 37:0.41538781 38:0.4678387 39:0.67194033 40:0.61817014 41:0.69852024 42:0.59604704 43:0.50880831 44:0.3625645 45:0.46271294 46:0.43620238 47:0.6463483 48:0.44621643 49:0.55600578 50:0.81199622 51:0.31196278 52:0.56984073 53:0.54519999 54:0.72424883 55:0.61625093 56:0.62694931 57:0.39317989 58:0.45318618 59:0.33554125 60:0.7915898 61:0.59085149 62:0.36918312 63:0.62643951 64:0.59050411 65:0.44311166 66:0.099089146 67:0.37345576 68:0.44473514 69:0.37830564 70:0.44427502 71:0.83525777 72:0.54686612 73:0.40815142 74:0.56432676 75:0.41730031 
0 0 0 0 0 0 0.278164228485332 0 0 0 0 0 0 0 0 0 0 0 0 0 0 0 0 1.386208400792975 0 1:0.68130875 2:0.18242618 3:0.27841529 4:0.50451696 5:0.53947937 6:0.46753633 7:0.53806132 8:0.63861126 9:0.32360354 10:0.68665189 11:0.43157846 12:0.4620463 13:0.40739056 14:0.74904895 15:0.65029693 16:0.58081424 17:0.62364125 18:0.49468717 19:0.31933179 20:0.32731342 21:0.33707541 22:0.48697808 23:0.59995931 24:0.56341851 25:0.47066429 26:0.40021738 27:0.58832729 28:0.28500164 29:0.67724997 30:0.71289551 31:0.70745236 32:0.49637449 33:0.37795562 34:0.51037079 35:0.46161804 36:0.66672009 37:0.30343503 38:0.48736903 39:0.45182756 40:0.56441188 41:0.52262688 42:0.65641046 43:0.52316457 44:0.40070286 45:0.57446891 46:0.64983249 47:0.57619715 48:0.51283592 49:0.54682875 50:0.50949132 51:0.22477162 52:0.36938575 53:0.58152789 54:0.51083875 55:0.5278697 56:0.67984343 57:0.48385108 58:0.47457057 59:0.3348977 60:0.63098943 61:0.28446528 62:0.22735226 63:0.73758227 64:0.34258676 65:0.61738551 66:0.2511867 67:0.26655263 68:0.48277754 69:0.44272792 70:0.31505054 71:0.55472511 72:0.77488708 73:0.27688971 74:0.58475554 75:0.29385814 
0.146029592306406 0.7426260818691167 0.4455337434697448 0 0 0 0.2404764490315117 0.3389133769939845 0 0 0 1.777041231915998 0.6758608651289437 0 0 0.01261896481612694 1.326163798630202 1.430346783738536 0.7636308909122265 0.6471103946369672 0 0 0 0.1269215562274583 0 1:0.27707952 2:0.13477825 3:0.47048622 4:0.64138371 5:0.41734865 6:0.51016563 7:0.42009437 8:0.43332207 9:0.25171757 10:0.73358011 11:0.58302766 12:0.4526976 13:0.33967137 14:0.41564915 15:0.49103817 16:0.66801608 17:0.43854439 18:0.48927462 19:0.23768318 20:0.42498043 21:0.32358712 22:0.40737543 23:0.71190488 24:0.49659199 25:0.28853598 26:0.39722371 27:0.61350065 28:0.63754338 29:0.48131451 30:0.49331728 31:0.25355589 32:0.5474453 33:0.47251493 34:0.60109282 35:0.31639412 36:0.66546059 37:0.39274555 38:0.58894652 39:0.5370115 40:0.66943401 41:0.5586319 42:0.61435747 43:0.43735754 44:0.377211 45:0.71890455 46:0.50995523 47:0.55360317 48:0.4629457 49:0.54631388 50:0.69783258 51:0.27502146 52:0.39116654 53:0.4858979 54:0.41423127 55:0.52939558 56:0.73536831 57:0.53058523 58:0.65679175 59:0.40933272 60:0.64958507 61:0.29179636 62:0.21791683 63:0.60634899 64:0.29172385 65:0.52419537 66:0.2357956 67:0.21490461 68:0.40290278 69:0.41017684 70:0.40509874 71:0.57028294 72:0.79122519 73:0.21006054 74:0.60399628 75:0.24767303 
0.1870885390784656 0 0 0.5684471722259684 0 0 0 0.6207664288360183 0 0 0.3893866063811901 0.5055334620024043 0.1262245267005585 0.1799586582228792 0 1.633142534064135 0 0 0.9846281891552379 0 0 0 0 0 0 1:0.4140594 2:0.50940835 3:0.4716638 4:0.18210635 5:0.60790354 6:0.5883916 7:0.7913695 8:0.38278922 9:0.7417897 10:0.93685216 11:0.4811945 12:0.61896557 13:0.24992202 14:0.41314745 15:0.36143991 16:0.58693337 17:0.23656332 18:0.52774501 19:0.27086398 20:0.49295285 21:0.5582062 22:0.58253688 23:0.60341287 24:0.57835829 25:0.44227311 26:0.68186563 27:0.62864256 28:0.55346125 29:0.65551883 30:0.24358821 31:0.43760335 32:0.41524768 33:0.25867352 34:0.73383266 35:0.50092578 36:0.73752338 37:0.53843993 38:0.15520482 39:0.67746609 40:0.44855377 41:0.3598254 42:0.27166402 43:0.39853382 44:0.37291569 45:0.24349658 46:0.53716362 47:0.37865764 48:0.53910536 49:0.53633231 50:0.74585485 51:0.49752259 52:0.33490399 53:0.46420389 54:0.49757448 55:0.32120878 56:0.69823354 57:0.51437199 58:0.5910399 59:0.44700336 60:0.56734204 61:0.33282748 62:0.32090804 63:0.52673596 64:0.4162257 65:0.52830422 66:0.29425505 67:0.13454005 68:0.72836167 69:0.43171051 70:0.56606001 71:0.75899726 72:0.71240246 73:0.55630267 74:0.38781473 75:0.42261595 
0 0 0 0 0 0 0 0 0 0 0 0 0 0 0 0.3601864171831871 0 0 0 0 0 0 0 0 0 1:0.71232128 2:0.59092367 3:0.65537703 4:0.53989667 5:0.61496735 6:0.83589768 7:0.55501777 8:0.59211224 9:0.35771024 10:0.53890699 11:0.44150603 12:0.55473131 13:0.58427435 14:0.40693891 15:0.35153061 16:0.38227704 17:0.57413596 18:0.45939854 19:0.27607006 20:0.36373276 21:0.36935484 22:0.42666343 23:0.55890036 24:0.72901416 25:0.20307016 26:0.62419945 27:0.61184323 28:0.77674764 29:0.25532776 30:0.47476232 31:0.4498786 32:0.45126733 33:0.25375533 34:0.65939224 35:0.46082646 36:0.53167379 37:0.43119437 38:0.64808851 39:0.4661282 40:0.60896432 41:0.58114773 42:0.65613776 43:0.68112844 44:0.51190919 45:0.52260184 46:0.61714852 47:0.39474812 48:0.4923754 49:0.61515361 50:0.68621874 51:0.38268563 52:0.44246271 53:0.50034332 54:0.49220368 55:0.47121504 56:0.50116152 57:0.39079818 58:0.50284332 59:0.34583202 60:0.55344796 61:0.43163079 62:0.34531626 63:0.40391514 64:0.46713516 65:0.51237863 66:0.15398794 67:0.14927693 68:0.53523803 69:0.55590785 70:0.61132371 71:0.83563238 72:0.50195718 73:0.51790893 74:0.45346463 75:0.51349068 
0 0 0 0 0 0 0 0 0.528418886467262 0 0 0 0 0 0 0 0 0 0 0 0 0 0 0.2641112088693361 0 1:0.55264139 2:0.53962845 3:0.61629194 4:0.50349885 5:0.35569504 6:0.60396135 7:0.61482924 8:0.64177406 9:0.23092821 10:0.59017557 11:0.35131636 12:0.43233305 13:0.64257342 14:0.49646723 15:0.27666432 16:0.54994154 17:0.54519624 18:0.48339567 19:0.20537703 20:0.3556889 21:0.45056027 22:0.40859771 23:0.55470943 24:0.70745695 25:0.45995665 26:0.62993878 27:0.29517198 28:0.49937415 29:0.5549615 30:0.34544826 31:0.40263078 32:0.2454544 33:0.47304973 34:0.69529623 35:0.3718414 36:0.63173407 37:0.28862643 38:0.53839296 39:0.70509386 40:0.5946297 41:0.51971054 42:0.57975537 43:0.60858148 44:0.52820802 45:0.58294117 46:0.45900252 47:0.55029184 48:0.56432348 49:0.61756748 50:0.79909837 51:0.31025642 52:0.32255709 53:0.59488368 54:0.36514071 55:0.42797187 56:0.53781295 57:0.49896646 58:0.45914075 59:0.37888306 60:0.67493546 61:0.41023874 62:0.16049074 63:0.67513657 64:0.561324 65:0.52916169 66:0.24044695 67:0.2816309 68:0.52299249 69:0.46455094 70:0.48636419 71:0.72216785 72:0.6070137 73:0.5757432 74:0.43769467 75:0.36450031 
1.043930240840927 0 0 2.180476436839003 0.7811229473920395 4.124656059770695 0.8110104563165206 0 0 1.973646734055237 2.583495226150935 0 0 0.6427989830949385 4.391176443139059 0 2.816140305935743 6.593363279228386 0.1427113785621007 3.76735354289046 0 0 0 0 0 1:0.63992494 2:0.48723873 3:0.44258556 4:0.54182434 5:0.39842772 6:0.53992856 7:0.33601937 8:0.50518525 9:0.38729867 10:0.64293486 11:0.42810589 12:0.55318153 13:0.53483826 14:0.55087578 15:0.50096625 16:0.56673372 17:0.4746685 18:0.30135128 19:0.3879694 20:0.30453491 21:0.54731423 22:0.36858737 23:0.54097927 24:0.77665049 25:0.37 26:0.50634009 27:0.50272918 28:0.58567327 29:0.5992806 30:0.50134987 31:0.59638774 32:0.31481966 33:0.50151193 34:0.64522886 35:0.4453989 36:0.66187412 37:0.31778291 38:0.48306999 39:0.55682391 40:0.51881766 41:0.54822046 42:0.56572348 43:0.54996485 44:0.27733573 45:0.63949299 46:0.60955495 47:0.48722965 48:0.32285148 49:0.52945542 50:0.67475045 51:0.22506671 52:0.35904106 53:0.46671996 54:0.57640469 55:0.52162766 56:0.7090832 57:0.31357959 58:0.4473457 59:0.39087811 60:0.6731112 61:0.47364402 62:0.30665714 63:0.53648657 64:0.4653219 65:0.45288157 66:0.18936029 67:0.27997676 68:0.50480759 69:0.44580552 70:0.48738262 71:0.67277706 72:0.43270591 73:0.46038544 74:0.53145438 75:0.42353472 
0.7478776227653815 0 0 0.7615646342078025 0 0.4270139552727725 0.3670669285168403 0 0 0 0 0 2.613437720656957 0 0 0.4127077649362441 0 0.8922639031314639 0.3102722846485156 0 1.078600491896688 0 0 0 0 1:0.52100998 2:0.27279478 3:0.3422648 4:0.68403077 5:0.49066561 6:0.4508335 7:0.65381926 8:0.39359197 9:0.46578789 10:0.65949672 11:0.6001482 12:0.5572018 13:0.39119965 14:0.5250811 15:0.19260721 16:0.67326659 17:0.46258265 18:0.62195045 19:0.41108552 20:0.5537864 21:0.32157472 22:0.66638851 23:0.62603837 24:0.60266215 25:0.19871016 26:0.48147514 27:0.46298507 28:0.62196475 29:0.54636413 30:0.56060475 31:0.55010462 32:0.45539039 33:0.31761026 34:0.48203269 35:0.38741231 36:0.61895043 37:0.38981235 38:0.64900345 39:0.51245582 40:0.58760226 41:0.54851252 42:0.55241203 43:0.70444381 44:0.56346762 45:0.65672487 46:0.59725058 47:0.58539826 48:0.38633946 49:0.55046314 50:0.78471547 51:0.27761719 52:0.37108243 53:0.50405568 54:0.44501722 55:0.38676563 56:0.64694357 57:0.38212544 58:0.48144281 59:0.39995357 60:0.52786976 61:0.22140181 62:0.26131669 63:0.56906289 64:0.43618819 65:0.4159531 66:0.092944339 67:0.19272198 68:0.55990541 69:0.56406325 70:0.56863832 71:0.63199723 72:0.6468125 73:0.40079719 74:0.53128713 75:0.38849434 
