svm_type c_svc
kernel_type rbf
gamma 0.09
nr_class 40
total_sv 1098
rho -0.0473415 -0.173666 -0.181859 -0.190057 -0.194049 -0.122846 -0.355867 0.0967457 0.0519475 0.0643077 0.016696 -0.0112086 -0.0806636 -0.0893339 0.0716799 -0.127426 -0.25372 -0.229819 -0.200839 -0.399755 -0.448472 0.104619 -0.340726 -0.413953 -0.331971 -0.589875 -0.409713 -0.498323 -0.426252 -0.136128 -0.0592935 -0.25266 -0.163343 -0.369086 -0.117946 0.0185416 0.0138703 -0.0991727 -0.126404 0.0549374 -0.0431025 0.0510911 0.0240107 -0.00338762 0.0524587 0.250143 0.0140622 0.23624 0.0787131 0.109152 0.0331948 -0.0250628 0.149886 0.00262176 -0.171514 -0.0940376 -0.0304877 -0.197216 -0.15859 0.309534 -0.150597 -0.155845 -0.114332 -0.233125 -0.223638 -0.249353 -0.214631 0.130128 0.155243 -0.167001 0.180155 -0.203175 0.272002 0.141524 0.0879287 0.0408202 0.125074 -0.147539 -0.0285493 -0.180708 -0.190115 -0.0996886 -0.01779 0.0680217 0.0198919 -0.00070407 0.0958347 -0.0817719 -0.0651777 -0.0788773 -0.0516337 -0.24607 -0.229112 -0.171682 -0.253873 -0.281078 0.108007 -0.270879 -0.328745 -0.211548 -0.37648 -0.321047 -0.385952 -0.269737 -0.13397 -0.0136705 -0.284345 0.0993688 -0.274278 0.103581 -0.0386604 -0.0053959 -0.00253743 -0.133809 0.0382427 0.0297995 0.0611944 0.0417217 0.176042 0.343238 0.179138 0.0950062 -0.0251375 0.0668743 0.0840067 0.0620928 0.164945 -0.126515 -0.106594 -0.0660487 -0.119934 -0.154808 0.249391 -0.206168 -0.194763 -0.115714 -0.243758 -0.224788 -0.222635 -0.184621 0.10448 0.180152 -0.183467 0.252282 -0.158148 0.0359034 0.162606 0.137616 0.0112301 0.160991 -0.12911 -0.0686437 -0.074605 0.102984 0.227332 0.18427 0.0638484 0.0358612 0.00399437 0.0216392 0.0620059 0.0881774 -0.124281 -0.0574924 -0.0689533 -0.152627 -0.190648 0.224653 -0.193235 -0.265128 -0.152189 -0.235727 -0.207976 -0.279448 -0.195835 0.126381 0.049685 -0.193214 0.179911 -0.208741 0.123287 0.186592 0.111995 0.011399 0.0819563 -0.0032254 0.0692084 0.270257 0.0592396 0.13957 0.377465 0.126476 0.0207583 0.0686054 0.0609989 0.0124339 -0.184943 -0.0697115 0.0113223 -0.0864698 -0.132469 0.311238 -0.116209 -0.227357 -0.152751 -0.265241 -0.19967 -0.253212 -0.220387 0.0803494 0.0767434 -0.204556 0.204588 -0.226285 0.214398 -0.0641791 0.0787574 0.0774089 0.117122 -0.0511297 0.255475 0.191779 0.123349 0.212422 0.10598 0.0253107 0.0331033 0.118388 0.0960576 -0.094533 -0.0239305 0.0243054 -0.165336 -0.149344 0.289713 -0.164784 -0.19344 -0.138728 -0.202161 -0.179484 -0.278667 -0.176458 0.0904122 0.195591 -0.150466 0.17173 -0.200767 0.23943 0.250581 0.212103 0.0946209 0.130591 0.125984 0.269943 0.141013 0.260828 0.0922879 0.03523 -0.0845546 0.0752586 -0.0131995 -0.196122 -0.062077 -0.0143438 -0.178981 -0.145355 0.197678 -0.152741 -0.215216 -0.150171 -0.226323 -0.269374 -0.282938 -0.171855 0.089037 0.125172 -0.121466 0.240982 -0.141178 0.147855 0.261257 0.0674901 0.124611 0.14617 -0.0817766 0.0150912 -0.097521 0.0469453 -0.0756793 0.0229217 -0.0426375 -0.129224 -0.267341 -0.235378 -0.224715 -0.255119 -0.305497 0.17405 -0.381286 -0.504044 -0.18456 -0.37782 -0.377173 -0.515742 -0.397576 -0.062803 -0.0546282 -0.294653 0.164375 -0.25571 0.0275918 0.138132 0.0184608 -0.0411831 -0.052448 0.0316219 -0.0758524 -0.0299295 -0.111447 -0.0707457 -0.227785 -0.337789 -0.288355 -0.21658 -0.284594 -0.272209 -0.405981 0.102457 -0.388943 -0.461876 -0.389674 -0.492857 -0.405447 -0.460772 -0.457049 -0.111981 -0.105179 -0.35828 -0.110808 -0.385486 -0.0362311 -0.122047 -0.0840958 -0.126203 -0.0945149 -0.118712 -0.0252199 -0.139469 -0.125442 -0.0893463 -0.146915 -0.258098 -0.153662 -0.229261 -0.231555 -0.305904 0.0583205 -0.291107 -0.352505 -0.299536 -0.429928 -0.374371 -0.453507 -0.34795 -0.119274 -0.0723559 -0.202003 -0.0028583 -0.312259 -0.0508652 -0.112276 -0.0695974 -0.107714 -0.0655915 -0.0792401 -0.0744079 -0.178944 -0.0179154 -0.106111 -0.279029 -0.153214 -0.240042 -0.252859 -0.271193 -0.0900039 -0.347105 -0.384374 -0.285593 -0.382336 -0.462211 -0.415829 -0.398171 -0.0342053 0.0922797 -0.217334 -0.00124127 -0.358776 0.0169184 -0.0413046 0.0222418 -0.154213 -0.0735099 -0.176884 -0.121581 -0.135028 -0.144052 -0.250933 -0.187343 -0.172552 -0.261225 -0.263736 0.160791 -0.249449 -0.358377 -0.25018 -0.367692 -0.381415 -0.334772 -0.361023 -0.131038 0.00681802 -0.256769 0.0784792 -0.250758 -0.0602969 -0.0863333 0.019788 -0.10335 -0.00577735 -0.0464972 0.109317 -0.0852361 -0.180546 -0.0747256 -0.0823499 -0.12165 -0.174071 0.173328 -0.178758 -0.250725 -0.184896 -0.343321 -0.251856 -0.300363 -0.253602 0.104375 0.176575 -0.203955 0.189462 -0.286735 0.0220362 0.160018 0.115355 0.00836169 0.0803107 -0.0162756 -0.0458511 -0.229492 -0.158355 -0.0960599 -0.121446 -0.28543 0.0813415 -0.277128 -0.226663 -0.21396 -0.324046 -0.321535 -0.339571 -0.269719 0.0632714 0.0779334 -0.175123 0.167203 -0.219039 0.211038 -0.028012 -0.051259 0.00438064 0.0858057 -0.0829146 -0.183402 -0.0530096 -0.0816569 -0.189898 -0.153842 0.0386413 -0.223207 -0.280086 -0.201663 -0.288012 -0.245631 -0.316614 -0.222067 0.00388552 0.140994 -0.2183 0.0217707 -0.217342 0.100534 -0.0580463 0.040561 -0.198042 0.00878903 -0.163194 -0.0450065 -0.106756 -0.147583 -0.23153 0.18361 -0.234572 -0.257799 -0.232951 -0.346631 -0.235324 -0.331783 -0.24076 0.0410051 0.0310951 -0.156134 0.131707 -0.237196 -0.0668964 0.14539 0.231025 0.122224 0.101108 0.0949069 0.144111 0.0299253 -0.0366942 0.306322 -0.0430094 -0.160886 -0.00596708 -0.0563978 -0.0681964 -0.0818267 -0.0849719 0.244251 0.208411 0.0348976 0.326844 -0.011617 0.291758 0.305203 0.109599 0.200167 0.176211 0.0744635 -0.0478185 -0.108819 0.242302 -0.113786 -0.112706 -0.128357 -0.196837 -0.142781 -0.186194 -0.125531 0.172285 0.219158 -0.0916406 0.290113 -0.0526099 0.253577 0.285559 0.195034 0.155345 0.221887 -0.0741418 -0.126125 0.237779 -0.159849 -0.144675 -0.174957 -0.183057 -0.176621 -0.193435 -0.237344 0.126648 0.152617 -0.0865164 0.193043 -0.12132 0.198517 0.181409 0.144155 0.0998325 0.126778 -0.0779184 0.361202 -0.129748 -0.111393 -0.0186084 -0.127826 -0.109332 -0.161427 -0.105803 0.221607 0.225762 -0.0384861 0.379039 -0.0748012 0.274026 0.301383 0.184138 0.164539 0.280067 0.466775 -0.0596599 -0.00797575 -0.00478176 -0.0765567 -0.0651127 -0.0641527 -0.0123731 0.243833 0.241007 0.0133776 0.371568 -0.0118338 0.307228 0.248916 0.249963 0.198574 0.256819 -0.388857 -0.479117 -0.310236 -0.503522 -0.432443 -0.511577 -0.349931 -0.161502 -0.143634 -0.391746 -0.00197278 -0.387688 -0.0308426 0.0185144 -0.0560275 -0.129697 -0.0529673 0.0294372 0.041895 -0.0830934 -0.00673643 -0.0389535 0.0201504 0.280957 0.343599 0.0538442 0.481716 -0.00719072 0.314735 0.422014 0.268695 0.194199 0.254081 0.0652912 -0.0562848 -0.0258061 -0.0430998 -0.0256514 0.263322 0.347361 0.0285572 0.395097 0.0307949 0.268433 0.462193 0.207956 0.246554 0.268113 -0.101996 -0.00130519 -0.126089 -0.0613595 0.172959 0.192508 0.0120803 0.395051 -0.0504874 0.319622 0.257185 0.219327 0.160661 0.154269 -0.00995041 -0.00792888 0.0366695 0.360931 0.369353 0.095398 0.457888 0.0428233 0.417939 0.425616 0.396218 0.347068 0.32426 -0.0499221 0.0151756 0.31055 0.32511 0.096024 0.443918 0.0122298 0.403099 0.420772 0.293944 0.265414 0.330559 0.0597108 0.349484 0.361489 0.141745 0.407766 0.0673523 0.456676 0.44742 0.327602 0.371556 0.306888 0.249859 0.304406 0.0726632 0.382167 -0.0255654 0.329273 0.326911 0.227681 0.250038 0.267868 0.158581 -0.197611 0.0424294 -0.193134 0.163919 0.039804 0.0206851 -0.100194 0.0741237 -0.143146 0.0683347 -0.23595 -0.0344128 0.107438 -0.0497411 -0.0291031 -0.00496611 0.346067 -0.0158442 0.288459 0.296259 0.264476 0.15612 0.208046 -0.351176 0.0146672 -0.0957281 -0.051058 -0.216583 -0.150527 0.395853 0.343079 0.288183 0.290918 0.28506 0.106881 -0.0274123 -0.00471942 -0.121452 0.0313144 -0.0594477 -0.0634341 -0.011075 -0.0114411 0.045913
label 11111 111110 111111 111112 111113 111114 111115 111116 111117 111118 111119 11112 111120 111121 111122 111123 111124 111125 111126 111127 111128 111129 11113 111130 111131 111132 111133 111134 111135 111136 111137 111138 111139 11114 111140 11115 11116 11117 11118 11119
probA -3.82046 -3.89265 -3.9288 -3.8393 -3.7397 -3.89294 -3.7325 -4.19011 -4.10101 -3.89886 -4.36565 -3.93486 -3.89325 -3.90746 -3.87469 -3.91812 -3.53082 -3.72359 -3.6558 -3.71848 -3.52451 -4.29208 -3.59055 -3.59525 -3.56424 -3.63346 -3.63046 -3.58329 -3.61394 -3.65918 -3.68528 -3.66172 -4.37698 -3.57611 -4.14056 -4.15794 -3.88994 -3.90857 -3.97004 -3.36217 -3.35878 -3.35174 -3.06234 -3.28409 -3.12173 -3.55096 -3.6341 -3.40063 -3.86337 -3.28398 -3.27733 -3.33091 -3.36521 -3.30459 -2.99744 -3.03289 -3.01058 -3.16335 -2.91882 -3.86527 -2.94122 -2.99865 -3.02224 -3.05457 -3.07587 -2.98669 -3.04861 -3.11653 -3.08653 -3.06869 -3.84692 -3.01612 -3.61107 -3.53876 -3.34355 -3.3095 -3.33271 -3.34213 -3.38441 -3.3592 -3.37279 -3.2685 -3.68157 -3.65111 -3.4503 -3.91041 -3.39301 -3.38869 -3.41434 -3.45595 -3.38164 -3.05676 -3.13299 -3.14074 -3.19178 -2.98746 -3.92533 -3.00432 -3.03789 -3.06558 -3.10428 -3.06867 -3.08954 -3.13654 -3.00084 -3.13086 -3.07791 -3.86941 -3.07483 -3.78651 -3.7863 -3.38643 -3.37885 -3.46015 -3.26491 -3.16963 -3.29674 -3.17855 -3.58086 -3.64277 -3.28947 -3.8682 -3.48287 -3.30922 -3.31013 -3.27034 -3.24735 -3.00413 -3.0951 -3.06663 -3.14912 -2.93221 -3.86264 -2.95423 -2.92873 -2.96763 -3.05502 -3.01821 -3.00094 -2.98691 -3.06084 -3.02411 -3.03061 -3.80873 -2.9838 -3.60096 -3.54953 -3.30657 -3.24767 -3.27633 -3.1909 -3.26993 -3.22968 -3.63547 -3.59659 -3.32974 -3.97019 -3.39236 -3.47081 -3.34459 -3.42267 -3.39047 -3.07044 -3.09887 -3.08118 -3.16196 -2.98728 -3.84947 -2.9298 -3.02641 -3.06327 -3.09791 -3.06711 -3.10794 -3.07406 -3.09232 -3.02966 -3.08226 -3.92265 -3.07001 -3.72723 -3.72912 -3.3274 -3.24774 -3.3973 -3.23397 -2.98615 -3.54359 -3.64812 -3.27487 -3.75471 -3.2237 -3.24928 -3.2102 -3.23635 -3.17628 -2.86571 -2.93614 -2.92845 -3.02245 -2.80718 -3.78168 -2.80882 -2.83959 -2.88702 -2.91438 -2.86297 -2.94093 -2.96306 -2.99835 -2.90267 -2.94582 -3.84365 -2.90193 -3.50767 -3.51251 -3.21389 -3.31177 -3.28503 -3.19298 -3.53161 -3.67456 -3.40441 -3.89271 -3.31145 -3.3922 -3.37931 -3.37771 -3.3665 -3.00324 -3.08309 -3.09031 -3.19121 -2.96884 -3.86481 -2.95186 -3.01752 -2.99987 -3.07547 -3.10791 -3.03544 -3.05898 -3.17167 -3.07035 -3.1235 -3.845 -3.06591 -3.67828 -3.65864 -3.33059 -3.33904 -3.4026 -3.53095 -3.46914 -3.17046 -3.71834 -3.17286 -3.17654 -3.31372 -3.18294 -3.26909 -2.87459 -2.92246 -2.89593 -3.00081 -2.80086 -3.81465 -2.78765 -2.7882 -2.85764 -2.85456 -2.85793 -2.95195 -2.87363 -2.93394 -2.92981 -2.8631 -3.66908 -2.91952 -3.49871 -3.51953 -3.2297 -3.18126 -3.26149 -3.87626 -3.67259 -4.10156 -3.57985 -3.62836 -3.63866 -3.59585 -3.65393 -3.33535 -3.51121 -3.32391 -3.45504 -3.30163 -4.10005 -3.21832 -3.30833 -3.37933 -3.37731 -3.31003 -3.25937 -3.36329 -3.29687 -3.3226 -3.3463 -4.05622 -3.38307 -3.92541 -3.89164 -3.60358 -3.55286 -3.71161 -3.66385 -4.14645 -3.6795 -3.59352 -3.67431 -3.6879 -3.68803 -3.31421 -3.48199 -3.47165 -3.47234 -3.35118 -4.14793 -3.19965 -3.32883 -3.36656 -3.30734 -3.33731 -3.3218 -3.3828 -3.32802 -3.34175 -3.41785 -4.14536 -3.34088 -3.94683 -3.91818 -3.64994 -3.60112 -3.68242 -3.91919 -3.356 -3.33561 -3.37631 -3.39036 -3.29926 -3.03597 -3.12771 -3.0964 -3.17255 -2.99555 -3.89846 -2.91978 -3.06395 -3.09109 -3.05 -3.10456 -3.05718 -3.06088 -3.1444 -3.10725 -3.18828 -3.87494 -3.03108 -3.67783 -3.72344 -3.34018 -3.36995 -3.44464 -3.91178 -3.83463 -3.83981 -3.8181 -3.85104 -3.56445 -3.64125 -3.64816 -3.73576 -3.64229 -4.38177 -3.54444 -3.60996 -3.67099 -3.59744 -3.56534 -3.53129 -3.65531 -3.54682 -3.6198 -3.65036 -4.33187 -3.636 -4.1137 -4.12244 -3.84756 -3.86761 -3.89134 -3.42981 -3.31378 -3.40463 -3.47048 -3.05591 -3.15612 -3.10646 -3.20952 -2.97199 -3.89612 -2.94559 -3.02023 -3.02533 -3.11697 -3.012 -3.04007 -3.08295 -3.13871 -3.13322 -3.04597 -3.91009 -3.02606 -3.74478 -3.63578 -3.379 -3.3909 -3.45467 -3.3341 -3.38856 -3.33402 -3.06296 -3.13839 -3.07355 -3.18285 -3.03475 -3.87733 -2.95052 -3.04687 -3.0226 -3.10717 -3.03059 -3.01093 -3.06358 -3.13626 -3.0856 -3.13541 -3.86102 -3.04788 -3.61887 -3.57252 -3.32963 -3.37117 -3.40203 -3.3267 -3.3207 -3.08492 -3.10784 -3.11011 -3.17595 -3.03685 -3.87492 -3.04404 -3.03343 -2.99388 -3.05047 -3.09804 -3.07649 -3.03731 -3.18048 -3.14927 -3.10463 -3.85158 -3.05923 -3.71843 -3.724 -3.31759 -3.38103 -3.3332 -3.30787 -3.05175 -3.06095 -3.12063 -3.20762 -2.95817 -3.85061 -2.87537 -3.01096 -3.01262 -3.06956 -3.01135 -3.10738 -3.06074 -3.16928 -3.13693 -3.0623 -3.81848 -3.04352 -3.58255 -3.64616 -3.30674 -3.35857 -3.37489 -3.05641 -3.10619 -3.02396 -3.19613 -2.97305 -3.81292 -3.01072 -3.00053 -3.03927 -3.07272 -3.05907 -3.06908 -3.04508 -3.11972 -3.12029 -3.10104 -3.87992 -3.05988 -3.72094 -3.59868 -3.2213 -3.30672 -3.42464 -2.7989 -2.81766 -2.90721 -2.75354 -3.60486 -2.66847 -2.71763 -2.75355 -2.77768 -2.75669 -2.78674 -2.74007 -2.89256 -2.84012 -2.7491 -3.61946 -2.79698 -3.36389 -3.36038 -3.00618 -3.05252 -3.09388 -2.82805 -2.98483 -2.72442 -3.61487 -2.71312 -2.72298 -2.79828 -2.80955 -2.8579 -2.83397 -2.8506 -2.85236 -2.9356 -2.84097 -3.65999 -2.81452 -3.39647 -3.35058 -3.09196 -3.08584 -3.14183 -2.93384 -2.75648 -3.73596 -2.67719 -2.71791 -2.77607 -2.79939 -2.83072 -2.83124 -2.88438 -2.84254 -2.89531 -2.83464 -3.71631 -2.75401 -3.34748 -3.39511 -3.00016 -3.03578 -3.15159 -2.75878 -3.75181 -2.81646 -2.77342 -2.86043 -2.89672 -2.91223 -2.91305 -2.97533 -2.93968 -2.9993 -2.91885 -3.76966 -2.88227 -3.47124 -3.48901 -3.20556 -3.24681 -3.2765 -3.52878 -2.64518 -2.61366 -2.70117 -2.68906 -2.73783 -2.71652 -2.71987 -2.78494 -2.78217 -2.7386 -3.59517 -2.6895 -3.25469 -3.36722 -2.96739 -2.94511 -3.03728 -3.53364 -3.5512 -3.55729 -3.62668 -3.55332 -3.57472 -3.58203 -3.58972 -3.62849 -3.59579 -4.3092 -3.53879 -4.15175 -4.16675 -3.86705 -3.86846 -3.95872 -2.49476 -2.58347 -2.68716 -2.6567 -2.70769 -2.67186 -2.78618 -2.68188 -2.70291 -3.51093 -2.67456 -3.27047 -3.23074 -2.90443 -2.97136 -3.01011 -2.69918 -2.78877 -2.73594 -2.72676 -2.67179 -2.7474 -2.75736 -2.73142 -3.51411 -2.67623 -3.2869 -3.31733 -2.99818 -3.00146 -3.05981 -2.7403 -2.79234 -2.74245 -2.73138 -2.79926 -2.8163 -2.77199 -3.63202 -2.71086 -3.44165 -3.39064 -2.93623 -2.93644 -3.0386 -2.80957 -2.82012 -2.79932 -2.84466 -2.87621 -2.81135 -3.61802 -2.77654 -3.35282 -3.35569 -3.09979 -3.10851 -3.12534 -2.78139 -2.88324 -2.81368 -2.84658 -2.79821 -3.5781 -2.79998 -3.36748 -3.28764 -2.9675 -3.07234 -3.12522 -2.79393 -2.85078 -2.84726 -2.7835 -3.60634 -2.81401 -3.33286 -3.34036 -3.05176 -3.06567 -3.11547 -2.86529 -2.85446 -2.85222 -3.58557 -2.78902 -3.35044 -3.36875 -3.00569 -3.06421 -3.08105 -2.04205 -2.85283 -3.64764 -2.76782 -3.33789 -3.42233 -3.09782 -3.08219 -3.14746 -2.85443 -3.61566 -2.83642 -3.35543 -3.34484 -3.10501 -3.15004 -3.12556 -3.58973 -2.74312 -3.35967 -3.36536 -2.98717 -3.0767 -3.1199 -3.54143 -4.14871 -4.12348 -3.8259 -3.79181 -3.89656 -3.33632 -3.33053 -3.01665 -3.04253 -3.0444 -3.89905 -3.69056 -3.66509 -3.66557 -3.6515 -3.66664 -3.68559 -3.31868 -3.40538 -3.3677
probB -0.553115 -0.41892 -0.449357 -0.466336 -0.480275 -0.335071 -0.52177 -0.130096 -0.184899 -0.43706 -0.035648 -0.436551 -0.438036 -0.423589 -0.382226 -0.389918 -0.695028 -0.59218 -0.728659 -0.584894 -0.741309 -0.0556551 -0.708853 -0.72348 -0.758349 -0.674962 -0.675463 -0.623833 -0.628022 -0.262369 -0.175473 -0.705772 -0.0374742 -0.752434 -0.164194 -0.180507 -0.387172 -0.457169 -0.461704 0.093726 -0.0606298 -0.0140874 -0.0366194 0.0271252 -0.1132 0.225551 0.27851 0.0680089 0.480694 0.00796315 0.0070087 0.0500394 0.0366422 0.00802979 -0.200507 -0.155 -0.237924 -0.104963 -0.274054 0.439672 -0.284917 -0.243412 -0.274318 -0.150762 -0.243444 -0.166783 -0.19827 -0.0221411 0.0502472 -0.182031 0.437389 -0.198794 0.208141 0.263687 -0.00024767 -0.00221067 0.0828601 -0.104811 -0.000185119 -0.135784 -0.00843818 -0.154831 0.0792458 0.122216 -0.0994823 0.457458 -0.0713595 -0.0541641 -0.0936729 -0.152679 -0.0362872 -0.309296 -0.225874 -0.224974 -0.191132 -0.360988 0.335064 -0.379252 -0.34233 -0.292411 -0.253624 -0.24777 -0.266544 -0.20187 -0.0524254 0.0541276 -0.242562 0.369609 -0.287091 0.0418127 0.0809361 -0.087532 -0.0629738 0.0301357 0.0889841 -0.0495931 0.0314234 -0.117861 0.205985 0.199248 0.048902 0.498782 0.0801283 0.0182529 0.0363238 0.0529443 0.0612206 -0.169767 -0.12541 -0.17313 -0.0843358 -0.276281 0.418777 -0.271616 -0.28633 -0.236507 -0.214457 -0.192544 -0.169421 -0.146619 0.0568375 0.0873904 -0.152824 0.452809 -0.222131 0.230082 0.229213 0.0578355 -0.0080686 0.0816643 -0.148883 0.00894832 -0.0677697 0.256926 0.108309 -0.0157752 0.328637 -0.032883 -0.0942992 -0.0262393 -0.0140576 -0.0245977 -0.242107 -0.208561 -0.228533 -0.151623 -0.333589 0.424505 -0.347493 -0.273043 -0.282206 -0.209001 -0.215162 -0.233153 -0.173754 0.052753 0.0203733 -0.209677 0.361379 -0.306275 0.258721 0.109188 -0.0109286 -0.0139889 0.0124976 0.107264 -0.0302827 0.269642 0.18826 0.0274336 0.458834 0.167132 0.0303557 0.061417 0.0881372 0.0955933 -0.118214 -0.0369775 -0.108848 -0.0091263 -0.0911465 0.514713 -0.163337 -0.0907437 -0.0805317 -0.10376 -0.131574 -0.118983 -0.0992212 0.0290083 0.192109 -0.0528473 0.499061 -0.0231831 0.212064 0.299394 0.0564706 0.110809 0.132519 -0.120284 0.196931 0.169676 0.011651 0.417302 0.0148275 -0.00524827 0.0283915 -0.0477148 -0.0301132 -0.254332 -0.186054 -0.246446 -0.15909 -0.357258 0.423543 -0.332493 -0.294416 -0.281655 -0.265543 -0.20844 -0.219576 -0.213067 0.07971 0.0289592 -0.146478 0.412752 -0.207214 0.120453 0.22821 -0.071639 -0.0429101 0.0315033 0.306138 0.270928 0.089462 0.557812 0.147116 0.0995192 -0.0135266 0.0949705 0.0109305 -0.0777053 -0.0666936 -0.0888376 0.0565258 -0.133318 0.419332 -0.164548 -0.150308 -0.125424 -0.0570301 -0.0394333 -0.118328 0.00776547 0.170589 0.0518124 -0.0347292 0.598883 -0.0152367 0.245442 0.304495 0.0583757 0.0876091 0.147077 -0.147449 -0.206301 0.222182 -0.214575 -0.273474 -0.293991 -0.0869202 -0.212268 -0.533418 -0.438523 -0.478727 -0.383842 -0.458722 0.151233 -0.569774 -0.504253 -0.418151 -0.532815 -0.478231 -0.481211 -0.447489 -0.120983 -0.0480746 -0.466993 0.2118 -0.443246 0.0390725 -0.0319885 -0.289811 -0.19865 -0.159649 -0.192657 0.193665 -0.125181 -0.229462 -0.226435 -0.239836 -0.140868 -0.493826 -0.363411 -0.377629 -0.331164 -0.468712 0.190179 -0.56656 -0.433006 -0.516839 -0.512803 -0.50633 -0.470544 -0.445677 -0.155105 -0.18654 -0.47149 0.201556 -0.587812 0.0131186 0.0422494 -0.258441 -0.207859 -0.182367 0.457344 -0.0027747 -0.00935116 -0.0439413 0.0284112 -0.0208796 -0.264623 -0.215334 -0.226125 -0.143337 -0.298834 0.466405 -0.33757 -0.241316 -0.324123 -0.209583 -0.227465 -0.254412 -0.166615 0.0435306 0.127792 -0.262202 0.451256 -0.282213 0.178677 0.236876 -0.10141 -0.0272862 0.098959 -0.383896 -0.487762 -0.453671 -0.414233 -0.424946 -0.766921 -0.639128 -0.72396 -0.629012 -0.643746 0.006488 -0.725035 -0.705271 -0.604576 -0.715936 -0.764217 -0.672259 -0.619763 -0.27018 -0.221337 -0.667798 -0.0349825 -0.666441 -0.178611 -0.203585 -0.475307 -0.409956 -0.436721 -0.109696 -0.0212317 0.05442 -0.00642102 -0.231665 -0.221108 -0.250469 -0.126417 -0.286787 0.414201 -0.309259 -0.288775 -0.242569 -0.210535 -0.248167 -0.201182 -0.198492 0.109696 0.0895018 -0.226426 0.401029 -0.250953 0.108604 0.221962 -0.0318301 0.022849 0.0221634 -0.0460088 0.0703686 0.0289845 -0.211415 -0.192105 -0.205697 -0.132149 -0.25264 0.458967 -0.322694 -0.216356 -0.223209 -0.244461 -0.234431 -0.23676 -0.208584 -0.00486728 0.10192 -0.151462 0.495629 -0.237151 0.212482 0.275202 -0.0170372 -0.000505274 0.0240628 0.0303066 -0.0198295 -0.217066 -0.159999 -0.156037 -0.127961 -0.248948 0.475925 -0.24454 -0.259775 -0.247509 -0.262776 -0.173518 -0.229637 -0.169045 0.0900188 -0.0223542 -0.192815 0.456857 -0.235134 0.225888 0.183895 -0.0189994 0.0134401 0.0977052 -0.0149736 -0.223114 -0.216352 -0.217009 -0.116817 -0.302661 0.409663 -0.348638 -0.279739 -0.276097 -0.236844 -0.213366 -0.224694 -0.197826 0.0297005 0.071924 -0.18511 0.421438 -0.232926 0.223926 0.187419 -0.0574133 -0.0657574 0.0507649 -0.244644 -0.160616 -0.210259 -0.0991907 -0.234798 0.453865 -0.215731 -0.317115 -0.172618 -0.215927 -0.207753 -0.221128 -0.20353 0.0899638 0.0605555 -0.206725 0.416684 -0.215889 0.173935 0.209537 -0.0399322 -0.00420587 0.0897508 0.00865899 0.0172441 0.138395 -0.0699771 0.760273 -0.171624 -0.0661804 -0.0218073 0.039323 0.0245722 -0.000753783 -0.0501654 0.150314 0.185869 0.0509967 0.74519 0.0805231 0.534414 0.498797 0.223258 0.222887 0.305443 -0.0230099 0.102653 -0.0431984 0.678741 -0.104288 -0.098636 -0.0793325 -0.0275407 -0.0306154 -0.0584933 -0.0150818 0.146037 0.133199 0.0143703 0.734223 -0.0235506 0.463214 0.456862 0.254923 0.205826 0.235851 0.0896437 -0.0383222 0.52628 -0.107981 -0.0089743 0.0539774 0.0125548 0.0142322 0.0303217 -0.0355781 0.221965 0.193899 0.0308112 0.639322 -0.0392609 0.540228 0.502921 0.215478 0.269289 0.236726 -0.12336 0.613767 -0.153264 -0.13964 -0.11521 -0.118282 -0.0989443 -0.0731943 -0.0230481 0.0645976 0.104127 -0.105577 0.581106 -0.108706 0.408198 0.345199 0.116743 0.164391 0.196371 0.742691 0.041593 0.000165594 0.0515318 0.0581137 0.0399542 0.0888889 0.0655811 0.266742 0.264519 0.0323725 0.686605 0.0429822 0.504475 0.47383 0.292469 0.312398 0.338397 -0.637779 -0.703746 -0.714353 -0.744601 -0.714348 -0.691678 -0.671436 -0.297384 -0.250904 -0.645758 0.0308246 -0.733268 -0.20976 -0.171182 -0.461336 -0.425071 -0.377616 -0.024565 0.0367385 0.0639237 0.101325 0.0603735 0.12325 0.214262 0.238037 0.0124024 0.804207 0.0686889 0.58832 0.559002 0.326885 0.24954 0.344328 0.0266295 0.0786285 -0.00364703 0.0520234 0.0423559 0.231575 0.239312 0.0596353 0.762054 0.0715367 0.50391 0.426384 0.242109 0.216028 0.308124 0.0375956 -0.00190133 0.039213 0.0435708 0.204456 0.171271 0.0170802 0.58486 0.00708709 0.358111 0.430949 0.259352 0.265629 0.287556 -0.0280711 0.0148558 0.0252067 0.216423 0.165586 0.00332655 0.709331 -0.0505221 0.512292 0.44759 0.2036 0.197253 0.250859 0.00398429 0.0174746 0.162458 0.204205 0.00963239 0.767517 -0.0237636 0.465727 0.533205 0.229531 0.12578 0.245248 0.0694963 0.221701 0.208714 -0.0254712 0.693318 0.0485549 0.468087 0.466875 0.230597 0.205672 0.260165 0.0829051 0.14753 0.0222065 0.686011 -0.0595633 0.482459 0.427621 0.150683 0.158625 0.243284 0.0839959 -0.155151 0.304775 -0.129968 0.15954 0.103735 -0.0245017 -0.086431 0.0126361 -0.168449 0.34803 -0.22839 0.0569712 0.173959 -0.0675155 -0.0372748 -0.0659221 0.65111 -0.00636745 0.492312 0.45445 0.140981 0.182365 0.276918 -0.711481 -0.119785 -0.206449 -0.500927 -0.388994 -0.396306 0.510029 0.562276 0.273982 0.193987 0.29879 -0.0076495 -0.101639 -0.182658 -0.20971 -0.238074 -0.142448 -0.185676 -0.018464 0.0146617 0.0480971
nr_sv 87 21 26 22 24 16 25 15 50 50 24 86 23 24 24 24 23 13 12 14 18 11 84 8 8 10 12 11 13 13 14 14 14 82 13 50 50 22 23 25
SV
0 0 0 0 0 0 0 0 0 0 0 0 0 0 0 0 0 0 0 0 0 0 0 0 0 0 0 0 0 0 0 0 0 0 0 0 0.3253690786596655 0 0 1:0.38044453 2:0.47511193 3:0.54889536 4:0.45559949 5:0.82695019 6:0.79725599 7:0.54342866 8:0.61439335 9:0.49745548 10:0.4926109 11:0.3071115 12:0.24500221 13:0.65074259 14:0.41721886 15:0.37787458 16:0.39785075 17:0.54402578 18:0.62679553 19:0.75355548 20:0.51433897 21:0.70787704 22:0.54399121 23:0.39321932 24:0.29663524 25:0.46498939 26:0.28635284 27:0.55637622 28:0.63275838 29:0.71230441 30:0.52859885 31:0.41167516 32:0.3148084 33:0.18326388 34:0.65619433 35:0.41495639 36:0.62218285 37:0.63946927 38:0.48450369 39:0.30272818 40:0.6095261 41:0.3913686 42:0.37773961 43:0.52129155 44:0.71613753 45:0.51467794 46:0.4568086 47:0.5656082 48:0.4538404 49:0.6005711 50:0.44361502 51:0.31965101 52:0.59209895 53:0.56782758 54:0.39817327 55:0.51556516 56:0.59684032 57:0.49269527 58:0.6470288 59:0.43904668 60:0.42964968 61:0.62115675 62:0.47208393 63:0.39435816 64:0.48786479 65:0.38504225 66:0.4757843 67:0.44852334 68:0.3785446 69:0.47281694 70:0.46754146 71:0.73694998 72:0.95946801 73:0.79539514 74:0.65518022 75:0.88751179 
0 1.269871124571358 0 1.320072341380525 0 1.458419454394047 0.0003979779542305573 0 0 0 0 0 0 0.2852207522362396 0.724617378535938 0 0 0 0.3045463916997457 0 0 0.04155673971382429 0.3759105082898101 0 0.653440396118653 0 0 0 0 0 0 0 0 0 0 0.7979723207245383 0 0 0.6289243746614737 1:0.37921685 2:0.5559622 3:0.31267649 4:0.61727488 5:0.84662038 6:0.44328114 7:0.37418473 8:0.53324431 9:0.65561903 10:0.32850119 11:0.34591183 12:0.33825576 13:0.50386977 14:0.38328469 15:0.51022363 16:0.59760314 17:0.61311394 18:0.68246621 19:1 20:0.55103368 21:0.6713028 22:0.6167931 23:0.36791992 24:0.50226921 25:0.61683387 26:0.22762246 27:0.60362625 28:0.67460793 29:0.77754021 30:0.59761 31:0.53422374 32:0.36620441 33:0.24792418 34:0.62406391 35:0.38232666 36:0.33642417 37:0.51922822 38:0.34256986 39:0.20713651 40:0.45256135 41:0.50207233 42:0.30792814 43:0.70923096 44:0.74109489 45:0.6324321 46:0.60229355 47:0.53720814 48:0.47716093 49:0.53630638 50:0.61640662 51:0.28658003 52:0.74166387 53:0.49062577 54:0.38290367 55:0.5578593 56:0.46637011 57:0.76146263 58:0.53172392 59:0.49568197 60:0.47503927 61:0.63311183 62:0.54747397 63:0.31871912 64:0.38825068 65:0.39287609 66:0.48058563 67:0.36347437 68:0.33733541 69:0.46705115 70:0.62790173 71:0.72375911 72:0.8763029 73:0.82413381 74:0.69301379 75:0.88181263 
0.4230030776366246 0 1.069972918134573 0.7732144931258857 1.962861821944816 0.1810585892992012 0 0.7045535321499449 0 0.2531479370585674 0.125929742860542 0.3351755047958005 0.1763295180631342 0 0 1.943324196096732 0 0 0 0.2753577242138409 1.180757539340573 0 0 0.04186528855432176 0 0 0 0.1461475003171656 1.640509923923333 0.7071427389545821 0.7851899095766635 0.4313207829686945 0.5437460871878971 0.3551729332177845 1.063692823058589 1.532798695382831 0 0.2153628452222526 0.2170256969146976 1:0.48169604 2:0.59823352 3:0.26464877 4:0.2858595 5:0.43455195 6:0.64027101 7:0.61926746 8:0.39146847 9:0.20867984 10:0.76892221 11:0.55171442 12:0.44615102 13:0.4698593 14:0.27629238 15:0.59276253 16:0.33569711 17:0.46693066 18:0.56155592 19:0.099406727 20:0.10009316 21:0.88702118 22:0.50641102 23:0.34207922 24:0.67413181 25:0.46296719 26:0.46049729 27:0.31633136 28:0.49360952 29:0.48704743 30:0.37899819 31:0.38093555 32:0.57269841 33:0.76771468 34:0.26272562 35:0.28295091 36:0.5175485 37:0.34923509 38:0.49007782 39:0.36733094 40:0.58723164 41:0.61932379 42:0.35482627 43:0.47912669 44:0.5852704 45:0.51023054 46:0.39200157 47:0.50517994 48:0.26966208 49:0.55042595 50:0.62995315 51:0.35401922 52:0.45283586 53:0.48893127 54:0.48877954 55:0.70469469 56:0.59419054 57:0.69904518 58:0.67155129 59:0.29892716 60:0.42957497 61:0.56371695 62:0.56066382 63:0.44045949 64:0.31123534 65:0.4758485 66:0.49767759 67:0.52000278 68:0.25244254 69:0.36925113 70:0.50291246 71:0.87270224 72:0.81357759 73:0.90867823 74:0.73113519 75:0.7931928 
0 0 1.827265993191114 0.5064207872140011 0 0 0 0.879899069106145 0 0.7948601496484495 0.02068958813611165 0 0 1.200579837262602 0 0.1669146320303107 0 0 0 0 0.1776245692278482 0 0 0.1885098542660053 0 0.4336800167507593 0 1.633258710047865 0.1311011863176764 0 0 0.01495708599472981 0.9031651016557587 0 0.9353543278419694 0 0 0 0 1:0.79883653 2:0.59277517 3:0.45187595 4:0.36480075 5:0.6209566 6:0.68749201 7:0.71303988 8:0.46578881 9:0.53548545 10:0.47430146 11:0.56138927 12:0.81652671 13:0.61387259 14:0.22945417 15:0.40823019 16:0.23541915 17:0.34411255 18:0.43377396 19:0.37974948 20:0.50565302 21:0.84384376 22:0.48324925 23:0.29379028 24:0.50428438 25:0.40653107 26:0.41842043 27:0.30332801 28:0.64104819 29:0.49380007 30:0.28765252 31:0.59850031 32:0.44303685 33:0.67755473 34:0.40085539 35:0.38356772 36:0.55709392 37:0.41328189 38:0.55768996 39:0.28331885 40:0.6302377 41:0.39528555 42:0.31300607 43:0.43145594 44:0.60814649 45:0.6707865 46:0.37293419 47:0.47718173 48:0.52675015 49:0.40567207 50:0.66707104 51:0.25531256 52:0.59536612 53:0.5440976 54:0.40926072 55:0.73771155 56:0.51094478 57:0.70022094 58:0.68408698 59:0.34424937 60:0.48222435 61:0.4785724 62:0.53730297 63:0.17891578 64:0.34441093 65:0.49550357 66:0.42708069 67:0.38832018 68:0.19281827 69:0.40118057 70:0.55675519 71:0.80187964 72:0.80373174 73:0.90876985 74:0.74952751 75:0.73527414 
0 0 0 0 0 0 0.1946978550477842 0 0 0 0 0 1.050515143647488 0 0 0 0 0 0 1.349283919939077 0.2259705885056761 0 0 0 0 0 0.01562355624179548 0 0 1.209924694810828 0 0.09650403751304551 0 0 0 0 0 0 0 1:0.45489043 2:0.85005009 3:0.2528201 4:0.15642077 5:0.44193098 6:0.77968544 7:0.39234132 8:0.11976182 9:0.25166595 10:0.54494268 11:0.55666202 12:0.55664682 13:0.58134663 14:0.46741235 15:0.6371879 16:0.45909294 17:0.26284143 18:0.1242419 19:0.45937356 20:0.42671487 21:0.23117101 22:0.69070709 23:0.59852892 24:0.42097685 25:0.49770167 26:0.33632341 27:0.60001963 28:0.56493968 29:0.44108537 30:0.3891826 31:0.42344946 32:0.31997964 33:0.65233785 34:0.46092203 35:0.53368258 36:0.65190178 37:0.55036038 38:0.35097355 39:0.57667732 40:0.62912828 41:0.47135758 42:0.41347244 43:0.52174008 44:0.47238332 45:0.069661036 46:0.63349634 47:0.54447222 48:0.50594133 49:0.37717381 50:0.59582579 51:0.57216036 52:0.35935515 53:0.36152086 54:0.3240582 55:0.59306896 56:0.51642638 57:0.56193537 58:0.40243202 59:0.26878116 60:0.51885217 61:0.47041267 62:0.45793828 63:0.46557692 64:0.49476895 65:0.3579205 66:0.43630296 67:0.5179829 68:0.33404523 69:0.4446882 70:0.27256685 71:0.81194443 72:0.8777824 73:0.88090354 74:0.81357181 75:0.93174762 
0 0 0 0 0 0 0 0 0 0 0 0 0 0 0 0 0.09429404386949554 0.3928459478003449 0 0 0 0 0 0.227991604019422 0.06532031591628197 0 0 0.1138323367350262 0 0.1121013157675882 0.9144691850745063 0 0 0 0 0 0 0 0 1:0.53082991 2:1 3:0.41757947 4:0.23970626 5:0.55382973 6:0.7169593 7:0.34433103 8:0 9:0.34995916 10:0.54747874 11:0.56908232 12:0.6309101 13:0.57248032 14:0.50544876 15:0.75333863 16:0.38267523 17:0.42222241 18:0.20588438 19:0.57058984 20:0.41706079 21:0.30749053 22:0.86963665 23:0.40618071 24:0.30786255 25:0.25807813 26:0.34472346 27:0.61058336 28:0.62875295 29:0.43367779 30:0.36370149 31:0.58541071 32:0.43719471 33:0.69563031 34:0.54124999 35:0.51693225 36:0.62040097 37:0.45019746 38:0.35077441 39:0.56140733 40:0.58030486 41:0.42596531 42:0.37771931 43:0.4789753 44:0.49625212 45:0.12982072 46:0.60426629 47:0.60194188 48:0.54055858 49:0.45008683 50:0.58768749 51:0.41488418 52:0.39413485 53:0.23103935 54:0.25493515 55:0.67434967 56:0.4881894 57:0.57659698 58:0.52861226 59:0.32630026 60:0.52525246 61:0.4413265 62:0.41873437 63:0.46479505 64:0.51642615 65:0.42521358 66:0.39979511 67:0.4069922 68:0.35771793 69:0.5070048 70:0.33817375 71:0.81478214 72:0.85114825 73:0.86618865 74:0.84331053 75:0.94544518 
0 0 0 0 0 0 0 0 0 0 0 0 0 0 0 0 0 0 0 0 0 0 0 0 0 0 0.791939882568424 0 0 0 0 0 0 0 0 0 0 0 0 1:0.29204187 2:0.4617857 3:0.76557297 4:0.56501061 5:0.3760452 6:0.64133322 7:0.42026636 8:0.63303357 9:0.53041542 10:0.71016836 11:0.46247065 12:0.20946033 13:0.4715136 14:0.55171996 15:0.57074422 16:0.3295691 17:0.43038628 18:0.4128969 19:0.18760045 20:0.55311704 21:0.86627275 22:0.64647895 23:0.15155523 24:0.47910511 25:0.19093649 26:0.64905524 27:0.23223267 28:0.59317911 29:0.3898007 30:0.49962959 31:0.31447574 32:0.76559347 33:0.27261987 34:0.50427562 35:0.36518213 36:0.72623605 37:0.56649446 38:0.63632506 39:0.43313712 40:0.67227894 41:0.45430765 42:0.41682103 43:0.48723489 44:0.47729784 45:0.64080071 46:0.13135312 47:0.51647097 48:0.45205992 49:0.60063004 50:0.58390355 51:0.38457906 52:0.53405851 53:0.76147348 54:0.44511771 55:0.51008856 56:0.57723975 57:0.4223744 58:0.56634939 59:0.36183128 60:0.4505986 61:0.70565343 62:0.45395359 63:0.46886411 64:0.52239758 65:0.42396823 66:0.48154587 67:0.51000762 68:0.35186914 69:0.54614246 70:0.47593287 71:0.76848173 72:0.94307578 73:0.8487854 74:0.6856401 75:0.83245754 
0 0 0 0.005425465161505568 0 0 0 0 0 0 0 0 0 0 0 0 0 0 0 0 0 0 0 0 0 0 0 0 0 0 0 0 0 0 0 0 0 0 0 1:0.43396628 2:0.55295235 3:0.72984338 4:0.74374974 5:0.53274882 6:0.40378562 7:0.60218108 8:0.41816652 9:0.35220855 10:0.76227129 11:0.61449116 12:0.45237452 13:0.54525745 14:0.71938974 15:0.86213672 16:0.48144892 17:0.49232242 18:0.7195161 19:0.40166456 20:0.72680843 21:0.89783394 22:0.45988503 23:0.32696709 24:0.56497777 25:0.43292969 26:0.59802145 27:0.28216153 28:0.42979822 29:0.50470734 30:0.72305071 31:0.51738423 32:0.73491716 33:0.43343025 34:0.41751498 35:0.39196166 36:0.58521634 37:0.56320012 38:0.6978544 39:0.36608171 40:0.43367901 41:0.43665504 42:0.39064103 43:0.4357571 44:0.47777319 45:0.51555842 46:0.32976061 47:0.48785022 48:0.45560017 49:0.55023557 50:0.60713583 51:0.46534166 52:0.46777189 53:0.72134894 54:0.53748524 55:0.49216393 56:0.66337973 57:0.44444814 58:0.62061918 59:0.27088886 60:0.56428474 61:0.62686968 62:0.54590225 63:0.33750695 64:0.43169752 65:0.40923858 66:0.45368934 67:0.42347333 68:0.3294546 69:0.5362078 70:0.46460131 71:0.76506811 72:0.9671756 73:0.85871154 74:0.7628122 75:0.84304237 
0 0.6754781513943899 1.116217221478924 0.6632973147975595 0 0 0 0.9234207823771847 0 0 0 0.008334766083549579 0.1475660194543056 0 0 0 0.160238673677699 0 0 0 0 0 0 0 0 0 0.2948648627601742 0 0 0 0 0 0 0 0 0 0.5473769817849833 0 0 1:0.33708575 2:0.42811713 3:0.66220146 4:0.49792206 5:0.46121046 6:0.57800794 7:0.075990431 8:0.55161947 9:0.41906068 10:0.70962477 11:0.53461546 12:0.41728914 13:0.71676433 14:0.57463408 15:0.44998485 16:0.52573127 17:0.70264131 18:0.53426588 19:0.13912767 20:0.69694698 21:0.50455761 22:0.66391677 23:0.52679724 24:0.53070903 25:0.43916139 26:0.40745798 27:0.34900522 28:0.4496513 29:0.319455 30:0.42900968 31:0.90888715 32:0.32175401 33:0.28587627 34:0.55138963 35:0.54605615 36:0.28065762 37:0.52072614 38:0.66490805 39:0.5991233 40:0.48231313 41:0.48468605 42:0.41907454 43:0.56261456 44:0.45581827 45:0.48951104 46:0.29601589 47:0.56253231 48:0.38982606 49:0.50499111 50:0.35480914 51:0.37868544 52:0.43396792 53:0.65998149 54:0.56851119 55:0.59262371 56:0.54298222 57:0.4847365 58:0.56398088 59:0.33045554 60:0.31403226 61:0.70071632 62:0.47350413 63:0.48085472 64:0.44988453 65:0.48159367 66:0.53307962 67:0.38693243 68:0.42262045 69:0.58440769 70:0.4800736 71:0.67988819 72:0.93984532 73:0.79565668 74:0.65329999 75:0.85596579 
0 0 0.52100360898739 0 0 0 0 0 0 0 0 0 0 0 0 0 0 0 0 0 0 0 0 0 0 0 0 0 0 0 0 0 0 0 0 0 0 0 0 1:0.51486915 2:0.25115603 3:0.40940109 4:0.60675222 5:0.43529624 6:0.3832866 7:0.20120253 8:0.27471161 9:0.65979254 10:0.62899774 11:0.50249881 12:0.35321218 13:0.62353683 14:0.5714367 15:0.48215714 16:0.48939937 17:0.54919064 18:0.57226473 19:0.41738713 20:0.6273101 21:0.43402651 22:0.64866859 23:0.39611721 24:0.62271219 25:0.52494103 26:0.52862734 27:0.63380778 28:0.53312272 29:0.49467826 30:0.59151334 31:0.82683033 32:0.45084581 33:0.40561569 34:0.39986596 35:0.50597703 36:0.31661111 37:0.4440946 38:0.60157079 39:0.56541115 40:0.48352951 41:0.54309905 42:0.37731755 43:0.74241877 44:0.46598318 45:0.54884583 46:0.32042804 47:0.55736309 48:0.36415467 49:0.53313994 50:0.42503437 51:0.43592799 52:0.4984293 53:0.65240711 54:0.57451618 55:0.51265663 56:0.40549982 57:0.51575178 58:0.45676476 59:0.36709785 60:0.43899807 61:0.59525257 62:0.41751751 63:0.33927423 64:0.49959445 65:0.49768749 66:0.50138819 67:0.3726956 68:0.42575169 69:0.703246 70:0.45475224 71:0.63107347 72:0.97210324 73:0.8676067 74:0.69676572 75:0.81984931 
0 0 0 0 0 0 0.1997113358899991 0 0 0 0 0 0 0 0 0 0 0 0 0 0 0 0 0 0 0 0 0 0 0.05015446959322564 0 0 0 0 0 0 0 0.6874594388660819 0 1:0.73196185 2:0.40817577 3:0.47397253 4:0.57839584 5:0.63139147 6:0.46361351 7:0.082857303 8:0.54709965 9:0.36416465 10:0.8634901 11:0.50506884 12:0.46655685 13:0.58996081 14:0.44426903 15:0.51197517 16:0.45395705 17:0.26374659 18:0.62799579 19:0.084314436 20:0.55334938 21:0.52306294 22:0.24998033 23:0.52217704 24:0.60932076 25:0.57986104 26:0.53084928 27:0.30062458 28:0.26795405 29:0.51297647 30:0.56372708 31:0.78890496 32:0.66040164 33:0.44891778 34:0.55278182 35:0.70317984 36:0.39704585 37:0.55677015 38:0.57598507 39:0.3284508 40:0.35382089 41:0.65480024 42:0.48621067 43:0.58797908 44:0.54315835 45:0.55394727 46:0.39472389 47:0.68437362 48:0.52868348 49:0.64919531 50:0.65775627 51:0.49216121 52:0.31325927 53:0.64989907 54:0.65248126 55:0.53708512 56:0.49226236 57:0.55558741 58:0.474334 59:0.35355151 60:0.46334317 61:0.65322071 62:0.58947623 63:0.3615461 64:0.38389528 65:0.51138735 66:0.49513906 67:0.54158944 68:0.26353583 69:0.4240492 70:0.37249345 71:0.87515539 72:0.92730516 73:0.85244381 74:0.69938344 75:0.86733913 
0.3339465913244619 0 0.3764637965954695 0.07017238050218835 0.3397733996381777 0 0 0 0 0 0.4784280406279812 0.4951008302605164 0 0.2920580698212766 0.3787706168804925 0 0 0 0.2769250605357102 0 0.2727485833241263 0.6625688147881573 0 0 0 0.1087998315286932 0 0 0 0 0 0 0.7954593370892997 0 0.01566364253779494 0 0 0 0 1:0.54272598 2:0.42534789 3:0.52862954 4:0.52892715 5:0.87084967 6:0.42216146 7:0.32544628 8:0.47245622 9:0.6529271 10:0.72779745 11:0.1607628 12:0.43024179 13:0.73243999 14:0.33166182 15:0.35337836 16:0.36546713 17:0.38181937 18:0.48140442 19:0.14710738 20:0.45337042 21:0.60893023 22:0.26174182 23:0.53584659 24:0.73250705 25:0.42442232 26:0.64855546 27:0.31401637 28:0.12538399 29:0.37916291 30:0.56579226 31:0.59247315 32:0.59392661 33:0.72656703 34:0.69370043 35:0.69657308 36:0.40936109 37:0.31512198 38:0.51840097 39:0.27101949 40:0.51541424 41:0.75764489 42:0.31220174 43:0.62280387 44:0.48895916 45:0.50164235 46:0.30095616 47:0.61574548 48:0.47640198 49:0.5934391 50:0.68800384 51:0.46256462 52:0.45438161 53:0.54616296 54:0.64626575 55:0.649786 56:0.50491053 57:0.70257229 58:0.53277791 59:0.3717005 60:0.51576424 61:0.49581322 62:0.5271697 63:0.18355192 64:0.29487506 65:0.52919769 66:0.47567448 67:0.51976335 68:0.22063437 69:0.47527093 70:0.42315638 71:0.82668954 72:0.92919934 73:0.88514942 74:0.62960565 75:0.78257442 
0 0 0 0 0 0 0 0 0 0 0 0 0 0.7885041285811065 0 0 0 0 0 0 0 0.3965798068151825 0 0 0 0 0 0 0 0 0 0 0.7455933307099709 0 0 0 0 0 0 1:0.45894471 2:0.47223309 3:0.29740021 4:0.11272668 5:0.45799392 6:0.51142937 7:0.47280747 8:0.80517197 9:0.42729428 10:0.40697768 11:0.18826258 12:0.59388036 13:0.49511218 14:0.58789647 15:0.40353954 16:0.41813555 17:0.72049987 18:0.29379457 19:0.41082487 20:0.32091433 21:0.51094943 22:0.52744758 23:0.58049285 24:0.62671143 25:0.33343643 26:0.36073399 27:0.79733491 28:0.403855 29:0.57920939 30:0.778162 31:0.58163565 32:0.41688567 33:0.48074234 34:0.38587227 35:0.46976045 36:0.38093284 37:0.47776249 38:0.4289625 39:0.52113467 40:0.64324427 41:0.42170843 42:0.52124661 43:0.56950742 44:0.46742702 45:0.40770087 46:0.32553655 47:0.28946328 48:0.4126724 49:0.57594758 50:0.60410988 51:0.46426293 52:0.64088339 53:0.5860638 54:0.36693811 55:0.46333969 56:0.38987243 57:0.39430949 58:0.5477885 59:0.3208603 60:0.38235599 61:0.38665321 62:0.46888143 63:0.50272089 64:0.41631287 65:0.39463606 66:0.58518791 67:0.57130188 68:0.40129042 69:0.60588259 70:0.48265803 71:0.75165963 72:0.97248077 73:0.83925098 74:0.52457458 75:0.84519196 
0 1.497071950342084 0 0 0.3149017375924571 0 0 0 0 1.520748261497963 0 1.129579489843012 0 0.1302631293142882 0 0 0 0.1906585888445199 0 0 0 0 0 0 0.1200274694824846 0 0 0.2928748461444381 0 1.250949290864833 0.2664294815584514 0 0 0 0 0 0 0 1.102953971122796 1:0.70328379 2:0.78245956 3:0.52303284 4:0.61108154 5:0.34607896 6:0.38007829 7:0.21405116 8:0.66972286 9:0.54409283 10:0.99064988 11:0.49026462 12:0.42077094 13:0.64361858 14:0.40807441 15:0.42858556 16:0.29447129 17:0.51472235 18:0.66035646 19:0.40475318 20:0.61615515 21:0.50976574 22:0.44713581 23:0.56600714 24:0.74436063 25:0.34426069 26:0.41794124 27:0.29808795 28:0.53987855 29:0.59109765 30:0.6444999 31:0.72063178 32:0.65686244 33:0.40711522 34:0.44899336 35:0.68614328 36:0.40584984 37:0.94076759 38:0.69250858 39:0.41992962 40:0.53686833 41:0.76497591 42:0.43566146 43:0.29626003 44:0.65255183 45:0.23108396 46:0.41290981 47:0.59648532 48:0.71326399 49:0.5950278 50:0.44200188 51:0.33585033 52:0.38551161 53:0.51379275 54:0.64811087 55:0.42529643 56:0.5235737 57:0.56232232 58:0.66828692 59:0.3871769 60:0.4096083 61:0.50362957 62:0.40465564 63:0.40175596 64:0.46253079 65:0.45728147 66:0.51304018 67:0.4310517 68:0.22975698 69:0.31241599 70:0.37514484 71:0.7588523 72:0.87264252 73:0.87638193 74:0.77431136 75:0.9738825 
0 0 0 0 0 0 0 0 0.3363928243062572 0 0 0 0 0 0 0 1.010618644206784 0 0 0 0 0 0 0.06790517268189714 0 0 0 0 0.8744507318000835 0 0.3011472003985297 0 0.3701697507968185 0 0 0.2171718204562947 0 0 0 1:0.71047902 2:0.64595866 3:0.40385151 4:0.73235744 5:0.55560702 6:0.31358296 7:0.23364902 8:0.70276648 9:0.50832117 10:0.83946115 11:0.50223041 12:0.42110905 13:0.64506263 14:0.53199446 15:0.27052727 16:0.313317 17:0.32243592 18:0.70871025 19:0.49526918 20:0.64630038 21:0.52623922 22:0.43948793 23:0.51268172 24:0.7505849 25:0.58305514 26:0.48728487 27:0.56573015 28:0.32896876 29:0.46523255 30:0.61853755 31:0.88693959 32:0.42833927 33:0.29566905 34:0.29654351 35:0.61722064 36:0.37509239 37:0.75562912 38:0.54151732 39:0.47787875 40:0.55279267 41:0.78965837 42:0.37400037 43:0.45705667 44:0.57544214 45:0.39695308 46:0.36900473 47:0.7289229 48:0.60820073 49:0.63582665 50:0.4835926 51:0.43414053 52:0.27334449 53:0.41841477 54:0.58140862 55:0.5096336 56:0.40369144 57:0.56892771 58:0.60280317 59:0.34847811 60:0.37205318 61:0.46345398 62:0.39175797 63:0.2769953 64:0.48689082 65:0.48264927 66:0.54386932 67:0.47941399 68:0.27276877 69:0.35829616 70:0.34322974 71:0.75516546 72:0.89965528 73:0.95794874 74:0.79669565 75:0.92850626 
0 0.09314470773412727 0.2256435260295224 0 0 0 0 0 0 0 0 0 0 0.9310555181127649 0.3490939599148554 0.2408364812429039 0 0 0 0 0.195839376477824 0 0.3164112661591392 0.09894733602371657 0 0 1.374082488257726 0 0 0 0 0 0 0 0.1661720047273672 0 0.2496928314580929 0 0 1:0.4015789 2:0.30442211 3:0.56584072 4:0.54788738 5:0.59354782 6:0.46731552 7:0.35457602 8:0.9050228 9:0.459822 10:0.7288819 11:0.59275043 12:0.5801037 13:0.49625319 14:0.24276002 15:0.67997241 16:0.27297139 17:0.4621985 18:0.56765598 19:0.4056699 20:0.46846193 21:0.42796555 22:0.32055777 23:0.60825992 24:0.44591579 25:0.56479806 26:0.52782637 27:0.33192959 28:0.29004622 29:0.59820974 30:0.58353531 31:0.52822655 32:0.75577617 33:0.40559259 34:0.72751445 35:0.67699653 36:0.67419779 37:0.60003316 38:0.4164606 39:0.21287595 40:0.61765969 41:0.72261149 42:0.22325505 43:0.2528834 44:0.77708465 45:0.25746849 46:0.50034118 47:0.58250815 48:0.47284347 49:0.64023077 50:0.59855545 51:0.4136419 52:0.36201349 53:0.64148611 54:0.52486694 55:0.62309718 56:0.50037706 57:0.53952909 58:0.59391415 59:0.39929289 60:0.37371597 61:0.58990043 62:0.47280952 63:0.34842011 64:0.50775939 65:0.39981636 66:0.48479047 67:0.45095521 68:0.26585361 69:0.38075554 70:0.4344908 71:0.76360965 72:0.88704848 73:0.91406697 74:0.73970085 75:0.9070906 
0 0 0 0 0 0 0 0 0 0 0 0 0 0 0 0 1.543243005870111 0 0 0 0 0 0 0 0 0 0 0 0.1289241967519642 0 0 0 0 0 0 0 0 0 0 1:0.39463881 2:0.3340748 3:0.58591682 4:0.64590311 5:0.60327089 6:0.57006991 7:0.61698985 8:0.84805924 9:0.491115 10:0.59518707 11:0.34067717 12:0.75874871 13:0.52676791 14:0.3188512 15:0.66301864 16:0.2160982 17:0.54305357 18:0.45472831 19:0.49340937 20:0.60543638 21:0.77044958 22:0.30476072 23:0.502868 24:0.49459654 25:0.36950836 26:0.57243216 27:0.33530641 28:0.40198398 29:0.48084819 30:0.6100654 31:0.45759037 32:0.67353553 33:0.41469547 34:0.72716385 35:0.69563085 36:0.66059214 37:0.56255549 38:0.60456455 39:0.36591226 40:0.56462038 41:0.64115208 42:0.31531262 43:0.20752575 44:0.70717543 45:0.34353915 46:0.43510303 47:0.55552119 48:0.61240327 49:0.75789338 50:0.39873734 51:0.37774149 52:0.48170859 53:0.54284555 54:0.65618885 55:0.57078981 56:0.58833605 57:0.48459694 58:0.64060938 59:0.3724874 60:0.458278 61:0.58986717 62:0.48297 63:0.35143608 64:0.42866945 65:0.42071012 66:0.49241498 67:0.44243476 68:0.29614118 69:0.41162094 70:0.43126774 71:0.77637219 72:0.92426646 73:0.89829069 74:0.79650557 75:0.87587756 
0 0.896207953152792 0.7589413737441639 0 0 0.7742732499579952 0.405895880795999 0.9895544458124552 0.3733010354558665 0 0.3662979953732607 0 0 0.4706110286536502 0.3436289866768784 0.05228020791752882 0.855354553796778 0 0 0 0 0.1758539175382313 0 0 0.7138921879175391 0 0.04266099118684049 0.4097833525987584 0 0 0 0 1.071220540127638 0.1308415345586379 1.727150674707999 0.2256148809498658 0 0.08466394273534263 0.656738496985496 1:0.48348933 2:0.43761128 3:0.40087405 4:0.60361099 5:0.32960621 6:0.50043267 7:0.60849273 8:0.43505427 9:0.39084107 10:0.64908171 11:0.22682793 12:0.56296903 13:0.57011151 14:0.62575167 15:0.65567118 16:0.67705947 17:0.54807758 18:0.54703569 19:0.66535968 20:0.32005152 21:0.4778446 22:0.37992927 23:0.6484251 24:0.4260712 25:0.40567574 26:0.37977365 27:0.6116727 28:0.51715696 29:0.66700763 30:0.27201352 31:0.76957208 32:0.5390622 33:0.01930831 34:0.65799308 35:0.54486978 36:0.28262013 37:0.85796899 38:0.62131006 39:0.4376024 40:0.48741901 41:0.44666222 42:0.4241685 43:0.45131955 44:0.6821776 45:0.33772871 46:0.53683883 47:0.47546196 48:0.66964275 49:0.74893969 50:0.36877429 51:0.24969567 52:0.74927127 53:0.41689673 54:0.38161415 55:0.69688773 56:0.57636058 57:0.81253159 58:0.24762911 59:0.52958578 60:0.54935151 61:0.69853139 62:0.49675503 63:0.37338582 64:0.49289691 65:0.39170617 66:0.55760777 67:0.3694613 68:0.244444 69:0.445252 70:0.56431097 71:0.72121537 72:0.80845225 73:0.88773781 74:0.73994297 75:0.84509706 
0.2107491263103277 0 0 0 2.270594465667372 0.06827680174224737 0 0.3461871634725428 0 0.6489661203773001 0 0 3.192789908585467 0 0 0.1664851372638574 0 0 0 0.2073398975555245 0 0.7603967764395683 0.1970846154327867 0.3157856360055168 0 1.792070711262185 0 0 0 0 0 0.6379536689091835 0 0 1.368550499434934 3.16840253213667 0 0 0 1:0.29426333 2:0.42290321 3:0.35141224 4:0.48461005 5:0.59793025 6:0.53824234 7:0.63848698 8:0.57345533 9:0.36093438 10:0.66606838 11:0.39312261 12:0.40565348 13:0.68461484 14:0.42572206 15:0.3741506 16:0.44746187 17:0.4708648 18:0.33255851 19:0.73197818 20:0.52558666 21:0.61144477 22:0.51781142 23:0.64244872 24:0.56660897 25:0.46559289 26:0.49670845 27:0.51266283 28:0.49038047 29:0.69525164 30:0.38914019 31:0.79240096 32:0.31794405 33:0.14082639 34:0.6788578 35:0.38353151 36:0.58039623 37:0.78908151 38:0.50610232 39:0.5957495 40:0.48093754 41:0.66360301 42:0.45655745 43:0.42067 44:0.62693739 45:0.48091507 46:0.51233256 47:0.44246924 48:0.66735047 49:0.74287975 50:0.50055569 51:0.3152487 52:0.4663088 53:0.29186147 54:0.43527478 55:0.56709468 56:0.51688397 57:0.61608481 58:0.38340691 59:0.48846641 60:0.49077281 61:0.65381539 62:0.48584196 63:0.36301717 64:0.53160095 65:0.35650596 66:0.52945924 67:0.48161861 68:0.24557324 69:0.41343907 70:0.47939575 71:0.77641821 72:0.85623986 73:0.79281974 74:0.76458746 75:0.90135247 
0.663685302153063 0 0 0 0 0 1.123415224984553 0 1.4750695574388 0 0.8392403948332887 0 0 0 0 0 0 0 0.9532155763137572 0 1.025150007993016 0.6940315767062422 0.3744941202977647 0.1654223764423528 0 0.2362223595443452 0.9337538855209039 0 0 0.3805454126046149 0 0.3287326912062995 0.8292747070529304 0 0 0 0 0.04018364915421827 0.1496100539960898 1:0.65508145 2:0.54611617 3:0.27433768 4:0.72145194 5:0.69921046 6:0.75158978 7:0.4292011 8:0.29598686 9:0.47779408 10:0.75488579 11:0.80881852 12:0.52815443 13:0.58115125 14:0.26970822 15:0.45084354 16:0.52324176 17:0.15244849 18:0.35157827 19:0.26612356 20:0.46303469 21:0.29602665 22:0.58195198 23:0.5794403 24:0.63869971 25:0.61351472 26:0.4696351 27:0.57544625 28:0.49194023 29:0.66473305 30:0.57726163 31:0.66323972 32:0.71382141 33:0.36523607 34:0.73228765 35:0.66379893 36:0.33534619 37:0.55022579 38:0.59043729 39:0.62163603 40:0.57805896 41:0.72366506 42:0.41030195 43:0.60305548 44:0.48749158 45:0.40083107 46:0.26828569 47:0.69724381 48:0.49204445 49:0.43157303 50:0.51030588 51:0.52144819 52:0.39697927 53:0.66352779 54:0.59950519 55:0.42488906 56:0.48058981 57:0.43328527 58:0.42987323 59:0.43544871 60:0.50185287 61:0.50875372 62:0.47310653 63:0.37713191 64:0.42998257 65:0.44185904 66:0.51213616 67:0.53764516 68:0.30876005 69:0.45081869 70:0.26232007 71:0.72672009 72:0.92618179 73:0.84907168 74:0.69323421 75:0.89312238 
0 0 0 0.04615185214405401 1.157206083502023 0 0 0 0 0 0 0.4929053599437796 0 0 0 0 0 0 0.5253248849841474 0 0 0 0.9520930501849056 0.5367578245651499 0 0 0 0.4632379236857012 0 0 0 0 0 0 0 0 0 0 0 1:0.48294055 2:0.29847431 3:0.34324092 4:0.72298652 5:0.39199653 6:0.40960759 7:0.45925805 8:0.4470624 9:0.54873616 10:0.64770526 11:0.74469465 12:0.41580176 13:0.63057727 14:0.61115581 15:0.4983457 16:0.61949706 17:0.5199337 18:0.37203848 19:0.34955898 20:0.6238935 21:0.50430369 22:0.47286433 23:0.45973754 24:0.72854215 25:0.52779245 26:0.59560174 27:0.42176545 28:0.43697411 29:0.55691725 30:0.70057952 31:0.67967284 32:0.91842073 33:0.71451753 34:0.44103619 35:0.5758599 36:0.41122252 37:0.64241022 38:0.5900448 39:0.48365226 40:0.50256371 41:0.7918517 42:0.28726193 43:0.49503374 44:0.56240594 45:0.3797833 46:0.35654661 47:0.51279879 48:0.5079934 49:0.54812145 50:0.44884294 51:0.62363088 52:0.5661844 53:0.54666197 54:0.51556468 55:0.44686064 56:0.39070103 57:0.49654135 58:0.54339826 59:0.36528668 60:0.52800357 61:0.46870053 62:0.49096206 63:0.37185037 64:0.42547992 65:0.51878816 66:0.54734206 67:0.55532581 68:0.28819486 69:0.52355558 70:0.41020074 71:0.70847267 72:0.94438922 73:0.87412614 74:0.64769506 75:0.91884589 
0.7928580721932841 0 0 0.7015520719025853 0.3429507839529816 0 0 1.487709558978985 0 1.427901068294299 0.9832226459912808 0 0.5584245360107243 0.01570249083538168 0 0 0 0 0 0.7359846379508764 0.1177186083010067 0.8917599935275681 0.1732041807448451 0 0 0.4503127049685681 0.218553587458808 0.4284990973241541 0.870270536390749 0.8198151843489114 0 0 0 0.08331527410622941 0.4872372827862732 0 0 0 0.3233390404706112 1:0.60038126 2:0.47437525 3:0.46283212 4:0.28579885 5:0.45614833 6:0.51337838 7:0.76159781 8:0.61262763 9:0.31986207 10:0.45490336 11:0.56186908 12:0.55990416 13:0.33132356 14:0.69551027 15:0.43683416 16:0.31963453 17:0.61281681 18:0.64312816 19:0.75607193 20:0.31788635 21:0.68449658 22:0.55117959 23:0.32909358 24:0.521644 25:0.58001798 26:0.37696871 27:0.61161864 28:0.29085428 29:0.20807014 30:0.61465561 31:0.5055719 32:0.60853535 33:0.2267226 34:0.53797495 35:0.4849475 36:0.3875902 37:0.47938535 38:0.41553536 39:0.22706114 40:0.5895443 41:0.42381057 42:0.42146885 43:0.30899334 44:0.51304591 45:0.57360911 46:0.53650731 47:0.56157655 48:0.44368541 49:0.55143255 50:0.78434527 51:0.24295647 52:0.71172196 53:0.71398211 54:0.62922335 55:0.6386323 56:0.45989412 57:0.47007406 58:0.4960615 59:0.47204635 60:0.31113386 61:0.28458172 62:0.20566912 63:0.22620137 64:0.35821491 65:0.58349735 66:0.56133205 67:0.59743315 68:0.2263798 69:0.58123869 70:0.59522158 71:0.80430681 72:0.85435843 73:0.59483397 74:0.81974149 75:0.77405012 
0 0 0 0 0 0 0.6923446620927871 0 0 0 0 0.7184365200043425 0 0 0 0 0 0 0 0 0 0 0 0 0 0 0 0 0.1280195166896741 0 0 0.3483871247309994 0.2977970297376822 0 0 0 0 0 0 1:0.8126443 2:0.34806487 3:0.475638 4:0.28870091 5:0.59489942 6:0.57135022 7:0.83268321 8:0.61669898 9:0.4492029 10:0.56431437 11:0.65381545 12:0.39074692 13:0.36968449 14:0.79035628 15:0.49616721 16:0.2795662 17:0.37330514 18:0.66185677 19:0.71996278 20:0.61756176 21:0.68038714 22:0.41449985 23:0.41018978 24:0.55903572 25:0.67122638 26:0.22434977 27:0.85432214 28:0.34587103 29:0.49424219 30:0.70741957 31:0.29349542 32:0.52228296 33:0.33154508 34:0.35604659 35:0.72198862 36:0.44629669 37:0.46003798 38:0.28308198 39:0.26809156 40:0.62044555 41:0.38398722 42:0.43222338 43:0.41193581 44:0.52664167 45:0.38758481 46:0.54566151 47:0.38540551 48:0.51043689 49:0.56386793 50:0.66776448 51:0.34800687 52:0.64639288 53:0.59807813 54:0.4329136 55:0.57776725 56:0.52222145 57:0.58541298 58:0.66928673 59:0.3381345 60:0.34098774 61:0.36756143 62:0.36322811 63:0.37695685 64:0.46020272 65:0.51038104 66:0.54910558 67:0.45037222 68:0.21405208 69:0.44385347 70:0.48418799 71:0.76838768 72:0.9650268 73:0.80310404 74:0.75779814 75:0.80477041 
0 0 0 0 0 2.151755703677658 0 0 0.988407528343125 0 0 0 0 0 0 0 0 0 0 0 0.06788895241154988 0 0 0 0 0 0 0 0 0 0 0.9077437624654849 0 0 0 0 0 0 0 1:0.31555274 2:0.5130378 3:0.76031101 4:0.53072751 5:0.3646144 6:0.59840393 7:0.3687436 8:0.45857546 9:0.474547 10:0.55140102 11:0.39832142 12:0.55968773 13:0.80488932 14:0.56700981 15:0.47037879 16:0.55041409 17:0.62521601 18:0.49168923 19:0.42870504 20:0.73245472 21:0.49555781 22:0.64668792 23:0.6219483 24:0.74522746 25:0.33222294 26:0.50310016 27:0.62633026 28:0.47208375 29:0.58742028 30:0.3694436 31:0.4809317 32:0.29472417 33:0.69525313 34:0.54711103 35:0.57676196 36:0.36192605 37:0.47125933 38:0.50191921 39:0.41336432 40:0.54769462 41:0.59524143 42:0.48973912 43:0.66525346 44:0.44900081 45:0.51982683 46:0.48562923 47:0.31829593 48:0.46351397 49:0.5816443 50:0.49460027 51:0.34356484 52:0.44823295 53:0.45149401 54:0.61734134 55:0.61385894 56:0.51978016 57:0.50088686 58:0.64767915 59:0.26985398 60:0.53532177 61:0.33371672 62:0.34061775 63:0.40823138 64:0.51844662 65:0.50128478 66:0.64143234 67:0.43774378 68:0.47996417 69:0.64581704 70:0.59638715 71:0.70029181 72:0.87340426 73:0.90289271 74:0.69124693 75:0.91312194 
0 0 0 0 0 0 0.2608174356897349 0 0 0 0 0 0 0 0 0 0.89831921381303 0 0 0 0 0 0 0 0 0 0 0.6969076815912647 0 0 0 0 0 0 0 0 0 0.5235982235284278 0.2002704889639931 1:0.3027344 2:0.65084797 3:0.38199618 4:0.56329507 5:0.89525175 6:0.87203497 7:0.29536492 8:0.77039444 9:0.43249106 10:0.53713644 11:0.4148947 12:0.688124 13:0.40298149 14:0.33804414 15:0.45752549 16:0.26267684 17:0.38745433 18:0.34625953 19:0.50947458 20:0.66610485 21:0.47764409 22:0.66351706 23:0.2841759 24:0.32944536 25:0.46800953 26:0.37413645 27:0.4744508 28:0.60003012 29:0.41553795 30:0.4997941 31:0.85715997 32:0.51319194 33:0.73793048 34:0.49234888 35:0.081279598 36:0.64437652 37:0.48957479 38:0.48519775 39:0.42132315 40:0.37035429 41:0.64082611 42:0.40273562 43:0.43154854 44:0.62074351 45:0.43926165 46:0.41585454 47:0.66338724 48:0.36515826 49:0.57161629 50:0.40217716 51:0.47774592 52:0.45918217 53:0.62080091 54:0.40092367 55:0.6161387 56:0.56549764 57:0.49420348 58:0.58111036 59:0.33431062 60:0.46582976 61:0.54849726 62:0.54151881 63:0.49748647 64:0.48525375 65:0.37419793 66:0.47397435 67:0.49128914 68:0.51854336 69:0.55935657 70:0.39582843 71:0.86239827 72:0.89694637 73:0.86907053 74:0.70019627 75:0.90488398 
0 0 0 0 0 0 0 0 0 0 0 0 0 0 0 1.067467006915984 1.892142156389671 0 0 0 0 0 0 0 0 0 0 0 0 0 0 0 0 0 0 0 0 0.5207909343330295 0 1:0.38294095 2:0.63923645 3:0.44255784 4:0.61433142 5:0.84680104 6:0.82873511 7:0.30359125 8:0.34467372 9:0.41539338 10:0.45904958 11:0.40908712 12:0.3332836 13:0.57259083 14:0.41367918 15:0.60249668 16:0.55351108 17:0.4483214 18:0.40176412 19:0.72319573 20:0.53781384 21:0.54299247 22:0.61259925 23:0.46112934 24:0.33972174 25:0.27072638 26:0.33277309 27:0.41815057 28:0.47021031 29:0.49188483 30:0.45620185 31:0.51408809 32:0.49533334 33:0.6932869 34:0.29464519 35:0.44770354 36:0.61147225 37:0.41647241 38:0.30047143 39:0.61004281 40:0.38062575 41:0.58327454 42:0.33645028 43:0.55813503 44:0.6276353 45:0.30399501 46:0.45251024 47:0.45295677 48:0.40986434 49:0.57329893 50:0.44254589 51:0.4949367 52:0.448338 53:0.48574623 54:0.443454 55:0.57757378 56:0.52627033 57:0.66525334 58:0.5654493 59:0.2565583 60:0.61420381 61:0.63276601 62:0.45372674 63:0.50401586 64:0.53307623 65:0.45573556 66:0.41886732 67:0.43088126 68:0.48499823 69:0.68315399 70:0.48408484 71:0.73617429 72:0.92337757 73:0.84188598 74:0.74223644 75:0.86110657 
0.1155892315389453 0 0 0 0 0 0.5097861773001183 0 0 0 0 0 0 0 0 0 0 0 0 0 0 0 0 0 0 0 0.09718313957539867 0.9257063253091146 0 0 0 0 0 0 0 0 0 0 0 1:0.44887629 2:0.82663274 3:0.58108294 4:0.57738495 5:0.74244952 6:0.4825705 7:0.46333736 8:0.61529726 9:0.30740827 10:0.67978096 11:0.75754946 12:0.37019756 13:0.47361752 14:0.38261834 15:0.62336963 16:0.59349447 17:0.55340683 18:0.81898278 19:0.4656496 20:0.72287029 21:0.37108028 22:0.45112786 23:0.41085583 24:0.22384609 25:0.44435894 26:0.28227487 27:0.23877408 28:0.69195294 29:0.48076904 30:0.57269025 31:0.47002849 32:0.38014567 33:0.35228303 34:0.54602337 35:0.59773028 36:0.70333689 37:0.453199 38:0.65854174 39:0.3921209 40:0.67667043 41:0.65970635 42:0.31675115 43:0.3224248 44:0.63008076 45:0.27462772 46:0.45905873 47:0.5452016 48:0.51328361 49:0.66515559 50:0.31014058 51:0.42658132 52:0.54861456 53:0.55948752 54:0.52800512 55:0.65981042 56:0.6052978 57:0.54865307 58:0.6023339 59:0.37446362 60:0.45662498 61:0.66550994 62:0.46986499 63:0.431182 64:0.58062202 65:0.37109074 66:0.39064547 67:0.39729354 68:0.42561385 69:0.48152512 70:0.40597987 71:0.78988177 72:0.89894044 73:0.77781564 74:0.7403748 75:0.9100076 
0.5677897412910456 0 0.4512236774931009 0.7561104080276148 0 1.619667386784517 0 0.647063211454002 1.641591106184092 0.3345755266937803 2.079599774412059 0.5458644771983077 0.6723401225678525 0 2.092624763515259 0.06740657150152016 0 0 0.7060341251859237 0.9427947421989606 0 0.9446439580521725 0 1.605311960824326 0 0 0 0.2356198325377391 0 0 0.2896725092075964 0 0.1222967323121311 0.4089591581244492 0 1.303264779980775 0.6622800285477147 0 0.2635549776566722 1:0.77652627 2:0.68412864 3:0.46837631 4:0.55328345 5:0.6964696 6:0.53249669 7:0.48630068 8:0.69263434 9:0.45522314 10:0.69433963 11:0.54637986 12:0.72581786 13:0.56459361 14:0.40832272 15:0.60654247 16:0.34794444 17:0.36886612 18:0.87296438 19:0.57056504 20:0.72552782 21:0.20861386 22:0.42391133 23:0.7003538 24:0.30301452 25:0.53951991 26:0.32682487 27:0.25896811 28:0.47086227 29:0.43621174 30:0.47248718 31:0.59550202 32:0.61513907 33:0.49283865 34:0.45898145 35:0.72684664 36:0.81585962 37:0.45534617 38:0.62237602 39:0.49062759 40:0.50986576 41:0.62525129 42:0.41032615 43:0.33113545 44:0.66173708 45:0.43286613 46:0.52721149 47:0.64860815 48:0.52224934 49:0.42790496 50:0.45444486 51:0.40273064 52:0.50562489 53:0.36021808 54:0.60736519 55:0.6810208 56:0.55571473 57:0.64238197 58:0.59119111 59:0.33946106 60:0.47608992 61:0.5916853 62:0.41831636 63:0.40445971 64:0.50178194 65:0.47693226 66:0.40654564 67:0.29232255 68:0.46982554 69:0.50998789 70:0.43498331 71:0.70331639 72:0.86513555 73:0.77208579 74:0.77429485 75:0.9479658 
0 0 0 0 0 0 0 0 0 0 0 0.909964181417781 0 0.8120774326167398 0 0 0 0 0 0.05738830217607423 0 0 0 0 0.7267234096972518 0.03937637880922836 0 0 0.08098045390964177 0 0 0.1150504106400296 0 0 0 0 0.5006935943307845 0 0 1:0.39237303 2:0.54148811 3:0.062491797 4:0.51301485 5:0.77022892 6:0.44697085 7:0.62906939 8:0.61027044 9:0.48132339 10:0.11212304 11:0.63198447 12:0.62035024 13:0.66660756 14:0.40440273 15:0.40128389 16:0.45008379 17:0.57885486 18:0.55250233 19:0.42711464 20:0.36254805 21:0.86141312 22:0.40295017 23:0.51084131 24:0.65148979 25:0.68295801 26:0.54597294 27:0.59460086 28:0.50096446 29:0.84653151 30:0.63195938 31:0.74289387 32:0.49706891 33:0.39252317 34:0.37391317 35:0.34101576 36:0.42341387 37:0.64674592 38:0.61131513 39:0.50175935 40:0.23807855 41:0.51622272 42:0.43036938 43:0.56354725 44:0.51711863 45:0.34302935 46:0.48316088 47:0.59532696 48:0.50646621 49:0.52441984 50:0.65968883 51:0.35951027 52:0.43771446 53:0.50143498 54:0.62190634 55:0.43305996 56:0.42427623 57:0.55823457 58:0.64181167 59:0.39340413 60:0.40384302 61:0.51342601 62:0.35338208 63:0.49709636 64:0.45883599 65:0.4045786 66:0.5252564 67:0.45164195 68:0.31496739 69:0.52220929 70:0.40849349 71:0.73667961 72:0.96586037 73:0.86878985 74:0.66738284 75:0.91983485 
0.9823890807991473 0.06239380817204082 0.8434363921452483 0 0 0 0 0 0 0 0 0 0.2926168188711923 0.236858023673992 0 0 0 0.4195347628242888 0 0 0.353200599091907 0 0 0 0 0 0 0 0 0 0 0 0 0.1217212466677491 0 0 0 0.1664335690156307 0 1:0.30004263 2:0.41621298 3:0.37180799 4:0.69516248 5:0.55199033 6:0.41053325 7:0.55868167 8:0.48904696 9:0.25263774 10:0.5204162 11:0.65617228 12:0.82629007 13:0.7125361 14:0.60089964 15:0.37810674 16:0.45547694 17:0.66473496 18:0.39906105 19:0.48780218 20:0.4693785 21:0.7506817 22:0.61954802 23:0.63035595 24:0.5131861 25:0.61684352 26:0.42361704 27:0.47233161 28:0.38529173 29:0.82071865 30:0.60838079 31:0.79131031 32:0.62436742 33:0.37050939 34:0.53324747 35:0.56687993 36:0.43502727 37:0.72889197 38:0.70035917 39:0.59048313 40:0.60859376 41:0.27243853 42:0.59624445 43:0.47396749 44:0.62971103 45:0.4399491 46:0.41210535 47:0.67304188 48:0.49834859 49:0.59841436 50:0.47189739 51:0.29913807 52:0.45402336 53:0.51831049 54:0.52487874 55:0.45947522 56:0.50466043 57:0.4609603 58:0.60627759 59:0.41635343 60:0.35846034 61:0.52390027 62:0.40167627 63:0.48523211 64:0.41366225 65:0.50302976 66:0.54041493 67:0.42210624 68:0.37523991 69:0.48239532 70:0.49110913 71:0.73779094 72:0.86519575 73:0.78316724 74:0.758214 75:0.93845838 
0 0.5370587836611017 0 0.8339938345627069 0 0 0 0 0 0.6250586600532398 0 0 0.07509305776199929 0.5920104174590152 0 1.437973586393329 0 0 0.5917112625339895 0 0 0 0 0 1.612816793546021 0.02628915893899296 0.8967460926434792 0 0 0 0 0 0 0 0 0 0 0.8443074444815227 0 1:0.47997829 2:0.55979764 3:0.24183914 4:0.60757917 5:0.14277543 6:0.59668976 7:0.48985904 8:0.46021235 9:0.61235601 10:0.36918175 11:0.4733389 12:0.4199883 13:0.69141591 14:0.54590523 15:0.57964534 16:0.55586082 17:0.52702117 18:0.48276973 19:0.30961806 20:0.54306608 21:0.25875968 22:0.38867685 23:0.50855494 24:0.44993529 25:0.72304845 26:0.46859005 27:0.46647611 28:0.54675227 29:0.51273537 30:0.48245448 31:0.57813317 32:0.12782538 33:0.39324045 34:0.45787954 35:0.67154628 36:0.39690325 37:0.36549217 38:0.43279666 39:0.57615936 40:0.37272176 41:0.39242268 42:0.63880664 43:0.50406957 44:0.48738053 45:0.17833656 46:0.42842653 47:0.39837608 48:0.4605363 49:0.46212193 50:0.59126538 51:0.47465 52:0.54237825 53:0.5863983 54:0.41013488 55:0.57986015 56:0.54027575 57:0.48842192 58:0.57102174 59:0.33706939 60:0.4174737 61:0.56293017 62:0.49428958 63:0.47854057 64:0.46119797 65:0.47610986 66:0.53299713 67:0.36041591 68:0.5691461 69:0.7352879 70:0.47960696 71:0.65303141 72:0.89699388 73:0.87066305 74:0.67267466 75:0.85800529 
0 0 0 1.673907421181599 0 0.2420173518542199 0.5604310756351698 0 0.6219569360694587 0.3482231842805913 0.6965358523144957 1.685784450457012 0.5247271449179139 0 0 1.675242178721282 0.6711544205337051 0 1.139809204038949 0 0 3.059701129882426 0 0 0 0 0 0 0.5232054868797432 1.562948786695845 0.6293616618064467 0 1.694006892598985 0 0.2106760246978983 0.2344526644703294 1.066116693903365 0.9668907577221337 0.5328470656917773 1:0.3008779 2:0.36409366 3:0.41186514 4:0.61572427 5:0.37862965 6:0.40752035 7:0.61439514 8:0.36878908 9:0.62014753 10:0.70242715 11:0.43190902 12:0.49636188 13:0.59732628 14:0.41839209 15:0.36998501 16:0.50504506 17:0.44691408 18:0.24664643 19:0.49231884 20:0.82754171 21:0.60981864 22:0.45891026 23:0.59435099 24:0.59017336 25:0.33509654 26:0.61264712 27:0.422084 28:0.63561893 29:0.43076214 30:0.45661145 31:0.65857613 32:0.22207215 33:0.59031022 34:0.56810993 35:0.3675395 36:0.41224268 37:0.37269768 38:0.64163023 39:0.59382969 40:0.53504544 41:0.53488171 42:0.5777818 43:0.4734599 44:0.38017166 45:0.23713194 46:0.35567138 47:0.26198921 48:0.64781159 49:0.60682207 50:0.44552583 51:0.41183856 52:0.65930891 53:0.36299708 54:0.58103096 55:0.56511462 56:0.44529012 57:0.51372939 58:0.48711422 59:0.43143317 60:0.50299305 61:0.46614397 62:0.44425383 63:0.39223355 64:0.46340266 65:0.45029083 66:0.53623724 67:0.36703464 68:0.56037652 69:0.79291761 70:0.55301148 71:0.57505405 72:0.89117885 73:0.81188679 74:0.66862625 75:0.80572468 
0.5460439626249854 0 0 0 0 0 0 0 0 0 0 0 0 0 0 0 0 0 0 0 0 0 0 0 0 0 0 0.4726072835084975 0 0 0 0 0 0 0 0 0 1.280663729661284 0 1:0.23251985 2:0.57690853 3:0.53479165 4:0.5010221 5:0.40823454 6:0.414258 7:0.7660929 8:0.55387074 9:0.75430989 10:0.49622244 11:0.46220115 12:0.52040195 13:0.41468549 14:0.53672385 15:0.44772097 16:0.39802289 17:0.48776916 18:0.52920765 19:0.43078867 20:0.72189206 21:0.47346482 22:0.49641755 23:0.63200152 24:0.60514623 25:0.45032108 26:0.47263622 27:0.40014398 28:0.36180228 29:0.5383473 30:0.6311326 31:0.69678986 32:0.46855327 33:0.37563974 34:0.54954857 35:0.53985375 36:0.55761456 37:0.45688099 38:0.54488385 39:0.56949246 40:0.4664484 41:0.53597897 42:0.48185298 43:0.63899571 44:0.45201844 45:0.27970147 46:0.17208655 47:0.42186999 48:0.57180947 49:0.55690056 50:0.43889275 51:0.2682595 52:0.58700937 53:0.5262897 54:0.47716182 55:0.46974382 56:0.49493256 57:0.56071258 58:0.58921099 59:0.41801339 60:0.43870449 61:0.55502456 62:0.49500579 63:0.3986792 64:0.47554901 65:0.57905328 66:0.57954764 67:0.38515896 68:0.34985083 69:0.63027698 70:0.55455822 71:0.73621625 72:0.90461904 73:0.80828279 74:0.69446492 75:0.83756572 
0 0 0 0 0 0 1.113666292185681 0 0 0 0 0.7503556914981807 0.2865105916475674 0 0 0 0 0.07382334938402593 0 0.1574408683944546 0.5487769431827081 0 0 0 0 0 0 0 0 0 0 0 0 0 0 0 0 0 0 1:0.30963993 2:0.62892437 3:0.29098406 4:0.48203474 5:0.64992124 6:0.67611098 7:6.1384621e-16 8:0.32162067 9:0.53338277 10:0.4954406 11:0.47886083 12:0.36800542 13:0.37479866 14:0.48907119 15:0.43935969 16:0.66096336 17:0.5486986 18:0.54694641 19:0.84384 20:0.73497552 21:0.769238 22:0.51544523 23:0.41828266 24:0.36731145 25:0.38050789 26:0.21446836 27:0.73870844 28:0.8499878 29:0.71195078 30:0.24864081 31:0.62012064 32:0.34376892 33:0.27054608 34:0.51503152 35:0.35937646 36:0.15599985 37:0.63054717 38:0.54230356 39:0.18722643 40:0.4581216 41:0.49773201 42:0.59504426 43:0.64515185 44:0.63682753 45:0.64061046 46:0.52084601 47:0.53713971 48:0.4873243 49:0.54811198 50:0.60249227 51:0.38290334 52:0.54404849 53:0.59871376 54:0.41888863 55:0.60554212 56:0.62436062 57:0.44933599 58:0.59346867 59:0.2955935 60:0.46197417 61:0.64542258 62:0.44052801 63:0.47936785 64:0.55202824 65:0.47579741 66:0.38006702 67:0.32822654 68:0.38705233 69:0.50831914 70:0.47986194 71:0.66671038 72:0.92753458 73:0.80560255 74:0.7423743 75:0.87698025 
0.1255524112396162 0.6522902432984188 0 0 0 0.08829901175142427 0 0 0 1.344510120370869 0 0 0 0 0.04964791717593995 0.5663312904187023 0 0 0 0.5148864968895345 0 0.4824433675343431 0 0 0 0 0 0.6730412369188861 0.5623208096340884 0 0 0 0 0 0 0 0 0 0 1:0.27578491 2:0.66164792 3:0.46110338 4:0.8308447 5:0.61328346 6:0.5959717 7:0.1890237 8:0.62351984 9:0.60451531 10:0.33825761 11:0.27708504 12:0.6027292 13:0.73194546 14:0.70750517 15:0.45558572 16:0.42083973 17:0.42915112 18:0.44276059 19:0.70831901 20:0.72590071 21:0.47179186 22:0.4615002 23:0.67577159 24:0.50653523 25:0.40194717 26:0.32733825 27:0.34251744 28:0.56666464 29:0.65972352 30:0.30433616 31:0.63789433 32:0.13013977 33:0.14831929 34:0.66761619 35:0.44606602 36:0.40813446 37:0.62582743 38:0.51313514 39:0.18578888 40:0.36347276 41:0.43355754 42:0.57015514 43:0.64034694 44:0.49338394 45:0.62211919 46:0.52030075 47:0.52473056 48:0.59753549 49:0.56647784 50:0.48371661 51:0.30719578 52:0.73477012 53:0.54997498 54:0.49992195 55:0.75653541 56:0.60333329 57:0.64453405 58:0.50804508 59:0.33872345 60:0.57163447 61:0.63734907 62:0.53675073 63:0.33949444 64:0.48694754 65:0.4716357 66:0.50011057 67:0.27882761 68:0.33988422 69:0.49598399 70:0.58354306 71:0.70175964 72:0.89335769 73:0.77199739 74:0.70401424 75:0.91882217 
0 2.349223674575339 0 0.1866707657567482 0 0.6077196029349043 0 0 1.421426960973228 0 0.2875149753132304 1.442464871180493 0 0.5395851458303788 0 0.652095638601083 0 0.4158781447111339 0 0 0.05385904031353727 2.187832967520688 0.2469410014170204 0 0 0 0 0.7485385144025172 0 2.116556000280491 0.7825878368095729 0 1.560831579639646 0 1.230878461027115 0 0 0.8463945328962322 1.337436430674467 1:0.15507181 2:0.43468508 3:0.46702433 4:0.57341415 5:0.62697715 6:0.37933016 7:0.49684161 8:0.81482321 9:0.044144917 10:0.27174157 11:0.60774505 12:0.46764123 13:0.38592198 14:0.37569404 15:0.55140442 16:0.51307279 17:0.67069846 18:0.162384 19:0.60781264 20:0.44349486 21:0.65293282 22:0.53614962 23:0.48290312 24:0.49443793 25:0.36758208 26:0.24432226 27:0.43326721 28:0.35483605 29:0.5930081 30:0.6162464 31:0.53073096 32:0.60163283 33:0.56752229 34:0.39302588 35:0.43561444 36:0.46406978 37:0.43469226 38:0.5382784 39:0.10963628 40:0.68236285 41:0.46860975 42:0.53774351 43:0.32104728 44:0.34463814 45:0.34489959 46:0.27069378 47:0.54523993 48:0.46636042 49:0.77872652 50:0.52800035 51:0.3417435 52:0.50314575 53:0.73268336 54:0.64693838 55:0.57711536 56:0.49900082 57:0.28655219 58:0.52237225 59:0.45921317 60:0.43908951 61:0.22365266 62:0.26349312 63:0.37038597 64:0.42583439 65:0.58920014 66:0.57079804 67:0.54186833 68:0.51221067 69:0.72966689 70:0.60383332 71:0.65693486 72:0.91562814 73:0.71284419 74:0.64239043 75:0.74756044 
0 0 0 0.3749955330592681 0.4029274535659309 0.1735065872763283 0 0.5968536197643279 0.06368903436330581 0 0.5302560993838956 0 0 0.4666887409227614 0 0 0 0 0.07408477676001421 0 0 0.3266818843966845 0 0 0 0 0.01253596952035064 0 0.8972050702390345 0.5183459933035106 0.9466680410675471 0 0.1996081577790315 0 0 0.5125696960241815 0 0 0 1:0.55942965 2:0.43550083 3:0.35123557 4:0.41659966 5:0.91179323 6:0.28278694 7:0.56844777 8:0.4429352 9:0.38884568 10:0.27871466 11:0.57211518 12:0.34290379 13:0.49884272 14:0.4526566 15:0.6175729 16:0.34789869 17:0.59220761 18:0.46630582 19:0.75112492 20:0.53950804 21:0.60633111 22:0.65226775 23:0.54093969 24:0.55666751 25:0.41712424 26:0.20171402 27:0.40191472 28:0.4510957 29:0.55188298 30:0.48994946 31:0.47585016 32:0.59287906 33:0.23142268 34:0.60885203 35:0.45528698 36:0.5555166 37:0.27194303 38:0.48514324 39:0.37081426 40:0.5841307 41:0.40937698 42:0.55076754 43:0.5540759 44:0.27314192 45:0.55434906 46:0.42508206 47:0.4479939 48:0.51647687 49:0.59892035 50:0.55892593 51:0.32552248 52:0.7496956 53:0.50156504 54:0.50328797 55:0.55230832 56:0.37989411 57:0.59313428 58:0.51072627 59:0.44684133 60:0.49781337 61:0.51930267 62:0.408104 63:0.45454237 64:0.48586294 65:0.48705754 66:0.52249175 67:0.38515338 68:0.44475937 69:0.63347393 70:0.58451372 71:0.64898479 72:0.91229868 73:0.72617275 74:0.74346286 75:0.8144263 
0 0 0 0 0 0 0.252426367059558 0 0 0 0 0 0.758746757906852 0 0 0 0 0 0 0.2048115764033601 0.6845327481384899 0 0 0.95788586915853 0 0.01663233947171154 0 0.2935155230075743 0 0 0 0 0 0 0 0 0 0 0 1:0.47833088 2:0.30167478 3:0.5528124 4:0.5240528 5:0.23488888 6:0.36767998 7:0.34693626 8:0.52864468 9:0.52059001 10:0.49555114 11:0.25567973 12:0.50329888 13:0.37475654 14:0.48357242 15:0.35217005 16:0.62388349 17:0.69242507 18:0.55616933 19:0.35785043 20:0.22814114 21:0.54933172 22:0.58477771 23:0.44136754 24:0.48110917 25:0.38685378 26:0.46869454 27:0.79418385 28:0.51657099 29:0.61839938 30:0.35527059 31:0.78716487 32:0.42565569 33:0.50200933 34:0.44645643 35:0.35628873 36:0.2708137 37:0.34646872 38:0.50551277 39:0.38598588 40:0.49979314 41:0.47345382 42:0.59406525 43:0.4167757 44:0.46408474 45:0.58239079 46:0.48449808 47:0.54272723 48:0.4801386 49:0.42541388 50:0.51992959 51:0.36447799 52:0.53128707 53:0.64767909 54:0.69109458 55:0.59782571 56:0.47510642 57:0.44009718 58:0.42705184 59:0.49667844 60:0.33206359 61:0.40495333 62:0.23844741 63:0.37354726 64:0.42140669 65:0.65967798 66:0.58132041 67:0.62114763 68:0.34470186 69:0.73618585 70:0.50953192 71:0.74220574 72:0.85633433 73:0.73494536 74:0.71339107 75:0.81635779 
0 0 1.181745790243556 0 0 0 0 0 0 0 0 0 0 0 0 0 0 0 0 0 0 0 0 0 0.04311345518966596 0.02537678605889882 0 0 0 0 0 0 0 0 0 0 0 0 0 1:0.39323157 2:0.370058 3:0.63913071 4:0.31901324 5:0.62719786 6:0.35904917 7:0.39768252 8:0.71320105 9:0.66351563 10:0.37405181 11:0.35925445 12:0.46820098 13:0.4636496 14:0.30141339 15:0.20946981 16:0.38406602 17:0.61167538 18:0.50833768 19:0.53985316 20:0.56789064 21:0.49217358 22:0.70623821 23:0.50894582 24:0.45480928 25:0.19231045 26:0.45715281 27:0.66485393 28:0.64011139 29:0.74534488 30:0.63864636 31:0.76511019 32:0.48328412 33:0.49068573 34:0.70519066 35:0.37068421 36:0.42037934 37:0.30010709 38:0.42464882 39:0.49121678 40:0.55746055 41:0.4680832 42:0.62672538 43:0.62024057 44:0.50267726 45:0.6081962 46:0.43850365 47:0.37929553 48:0.50354213 49:0.58994734 50:0.40863845 51:0.27325162 52:0.585154 53:0.61941046 54:0.4784781 55:0.52333337 56:0.45877448 57:0.5698837 58:0.5948506 59:0.44374746 60:0.4352605 61:0.5111171 62:0.48978227 63:0.44331634 64:0.50224185 65:0.58499277 66:0.57507133 67:0.4652541 68:0.45149687 69:0.6778968 70:0.4795599 71:0.71835542 72:0.88649637 73:0.85624093 74:0.6196807 75:0.87405783 
0 0 0 0 0 0 0 0 0 0 0 0.2825281804727958 0 0 0 0 0 0 0 0 0 0 0 0 0 0 0 0 0 0 0 0 0 0 0 0 0 0 0.3099015492608788 1:0.54372776 2:0.48412186 3:0.88938159 4:0.54845226 5:0.34235024 6:0.55443871 7:0.60433489 8:0.84738433 9:0.53195107 10:0.46521729 11:0.29750586 12:0.51247978 13:0.64808977 14:0.3468821 15:0.42012343 16:0.52603233 17:0.53480315 18:0.6405105 19:0.48762566 20:0.73027056 21:0.57236236 22:0.40226129 23:0.35804561 24:0.40309706 25:0.40746465 26:0.40340638 27:0.14438322 28:0.54303688 29:0.4930205 30:0.50400692 31:0.49489471 32:0.53229117 33:0.47100699 34:0.65011805 35:0.43941978 36:0.75016612 37:0.60299557 38:0.67786843 39:0.27147508 40:0.51034135 41:0.32509527 42:0.37661821 43:0.445447 44:0.48326007 45:0.37025514 46:0.32887498 47:0.70192391 48:0.59920442 49:0.62424856 50:0.49010652 51:0.38632703 52:0.55340809 53:0.61903268 54:0.59608716 55:0.47956011 56:0.64173037 57:0.46604216 58:0.63367295 59:0.33108625 60:0.39650965 61:0.58205491 62:0.44376779 63:0.39050019 64:0.50425154 65:0.5264737 66:0.54638004 67:0.40392205 68:0.35741371 69:0.47973236 70:0.43840212 71:0.72560835 72:0.87415266 73:0.89691985 74:0.71830648 75:0.84889364 
0 0 0 0 0 0 0 0 0 0 0 0 0 0 0 0 0.9619076326018006 0 0 0 0 0 0 0 0 0 0.1294260514026307 0 0 0 0 0 0 0 0 0 0 0 0 1:0.29457566 2:0.23951247 3:0.56460637 4:0.53209978 5:0.54372543 6:0.35774556 7:0.6019932 8:0.50976866 9:0.80422986 10:0.31338453 11:0.48052612 12:0.50791621 13:0.650379 14:0.46107411 15:0.5496971 16:0.54029202 17:0.4345004 18:0.4239887 19:0.22434342 20:0.6596241 21:0.64265442 22:0.44633645 23:0.58066577 24:0.73038268 25:0.50616312 26:0.42929667 27:0.35904998 28:0.48533192 29:0.4523617 30:0.63216931 31:0.70237982 32:0.38111368 33:0.4783808 34:0.53221583 35:0.24255343 36:0.52091718 37:0.33716074 38:0.51492947 39:0.65929532 40:0.4144716 41:0.43235612 42:0.32764632 43:0.57459116 44:0.47482991 45:0.40729257 46:0.43395275 47:0.59387219 48:0.4760915 49:0.52314645 50:0.54896617 51:0.36675206 52:0.48434761 53:0.49892929 54:0.49088988 55:0.59899437 56:0.53445894 57:0.65610647 58:0.54339361 59:0.38147083 60:0.39317089 61:0.56611252 62:0.41229746 63:0.41590077 64:0.43638542 65:0.5721122 66:0.53678757 67:0.41809237 68:0.33922067 69:0.56187648 70:0.45104447 71:0.72110337 72:0.89308649 73:0.8749789 74:0.77364063 75:0.9153198 
0 0 0 0 0 1.67602351282098 0 0.3614348017226413 1.475328235516131 0.05469559265656351 0 0 0 1.104548117652054 0 0 0 2.338944835518184 0 0 1.009611068893957 0 0.003012799051647301 0 0.2884743697101417 0 0.280962761272227 0 0 0 0.6470659095589 0.1218092334222496 0 0 0 0 0 0 0 1:0.39324817 2:0.51457185 3:0.52296728 4:0.60560495 5:0.55561858 6:0.26006746 7:0.64197987 8:0.49432814 9:0.45746952 10:0.58682919 11:0.48460078 12:0.73469073 13:0.85851985 14:0.32837388 15:0.44362766 16:0.58072138 17:0.52210361 18:0.50933582 19:0.62300879 20:0.53355771 21:0.1813222 22:0.47338596 23:0.85607785 24:0.62056619 25:0.32297972 26:0.45974538 27:0.42819411 28:0.51121348 29:0.8819263 30:0.5667327 31:0.82535768 32:0.35951063 33:0.53390998 34:0.67278743 35:0.20977703 36:0.70069623 37:0.62059146 38:0.59628469 39:0.49546131 40:0.55348915 41:0.59721655 42:0.44914344 43:0.6275968 44:0.63167 45:0.31382585 46:0.51129824 47:0.4463537 48:0.63223135 49:0.40800053 50:0.47738478 51:0.39267617 52:0.407065 53:0.38895598 54:0.58888656 55:0.61073107 56:0.53426456 57:0.52306908 58:0.47921205 59:0.52225107 60:0.45189878 61:0.53198916 62:0.49955511 63:0.3905822 64:0.51580322 65:0.40376952 66:0.51892078 67:0.44706053 68:0.24764417 69:0.45686951 70:0.42727706 71:0.77287227 72:0.84517092 73:0.91734415 74:0.73580039 75:0.93033707 
0 0 0.3373753768604216 0 0 0 0 0 0 0 0 0.1589622363184072 0 0 0 0 0.1106768459355326 0 0.1523717918534107 0.5987342718985411 0 0 0 0 0 0 0.3699727479716259 0 0 0 0 0 0 0.6023036580951086 0 0.07829612439909733 0 0.2919043004666239 0 1:0.37046459 2:0.70714545 3:0.46181244 4:0.55784786 5:0.57760102 6:0.41239631 7:0.64252841 8:0.52947599 9:0.42938986 10:0.86930233 11:0.40683043 12:0.75095385 13:0.88067704 14:0.45322967 15:0.31080019 16:0.4325127 17:0.6413005 18:0.55031234 19:0.51840216 20:0.46179929 21:0.18301448 22:0.57350051 23:0.73679996 24:0.35621935 25:0.28255674 26:0.4851163 27:0.48916191 28:0.46922398 29:0.89865905 30:0.53630209 31:0.72483832 32:0.34943536 33:0.61197263 34:0.69943815 35:0.39236096 36:0.74562716 37:0.58761495 38:0.6470331 39:0.541623 40:0.58417052 41:0.47182333 42:0.43505692 43:0.54359734 44:0.58455181 45:0.217925 46:0.5407449 47:0.39403865 48:0.56399947 49:0.53162783 50:0.3856785 51:0.4417541 52:0.41648912 53:0.31150371 54:0.51939434 55:0.58501685 56:0.58118492 57:0.47412923 58:0.46369344 59:0.43246716 60:0.39803791 61:0.54030728 62:0.44760546 63:0.41295043 64:0.48399171 65:0.47520244 66:0.49871597 67:0.474134 68:0.33051199 69:0.41541389 70:0.37960526 71:0.77332002 72:0.83388919 73:0.83872348 74:0.71389234 75:1 
0.0303205923161631 0 0 0 0 0.6239437591012489 0 1.621138843744518 0 0 2.121323284417347 0 0 1.089592610652417 0 0 0 0.1878307047843218 0 0.7229080243614712 0.1750977878422596 0.2027847409456557 0.361459021369904 0.0469469677269832 0 0 0.7546982861957283 0 0 1.534958056577453 0.9596840967995807 0 0.3980797907293582 0.3988300648252167 0 0 0.03034193545481138 0 0.854910064609127 1:0.22399673 2:0.53624409 3:0.37598673 4:0.72516882 5:0.57092905 6:0.77049077 7:0.39867148 8:0.82671165 9:0.46345598 10:0.48686191 11:0.36192083 12:0.63587886 13:0.45913041 14:0.38209614 15:0.24760778 16:0.48345959 17:0.58250916 18:0.53907895 19:0.47047293 20:0.68855381 21:0.68741173 22:0.61881435 23:0.41177025 24:0.38926968 25:0.4694505 26:0.63202101 27:0.23272304 28:0.61272347 29:0.72356886 30:0.48442081 31:0.63490176 32:0.3434864 33:0.57239884 34:0.58885878 35:0.29493135 36:0.50686699 37:0.29454044 38:0.69854277 39:0.51828867 40:0.58226424 41:0.47110158 42:0.56821138 43:0.48247322 44:0.62743229 45:0.52156544 46:0.15407763 47:0.59764028 48:0.45869568 49:0.39782608 50:0.3326914 51:0.4205831 52:0.43256858 53:0.48155415 54:0.47424632 55:0.46641055 56:0.59086579 57:0.34969342 58:0.60065466 59:0.34903166 60:0.39485443 61:0.67133445 62:0.41179574 63:0.55651122 64:0.49904081 65:0.44258478 66:0.60361707 67:0.40788391 68:0.51585567 69:0.57646281 70:0.43173718 71:0.73962039 72:0.87026399 73:0.73817605 74:0.64977115 75:0.8299852 
0 0 0 0 0 0 0 0 0 0 0 0.01491107746374618 0 0 0 0 0 0 0 0 0 0 0 0.5295778006634825 0 0 0 0 0 0 0 0 0 0 0.4699302494971188 0 0 0 0.3943057083427358 1:0.26277921 2:0.22781722 3:0.53973109 4:0.73560667 5:0.29929319 6:0.38360521 7:0.48093048 8:0.42261651 9:0.57875484 10:0.32472119 11:0.27541152 12:0.68027949 13:0.5952667 14:0.61773044 15:0.27435091 16:0.57452685 17:0.8083052 18:0.59920371 19:0.50904 20:0.65601784 21:0.33716726 22:0.37248954 23:0.6092937 24:0.58195853 25:0.50934786 26:0.51103675 27:0.70318639 28:0.466198 29:0.65701669 30:0.54610628 31:0.56248158 32:0.30472231 33:0.62510973 34:0.42394963 35:0.19051094 36:0.46648741 37:0.47128266 38:0.52083027 39:0.5323602 40:0.3713029 41:0.4275859 42:0.54426503 43:0.60025448 44:0.5119766 45:0.4150942 46:0.44120777 47:0.32444182 48:0.49259764 49:0.4319202 50:0.36605555 51:0.44693545 52:0.44985968 53:0.51145816 54:0.5348767 55:0.5375638 56:0.49872744 57:0.57850385 58:0.56614333 59:0.35710308 60:0.4717325 61:0.57053918 62:0.41450417 63:0.47984937 64:0.47843304 65:0.55815852 66:0.58419007 67:0.49840477 68:0.45313382 69:0.69883311 70:0.56425333 71:0.67408264 72:0.95341372 73:0.87484467 74:0.65658861 75:0.85216582 
0 0 0 0.3584023990049772 0 0 0.4957016822333623 0.07623645320825402 1.847447735604642 0.3448456082288278 0 0 0 0 0 0 0 0 0 0 0 0 1.035295656746017 0 0 0 0.6462841303563186 0 0 0 0 0 0 0 0 0 0 0.7152268720610224 0 1:0.3667711 2:0.39794329 3:0.4233796 4:0.49849406 5:0.70817131 6:0.61991143 7:0.4158366 8:0.44753402 9:0.55820048 10:0.5386017 11:0.37669578 12:0.47297496 13:0.29822582 14:0.54350185 15:0.42305979 16:0.49052936 17:0.68151033 18:0.53049797 19:0.44725251 20:0.78637415 21:0.3649967 22:0.69749862 23:0.57078308 24:0.65778875 25:0.38210291 26:0.46067658 27:0.40787527 28:0.67523104 29:0.40053016 30:0.35544953 31:0.51010221 32:0.57199728 33:0.66108376 34:0.41683105 35:0.31333935 36:0.75346369 37:0.44949588 38:0.40514508 39:0.37918282 40:0.29192892 41:0.59990847 42:0.51031208 43:0.37840137 44:0.63817173 45:0.58072591 46:0.28629443 47:0.51517314 48:0.44675675 49:0.5822832 50:0.45333683 51:0.36458173 52:0.49994847 53:0.73655772 54:0.60681176 55:0.49438649 56:0.59614664 57:0.21716942 58:0.50896341 59:0.48185217 60:0.30432948 61:0.43440875 62:0.31858474 63:0.17027892 64:0.4313001 65:0.61262137 66:0.51901847 67:0.54407227 68:0.54483932 69:0.71090645 70:0.56490529 71:0.73676217 72:0.84619707 73:0.7751857 74:0.74468613 75:0.81249624 
0 0 0 0 1.328679349335648 0 0 0.6746062185302737 0 0.3328193144526866 1.016006853872513 0 0 0 1.435378561921596 0 0.5054772501192948 0 0.2475944405441459 1.710391653636204 0 0 0 0.7730129938411614 0 0 0 0 0 0 0 0 1.058770634974628 0 0 0 0 0 0 1:0.24184708 2:0.36284304 3:0.81569105 4:0.73251969 5:0.623716 6:0.2777583 7:0.50801063 8:0.44124472 9:0.53776789 10:0.15363581 11:0.2217695 12:0.56578666 13:0.52717072 14:0.32552597 15:0.4824639 16:0.39641562 17:0.84400988 18:0.53124404 19:0.32096788 20:0.6194073 21:0.43217319 22:0.53749806 23:0.5445199 24:0.60059506 25:0.542458 26:0.7198084 27:0.5384267 28:0.30226123 29:0.59517723 30:0.65301067 31:0.41974086 32:0.56177944 33:0.59377879 34:0.53468215 35:0.58148259 36:0.66458869 37:0.2966235 38:0.47073331 39:0.58101577 40:0.36574674 41:0.73581123 42:0.41437915 43:0.46706256 44:0.48935229 45:0.60783577 46:0.41375166 47:0.56142944 48:0.39947417 49:0.57055247 50:0.5094322 51:0.52163231 52:0.45626187 53:0.49051014 54:0.53926075 55:0.51550168 56:0.54945999 57:0.48628244 58:0.58354741 59:0.27020091 60:0.47878256 61:0.54346853 62:0.46285254 63:0.45499384 64:0.47486195 65:0.5203287 66:0.52616793 67:0.42682162 68:0.44520795 69:0.64363271 70:0.52834272 71:0.78448766 72:0.92937368 73:0.8522585 74:0.69165802 75:0.82105333 
0 0 0 0 0 0 0 0 0 0 0 0 0 0 0 0 0 0 0 0 0 0 0 0 0 0 0 0 0 0.1131860303950064 0 0 0 0 0 0 0 0 0 1:0.48711526 2:0.71344936 3:0.48396876 4:0.49059242 5:0.48741093 6:0.53300989 7:0.50491333 8:0.74049288 9:0.3440586 10:0.31280065 11:0.28652605 12:0.48264974 13:0.43004176 14:0.4215875 15:0.32080969 16:0.42211509 17:0.53443009 18:0.33111846 19:0.62515396 20:0.69057626 21:0.79694122 22:0.63301802 23:0.43742007 24:0.40083748 25:0.30048981 26:0.53039759 27:0.38345426 28:0.57318467 29:0.51875955 30:0.61795735 31:0.46786717 32:0.44694662 33:0.67948729 34:0.41092166 35:0.10128811 36:0.70228875 37:0.6000039 38:0.36824101 39:0.55392098 40:0.5268504 41:0.49519148 42:0.48752236 43:0.49347204 44:0.54235506 45:0.42726597 46:0.23637551 47:0.4557029 48:0.51408315 49:0.71425211 50:0.5964936 51:0.37631437 52:0.57410038 53:0.60596538 54:0.29392055 55:0.4927353 56:0.54738706 57:0.51364833 58:0.51092154 59:0.27937886 60:0.52655196 61:0.4448069 62:0.60027397 63:0.3035754 64:0.3920708 65:0.35758087 66:0.55397683 67:0.45858577 68:0.36327443 69:0.60267049 70:0.50852013 71:0.77424002 72:0.90504509 73:0.87789285 74:0.63329822 75:0.81930482 
1.627226249488494 0 0.3832151645805821 0 0 0 0 0 0 0 0 0 0 0 0.5343125829271105 0.9623834409391475 0 0.1293984747464684 0 0 0 0 0 0 0.4322941458679425 0 0 0 0 0 0 0 0 0 0 0 0 0 0 1:0.31962803 2:0.49626297 3:0.43162656 4:0.54409921 5:0.66807014 6:0.68756372 7:0.6138081 8:0.43343309 9:0.49068999 10:0.36966577 11:0.47272047 12:0.39431402 13:0.33315632 14:0.6355713 15:0.42961988 16:0.46569291 17:0.55061013 18:0.38407171 19:0.49976683 20:0.5579167 21:0.79209864 22:0.61745358 23:0.44410583 24:0.52561224 25:0.5046556 26:0.43754894 27:0.58693725 28:0.50610185 29:0.72594094 30:0.37746122 31:0.43635142 32:0.17580406 33:0.62672085 34:0.48663619 35:0.49557078 36:0.69066948 37:0.57416332 38:0.56909704 39:0.47476938 40:0.54426098 41:0.36234629 42:0.56312853 43:0.57544893 44:0.63616568 45:0.32142824 46:0.16141063 47:0.28514063 48:0.48768973 49:0.52166653 50:0.528979 51:0.3709746 52:0.483275 53:0.42120102 54:0.42345378 55:0.54841232 56:0.65437007 57:0.43696639 58:0.62077308 59:0.37210888 60:0.42836082 61:0.5294956 62:0.33896518 63:0.52786398 64:0.45828831 65:0.39089847 66:0.55762178 67:0.35719553 68:0.42898431 69:0.55254358 70:0.49257776 71:0.72773963 72:0.86924547 73:0.83650422 74:0.72130871 75:0.85319149 
0 0 0 0 0 0 0.3665644043529657 0 0.8289840104856828 0 0.2739256602299512 0.7502076037400326 1.505501107869809 1.258586795678641 0 0.1058945114843313 0 1.195918187784665 0.008455893756430938 0.2168328874664638 0.4164153468061163 0 1.064273677117583 0 0 0.6084718607280735 0 0 0 0 0 0 0.4832494394440221 0.107302293670366 0 0 0 0 0.4058887713927875 1:0.41675067 2:0.3984133 3:0.58143675 4:0.65429395 5:0.65134394 6:0.86897784 7:0.28564951 8:0.54148382 9:0.48554221 10:0.41053081 11:0.53181303 12:0.62705505 13:0.3764739 14:0.39168584 15:0.5059166 16:0.3706122 17:0.3242816 18:0.36359799 19:0.41350341 20:0.52503628 21:0.5840528 22:0.59033293 23:0.30002797 24:0.60299122 25:0.43856996 26:0.27382708 27:0.47752362 28:0.6941874 29:0.53673458 30:0.64331383 31:0.15613995 32:0.48636726 33:0.61600369 34:0.39103392 35:0.59136629 36:0.20119441 37:0.39449105 38:0.34403116 39:0.70631593 40:0.66629553 41:0.41567713 42:0.56715065 43:0.66213304 44:0.46335578 45:0.72677559 46:0.23947048 47:0.35668141 48:0.31908703 49:0.51514316 50:0.56033885 51:0.35786036 52:0.66027409 53:0.73001397 54:0.48885307 55:0.51759529 56:0.59946585 57:0.40718994 58:0.62322104 59:0.28104976 60:0.56942564 61:0.55768752 62:0.46229896 63:0.47496432 64:0.44115251 65:0.49781734 66:0.47678965 67:0.35925379 68:0.59737182 69:0.72712457 70:0.49119666 71:0.67974526 72:0.90809041 73:0.83941501 74:0.65430236 75:0.76997799 
1.563221985824055 0 0 0.8111821507809616 0 0 0 1.010535270648262 0 0 0 0 0.1365303070023104 0 0 0 0 0.2780366165823857 0 0.2770109543674957 0 0 0 0 0.0471639647907735 0 0 0 0 0 0 0 0.4229221380981894 0 0 0 0 1.300940709033801 0 1:0.58600932 2:0.5464372 3:0.75736821 4:0.5445506 5:0.37216231 6:0.5357008 7:0.42467174 8:0.67832017 9:0.4064368 10:0.30772981 11:0.42853954 12:0.61840194 13:0.26834261 14:0.26830804 15:0.52408433 16:0.4384723 17:0.52333707 18:0.67313415 19:0.52211249 20:0.58832604 21:0.57480973 22:0.61976105 23:0.39051726 24:0.55786437 25:0.36068818 26:0.41820347 27:0.47674641 28:0.52347183 29:0.5808934 30:0.62100089 31:0.63350093 32:0.2872957 33:0.64700592 34:0.35220441 35:0.32697558 36:0.58816409 37:0.41599008 38:0.43101776 39:0.65487468 40:0.59112567 41:0.46260619 42:0.50973147 43:0.79936737 44:0.42106211 45:0.60865217 46:0.31189281 47:0.36784387 48:0.3088842 49:0.46273708 50:0.57591975 51:0.3192969 52:0.61652851 53:0.56491613 54:0.40214106 55:0.48442292 56:0.52018356 57:0.46111584 58:0.60669559 59:0.27952394 60:0.36716667 61:0.54580611 62:0.5091964 63:0.53370655 64:0.46274656 65:0.46844682 66:0.56633532 67:0.3353036 68:0.50220078 69:0.74519271 70:0.61597919 71:0.72113359 72:0.86658198 73:0.81382382 74:0.64068669 75:0.82742614 
0.007160711902773503 0.7933088230466204 0 0.7934242032616025 1.436889958219767 0 1.156788156237757 0.6089879220053936 0 1.965476511675703 0.3078688003284019 0 0.57295459771253 0.3025336329660733 0.1247797974839923 0 0.635804853466189 0.8930679858009087 1.110338570819418 0 0 0.6358675093310528 0 0 0.845180887531129 0.2442438106653021 0 0 0 0 0 1.478189767486041 1.502304577283266 0 0 0 0.7058531535062592 0.8386048694212735 0.06156926216785866 1:0.46267194 2:0.42753857 3:0.4746559 4:0.20493004 5:0.44352138 6:0.777174 7:0.49397597 8:0.34748542 9:0.68488246 10:0.382983 11:0.32327783 12:0.43106201 13:0.46806872 14:0.44401404 15:0.33433762 16:0.52180237 17:0.69371784 18:0.30684817 19:0.7019825 20:0.46283317 21:0.43694118 22:0.75683743 23:0.38041186 24:0.24119681 25:0.3489348 26:0.6646654 27:0.7031104 28:0.70450324 29:0.51728791 30:0.54266256 31:0.41218558 32:0.38573468 33:0.50013638 34:0.38278815 35:0.30274338 36:0.46067247 37:0.66068619 38:0.55773586 39:0.61253434 40:0.48800096 41:0.40761286 42:0.60011005 43:0.45467684 44:0.76391786 45:0.46749178 46:0.31640944 47:0.44355613 48:0.55288142 49:0.59956121 50:0.31499621 51:0.43470767 52:0.59322602 53:0.53993183 54:0.48264158 55:0.53220165 56:0.56211412 57:0.42471519 58:0.66147947 59:0.46321785 60:0.34669685 61:0.56629157 62:0.51714092 63:0.4517687 64:0.43373972 65:0.42743719 66:0.49752724 67:0.38554308 68:0.54237437 69:0.67016375 70:0.55970228 71:0.72740346 72:0.90954012 73:0.71351957 74:0.67693001 75:0.81275105 
0 0 1.751522546304104 0 0 0.2157811754067497 0.5853301043152416 0.101523392889632 1.934518676369115 0.0738330278902827 0.4422464405846772 0 0.09997656423573321 0 0.5156950255406445 0.7578286037729026 0 0 0 0 0 0.3864816948344521 1.2112672492137 0.2932797145396273 0 0 0.3299883958957742 0 0 0 0.9994334778874505 0.0001575460289275674 0.7235552292358971 0.7643863337355818 0.9375079916625539 1.591035149921927 0.7318565710601485 0 1.049270440407201 1:0.628218 2:0.5126701 3:0.38065284 4:0.41791645 5:0.38141453 6:0.64228421 7:0.44305032 8:0.27713871 9:0.65285021 10:0.39615047 11:0.31047097 12:0.57401085 13:0.5034439 14:0.42092657 15:0.31267324 16:0.4965896 17:0.43844354 18:0.3402496 19:0.90730965 20:0.44545731 21:0.48439324 22:0.50085264 23:0.48560712 24:0.42108947 25:0.31726548 26:0.7319383 27:0.85178685 28:0.56187326 29:0.60220838 30:0.619564 31:0.4308649 32:0.18700166 33:0.39591444 34:0.36109886 35:0.36978772 36:0.4409692 37:0.42833042 38:0.37538749 39:0.70358187 40:0.38234746 41:0.43336347 42:0.6722005 43:0.62900573 44:0.57464725 45:0.48138553 46:0.51082981 47:0.37575552 48:0.40188745 49:0.56808418 50:0.46030831 51:0.39178893 52:0.63474602 53:0.48383597 54:0.42772761 55:0.57475299 56:0.51742977 57:0.51086766 58:0.59236068 59:0.41832078 60:0.47020492 61:0.41872248 62:0.37413314 63:0.39289916 64:0.50472069 65:0.55301344 66:0.50440609 67:0.3617453 68:0.54576427 69:0.74340427 70:0.59061933 71:0.67842764 72:0.88230544 73:0.7361508 74:0.74123162 75:0.81210369 
0 0 0 0 0 0 0 0 0 0 0 0 0 0 0 0 0 0 0 0 0 0 0 0 0 0.67146347543262 0 0 0 0 0 0 0 0 0 0 0 0 0 1:0.39129749 2:0.21265535 3:0.50265229 4:0.62968045 5:0.60746968 6:0.54020399 7:0.46272799 8:0.65400708 9:0.36573184 10:0.48114911 11:0.83539677 12:0.40967473 13:0.53658092 14:0.48046517 15:0.3062962 16:0.28186998 17:0.50374162 18:0.21426338 19:0.46570733 20:0.5920096 21:0.41511834 22:0.59518677 23:0.54207909 24:0.63350362 25:0.42576727 26:0.45760933 27:0.44253197 28:0.48425728 29:0.48025882 30:0.70285428 31:0.67325878 32:0.79811686 33:0.60665441 34:0.55268836 35:0.65424562 36:0.48310128 37:0.5159713 38:0.53621614 39:0.40352172 40:0.36202562 41:0.62300318 42:0.3495138 43:0.33329269 44:0.4170157 45:0.43978041 46:0.34143925 47:0.59798884 48:0.51590431 49:0.61162859 50:0.41212329 51:0.39452723 52:0.44978136 53:0.60830861 54:0.6693899 55:0.58182561 56:0.57530808 57:0.28953865 58:0.49581939 59:0.48989418 60:0.47738618 61:0.30677685 62:0.25664008 63:0.17876966 64:0.35476962 65:0.63967812 66:0.53808242 67:0.55444086 68:0.40106905 69:0.61370945 70:0.46210834 71:0.77738231 72:0.92836761 73:0.73704308 74:0.73732591 75:0.82388622 
0.07685722592058095 0 0 0 0 0 0 0 0 0 0 0 0 0 0 0 0 1.294634462864827 0 0.5622647360432835 0 0 0 0 0 0 0 0 0 0 0 0 0 0 0.03341559379943456 0 0.1733605334745479 0 0 1:0.28514084 2:0.46505776 3:0.47819501 4:0.62140995 5:0.66485244 6:0.34661111 7:0.37602133 8:0.47524884 9:0.50772804 10:0.65918839 11:0.57781357 12:0.069440365 13:0.46233323 14:0.47540161 15:0.4696312 16:0.27641296 17:0.54082805 18:0.37791589 19:0.31438598 20:0.53364593 21:0.60929793 22:0.57313466 23:0.49087316 24:0.60309619 25:0.30714217 26:0.30955371 27:0.44957206 28:0.53853959 29:0.5444786 30:0.75137573 31:0.77518666 32:0.56805336 33:0.5952394 34:0.50864989 35:0.71105641 36:0.4001449 37:0.61623037 38:0.52296424 39:0.48143616 40:0.62806761 41:0.78631312 42:0.37853518 43:0.39846629 44:0.47957259 45:0.55262649 46:0.27112707 47:0.54328072 48:0.5512473 49:0.58408606 50:0.44026834 51:0.39988065 52:0.40759924 53:0.55889559 54:0.53701901 55:0.45581526 56:0.48616344 57:0.49968395 58:0.50103205 59:0.34920308 60:0.47832301 61:0.55939275 62:0.50023776 63:0.44662133 64:0.49844229 65:0.43901917 66:0.53940499 67:0.46944416 68:0.33485234 69:0.55507207 70:0.41804653 71:0.75459659 72:0.91125709 73:0.8197943 74:0.69887209 75:0.90658808 
0 0 0 0 0 0 0 0 0 0 0.6542275883573299 1.050272437136167 0 0 0 0 0 0.6511392341942588 0 0 0.2569681762789456 0 0.4812695658002205 0 0 0 0 0 0 0 0 0 0 0 0 0 0 0 0.0828711270638514 1:0.28696287 2:0.53356415 3:0.54508191 4:0.51344478 5:0.37611377 6:0.4696376 7:0.51801991 8:0.43398598 9:0.45844653 10:0.41609523 11:0.54810387 12:0.43124533 13:0.60985827 14:0.44075021 15:0.52693015 16:0.57132238 17:0.71681541 18:0.41415128 19:0.47940439 20:0.22245918 21:0.22843595 22:0.51424348 23:0.58626086 24:0.57405531 25:0.67033738 26:0.46432617 27:0.79313934 28:0.42364967 29:0.59406984 30:0.65035737 31:0.52767307 32:0.38824633 33:0.63671935 34:0.39429569 35:0.53980911 36:0.63996863 37:0.65616095 38:0.46226531 39:0.50410736 40:0.44477147 41:0.62196106 42:0.57679534 43:0.75759107 44:0.47530267 45:0.28684679 46:0.34713373 47:0.47390604 48:0.44032341 49:0.42734328 50:0.5999096 51:0.39472085 52:0.43972242 53:0.56313747 54:0.44318894 55:0.51264709 56:0.49601373 57:0.5753904 58:0.55853146 59:0.35578305 60:0.44975033 61:0.46177578 62:0.44417241 63:0.56923592 64:0.4861255 65:0.5092361 66:0.53395844 67:0.45938316 68:0.42499971 69:0.57244939 70:0.45062396 71:0.77402747 72:0.93433809 73:0.80686879 74:0.73308575 75:0.91808224 
0 0 0 0.4283573901567529 0.08610179385618277 1.206135223050722 0 0 0 0 0 0 0 0 0 0 0 0 0 0.2587387406245064 0 0 0.08053117124829441 0.4202173459641592 0 0 0 0.3261734765351276 0 0 0.3601762713428546 0 0 0 0.5730771582972484 0 0 0.3050095482647538 0 1:0.52518809 2:0.75264966 3:0.63694495 4:0.72813278 5:0.39734498 6:0.44577733 7:0.50871044 8:0.38146198 9:0.45653078 10:0.60309905 11:0.4589408 12:0.43029061 13:0.47669029 14:0.46258521 15:0.328724 16:0.45016226 17:0.60348159 18:0.24103411 19:0.68586463 20:0.39508444 21:0.43460137 22:0.52073342 23:0.67713159 24:0.57321942 25:0.43395185 26:0.35292742 27:0.72576386 28:0.43458879 29:0.44825915 30:0.59241802 31:0.61754048 32:0.091844842 33:0.60771108 34:0.46566686 35:0.61296391 36:0.56792378 37:0.71932101 38:0.58719218 39:0.46577746 40:0.5377416 41:0.62823617 42:0.44440919 43:0.72083294 44:0.46343669 45:0.32223824 46:0.15940303 47:0.28635493 48:0.4721314 49:0.56096315 50:0.61326516 51:0.30623525 52:0.55212951 53:0.47319913 54:0.45406941 55:0.65213537 56:0.52075291 57:0.63267475 58:0.60039121 59:0.39817348 60:0.54834086 61:0.35844573 62:0.44859406 63:0.50846827 64:0.52450264 65:0.48115188 66:0.52699804 67:0.43759301 68:0.3877199 69:0.57259274 70:0.47873932 71:0.80726469 72:0.88525426 73:0.84039134 74:0.74824196 75:0.85896152 
0 0 0 0 0 0 0 0 0 0 0 0 0 0 0 0 0 0 0 0 0 0 0 0.2406049934719843 0 0 0 0 0 0 0 0 0 0 0 0 0 0 0 1:0.20792559 2:0.3584128 3:0.72887582 4:0.61520892 5:0.36477113 6:0.53454059 7:0.36639893 8:0.62039864 9:0.53104448 10:0.67788148 11:0.27693439 12:0.66373378 13:0.57155025 14:0.65960318 15:0.36656481 16:0.67636245 17:0.66788572 18:0.33967981 19:0.76664746 20:0.42844895 21:0.44207326 22:0.53665131 23:0.46447229 24:0.44328076 25:0.54386955 26:0.73252547 27:0.60292089 28:0.38465112 29:0.66355824 30:0.70493925 31:0.53466535 32:0.45321596 33:0.63075566 34:0.59481734 35:0.40257546 36:0.5316413 37:0.41660684 38:0.39819679 39:0.5266813 40:0.42585105 41:0.41909781 42:0.48354805 43:0.5316925 44:0.53430587 45:0.29003128 46:0.30515364 47:0.31571561 48:0.46757096 49:0.49232104 50:0.42646986 51:0.50903964 52:0.56468004 53:0.57615548 54:0.42753416 55:0.50366914 56:0.50551134 57:0.43723142 58:0.55357051 59:0.31418267 60:0.44962859 61:0.52306318 62:0.44320881 63:0.46214285 64:0.47787228 65:0.44973636 66:0.60369039 67:0.48918843 68:0.41755301 69:0.65357214 70:0.45859259 71:0.78598577 72:0.94355261 73:0.8048895 74:0.6184473 75:0.96869135 
0 0 0 0.04927932323128004 0 0.6865965946768049 0.09817294375204932 0 0 0 0 0 0 0 0 0 0.3762339344948968 0 0 0 0 0 0 0 0.8601892455085879 0 0 0.5517057760731857 0.8627335906082457 0 0 0 0 0.4959977286052978 0.5679644046648091 1.191875453777649 0.5590964507873633 0 0 1:0.45750967 2:0.27324128 3:0.44657817 4:0.34402138 5:0.34774595 6:0.68446457 7:0.55114925 8:0.40350521 9:0.57415164 10:0.45095474 11:0.38373893 12:0.57202822 13:0.64819998 14:0.68124384 15:0.45481959 16:0.52798152 17:0.72334087 18:0.44307292 19:0.67498302 20:0.48444262 21:0.47481295 22:0.66802609 23:0.43610504 24:0.38542771 25:0.37345645 26:0.5976786 27:0.73387367 28:0.3791782 29:0.79187393 30:0.62492585 31:0.48670825 32:0.39843544 33:0.49300301 34:0.54491234 35:0.60978991 36:0.47715575 37:0.23650399 38:0.44057614 39:0.51994765 40:0.52984327 41:0.38801572 42:0.47219193 43:0.57228494 44:0.61521786 45:0.32578447 46:0.45170504 47:0.31663391 48:0.48593944 49:0.32498521 50:0.34169665 51:0.42980725 52:0.62287021 53:0.33798513 54:0.32345268 55:0.58256161 56:0.51310158 57:0.57751149 58:0.65464085 59:0.26743239 60:0.41440317 61:0.48266268 62:0.3893925 63:0.6116007 64:0.48498967 65:0.42854816 66:0.65033579 67:0.45915571 68:0.37552789 69:0.57431781 70:0.530173 71:0.73685449 72:0.87263894 73:0.80348945 74:0.68428928 75:0.90266711 
0 1.058494607789169 0.5892761556422721 0 0.4391902246407907 0 0.1036713366795239 1.488878232956014 0 0 0 0 0.7329195423555763 1.214494463086955 0 0 0 0 0 0 0 0.6902599673640477 0 0 0 0.420357236471292 0 0 0 0.2011346866173559 0 0 0 0.4757497276760821 0 0 1.239788583857264 0.1004435321488857 1.579146994711179 1:0.44697416 2:0.34594661 3:0.13426457 4:0.72915971 5:0.54009378 6:0.60139543 7:0.4353888 8:0.52473986 9:0.32399473 10:0.26259044 11:0.48383126 12:0.3557058 13:0.4976458 14:0.67988098 15:0.34023422 16:0.60569298 17:0.60226929 18:0.46089986 19:0.4437035 20:0.33883032 21:0.56717759 22:0.57878786 23:0.63586652 24:0.51814157 25:0.47671911 26:0.40924579 27:0.87779874 28:0.27859595 29:0.78887361 30:0.44518012 31:0.77237064 32:0.31014928 33:0.55370492 34:0.23947996 35:0.57752699 36:0.42313483 37:0.52947444 38:0.45298249 39:0.60723078 40:0.29912463 41:0.5819391 42:0.52166522 43:0.66304374 44:0.47629687 45:0.24073714 46:0.30325744 47:0.33354872 48:0.44623181 49:0.50401855 50:0.49413988 51:0.44670656 52:0.52523035 53:0.59706271 54:0.52423918 55:0.44289964 56:0.40092844 57:0.59608477 58:0.49883658 59:0.43376127 60:0.45291993 61:0.45255563 62:0.3836062 63:0.56384635 64:0.43554598 65:0.46277505 66:0.60335368 67:0.51569873 68:0.39425558 69:0.60626656 70:0.56535 71:0.76326835 72:0.94347018 73:0.79730487 74:0.60923767 75:0.87003595 
0.127961338227165 0 0 0 0 0 0 0 0 0 0 0 0 0 0 0 0 0 0 0 0 0 0.2831217162182249 0 0 0 0 0 0 0 0 0 0 0 0 0 0 0 0 1:0.33870345 2:0.36194351 3:0.45527878 4:0.52025831 5:0.60850024 6:0.53279936 7:0.56228352 8:0.78768516 9:0.59544724 10:0.64602441 11:0.4499684 12:0.23398033 13:0.33681759 14:0.2645106 15:0.45373648 16:0.56097984 17:0.49298713 18:0.55554026 19:0.42823523 20:0.64569449 21:0.67463446 22:0.66778797 23:0.39758268 24:0.23526049 25:0.46930218 26:0.56635129 27:0.2907356 28:0.59325045 29:0.5379104 30:0.61249942 31:0.39983058 32:0.42706984 33:0.41973409 34:0.57762092 35:0.35605523 36:0.60064834 37:0.43931282 38:0.51344943 39:0.5268169 40:0.67100221 41:0.52692592 42:0.46920618 43:0.36637414 44:0.77409929 45:0.52639735 46:0.28609166 47:0.61091065 48:0.49712718 49:0.54539233 50:0.41138214 51:0.4558489 52:0.61242163 53:0.64366448 54:0.45205045 55:0.39400068 56:0.57705098 57:0.40932634 58:0.60658789 59:0.32911631 60:0.3972975 61:0.63361317 62:0.57601798 63:0.44385278 64:0.51132387 65:0.40574425 66:0.49271843 67:0.42818418 68:0.44377828 69:0.56986004 70:0.45941073 71:0.75308734 72:0.92495507 73:0.86438572 74:0.68559718 75:0.8224327 
