svm_type c_svc
kernel_type rbf
gamma 0.09
nr_class 13
total_sv 274
rho 0.0432175 -0.100025 -0.315989 -0.134453 -0.214542 0.508156 0.58216 0.162876 0.11736 -0.227899 -0.418834 -0.4067 -0.260856 -0.0881498 -0.257101 -0.257065 0.518833 0.509739 0.173688 -0.0509863 -0.266561 -0.408738 -0.347943 0.00636433 0.0858113 -0.0802807 0.643143 0.575509 0.196648 0.257049 -0.106357 -0.25691 -0.290968 0.0496697 -0.122058 0.651102 0.449557 0.237591 0.334388 -0.0776767 -0.325822 -0.154897 0.0353969 0.554745 0.489658 0.191334 0.131289 -0.103316 -0.203715 -0.158038 0.578312 0.561355 0.242882 0.117258 0.0993528 -0.223286 0.102864 0.0845181 -0.375474 -0.63793 -0.664989 -0.814473 -0.567772 -0.646758 -0.385188 -0.74199 -0.765587 -0.605018 0.0809181 -0.446741 -0.660385 -0.45526 -0.314726 -0.671676 -0.450467 -0.24693 -0.164937 0.140717
label 2063 2063657 2081 2081657 2082 2082657 2083 2083657 2091 2091657 2092 2092657 38
probA -3.29392 -3.4069 -3.32348 -3.23149 -3.24541 -3.42645 -3.41737 -3.59763 -3.63548 -3.34729 -3.30533 -3.15722 -3.27116 -3.44232 -3.21317 -3.14786 -3.44118 -3.50803 -3.55704 -3.67891 -3.41337 -3.30441 -3.21408 -3.35276 -3.22076 -3.19004 -3.42628 -3.36585 -3.60613 -3.60926 -3.4247 -3.32416 -3.1318 -3.11084 -3.19689 -3.43598 -3.4454 -3.50184 -3.72322 -3.40867 -3.32042 -3.11512 -3.07909 -3.23807 -3.24887 -3.46296 -3.56606 -3.26865 -3.13296 -2.95607 -3.25904 -3.29828 -3.51894 -3.50074 -3.22734 -3.17123 -2.9062 -3.71278 -3.70334 -3.79064 -3.49975 -3.449 -3.16118 -3.75392 -3.83704 -3.51038 -3.35432 -3.18523 -3.96568 -3.70959 -3.62812 -3.45637 -3.84784 -3.63188 -3.40067 -3.41387 -3.25211 -3.08679
probB 0.026869 -0.00419582 0.00333415 -0.184678 -0.155907 0.0871431 0.0072826 0.195318 0.27635 0.000188352 -0.0779214 -0.220648 -0.0604133 -0.0101953 -0.185896 -0.200294 0.00685467 0.0948609 0.233281 0.27974 -0.0063667 -0.10108 -0.215413 0.053417 -0.129134 -0.155559 0.113257 -0.0326915 0.193885 0.200893 -0.0392461 -0.13611 -0.176635 -0.159262 -0.240809 0.0548593 0.120915 0.205449 0.251118 0.00547564 -0.0939492 -0.22335 -0.0428854 0.186971 0.171897 0.42079 0.424128 0.17927 0.0641675 -0.00485701 0.267504 0.262717 0.429853 0.475019 0.1506 0.0704017 -0.0472925 -0.0635593 0.108787 0.183761 -0.0364608 -0.137066 -0.220483 0.154771 0.113753 -0.113411 -0.0936949 -0.325149 0.0557688 -0.173603 -0.361661 -0.425437 -0.23092 -0.396889 -0.479855 -0.130534 -0.197448 -0.0858986
nr_sv 21 21 18 19 15 10 28 31 34 39 15 13 10
SV
0 1.894764525903021 3.601486768038367 0.6070252382562519 0 0 0 0 0 0 0 0 1:0.43884474 2:0.38335314 3:0.34635335 4:0.55188733 5:0.69905192 6:0.66889173 7:0.45437577 8:0.4479475 9:0.68780196 10:0.56150591 11:0.17656533 12:0.34865329 13:0.44603446 14:0.85040981 15:0.47963044 16:0.635553 17:0.25561127 18:0.76985526 19:0.44735888 20:0.31234559 21:0.5162971 22:0.24968669 23:0.81066805 24:0.35746497 25:0.38476783 26:0.42890581 27:0.74504727 28:0.68529594 29:0.45978323 30:0.88281786 31:0.43222404 32:0.48193067 33:0.5275377 34:0.18977699 
10 0 0 4.92379526656751 6.869014911949422 0.2765662798694966 0.5989204237784468 1.606931732828385 1.733615776906749 2.37162679350569 2.811502945164563 3.708881381614495 1:0.57731467 2:0.43551245 3:0.4668138 4:0.61331612 5:0.47780147 6:0.66888905 7:0.70000511 8:0.51276511 9:0.71813202 10:0.70186406 11:0.28523231 12:0.34653977 13:0.59211767 14:0.40874505 15:0.55772507 16:0.69949031 17:0.32437783 18:0.62793857 19:0.45985025 20:0.39197654 21:0.64631516 22:0.29966813 23:0.66728938 24:0.32311565 25:0.21512251 26:0.43885374 27:0.57296139 28:0.71305478 29:0.3062472 30:0.83747703 31:0.45671678 32:0.50702292 33:0.52059877 34:0.21566857 
0 0 1.696047668458991 0 0 0 0 0 0 0 0 0 1:0.54851627 2:0.53111523 3:0.51751918 4:0.52104086 5:0.4170422 6:0.48984382 7:0.62793934 8:0.31603143 9:0.49808818 10:0.61223984 11:0.72001028 12:0.40137807 13:0.45630378 14:0.38455847 15:0.47319582 16:0.46054339 17:0.50062621 18:0.3400296 19:0.57009059 20:0.45397878 21:0.59654868 22:0.52571982 23:0.68997627 24:0.16675533 25:0.44442758 26:0.31468603 27:0.85733223 28:0.61462551 29:0.52962226 30:0.79619414 31:0.57508606 32:0.50579178 33:0.54741961 34:0.31869015 
0 0 0 0 0 0.3747812324805378 0 0 0 0 0 0 1:0.58548462 2:0.52530855 3:0.60482812 4:0.66903275 5:0.58548921 6:0.67590737 7:0.72078961 8:0.3461574 9:0.42065793 10:0.58539867 11:0.40099546 12:0.16786097 13:0.197181 14:0.42100498 15:0.56494546 16:0.65429264 17:0.56536782 18:0.4377363 19:0.63962001 20:0.48469374 21:0.60816604 22:0.47415492 23:0.68546599 24:0.23371296 25:0.3801209 26:0.32089606 27:0.87922078 28:0.56390572 29:0.52702063 30:0.70076388 31:0.5265727 32:0.58182073 33:0.52015901 34:0.33603609 
3.717175418897993 0 0 2.636078628985706 4.327193327239361 0.4190079945408678 0.2219774281940184 1.843020771372564 4.025483898739614 0 0.3046377994107336 1.737729974990646 1:0.55475014 2:0.47830245 3:0.57923287 4:0.56462085 5:0.45188102 6:0.30461362 7:0.64041609 8:0.38380101 9:0.35036749 10:0.67948931 11:0.8047573 12:0.44543004 13:0.36574662 14:0.68173867 15:0.63259888 16:0.57333994 17:0.51392555 18:0.27737793 19:0.67001563 20:0.41825283 21:0.5685032 22:0.5144279 23:0.70740491 24:0.37622389 25:0.1131185 26:0.41660044 27:0.8395887 28:0.56795293 29:0.44497603 30:0.83307952 31:0.60937238 32:0.47354817 33:0.46362612 34:0.37748256 
0 0 0 1.716298397527255 0 0 0 4.565731522104032 0.8401350174146283 0 0 0 1:0.61109185 2:0.32865149 3:0.20466316 4:0.65914774 5:0.67602772 6:0.45179895 7:0.49072227 8:0.33723122 9:0.46146035 10:0.50026488 11:0.60534316 12:0.42319548 13:0.30363461 14:0.78932726 15:0.35158181 16:0.4166624 17:0.44738972 18:0.45559222 19:0.71972662 20:0.39758307 21:0.53864533 22:0.51196688 23:0.80527794 24:0.30630922 25:0.34826565 26:0.41193768 27:0.9299438 28:0.57493418 29:0.58136809 30:0.86082292 31:0.49406719 32:0.50138956 33:0.51518726 34:0.34595424 
0 0 0 0 0 0 0 0 0 0 0.3585284142063974 0 1:0.58411413 2:0.54807007 3:0.46487644 4:0.67678177 5:0.31729585 6:0.47764522 7:0.5573948 8:0.48622546 9:0.36862898 10:0.53548533 11:0.72021407 12:0.39381233 13:0.33702546 14:0.29356363 15:0.54202676 16:0.56850916 17:0.55972755 18:0.41175881 19:0.68805015 20:0.30522579 21:0.6268236 22:0.57985294 23:0.66995806 24:0.28545904 25:0.23690313 26:0.33212322 27:0.88951999 28:0.64595509 29:0.44486535 30:0.72803015 31:0.57338852 32:0.493485 33:0.47827488 34:0.41411039 
1.121670709035238 0.4701645560624505 1.801669251942785 0.3718373717406446 4.034456719431438 4.748816049861731 1.424109857209683 3.483866490941418 3.70784652312867 2.126002741715507 1.924865777440708 2.021286001549874 1:0.36188185 2:0.73638457 3:0.46325219 4:0.65334862 5:0.86171198 6:0.44424063 7:0.43538043 8:0.65901685 9:0.62975991 10:0.55095506 11:0.40292093 12:0.1096407 13:0.42772371 14:0.033826824 15:0.34041896 16:0.40741056 17:0.25166044 18:0.36401621 19:0.77517241 20:0.38093227 21:0.22421695 22:0.79025507 23:0.51114583 24:0.27031511 25:0.41961753 26:0.24121529 27:0.74124891 28:0.54889774 29:0.71000999 30:0.81011802 31:0.49386635 32:0.52162993 33:0.64883029 34:0.39769608 
2.523990076868085 0.8625445041334278 0 0 0 2.087082317532645 2.953737720906809 1.558769013823485 0 2.359605979519081 1.035156264543082 1.771819795303409 1:0.80270034 2:0.2555488 3:0.69317073 4:0.67863548 5:0.4525809 6:0.91823679 7:0.22126949 8:0.24872118 9:0.89726645 10:0.7370469 11:0.54439932 12:0.38530639 13:0.64493752 14:0.47286397 15:0.36013061 16:0.63696718 17:0.23393711 18:0.68234289 19:0.73510367 20:9.4964834e-16 21:0.16698505 22:0.56974208 23:0.60712153 24:0.39328513 25:0.48481193 26:0.37032834 27:0.75133848 28:0.82338154 29:0.65224546 30:0.7220096 31:0.51497304 32:0.53460127 33:0.62156016 34:0.29453912 
0 0 0 0 0 6.020779060794649 0 0 0 0 0.388809897992244 0 1:0.52607 2:0.37726772 3:0.54939699 4:0.5201304 5:0.45518026 6:0.55860281 7:0.76151311 8:0.50043184 9:0.49009219 10:0.62893432 11:0.87383765 12:0.34773695 13:0.33316281 14:0.37020439 15:0.39131528 16:0.42772233 17:0.52797204 18:0.42219636 19:0.65421242 20:0.31944004 21:0.53960854 22:0.44769502 23:0.63828957 24:0.2451935 25:0.49096775 26:0.27648768 27:0.8453539 28:0.60513777 29:0.54389483 30:0.75088018 31:0.55227816 32:0.50182396 33:0.51487851 34:0.37562969 
2.357207687743891 0 0 0 0.03101060266616781 0 0 0.8179806563871985 0 1.42657149243617 0 0 1:0.50438529 2:0.44670278 3:0.25350624 4:0.20777258 5:0.43842348 6:0.46621421 7:0.45117062 8:0.55756783 9:0.60680211 10:0.34118375 11:0.65824521 12:0.45156065 13:0.37813869 14:0.56798697 15:0.54948789 16:0.50461829 17:0.35815877 18:0.3438502 19:0.46678019 20:0.36474934 21:0.40563363 22:0.48365304 23:0.7336331 24:0.32522294 25:0.37341109 26:0.3489252 27:0.86677653 28:0.62920529 29:0.63947242 30:0.8445828 31:0.44877177 32:0.48831436 33:0.53460646 34:0.30571133 
0 3.405417201333243 0 0 0.8100690635873352 1.153701271515619 0 0.8068819384829349 1.775316523544648 1.92917499092312 0.6602379270284586 0 1:0.43023643 2:0.46435189 3:0.35785493 4:0.39710623 5:0.52924478 6:0.65140742 7:0.610331 8:0.6596669 9:0.52778929 10:0.42515072 11:0.38932246 12:0.47760296 13:0.76671046 14:0.80493557 15:0.50698739 16:0.56586772 17:0.15295926 18:0.65719414 19:0.36159509 20:0.32295063 21:0.46424025 22:0.29415736 23:0.74340862 24:0.37597111 25:0.44329876 26:0.51638252 27:0.82164222 28:0.6645897 29:0.49617428 30:0.87818515 31:0.43808076 32:0.53931773 33:0.53387034 34:0.20888948 
0 4.312182492222219 3.901069406473527 2.383518965459465 0.6507448705011827 0 3.412262321688718 0 2.7959537427034 0.2358071705851083 0 3.477810925763459 1:0.62728333 2:0.58165449 3:0.62607306 4:0.4879404 5:0.32264909 6:0.45318583 7:0.63352692 8:0.47169876 9:0.70692575 10:0.33206442 11:0.65712619 12:0.38218477 13:0.36734864 14:0.11162361 15:0.60437906 16:0.37723759 17:0.50099123 18:0.44680703 19:0.4788866 20:0.35584357 21:0.63138771 22:0.52431893 23:0.63057131 24:0.12882854 25:0.41553473 26:0.31730035 27:0.70213103 28:0.57575738 29:0.54377329 30:0.77465063 31:0.63048267 32:0.53260255 33:0.50199133 34:0.30208272 
0 0 0 0 0 0 0 0 0 1.965049920933078 0 0 1:0.52386105 2:0.33319384 3:0.57760763 4:0.59082997 5:0.52840024 6:0.54787999 7:0.81326145 8:0.44370466 9:0.60323024 10:0.78182685 11:0.58879197 12:0.33988628 13:0.14677937 14:0.22183786 15:0.32420033 16:0.27800843 17:0.59375477 18:0.37226427 19:0.61889923 20:0.34456539 21:0.48999915 22:0.57439244 23:0.56885153 24:0.23984635 25:0.40887013 26:0.20515507 27:0.75153995 28:0.63961995 29:0.54139823 30:0.75228947 31:0.5011186 32:0.51263827 33:0.5847978 34:0.32400993 
2.424230065587522 0 0.7961824714011179 1.013923969941533 0 0 0 0 0.1314903567492498 0 0 0 1:0.46690774 2:0.4025318 3:0.3719005 4:0.82190251 5:0.68044358 6:0.41294536 7:0.66021329 8:0.40537673 9:1 10:0.88385856 11:0.20235324 12:0.28143698 13:0.10012774 14:0.003855349 15:0.17929263 16:0.1871146 17:0.310563 18:0.24972473 19:0.68223292 20:0.40894601 21:0.39873505 22:0.7954877 23:0.6538558 24:0.19282746 25:0.37217569 26:0.12924117 27:0.69633758 28:0.5305236 29:0.60797828 30:0.85389858 31:0.51902366 32:0.46116248 33:0.60833627 34:0.32808548 
0 1.178118230948549 0 0 0 0.8138998424054767 0 0.1453301168354811 0.9887463120894389 0 0 0 1:0.3653723 2:0.40133926 3:0.4770591 4:0.51904219 5:0.51969171 6:0.65011168 7:0.45876628 8:0.48941809 9:0.58101636 10:0.3133249 11:0.42097411 12:0.41184115 13:0.64133567 14:0.51869345 15:0.49617091 16:0.44184586 17:0.25730804 18:0.58624512 19:0.77685148 20:0.27918029 21:0.28110534 22:0.51782978 23:0.79639256 24:0.35960957 25:0.47523654 26:0.40804091 27:0.87522137 28:0.6460523 29:0.74970984 30:0.83665317 31:0.39879167 32:0.56166923 33:0.53697318 34:0.3635847 
0 0.2708007193895285 0 0.06633869054286036 0 0 0 1.462295074529653 0 0 1.027263612986057 0 1:0.57221347 2:0.42471406 3:0.67916179 4:0.72578591 5:0.52100545 6:0.55667466 7:0.69658059 8:0.44678035 9:0.68957239 10:0.11430801 11:0.4802303 12:0.26638317 13:0.41560721 14:0.32647994 15:0.56550401 16:0.35423705 17:0.37278688 18:0.65214092 19:0.68814296 20:0.46684632 21:0.70086998 22:0.40715069 23:0.80081403 24:0.12357879 25:0.44652894 26:0.41781899 27:0.8009035 28:0.56452489 29:0.48895893 30:0.78754354 31:0.46842116 32:0.5212059 33:0.5435797 34:0.30045703 
0 0 0 0 0 0 0 0 0 0 0 0.2409489147282037 1:0.76882702 2:0.31681859 3:0.24496652 4:0.64112097 5:0.52998745 6:0.27527919 7:0.5692628 8:0.40722701 9:0.27518663 10:0.36586705 11:0.48707822 12:0.3356933 13:0.54494303 14:0.47422433 15:0.50995535 16:0.5129413 17:0.40085235 18:0.48071969 19:0.65779984 20:0.49538013 21:0.67516035 22:0.53922963 23:0.72745186 24:0.19220373 25:0.32528776 26:0.37112638 27:0.91230822 28:0.62781715 29:0.41014674 30:0.86156553 31:0.58485901 32:0.54777002 33:0.55249512 34:0.34763017 
0.09748151514058416 2.096772738923246 2.128862405610581 0.4099940025668387 0 0 6.967636220749368 0.4183629903756575 0.5113643298989071 4.244153249295818 3.937592043451423 1.204139413218874 1:0.4464837 2:0.48268938 3:0.31253695 4:0.58622521 5:0.54421502 6:0.38123053 7:0.63542938 8:0.42392015 9:0.3782728 10:0.37851778 11:0.63537318 12:0.37368661 13:0.56843621 14:0.2715753 15:0.42039126 16:0.294622 17:0.36146164 18:0.48760611 19:0.52668518 20:0.58161819 21:0.597031 22:0.48644155 23:0.71795797 24:0.1858318 25:0.48203784 26:0.40162957 27:0.86446708 28:0.58432245 29:0.44992578 30:0.76472878 31:0.52577037 32:0.58073968 33:0.51892775 34:0.28717983 
0 1.041853799807791 3.985655630926202 0 0 0 0 0 1.004662367274644 0 0 0.2922256515650708 1:0.73167545 2:0.44124776 3:0.42922357 4:0.88658249 5:0.54439646 6:0.5708518 7:0.70456272 8:0.4499816 9:0.45147046 10:0.20202269 11:0.25592065 12:0.38241854 13:0.46634582 14:0.21058859 15:0.45466468 16:0.33529791 17:0.19024444 18:0.52570742 19:0.68140483 20:0.47519442 21:0.58062512 22:0.53371859 23:0.749268 24:0.24232878 25:0.51389521 26:0.28658628 27:0.76975507 28:0.63557035 29:0.55105543 30:0.8474769 31:0.52685279 32:0.57086682 33:0.61000109 34:0.28386292 
1.71590499300683 0 0 0.2179908120645512 0.2485700246459994 1.456221883134331 2.094875560490571 2.516127534619242 0.8882982808963514 0 0 1.910807996144616 1:0.82450861 2:0.6883806 3:0.37986618 4:0.65570927 5:0.36852291 6:0.30969894 7:0.7334615 8:0.35229313 9:0.48333952 10:0.14609262 11:0.28266081 12:0.45528492 13:0.59326798 14:0.18987378 15:0.76381189 16:0.59201699 17:0.40281266 18:0.53923547 19:0.41781133 20:0.50742817 21:0.58993924 22:0.46726993 23:0.67529935 24:0.20467621 25:0.28851274 26:0.39728752 27:0.76743197 28:0.62214476 29:0.4508571 30:0.86778748 31:0.61894453 32:0.5267002 33:0.53220671 34:0.3235822 
-0 0 0.4202525548767482 0 0 0 0.6025338392497224 1.856609928520731 0 0 0 3.474614195564191 1:0.69654703 2:0.57356066 3:0.36149621 4:0.58883828 5:0.46118706 6:0.48521906 7:0.36818734 8:0.33787966 9:0.29331648 10:0.74528575 11:0.48173329 12:0.20646206 13:0.38495663 14:0.25093699 15:0.50213343 16:0.20536703 17:0.34646007 18:0.33678037 19:0.43107823 20:0.44411004 21:0.47056729 22:0.82527071 23:0.65334588 24:0.47806832 25:0.60651803 26:0.20838605 27:0.29671645 28:0.81799293 29:0.31054831 30:0.79593098 31:0.54983097 32:0.24042659 33:0.40178394 34:0.24248074 
-5.670360990442809 0.693072222823241 3.371214555308273 6.250151747513399 3.459421839858321 4.484698351120887 0.1684824880796483 3.657554252248445 2.796710447986178 2.359817902854857 2.004949430654605 2.53271498823016 1:0.51099086 2:0.75285751 3:0.47420999 4:0.60834134 5:0.58744425 6:0.27611211 7:0.41422018 8:0.1344482 9:0.55514026 10:0.9400208 11:0.86646754 12:0.42167616 13:0.41742763 14:0.35306707 15:0.46850541 16:0.42103243 17:0.45149145 18:0.18500073 19:0.54588616 20:0.38150665 21:0.4379524 22:0.63006347 23:0.59258407 24:0.53399926 25:0.36319405 26:0.29029956 27:0.3448714 28:0.78750503 29:0.48614275 30:0.71633017 31:0.55984885 32:0.23582953 33:0.38957226 34:0.25958478 
-8.334368430859387 0 0 4.261298181979793 1.889053824491116 0 0 3.67957020250983 1.317234474825699 0.3741951247398215 0 2.585674615340011 1:0.81126612 2:0.40560895 3:0.34212071 4:0.59503722 5:0.36163643 6:0.46997347 7:0.54741174 8:0.37166172 9:0.86599886 10:0.44304177 11:0.20672275 12:0.45755336 13:0.57923138 14:0.3289524 15:0.50876677 16:0.58194274 17:0.26807949 18:0.36141625 19:0.56249666 20:0.43919808 21:0.44300309 22:0.51823109 23:0.72255099 24:0.59404212 25:0.38841766 26:0.23153555 27:0.13536304 28:0.85549802 29:0.35697436 30:0.82008696 31:0.45456034 32:0.23096274 33:0.47308144 34:0.31334031 
-0 0 3.160050174638657 0 0.1580357681993437 0 0 0 0 0 0 0 1:0.61987442 2:0.5277335 3:0.31645274 4:0.57818866 5:0.61324584 6:0.57121432 7:0.54451513 8:0.58554101 9:0.47409999 10:0.30064458 11:0.20553499 12:0.31811848 13:0.4304322 14:0.20316048 15:0.43183181 16:0.42703182 17:0.35017642 18:0.50060242 19:0.43499413 20:0.49919686 21:0.42458341 22:0.61865658 23:0.7396639 24:0.60367984 25:0.6728003 26:0.14253229 27:0.15930474 28:0.81762362 29:0.22010837 30:0.78106159 31:0.40583009 32:0.22221319 33:0.44124088 34:0.26968881 
-0 0 0 0 0 3.211617590488415 0 0 0 0 0 0 1:0.65098077 2:0.24490753 3:0.39821631 4:0.55759436 5:0.53036869 6:0.44856882 7:0.68925214 8:0.3445296 9:0.79231143 10:0.39005998 11:0.57849914 12:0.53877795 13:0.71545494 14:0.34055546 15:0.41213456 16:0.78466028 17:0.33618605 18:0.46870744 19:0.4696508 20:0.47489023 21:0.48129123 22:0.44800642 23:0.72287297 24:0.61008543 25:0.47074243 26:0.19702968 27:0.19453959 28:0.99389493 29:0.35567349 30:0.70399004 31:0.42507294 32:0.28765631 33:0.46597493 34:0.37207216 
-0 0 0 2.465512285770486 0 0 0 0 0 0 0 0 1:0.66394043 2:0.76438832 3:0.23347178 4:0.6631093 5:0.67852187 6:0.48514003 7:0.5743084 8:0.68026519 9:0.41579536 10:0.41571113 11:0.46284366 12:0.24408841 13:0.54375046 14:0.39372233 15:0.43408564 16:0.28005624 17:0.24409297 18:0.55738336 19:0.31690666 20:0.48354539 21:0.46454975 22:0.6167897 23:0.83831471 24:0.55422503 25:0.64452821 26:0.20765352 27:0.28074369 28:0.8446185 29:0.12191093 30:0.78866267 31:0.42817232 32:0.22757857 33:0.37218684 34:0.23588182 
-2.014810122635869 1.676235753050721 0 0.6135211029794889 0 0.7622634703992929 0.4736662947121982 1.982981654822322 1.315897396840883 0.6095240120654121 0.4576692637195829 0.6284849338105922 1:0.55492693 2:0.35366461 3:0.14288719 4:0.50180298 5:0.72519827 6:1 7:0.69836783 8:0.43067575 9:0.56014359 10:1 11:0.74417543 12:0.62104505 13:0.66040313 14:0.7818222 15:0.40529284 16:0.48400697 17:0.22901151 18:1 19:0.51067019 20:0.45317668 21:0.52002048 22:0.7130757 23:0.68727982 24:0.56283033 25:0.63110298 26:0.44767502 27:0.38226703 28:0.9424603 29:0.11156514 30:0.67968071 31:0.5352366 32:0.27920938 33:0.40674424 34:0.28509936 
-2.902697699111788 2.623000420707014 0.3127786206776202 0.2568831359062027 0.5711011667455983 2.958819670830919 3.051820414423748 1.459562697515437 3.594756257470006 2.654944767378752 0.7367163396255707 1.572787732660861 1:0.46543381 2:1 3:0.50898296 4:0.28134906 5:0.63072759 6:0.56633091 7:0.81337196 8:0.54278094 9:0.29750022 10:0.78268272 11:0.4858343 12:0.091887616 13:0.52074599 14:0.52469313 15:0.60254973 16:0.67145276 17:0.33243516 18:0.78129858 19:0.38282734 20:0.56870705 21:0.8038916 22:0.72898662 23:0.5970428 24:0.38095897 25:0.59459728 26:0.30922952 27:0.31989488 28:0.86627543 29:0.13959202 30:0.69044793 31:0.49385828 32:0.28844559 33:0.32920846 34:0.24794163 
-0 0 0 0 0 0 4.537383910170499 0.05537332371659683 0 2.802975065724317 0.6766236412906859 0 1:0.65070939 2:0.42927045 3:0.51300067 4:0.72646594 5:0.56580383 6:0.49670479 7:0.56660789 8:0.48382038 9:0.79202783 10:0.33944878 11:0.60025942 12:0.52527624 13:0.81226349 14:0.38622883 15:0.34637794 16:0.57106459 17:0.36000982 18:0.50356066 19:0.39549005 20:0.4960756 21:0.54082251 22:0.44586775 23:0.63687879 24:0.60788035 25:0.68216425 26:0.25922015 27:0.27208564 28:0.93950117 29:0.29432052 30:0.69165021 31:0.43918422 32:0.2957612 33:0.48936841 34:0.34098879 
-0.9657475490087397 0 0 1.062110314999447 1.941616233875341 0 0.03710281218412102 0 1.082483365366922 0 0 0.5386180157079987 1:0.71775419 2:0.62756133 3:0.56224626 4:0.75194395 5:0.52876425 6:0.60433841 7:0.60666782 8:0.73694277 9:0.60561132 10:0.32459539 11:0.41562408 12:0.46100959 13:0.43797788 14:0.58660173 15:0.48913842 16:0.31550339 17:0.22208071 18:0.36228693 19:0.57396775 20:0.45189175 21:0.52024615 22:0.51952255 23:0.73526043 24:0.60801631 25:0.61766255 26:0.19666572 27:0.26946092 28:0.82847762 29:0.18416113 30:0.78289074 31:0.44676748 32:0.25976211 33:0.42927718 34:0.24470258 
-0 0 0.8849185521379019 0 0 0 0 0 0 0 0 0 1:0.84683865 2:0.64771813 3:0.57740062 4:0.54977649 5:0.57030606 6:0.48925784 7:0.44737703 8:0.35494149 9:0.56334496 10:0.46051213 11:0.54588902 12:0.16175196 13:0.27311042 14:0.40022025 15:0.40593964 16:0.18291673 17:0.3100327 18:0.24088356 19:0.52262372 20:0.3948639 21:0.51845133 22:0.86601424 23:0.64275843 24:0.48387805 25:0.67589414 26:0.15770929 27:0.23518059 28:0.76963961 29:0.29921338 30:0.76236039 31:0.50603437 32:0.16327652 33:0.42705795 34:0.2645641 
-1.103652286958068 4.599915442922982 3.363843065998317 0.3959952175782355 3.732559055756366 0.7030620217005822 0 1.410282750602782 0 1.420507892212794 2.164169172561906 5.25255679060238 1:0.69206315 2:0.33200419 3:0.53115433 4:0.55044246 5:0.42895097 6:0.46650276 7:0.52753627 8:0.46034095 9:0.70836025 10:0.31539258 11:0.74464208 12:0.64851451 13:0.53908706 14:0.52532864 15:0.59120393 16:0.58737665 17:0.32735619 18:0.54188591 19:0.48182178 20:0.32755405 21:0.60646784 22:0.34868363 23:0.67263424 24:0.65609741 25:0.6289373 26:0.35224548 27:0.26453048 28:0.86493587 29:0.28917626 30:0.71454525 31:0.48061788 32:0.23842023 33:0.46821886 34:0.25877047 
-2.583163321261643 0 0 0 0 0 0 0 0 0 0.204627504213911 0 1:0.4166235 2:0.45096514 3:0.38523209 4:0.62882757 5:0.64960635 6:0.32211575 7:0.49913698 8:0.54819655 9:0.54387873 10:0.61467433 11:0.38875192 12:0.54673153 13:0.51660031 14:0.44957113 15:0.41552973 16:0.74997675 17:0.4028635 18:0.70813793 19:0.42714155 20:0.52542388 21:0.5133875 22:0.38624331 23:0.79116261 24:0.64048791 25:0.56543231 26:0.30053625 27:0.36089784 28:0.94453013 29:0.25823289 30:0.67939973 31:0.36961818 32:0.27029812 33:0.38082275 34:0.29484639 
-0.3358360973814616 0.869006229818338 0 0 1.465272536028327 0 0 0 0 0.4225402897163296 0.9634143226960171 0 1:0.25002694 2:0.50796551 3:0.065306857 4:0.63750499 5:0.64036095 6:0.2115619 7:0.59750938 8:0.9272542 9:0.39137533 10:0.8355419 11:0.47074184 12:0.53041136 13:0.55980772 14:0.60603273 15:0.44138968 16:0.48439237 17:0.4176749 18:0.52278501 19:0.30696243 20:0.5029819 21:0.45218575 22:0.49356413 23:0.81125391 24:0.70286894 25:0.60971612 26:0.32283333 27:0.4442488 28:0.84129924 29:0.2567943 30:0.77259046 31:0.38004705 32:0.26098308 33:0.37790453 34:0.27218419 
-0 0 3.507014293513539 0 0 0 0 0 0 0 4.30483775886185 0 1:0.65661007 2:0.66190451 3:0.47311214 4:0.62111622 5:0.63792783 6:0.54426694 7:0.61146086 8:0.54255563 9:0.49172342 10:0.3866179 11:0.57070148 12:0.24820459 13:0.42780289 14:0.5606671 15:0.57379919 16:0.34299415 17:0.21030533 18:0.56119418 19:0.49471927 20:0.5944761 21:0.52682948 22:0.7291038 23:0.71151406 24:0.49914476 25:0.73510307 26:0.23053576 27:0.28848934 28:0.77936733 29:0.091158077 30:0.75734568 31:0.40470308 32:0.19768186 33:0.43043631 34:0.25152078 
-0 0.8932540444868043 0 0 0 0 0 0 2.584892914017594 0 0 0 1:0.43027744 2:0.38870499 3:0.15298888 4:0.65386784 5:0.48567647 6:0.34526744 7:0.44592601 8:0.30348185 9:0.39985916 10:0.12918788 11:0.75770527 12:0.40923229 13:0.48904014 14:0.21506286 15:0.49871385 16:0.32138592 17:0.3660515 18:0.47785738 19:0.52424812 20:0.4048619 21:0.43467608 22:0.58984393 23:0.74332517 24:0.72626621 25:0.72333425 26:0.20938599 27:0.21788396 28:0.82811183 29:0.35355994 30:0.69706047 31:0.46277106 32:0.24583729 33:0.37152886 34:0.33359417 
-0.04702396862038161 3.221106067462502 0.5968501202944764 0 0 0 0 0 0.6521810056799457 0 0 0.864671312149222 1:0.42710981 2:0.27952892 3:0.57012004 4:0.64361525 5:0.45610577 6:0.34177047 7:0.41200471 8:0.3364079 9:0.5638442 10:0.26946917 11:0.36349422 12:0.24070056 13:0.45212981 14:0.15301362 15:0.44724718 16:0.47569814 17:0.43441126 18:0.3067899 19:0.55118269 20:0.3699351 21:0.39111629 22:0.65631241 23:0.67833048 24:0.63021874 25:0.62713355 26:0.12464492 27:0.23541398 28:0.88138908 29:0.45979899 30:0.77207732 31:0.49996135 32:0.21421625 33:0.40504032 34:0.34140107 
-0 1.583213936744105 0.2668536102718812 0 0.1907453530312099 6.699486723765804 2.008556840345283 3.765056490114494 4.640324630451244 3.94191485331464 2.488877664966189 0 1:0.33801514 2:0.33062646 3:0.49984711 4:0.75025553 5:0.51373905 6:0.47353765 7:0.47193751 8:0.46479404 9:0.66035485 10:0.10217093 11:0.50966752 12:0.26760036 13:0.36901116 14:0.38507852 15:0.40863186 16:0.35473251 17:0.41829148 18:0.39599597 19:0.64572787 20:0.4028047 21:0.38827518 22:0.56466061 23:0.79715765 24:0.70057011 25:0.73490024 26:0.12557553 27:0.21782489 28:0.84196985 29:0.4376604 30:0.62999958 31:0.35142288 32:0.21780995 33:0.45703563 34:0.36714375 
-0 0 0 0 0 0 0.1989442087001557 0 0 0.200528296715944 0 0 1:0.66718197 2:0.5672974 3:0.47091985 4:0.66159546 5:0.59216601 6:0.57780325 7:0.49601334 8:0.50271016 9:0.74679369 10:0.47476497 11:0.17486246 12:0.1647673 13:0.41536573 14:0.54056281 15:0.44483051 16:0.35881895 17:0.20030323 18:0.19208831 19:0.77444357 20:0.44412354 21:0.41863903 22:0.7581929 23:0.73281741 24:0.64481765 25:0.62879658 26:0.060597025 27:0.2179442 28:0.82424134 29:0.31649679 30:0.72818142 31:0.38572231 32:0.25826257 33:0.46165365 34:0.26552531 
-0 0.4468872766213858 0 0 0 0 0 0 0 0 0 0 1:0.40656519 2:0.52521944 3:0.34817451 4:0.602979 5:0.61346632 6:0.14812143 7:0.41928747 8:0.53319806 9:0.55438519 10:0.34008029 11:0.72137189 12:0.26581797 13:0.32568464 14:0.43326604 15:0.52280676 16:0.37487331 17:0.47354698 18:0.34492862 19:0.43452585 20:0.4393912 21:0.32144862 22:0.68263197 23:0.90693992 24:0.58370435 25:0.74890012 26:0.1834852 27:0.39033872 28:0.7927084 29:0.32493156 30:0.70869988 31:0.45193431 32:0.20541829 33:0.37919012 34:0.31604096 
-0 0 0 0.06909982222373019 0 0 3.960385745332761 0.1352800609119972 0.884508430268958 0 0 0 1:0.57425511 2:0.33218381 3:0.7894578 4:0.57917911 5:0.23274048 6:0.37281886 7:0.27840233 8:0.34314695 9:0.6272974 10:0.40249276 11:0.68338364 12:0.59179121 13:0.27409619 14:0.32707947 15:0.50445557 16:0.43009451 17:0.44910038 18:0.32258609 19:0.71913129 20:0.29716647 21:0.44067821 22:0.59317142 23:0.74869227 24:0.62303942 25:0.58178836 26:0.20542687 27:0.20880851 28:0.84026945 29:0.43784788 30:0.78604424 31:0.53271723 32:0.22273245 33:0.42098129 34:0.34411895 
-0 -0 2.643945905540186 0 0.3072639247889257 0 0 1.404433238180264 0 0 0 0 1:0.41829708 2:0.3713381 3:0.31110838 4:0.46553266 5:0.5853278 6:0.62817687 7:0.39396077 8:0.18049929 9:0.27952018 10:0.65399909 11:0.2100741 12:0.24097213 13:0.55916768 14:0.40440977 15:0.40324175 16:0.39719465 17:0.27269459 18:0.39266956 19:0.68148834 20:0.28163531 21:0.57879871 22:0.50509781 23:0.64760649 24:0.51989335 25:0.79997808 26:0.94826531 27:0.29189956 28:0.4059777 29:0.59083045 30:0.74756753 31:0.71427703 32:0.2906656 33:0.38410124 34:0.036625173 
-0 -0 0 0.04925928211440988 1.023124629832707 1.903831708143822 0 0.5158046204281793 0 0 0 0 1:0.21237713 2:0.39682019 3:0.27077776 4:0.46670011 5:0.45347798 6:0.64898276 7:0.52031446 8:0.63270402 9:0.50969452 10:0.41516489 11:0.32661387 12:0.13646621 13:0.65616113 14:0.4761934 15:0.54177016 16:0.48484877 17:0.3112635 18:0.43115443 19:0.51133132 20:0.4217751 21:0.61166704 22:0.54480922 23:0.77692592 24:0.43624172 25:0.7632333 26:0.94655776 27:0.38230601 28:0.51411742 29:0.56668133 30:0.67566872 31:0.68233085 32:0.32064512 33:0.38279623 34:0.045441289 
-0 -0.2175545326354421 1.288436702739577 0.624693075117506 0 1.81232487509447 0.6746899415190795 2.879027512535633 3.630189898089188 1.64313795228366 1.621646787005312 1.571107938966695 1:0.30449533 2:0.33415481 3:0.52034903 4:0.4653917 5:0.46002614 6:0.38409728 7:0.54016066 8:0.33457857 9:0.35726175 10:0.47617787 11:0.080603778 12:0.36543471 13:0.37773716 14:0.54837739 15:0.38569993 16:0.41577291 17:0.46647751 18:0.31508771 19:0.91304249 20:0.27116436 21:0.57646906 22:0.54953939 23:0.69968534 24:0.50319743 25:0.74847436 26:0.78593093 27:0.31396589 28:0.48689917 29:0.59958899 30:0.76187146 31:0.61375356 32:0.29742557 33:0.3505407 34:0.11245044 
-0 -0 0 1.977482370274706 0 0 0 0 0 0 0 0 1:0.3882224 2:0.44867486 3:0.47640219 4:0.70295149 5:0.53534782 6:0.59317416 7:0.53019637 8:0.37778652 9:0.39421809 10:0.44387114 11:0.57214278 12:0.17312056 13:0.51795697 14:0.50261384 15:0.36060166 16:0.38853115 17:0.32262889 18:0.4602389 19:0.56635582 20:0.42770213 21:0.50273883 22:0.56414378 23:0.70689064 24:0.44558823 25:0.86850786 26:0.94784558 27:0.43910646 28:0.53015602 29:0.62960428 30:0.69312161 31:0.7503739 32:0.30274096 33:0.43256995 34:0 
-0 -0 0 0 0 0 0 0 0 0 1.502464188432487 0 1:0.46784824 2:0.5209372 3:0.34320447 4:0.64017051 5:0.48367205 6:0.65497637 7:0.44832471 8:0.48437935 9:0.52033067 10:0.33466735 11:0.4852387 12:0.4718914 13:0.52965558 14:0.25990689 15:0.51346165 16:0.2459816 17:0.4328585 18:0.52928346 19:0.58235031 20:0.38469329 21:0.47060248 22:0.5194903 23:0.72361332 24:0.50429159 25:0.97582078 26:0.84486651 27:0.41624808 28:0.52605319 29:0.55739146 30:0.74537766 31:0.69375771 32:0.28980863 33:0.40022856 34:0.01587799 
-3.655123099993875 -5.227599485950845 0 0 0 0 0 0.5773712288932499 1.630428752824565 3.395058296172313 0 2.235577003362687 1:0.26124322 2:0.49272108 3:0.3715342 4:0.62247366 5:0.57721841 6:0.58163851 7:0.77874225 8:0.34180042 9:0.28118894 10:0.27756992 11:0.53276402 12:0.29721498 13:0.6106618 14:0.33400959 15:0.41697001 16:0.4660975 17:0.34338194 18:0.46559203 19:0.60228813 20:0.28212368 21:0.59455383 22:0.53501856 23:0.75141501 24:0.58743346 25:0.87348723 26:0.8268069 27:0.43056482 28:0.63249588 29:0.56875545 30:0.74129033 31:0.63000894 32:0.3363179 33:0.40824294 34:0.049505364 
-0 -0 1.41189756512279 0 0 0.8822701010537382 1.922347320346548 0 2.826399602183085 0 1.582064434458589 0 1:0.22571073 2:0.24647249 3:0.47983056 4:0.76671308 5:0.7244705 6:0.67541021 7:0.67779475 8:0.41627467 9:0.49216199 10:0.23450363 11:0.4142504 12:0.14191453 13:0.60788995 14:0.49305853 15:0.42226934 16:0.44653204 17:0.51447266 18:0.54656744 19:0.59114915 20:0.49780232 21:0.57093501 22:0.64343965 23:0.79615921 24:0.43270808 25:1 26:0.78550851 27:0.42921245 28:0.46071547 29:0.51669627 30:0.66993237 31:0.65685833 32:0.33649144 33:0.36877006 34:0.09744405 
-0 -0 0 0 1.047037404997156 0 0.108111600565265 0 0 0 0 0 1:0.74737322 2:0.45607004 3:0.40886259 4:0.73209685 5:0.57683939 6:0.44207656 7:0.52427077 8:0.55881721 9:0.66222537 10:0.65273929 11:0.53845441 12:0.35027376 13:0.51425362 14:0.30054307 15:0.50679934 16:0.59953403 17:0.34477529 18:0.38801911 19:0.53327847 20:0.4479903 21:0.47478881 22:0.72426331 23:0.7577064 24:0.57597584 25:0.87965667 26:0.93724698 27:0.48340675 28:0.44330552 29:0.64096195 30:0.74885142 31:0.83217919 32:0.33800796 33:0.38393432 34:0.065199494 
-0 -0 0 0 0 0.6353901269389589 0 0 1.310925099539747 1.293320192412557 0.8104549254097053 3.021604493722634 1:0.76347089 2:0.56156451 3:0.46407223 4:0.78809977 5:0.63853639 6:0.41981718 7:0.68885142 8:0.41731691 9:0.65937775 10:0.57791883 11:0.47050196 12:0.26077443 13:0.53742939 14:0.29025304 15:0.42845967 16:0.40892321 17:0.29741389 18:0.28562367 19:0.57189399 20:0.4638966 21:0.44274268 22:0.79474723 23:0.6444847 24:0.510001 25:0.89832222 26:0.98351336 27:0.45992717 28:0.46230388 29:0.69147009 30:0.70822263 31:0.80694515 32:0.32713011 33:0.41773826 34:0.0921757 
-0 -0.9336745874382333 4.412241894031405 4.548885071534463 1.884650943047478 3.610017380756156 1.981088116980054 0 0 0 0 0 1:0.62478286 2:0.46250859 3:0.43734312 4:0.62315416 5:0.51535177 6:0.49220413 7:0.61574858 8:0.29908007 9:0.62672043 10:0.31905589 11:0.71102542 12:0.34658343 13:0.33877397 14:0.39875638 15:0.55772394 16:0.46700463 17:0.47678304 18:0.41160125 19:0.56294525 20:0.3876532 21:0.5359199 22:0.67940581 23:0.75327545 24:0.59692717 25:0.93445474 26:0.82057589 27:0.40058073 28:0.46425053 29:0.62396628 30:0.64129525 31:0.76370895 32:0.31414053 33:0.41334832 34:0.042816002 
-0 -0 0 0 0 0 1.213214866455538 1.454111691346161 0 0 0 0 1:0.68734604 2:0.49432877 3:0.44343817 4:0.81161165 5:0.55879956 6:0.42816171 7:0.66958445 8:0.42169613 9:0.65274501 10:0.49538517 11:0.53206527 12:0.3787002 13:0.52137661 14:0.30415168 15:0.44566455 16:0.38602233 17:0.37934944 18:0.29282513 19:0.5661822 20:0.47132146 21:0.43965191 22:0.79039186 23:0.7125023 24:0.54044211 25:0.89538527 26:0.98268962 27:0.45557508 28:0.50966448 29:0.65145755 30:0.74676168 31:0.79651332 32:0.3508983 33:0.430592 34:0.10806432 
-4.177129410819549 -0 0 0 0 0 0 0 0 0 0 3.293603012085543 1:0.6330803 2:0.47393885 3:0.42127654 4:0.69167078 5:0.52795643 6:0.58347833 7:0.65247196 8:0.5203774 9:0.63712597 10:0.44659981 11:0.57857376 12:0.40811834 13:0.45770594 14:0.3214362 15:0.6150924 16:0.46822345 17:0.3780854 18:0.47216019 19:0.49367282 20:0.44527233 21:0.54080772 22:0.63842738 23:0.74692589 24:0.49488753 25:0.92260325 26:0.91348535 27:0.47063571 28:0.57096767 29:0.54771012 30:0.72528124 31:0.80363393 32:0.4007242 33:0.40012142 34:0.0048515131 
-0 -0 0 1.035698538018426 0 0 0 0 0 0 0 0 1:0.75370646 2:0.53904432 3:0.47235468 4:0.77327073 5:0.61758131 6:0.40660614 7:0.68767136 8:0.41159558 9:0.68398267 10:0.57355231 11:0.47350302 12:0.27279136 13:0.55093729 14:0.27748135 15:0.43128088 16:0.40086764 17:0.29533613 18:0.2774381 19:0.54682511 20:0.45192903 21:0.452838 22:0.80474544 23:0.64166349 24:0.49884844 25:0.88791931 26:1 27:0.45030245 28:0.4755336 29:0.69142306 30:0.72042274 31:0.81101489 32:0.32502365 33:0.42596456 34:0.097250611 
-5.179894258708317 -3.877644647421979 0 2.1392213517231 3.570233499177957 1.867544766348789 5.701632356746719 0.7135954763227558 1.934687507037372 1.304206815194424 0.3025988478857054 1.956153483109311 1:0.25123018 2:0.3646605 3:0.76002645 4:0.32734826 5:0.43670097 6:0.41150412 7:0.23843768 8:0.47762144 9:0.58140957 10:0.20662136 11:0.0015972304 12:0.52352476 13:0.51549846 14:0.4862192 15:0.42550972 16:0.46638161 17:0.40816873 18:0.47698525 19:0.65282202 20:0.36108357 21:0.5796411 22:0.51235366 23:0.66749144 24:0.36257401 25:0.73396105 26:0.78723621 27:0.31321296 28:0.4991695 29:0.56137359 30:0.788194 31:0.6433239 32:0.34756228 33:0.3487474 34:0.087207705 
-0 -0 0 0 3.559324092912934 0 0 0.8897987229577828 0.00335531439690934 0 1.922318133812308 0 1:0.40536904 2:0.5499683 3:0.4639248 4:0.6916737 5:0.65486598 6:0.43697938 7:0.61041361 8:0.44737846 9:0.59924251 10:0.36903214 11:0.37452978 12:0.2930747 13:0.54678047 14:0.24341692 15:0.60932881 16:0.44472522 17:0.30382568 18:0.45843452 19:0.55592549 20:0.33659926 21:0.58625644 22:0.51413351 23:0.67693472 24:0.525684 25:0.79639822 26:0.98324198 27:0.41412324 28:0.53236127 29:0.66304976 30:0.75406319 31:0.61579055 32:0.31327781 33:0.39962211 34:0.075403862 
-1.184146386958658 -2.502081001782081 0 0.4229747236284105 0.3874552707149921 1.368687898314465 2.067389858179848 2.551405653478929 0.7293992891050545 0.2748156655095194 0.2420686745675994 0.6440123601488195 1:0.66945678 2:0.59316695 3:0.4291313 4:0.62419027 5:0.57297361 6:0.83282566 7:0.71615463 8:0.25028828 9:0.70550394 10:0.65025288 11:0.79875779 12:0.30017003 13:0.50569391 14:0.38927487 15:0.65832287 16:0.4307417 17:0.38386574 18:0.92922944 19:0.53955269 20:0.26798251 21:0.57469624 22:0.6915763 23:0.71532726 24:0.66193062 25:0.94947839 26:0.96909475 27:0.45155096 28:0.63980764 29:0.57659328 30:0.58411533 31:0.83462083 32:0.36782202 33:0.46318004 34:0.041018434 
-0.1515008737372636 -0 9.709874515657281 3.712300011921055 0.3485527010639674 1.003730029634103 0.1507078386963459 1.222656041063243 0 0.9507296673049863 1.5697274179174 3.201683110767402 1:0.554842 2:0.36690849 3:0.78652442 4:0.39108336 5:0.52584064 6:0.35302016 7:0.32938546 8:0.57344574 9:0.34803775 10:0.48480362 11:0.24348874 12:0.58756965 13:0.56513649 14:0.67296284 15:0.4754388 16:0.24957925 17:0.3139247 18:0.32438403 19:0.60177058 20:0.36599588 21:0.50603503 22:0.38912278 23:0.59431154 24:0.36667004 25:0.87825042 26:0.86002123 27:0.37470356 28:0.35733312 29:0.6112712 30:0.80070853 31:0.69123983 32:0.29792154 33:0.43833587 34:0.022975214 
-1.184824738505812 -3.847137139408511 0.2169918793585326 0 0.4683659656018228 0.2306452765829332 0 1.056810034277844 2.746865024088154 3.882233914452627 2.343868176535236 0 1:0.45248786 2:0.39420858 3:0.34259343 4:0.56182343 5:0.57343042 6:0.33051866 7:0.55955392 8:0.69090134 9:0.74240541 10:0.54815394 11:0.66687489 12:0.32322529 13:0.44924206 14:0.49317029 15:0.55369586 16:0.64460182 17:0.34927952 18:0.42608243 19:0.51196915 20:0.45462993 21:0.50138825 22:0.60661197 23:0.79475862 24:0.63044506 25:0.87683344 26:0.89546955 27:0.4414314 28:0.43852651 29:0.61678839 30:0.74708593 31:0.67794764 32:0.32596633 33:0.36944684 34:0.069812521 
-0 -0.9506127528239615 -0 0 1.823362096050476 0 0 0 0 0.1098726882573837 0 0 1:0.80187172 2:0.63708156 3:0.26299205 4:0.47071365 5:0.57214957 6:0.5578422 7:0.39545977 8:0.35717058 9:0.47305226 10:0.44321978 11:0.28718999 12:0.27429208 13:0.54359978 14:0.45825848 15:0.53598386 16:0.61117125 17:0.1690731 18:0.42109561 19:0.32405666 20:0.47516409 21:0.39511597 22:0.48970374 23:0.52254122 24:0.35300419 25:0.75443709 26:0.2399158 27:0.3004618 28:0.099513024 29:0.4353129 30:0.81309193 31:0.55146348 32:0.48243698 33:0.6518358 34:0.064050302 
-0 -0 -0 0 0 0 0 0 0 0 0 0.04850168416231211 1:0.65546924 2:0.36323118 3:0.13709101 4:0.72542822 5:0.61693829 6:0.66835433 7:0.5069015 8:0.34885487 9:0.49795642 10:0.39345017 11:0.63132507 12:0.24193759 13:0.50865859 14:0.51463068 15:0.44222245 16:0.42639413 17:0.20175536 18:0.32365605 19:0.63380671 20:0.43624234 21:0.41513738 22:0.50664699 23:0.55795223 24:0.26495606 25:0.70832378 26:0.21657553 27:0.23764084 28:0.057140436 29:0.39721227 30:0.77298492 31:0.5980463 32:0.44376367 33:0.63667452 34:0.084065191 
-0.5923089893447937 -0 -0 0 0 0.1760615467035453 0 0 0 0 0 0 1:0.53460366 2:0.23812057 3:0.52039224 4:0.5636546 5:0.58609998 6:0.43924963 7:0.51776719 8:0.22133665 9:0.21975479 10:0.5223093 11:0.21708816 12:0.55206257 13:0.46798214 14:0.71505523 15:0.46943107 16:0.55268258 17:0.36461991 18:0.26032716 19:0.26889688 20:0.6869092 21:0.29069188 22:0.52750915 23:0.58143306 24:0.34743193 25:0.64353943 26:0.35971001 27:0.34825227 28:0.10680035 29:0.39277104 30:0.88169241 31:0.59859025 32:0.43425599 33:0.66966641 34:0.14541642 
-0 -0 -0 0 0 0.6587668504148622 2.058254674167026 0 0 0 0 0 1:0.69548643 2:0.50404036 3:0.17646131 4:0.64275509 5:0.54129577 6:0.67853636 7:0.30933541 8:0.30068457 9:0.36714831 10:0.11640886 11:0.55914629 12:0.20505427 13:0.53123754 14:0.43575639 15:0.47501284 16:0.37529868 17:0.29149625 18:0.58110064 19:0.63421232 20:0.54150116 21:0.39194289 22:0.53839266 23:0.602099 24:0.25962439 25:0.83701825 26:0.27804902 27:0.32705921 28:0.075839572 29:0.44676924 30:0.76179785 31:0.59096748 32:0.43591213 33:0.60248125 34:0.063247956 
-0.1360172407072639 -0 -0 0 0 0 0 0 0 0 0 0 1:0.74201769 2:0.56455559 3:0.28429919 4:0.58320898 5:0.55496204 6:0.54127312 7:0.52918363 8:0.31538263 9:0.51211774 10:0.37263867 11:0.49721184 12:0.31775331 13:0.42380384 14:0.34575516 15:0.52323997 16:0.354651 17:0.28667381 18:0.48519248 19:0.52309042 20:0.51364428 21:0.53964108 22:0.43952444 23:0.61079574 24:0.27471417 25:0.81680733 26:0.29521948 27:0.29321724 28:0.12449974 29:0.41950062 30:0.85720307 31:0.5301317 32:0.48412499 33:0.65060031 34:0.045586299 
-8.770309255973352 -5.446318330400969 -0.4396477147507003 0.6227992570877856 0.9955808222153436 0.6446362160950811 0.9020463017286666 3.588060220922393 3.296977669415809 1.648555532389522 2.493798742167403 0.8841523096342091 1:0.56859571 2:0.51584125 3:0.44182286 4:0.7901547 5:0.61407757 6:0.55813986 7:0.49947059 8:0.11249642 9:0.55773729 10:0.29516116 11:0.5025152 12:0.22848019 13:0.43453965 14:0.28731024 15:0.3764801 16:0.53032541 17:0.41708517 18:0.46505606 19:0.51366401 20:0.4126417 21:0.54019153 22:0.56648016 23:0.63316703 24:0.21084791 25:0.70192719 26:0.17657799 27:0.34691739 28:0.17376252 29:0.41777495 30:0.80943996 31:0.50813776 32:0.44069791 33:0.61188567 34:0.077670157 
-0 -0 -0 0 0 0 0 2.265232803719897 0 0 0.07726448990109823 0 1:0.69874132 2:0.47854868 3:0.20379803 4:0.59125024 5:0.61140656 6:0.50906825 7:0.43886659 8:0.22094463 9:0.44865698 10:0.36424994 11:0.6273908 12:0.35670006 13:0.59342647 14:0.28377515 15:0.55357468 16:0.43793857 17:0.25924665 18:0.47743908 19:0.34335557 20:0.57919812 21:0.47277465 22:0.5180552 23:0.57507515 24:0.17222717 25:0.80457026 26:0.30279291 27:0.31333315 28:0.10173161 29:0.33742371 30:0.87313211 31:0.56993014 32:0.4085198 33:0.60723257 34:0.097814985 
-0 -0 -2.27244003376912 0 0 0.6619468526269701 0.1776785276408668 2.615701228194685 0.9987864986825125 2.693605881676627 1.311511894344042 0 1:0.49043146 2:0.48690429 3:0.029936099 4:0.54823083 5:0.58562374 6:0.45980391 7:0.42618588 8:0.3266637 9:0.33884501 10:0.36340827 11:0.59133381 12:0.2525495 13:0.38019922 14:0.17837261 15:0.3032006 16:0.40465558 17:0.28859368 18:0.50008535 19:0.71619838 20:0.46247587 21:0.44313467 22:0.52086192 23:0.62602037 24:0.33474746 25:0.87365752 26:0.255023 27:0.3480916 28:0.099419817 29:0.47917375 30:0.75213826 31:0.5045979 32:0.45581388 33:0.64919066 34:0.12149761 
-1.156786785638738 -0 -0 0 0 0 0 0 0 0 0 0 1:0.4556056 2:0.45204312 3:0.49512947 4:0.56768233 5:0.57996053 6:0.43535981 7:0.57472658 8:0.58177942 9:0.70498902 10:0.51361519 11:0.56054878 12:0.47642818 13:0.43965021 14:0.42426077 15:0.48882896 16:0.53379887 17:0.22157651 18:0.53945976 19:0.66398036 20:0.38182816 21:0.43600082 22:0.56669265 23:0.59060901 24:0.23346649 25:0.77121103 26:0.1379467 27:0.21773258 28:0.10059813 29:0.46145314 30:0.8331309 31:0.59880835 32:0.44280025 33:0.65860665 34:0.044719037 
-0 -0 -0 0 0 0 0 0 0 1.252409150052933 0 0 1:0.39781681 2:0.54013133 3:0.54424524 4:0.5733223 5:0.51526731 6:0.49438369 7:0.53194463 8:0.42986146 9:0.5239383 10:0.71786392 11:0.56287152 12:0.36081794 13:0.57603574 14:0.52560145 15:0.49002439 16:0.61663902 17:0.21765256 18:0.61474353 19:0.59892786 20:0.35602298 21:0.44493881 22:0.5001443 23:0.61661148 24:0.26421428 25:0.75904107 26:0.2577261 27:0.20482136 28:0.043733262 29:0.37420857 30:0.82913452 31:0.5234006 32:0.46728912 33:0.65478629 34:0.06723313 
-0 -0 -1.011176778965482 0 0 0 0 0 0 0 0 0 1:0.45361531 2:0.45169738 3:0.46957377 4:0.567114 5:0.60991466 6:0.4287447 7:0.59309554 8:0.59318036 9:0.7002731 10:0.48009136 11:0.56665468 12:0.50919944 13:0.5274623 14:0.43548506 15:0.50863445 16:0.57461435 17:0.25596645 18:0.48232853 19:0.71106011 20:0.37055722 21:0.45951623 22:0.54925478 23:0.6448974 24:0.25390607 25:0.74716121 26:0.14377417 27:0.20179138 28:0.085548826 29:0.4872722 30:0.82999587 31:0.57395482 32:0.4260174 33:0.66481692 34:0.06467557 
-0 -0 -0 3.126314389781101 3.203508172230443 0 0 0 0 0 0 0 1:0.41888037 2:0.40744403 3:0.39877111 4:0.63921392 5:0.53124774 6:0.41026732 7:0.52561861 8:0.43347579 9:0.62092054 10:0.2991651 11:0.71736789 12:0.43197203 13:0.48553959 14:0.36590138 15:0.4517875 16:0.47486427 17:0.24548283 18:0.49012566 19:0.56773388 20:0.42402473 21:0.41108668 22:0.50300372 23:0.66599858 24:0.20574372 25:0.72243434 26:0.2217592 27:0.2626898 28:0.063618988 29:0.42850715 30:0.79393756 31:0.59207994 32:0.45627013 33:0.64443517 34:0.077915907 
-0 -1.513125576869582 -0 0 0 2.34399166532955 0 0 0 0 0 0 1:0.53226787 2:0.49001175 3:0.48149812 4:0.53965861 5:0.58365673 6:0.40508515 7:0.54503745 8:0.57639509 9:0.64892042 10:0.39038524 11:0.74571961 12:0.52325153 13:0.5076915 14:0.3705205 15:0.46095893 16:0.51354522 17:0.22657013 18:0.4100982 19:0.74814886 20:0.39523551 21:0.42723447 22:0.57037866 23:0.63379729 24:0.29092756 25:0.77963465 26:0.10508776 27:0.25507858 28:0.054519527 29:0.49518904 30:0.7889089 31:0.60401368 32:0.4073534 33:0.6900118 34:0.08583194 
-0 -0.7307827829760239 -0 0 1.506062472887414 0 0 0 0 0 0 0 1:0.5248335 2:0.50840652 3:0.4955056 4:0.63479728 5:0.54874378 6:0.48419407 7:0.59799272 8:0.58547539 9:0.70508903 10:0.54541063 11:0.56005359 12:0.46504351 13:0.43709025 14:0.34480712 15:0.4835372 16:0.53058219 17:0.28316271 18:0.47786611 19:0.7118547 20:0.36273688 21:0.51479155 22:0.60223132 23:0.58649898 24:0.23205511 25:0.75108075 26:0.13391761 27:0.18855733 28:0.076857902 29:0.43138203 30:0.81384397 31:0.59841108 32:0.44990909 33:0.65504503 34:0.053795766 
-2.787245317661154 -4.52858491871968 -2.666288160255089 3.99622707711518 4.697116031358616 5.088599821204328 0 3.828949973145123 1.632388712751857 2.729316538336485 1.557710712878495 2.810018715781323 1:0.65423733 2:0.33031744 3:0.40426612 4:0.42911735 5:0.58420509 6:0.29054004 7:0.68268794 8:0.34821475 9:0.10839107 10:0.41124198 11:0.4054662 12:0.54863369 13:0.26262689 14:0.8386783 15:0.48937094 16:0.52999282 17:0.43126297 18:0.35841772 19:0.47289377 20:0.53214729 21:0.39789391 22:0.44892102 23:0.55950427 24:0.43441552 25:0.69554532 26:0.38950986 27:0.29704618 28:0.18219699 29:0.38814887 30:0.8678062 31:0.56756192 32:0.35552216 33:0.64006114 34:0.14190936 
-0 -0.978767215410135 -1.917533083805028 1.999515552067215 0.9570035080922028 0 0.9359324206172189 3.132278193559888 1.885464817478248 2.054969971070652 1.600227482675002 0 1:0.28001338 2:0.18574904 3:0.3681702 4:0.47516382 5:0.59665459 6:0.70636898 7:0.54865068 8:0.15926391 9:0.64561874 10:0.74945968 11:0.84383374 12:0.44494662 13:0.47506756 14:0.65704715 15:0.43047705 16:0.40154696 17:0.27971962 18:0.51235932 19:0.49308601 20:0.41069302 21:0.53941751 22:0.44972435 23:0.66306078 24:0.21373971 25:0.64737356 26:0.2470151 27:0.2105343 28:0.072690904 29:0.28875744 30:0.80692679 31:0.51334387 32:0.3974342 33:0.59279704 34:0.13379046 
-3.082020232148278 -0 -0 0.03193734686823716 0 3.969620559144532 2.927115262418682 0 2.079336548500067 0 0 3.695316461305965 1:0.51088232 2:0.50098979 3:0.34554735 4:0.63174039 5:0.61181277 6:0.48416671 7:0.51362324 8:0.50660014 9:0.62120765 10:0.3536092 11:0.62312353 12:0.38385502 13:0.56785494 14:0.2787196 15:0.45064104 16:0.48109427 17:0.21314923 18:0.5658133 19:0.63034242 20:0.43616116 21:0.42574903 22:0.50993162 23:0.62579817 24:0.15521832 25:0.74295354 26:0.21719526 27:0.24661967 28:0.091739967 29:0.43392757 30:0.77236021 31:0.61447382 32:0.46167123 33:0.63561678 34:0.076838292 
-0 -0 -10 1.824933994563416 1.147947415286484 0 4.980156563050167 0.4970072729957055 3.027066191305997 1.110893996824704 1.665461279447274 3.715371215854051 1:0.78856742 2:0.3224487 3:0.51863897 4:0.4892762 5:0.45419559 6:0.36787423 7:0.44612381 8:0.45748231 9:0.32588568 10:0.4263697 11:0.058893461 12:0.49261776 13:0.45594838 14:0.62619454 15:0.53096688 16:0.39864683 17:0.28646618 18:0.32431293 19:0.46982917 20:0.49960262 21:0.43995366 22:0.44288003 23:0.52015108 24:0.36129561 25:0.83341449 26:0.51224327 27:0.21179768 28:0.11464852 29:0.36811918 30:0.88139659 31:0.61597234 32:0.43338299 33:0.59116089 34:0.078411043 
-1.386285781377993 -1.735583970517061 -1.376302690904356 2.033009664358441 0.07922963530343416 0 2.457967932800309 0.7863813090178556 0.9293410713200069 1.577688618824832 2.688257882074316 2.734428236565114 1:0.60509443 2:0.60942322 3:0.3799676 4:0.69097763 5:0.50445747 6:0.58195031 7:0.5432592 8:0.49447078 9:0.59183151 10:0.6020301 11:0.55995518 12:0.33874601 13:0.46496415 14:0.25611416 15:0.62033111 16:0.66677403 17:0.27064621 18:0.69329637 19:0.74774408 20:0.31830034 21:0.63738793 22:0.5926162 23:0.60062653 24:0.13981529 25:0.72411197 26:0.29324192 27:0.18320094 28:0.10213838 29:0.35939047 30:0.74142599 31:0.57593709 32:0.46661505 33:0.62763673 34:0.043849751 
-0 -0 -0 -0 0 1.751811026433126 0 0 0 0 0 0 1:0.54660052 2:0.55030262 3:0.37354442 4:0.50891793 5:0.67802447 6:0.37816128 7:0.56930035 8:0.41236776 9:0.62138218 10:0.4685232 11:0.57495666 12:0.62036431 13:0.58823967 14:0.14866669 15:0.36210054 16:0.488352 17:0.41545773 18:0.52041477 19:0.48545974 20:0.32430536 21:0.32094076 22:0.40642306 23:0.88188034 24:0.032841757 25:0.13070452 26:0.71600175 27:0.0631596 28:0.61042774 29:0.54707372 30:0.41511449 31:0.58024395 32:0.3130919 33:0.3760877 34:0.14554283 
-0 -4.156392783781155 -0 -0.09304976272195976 0.5031373589916088 0.1412901624366965 0 3.831324310503541 1.547525363606064 2.748181720417767 0 0.5052650926481984 1:0.6603685 2:0.69377387 3:0.11818169 4:0.60667717 5:0.72651923 6:0.62108594 7:0.58508712 8:0.32736659 9:0.49016455 10:0.6214515 11:0.57425642 12:0.23643662 13:0.40001422 14:0.40555602 15:0.49240863 16:0.16609207 17:0.22036085 18:0.39586633 19:0.57976723 20:0.3348693 21:0.56923831 22:0.65142179 23:0.80465007 24:0.14809152 25:0.13290873 26:0.72837114 27:0.0068948469 28:0.55607444 29:0.39585888 30:0.50816303 31:0.54996109 32:0.31253347 33:0.4054687 34:0.057791695 
-0 -0 -0 -0 0.8501443628054655 0.2925244561934475 0 0.4713412655265221 1.744750378550713 0 0 0 1:0.6039539 2:0.70950305 3:0.24032798 4:0.52543217 5:0.66026312 6:0.69568199 7:0.52524769 8:0.31933621 9:0.42047352 10:0.49352866 11:0.59320503 12:0.21157128 13:0.51855904 14:0.39686462 15:0.51219428 16:0.25403613 17:0.30364728 18:0.47423297 19:0.61171681 20:0.36539966 21:0.52197051 22:0.71231788 23:0.83724612 24:0.10088307 25:0.070009343 26:0.71709925 27:0 28:0.53092718 29:0.39062187 30:0.48100683 31:0.53317583 32:0.30416691 33:0.37406561 34:0.094907418 
-2.986045824813375 -6.755458075176624 -0 -0 0 0 0 0 0 0 0 0 1:0.65928173 2:0.55060816 3:0.39626968 4:0.55292511 5:0.54089731 6:0.45405731 7:0.53835362 8:0.46225691 9:0.58475769 10:0.55130035 11:0.49101064 12:0.35360226 13:0.4310838 14:0.2707161 15:0.43363839 16:0.32671782 17:0.39184654 18:0.43642431 19:0.4742929 20:0.38623598 21:0.42361218 22:0.5506379 23:0.9106276 24:0.11765097 25:0.12481283 26:0.70533979 27:0.065991193 28:0.59089911 29:0.42679003 30:0.53314948 31:0.53292972 32:0.32149705 33:0.39304221 34:0.084730037 
-0 -0 -0 -0 2.064748301940962 0 1.544888579415401 0 0 0 0 0 1:0.81090051 2:0.2799204 3:0.55213279 4:0.78415382 5:0.49982008 6:0.34762076 7:0.58155203 8:0.50731248 9:0.61338055 10:0.26938492 11:0.42074323 12:0.4817189 13:0.4705379 14:0.52574682 15:0.41087171 16:0.29856688 17:0.23055917 18:0.38121971 19:0.62146842 20:0.38321891 21:0.46020046 22:0.56346577 23:0.86045659 24:0.2206964 25:0.12663509 26:0.77543348 27:0.068876453 28:0.56063014 29:0.44246355 30:0.49541607 31:0.60487735 32:0.33829537 33:0.41942766 34:0.11408468 
-3.07420916245129 -0 -0 -0 0 0 0 0 0 0 0 3.462462240330253 1:0.64539844 2:0.44550392 3:0.24014358 4:0.67557561 5:0.65150982 6:0.42040485 7:0.54472494 8:0.56787628 9:0.51315635 10:0.51411337 11:0.27113953 12:0.39388114 13:0.46787915 14:0.46650311 15:0.44423318 16:0.52326769 17:0.34233823 18:0.586761 19:0.72475415 20:0.3451665 21:0.48371601 22:0.5368678 23:0.86384457 24:0.14279586 25:0.011293253 26:0.7594505 27:0.11416225 28:0.67016721 29:0.44657606 30:0.47660372 31:0.56111538 32:0.34161395 33:0.36460921 34:0.12852575 
-2.338108616990324 -0 -0 -0 0 0 0 2.036497141739046 2.444070898689481 1.817467187778391 0.8704917597132462 0 1:0.38606179 2:0.39782944 3:0.3549414 4:0.44789749 5:0.5768348 6:0.53792477 7:0.49696159 8:0.59031808 9:0.7182613 10:0.57784134 11:0.45470068 12:0.14295463 13:0.41053492 14:0.37647131 15:0.42732051 16:0.49016485 17:0.27931541 18:0.7380392 19:0.52773035 20:0.33650902 21:0.47575361 22:0.62879747 23:0.92782384 24:0.067084774 25:0.074863002 26:0.74692422 27:0.089746587 28:0.53003561 29:0.40939978 30:0.43252534 31:0.50830925 32:0.27518532 33:0.24919888 34:0.14539999 
-3.348947784778507 -3.70042251759817 -1.269102231012886 -2.307316006144433 3.486083726019544 2.257812860697069 1.702341903177229 3.737957877439234 4.634683201072611 2.152821371219986 0 0.138733891548464 1:0.50488466 2:0.36681765 3:0.65087879 4:0.67330676 5:0.40638071 6:0.14718589 7:0.73113352 8:0.40410465 9:0.40505242 10:0.33135775 11:0.57227504 12:0.72520339 13:0.31123656 14:0.69718724 15:0.33205435 16:0.43546286 17:0.48828685 18:0.19037242 19:0.62003964 20:0.48900291 21:0.19114277 22:0.37480393 23:0.86956972 24:0.28497905 25:0.13970387 26:0.7014752 27:0.1678483 28:0.51196229 29:0.48947588 30:0.61966091 31:0.61862659 32:0.31505433 33:0.45717049 34:0.18201031 
-0 -0.03590951377974093 -0 -1.63844989311409 2.928679781282283 1.051238265541895 0 0 0 0 2.638501513233049 0 1:0.587116 2:0.26858822 3:0.27885038 4:0.53265154 5:0.58342636 6:0.40768123 7:0.64559817 8:0.5946455 9:0.51484364 10:0.66913497 11:0.48991424 12:0.26816094 13:0.5091756 14:0.52486646 15:0.38392839 16:0.42673716 17:0.37705782 18:0.62042361 19:0.46376905 20:0.33792078 21:0.29197171 22:0.6610285 23:0.82899523 24:0.14886911 25:0.12114026 26:0.67980498 27:0.12391699 28:0.47725207 29:0.41880232 30:0.45009562 31:0.55134499 32:0.25320193 33:0.33295593 34:0.10887918 
-1.740485921426294 -0.726388918615091 -6.945046593138255 -4.94099474570835 0.3500327981865139 3.243415904524678 2.595917769355327 1.373876268577698 1.054503446628509 2.679811268398598 3.716695066615618 5.781473859011798 1:0.91463637 2:0.49725977 3:0.58543587 4:0.63717252 5:0.42791763 6:0.43069461 7:0.56189799 8:0.15107599 9:0.55709445 10:0.40273428 11:0.81802678 12:0.65427232 13:0.50584459 14:0.68103456 15:0.38219428 16:0.1419467 17:0.34570152 18:0.32050326 19:0.44936594 20:0.30546302 21:0.25096953 22:0.41559806 23:0.72775364 24:0.19464621 25:0.35741037 26:0.8603 27:0.20158526 28:0.45528522 29:0.49148184 30:0.54948294 31:0.67343831 32:0.28205559 33:0.54286236 34:0.029111518 
-0 -0 -1.324315987446407 -0 0.1028798195742396 0.4437267831920487 0 0 1.187636023948329 0 0 1.436699483649167 1:0.38187656 2:0.53167123 3:0.45465571 4:0.45336539 5:0.52148968 6:0.43661723 7:0.49486849 8:0.63209862 9:0.73032057 10:0.30504268 11:0.32166871 12:0.36179572 13:0.38091764 14:0.21132562 15:0.38155597 16:0.35478115 17:0.27538285 18:0.5166766 19:0.57150906 20:0.29588416 21:0.44142145 22:0.57732558 23:0.82512814 24:0.017018536 25:0.099682942 26:0.62961149 27:0.066821255 28:0.54373968 29:0.49880561 30:0.48405918 31:0.54865956 32:0.33092806 33:0.29257947 34:0.1076769 
-0.8590040331928223 -0 -4.052517078386847 -4.654926874152546 0 3.134214154959987 4.355051023452106 0 0 1.8116711034259 2.567829279922984 3.111966091826269 1:0.43459442 2:0.40293592 3:0.39802086 4:0.49888784 5:0.66982353 6:0.41219175 7:0.50652546 8:0.62192303 9:0.5206759 10:0.40823299 11:0.35729495 12:0.29001862 13:0.31858206 14:0.3423799 15:0.43381017 16:0.43365148 17:0.33088699 18:0.55485082 19:0.65484935 20:0.35984007 21:0.60985011 22:0.61794931 23:0.83493626 24:0 25:0.11758647 26:0.609833 27:0.041064017 28:0.55574054 29:0.38870931 30:0.44852063 31:0.51356345 32:0.31440869 33:0.31428584 34:0.12987562 
-0 -0 -0.9195325343476808 -0 0 0.3720509911540227 1.571021081545088 0.4979931418422596 0 0.1912479960646561 0 0 1:0.54698378 2:0.18592538 3:0.48783034 4:0.6208021 5:0.56924713 6:0.53082877 7:0.69107825 8:0.64321506 9:0.43880302 10:0.58436406 11:0.60238808 12:0.27651167 13:0.75840443 14:0.5415585 15:0.38829201 16:0.34819591 17:0.30250561 18:0.69822919 19:0.50652158 20:0.37239558 21:0.30085552 22:0.66235232 23:0.86771238 24:0.17779201 25:0.13574223 26:0.81271732 27:0.15698054 28:0.56318241 29:0.40083191 30:0.40423185 31:0.60191435 32:0.30149555 33:0.37156901 34:0.11064281 
-0 -0 -0 -0 1.559308054376156 0 0 0 0 0 1.752201583238708 0 1:0.43937299 2:0.45373732 3:0.52086908 4:0.50345606 5:0.45100865 6:0.44755903 7:0.58088464 8:0.56460327 9:0.57423931 10:0.36815414 11:0.53826052 12:0.4253698 13:0.36095077 14:0.56295639 15:0.42793715 16:0.42381868 17:0.37368512 18:0.53756702 19:0.5436039 20:0.37741706 21:0.42475164 22:0.46313098 23:0.92859083 24:0.14133541 25:0.1198393 26:0.71875691 27:0.14031309 28:0.50053185 29:0.40449816 30:0.46936315 31:0.51010829 32:0.26342764 33:0.34893554 34:0.11547025 
-0 -0 -0 -0 1.364666252432256 0 0 0 0 0 0 0 1:0.56118828 2:0.4473865 3:0.48344564 4:0.56622726 5:0.50638062 6:0.52202988 7:0.58708107 8:0.49305367 9:0.73610729 10:0.48461688 11:0.57272059 12:0.35071546 13:0.35136038 14:0.51109028 15:0.47053286 16:0.33207893 17:0.30783591 18:0.42980871 19:0.57287413 20:0.3521511 21:0.47140133 22:0.54169858 23:0.80184305 24:0.14551838 25:0.10367832 26:0.70249802 27:0.047950331 28:0.55344379 29:0.39238495 30:0.4658905 31:0.55707628 32:0.29682398 33:0.37826529 34:0.086285315 
-4.407611368084838 -0 -4.551858612004025 -0.404903161774037 -2.552863367208482 2.129460291725993 2.057898839500369 2.755316474310397 3.928827091889793 0.3714191537146392 3.887189197607847 0 1:0.59234315 2:0.47059003 3:0.49001631 4:0.70185238 5:0.73168194 6:0.74730492 7:0.4527227 8:0.441899 9:0.6035732 10:0.51385236 11:0.52590662 12:0.29919934 13:0.76523042 14:0.36345083 15:0.45712146 16:0.29796836 17:0.13916817 18:0.47101721 19:0.39117944 20:0.39045367 21:0.41798186 22:0.46883425 23:0.634166 24:0.82783961 25:0.15296932 26:0.59204435 27:0.4718588 28:0.15598583 29:0.55636853 30:0.63117111 31:0.60081613 32:0.52347326 33:0.60459059 34:0.08744245 
-5.181247386031278 -1.645852594194014 -0 -0.9187048795724166 -1.868455971481931 3.787411229836431 0 1.382521800916429 1.770087498797436 0.1002163906834971 0.8114790918623735 0.2226402901700624 1:0.23582339 2:0.31454289 3:0.43758401 4:0.46275613 5:0.56570643 6:0.50923723 7:0.59612262 8:0.58366382 9:0.58920681 10:0.67932528 11:0.50298375 12:0.22971497 13:0.28348181 14:0.53820491 15:0.4481436 16:0.49633592 17:0.43967259 18:0.48502386 19:0.40553871 20:0.49095228 21:0.42636564 22:0.61073059 23:0.52067041 24:0.80242437 25:0.0038867337 26:0.3633014 27:0.42103076 28:0.18676226 29:0.45119613 30:0.58680475 31:0.57541198 32:0.47993052 33:0.5549407 34:0.1901329 
-0.9542390519016409 -0.7307385130591624 -0 -0.2949573409602053 -0 1.770982462262087 1.852993174630764 1.953365312174992 1.003356370285226 1.060975911509981 0 1.058858223994242 1:0.66222954 2:0.78758246 3:0.42752302 4:0.77044845 5:0.67828226 6:0.63167644 7:0.51996708 8:0.099827781 9:0.51645482 10:0.7159785 11:0.83725876 12:0.30711997 13:0.49843699 14:0.30876794 15:0.50491315 16:0.41136223 17:0.28106779 18:0.8920455 19:0.60180557 20:0.35581392 21:0.37093845 22:0.82319832 23:0.43718392 24:0.93419451 25:0.060423609 26:0.46847218 27:0.42555919 28:0.27728018 29:0.52202016 30:0.45608044 31:0.68578941 32:0.63383317 33:0.7612195 34:0.20518665 
-5.412818561073948 -2.136924671916562 -5.059492665374121 -0.1957687318541053 -4.760131397040854 2.551126485528732 5.996851343413089 3.937899569793232 3.852153078894944 0 3.833995279739512 0 1:0.57243979 2:0.50444198 3:0.56518787 4:0.58957499 5:0.27172303 6:0.42719552 7:0.53428739 8:0.55274594 9:0.55094039 10:0.23157194 11:0.23836604 12:0.41392982 13:0.39354339 14:0.29165667 15:0.6557216 16:0.60624349 17:0.55685663 18:0.54759127 19:0.55700409 20:0.48557317 21:0.63006818 22:0.50180691 23:0.52448028 24:0.75904232 25:0.065794811 26:0.54794019 27:0.33594379 28:0.24865137 29:0.42856202 30:0.61788642 31:0.55569255 32:0.45929742 33:0.51294655 34:0.152431 
-0.6346106113382513 -0 -0 -0 -0.6557278550825528 0 2.3453678262839 0 0 2.770964573976508 0.2402061124697925 0.106272983133012 1:0.49226168 2:0.53085363 3:0.63986683 4:0.75121033 5:0.58901566 6:0.16949528 7:0.52431613 8:0.59721518 9:0.58859622 10:0.4008581 11:0.36797851 12:0.22287944 13:0.31099132 14:0.22169201 15:0.31478083 16:0.46500289 17:0.25672349 18:0.46655017 19:0.63778996 20:0.58225751 21:0.4981443 22:0.7392332 23:0.48986012 24:0.79305249 25:0.10258534 26:0.52111101 27:0.38924921 28:0.18129592 29:0.5188961 30:0.60623395 31:0.54420936 32:0.59546989 33:0.65139741 34:0.19434184 
-0 -0 -2.665140622827669 -5.577145325089356 -0 1.467231221739908 0.2195404249669285 0 1.226871827214019 1.397556891633822 0.1223063637805564 3.861108505688319 1:0.44547436 2:0.4762333 3:0.62618756 4:0.46047735 5:0.48735428 6:0.44857663 7:0.5556218 8:0.5760752 9:0.54734999 10:0.25598899 11:0.38332897 12:0.23537169 13:0.41456309 14:0.33056486 15:0.52408832 16:0.26616389 17:0.30375299 18:0.37612003 19:0.51069504 20:0.48756665 21:0.62278545 22:0.393821 23:0.45139435 24:0.76572597 25:0.1817463 26:0.46409917 27:0.35187197 28:0.14554062 29:0.4766928 30:0.68253374 31:0.5424695 32:0.5254662 33:0.5011099 34:0.095831648 
-0 -4.05538175443398 -0 -4.86363658614953 -3.372501864795212 0 0 2.198366068096425 0 1.566361706757649 1.234032393132744 0.1936814350115672 1:0.69338083 2:0.30503219 3:0.51480418 4:0.64744097 5:0.60514063 6:0.36915886 7:0.55587661 8:0.5396207 9:0.48719212 10:0.43085602 11:0.7684015 12:0.50604337 13:0.4147121 14:0.7890932 15:0.45510447 16:0.45283034 17:0.37239185 18:0.44728619 19:0.35365942 20:0.45078021 21:0.57649273 22:0.47580361 23:0.58841193 24:0.93070394 25:0.14579059 26:0.53829825 27:0.43290812 28:0.18518016 29:0.3958056 30:0.65857083 31:0.54245079 32:0.46701708 33:0.64156872 34:0.15249164 
-0 -0 -0.3195165319321224 -0 -0 0 0 0 0 0 0 0 1:0.5602321 2:0.31604448 3:0.45681906 4:0.57430637 5:0.70553869 6:0.41687837 7:0.58218306 8:0.56960434 9:0.42798129 10:0.427944 11:0.60774148 12:0.47896308 13:0.42159295 14:0.69652683 15:0.41155231 16:0.35731351 17:0.31555817 18:0.40802741 19:0.39623815 20:0.42856765 21:0.44481996 22:0.49761942 23:0.56987935 24:1 25:0.18482417 26:0.50596482 27:0.45292851 28:0.18982813 29:0.50635982 30:0.66135371 31:0.55136847 32:0.50846756 33:0.63108039 34:0.15568405 
-0 -0 -0 -0 -0 0.2696922888897416 0.6470076198315631 0 0.4983442836434139 0 0 0 1:0.49900401 2:0.67684025 3:0.71572858 4:0.69271219 5:0.59643477 6:0.11849023 7:0.3563053 8:0.60871077 9:0.64870214 10:0.20436986 11:0.43273658 12:0.12690184 13:0.46611756 14:0.31248885 15:0.27203745 16:0.42794353 17:0.16373925 18:0.46092889 19:0.61328036 20:0.53219348 21:0.4354513 22:0.69804573 23:0.47190502 24:0.82088774 25:0.14396644 26:0.46348926 27:0.37985232 28:0.14451203 29:0.55465508 30:0.61462826 31:0.5449689 32:0.59714621 33:0.65015632 34:0.19005796 
-0.3805325415909426 -4.838908244381902 -0 -2.154694128024759 -0 0 0 0 0 4.801985946197065 0 7.420812901298395 1:0.68360984 2:0.58319247 3:0.42674917 4:0.65902919 5:0.46009848 6:0.50599295 7:0.48127645 8:0.58435422 9:0.56704694 10:0.39636818 11:0.45582649 12:0.37483847 13:0.45606902 14:0.28113282 15:0.57552016 16:0.33267978 17:0.34813029 18:0.55963105 19:0.48173204 20:0.38955185 21:0.52627724 22:0.51983994 23:0.46830505 24:0.80973554 25:0.1821951 26:0.51495498 27:0.35933951 28:0.26413831 29:0.50086188 30:0.63839889 31:0.5653969 32:0.57374913 33:0.58059955 34:0.041451126 
-0.01413320408392353 -0.0008902000054075291 -0 -0 -0 -0 0 0 0 0 0 0 1:0.4622587 2:0.49327227 3:0.1801603 4:0.55619007 5:0.56476271 6:0.7379815 7:0.27980995 8:0.56325394 9:0.72430909 10:0.80145025 11:0.16616708 12:0.028642761 13:0.65122294 14:0.4454549 15:0.71676195 16:0.43670571 17:0.57965112 18:0.41421169 19:0.91595441 20:0.31790036 21:0.15532383 22:0.7841019 23:0.55732501 24:0.4970406 25:0.51265442 26:0.299943 27:0.36085767 28:0.42405316 29:0.80330384 30:0.30249265 31:0.82985812 32:0.36695403 33:0.58682412 34:0.53665042 
-0.01201838264888953 -0.001279914217846399 -0.04975005438266451 -0.003772632620317494 -0.002618042372096772 -0.0003902399261741307 0 0 0 0 0 0 1:0.60711187 2:0.26967764 3:0.65990067 4:0.71367937 5:0.45010248 6:0.35193804 7:0.28747833 8:0.31402621 9:0.73296356 10:0.4610005 11:0.51705897 12:0.026394509 13:0.48371974 14:0.71666485 15:0.27798292 16:0.16667569 17:0.37105262 18:0.66925466 19:0 20:0.72448075 21:0.45284206 22:0.41798705 23:0.5614332 24:0.18103333 25:0.75743711 26:0.34439498 27:0.3887659 28:0.44482872 29:0.74769932 30:0.19753076 31:0.83077854 32:0.19351472 33:0.51055288 34:0.55729055 
-0.01436517464543257 -0.0006162948117764808 -0.03608559481853917 -0 -0 -0.0001485068152109732 0 0 0 0 0 0 1:0.49423626 2:0.44977179 3:0.50882226 4:0.919447 5:0.4474054 6:0.63407439 7:0.89514416 8:0.426788 9:0.41379353 10:0.3872382 11:0.69575334 12:0.47514614 13:0.0076054442 14:0.47023958 15:0.70910728 16:0.045106106 17:0.022868063 18:0.42033288 19:0.77649665 20:0.38545507 21:0.5562622 22:0.59122688 23:0.62455428 24:0.3831374 25:0.57598197 26:0.26808351 27:0.28567523 28:0.58808994 29:0.90057391 30:0.25256249 31:0.56539601 32:0.21202633 33:0.49407321 34:0.666592 
-0 -0.001251098313844015 -0 -0.004560954816734275 -0.03716390998048103 -0 0 0 0 0 0 0 1:0.47217208 2:0.7212643 3:0.25675508 4:0.69544202 5:0.66471606 6:0.38005501 7:0.32764089 8:0.35725209 9:0.30597648 10:0.41140985 11:0.7270878 12:0.94198388 13:0.70330292 14:0.45416957 15:0.72876871 16:0.31335694 17:0.30045161 18:0.42713863 19:0.63970196 20:0.38912067 21:0.39697975 22:0.52249146 23:0.72180754 24:0.35734653 25:0.54951662 26:0.29405868 27:0.34589094 28:0.55043018 29:0.92979246 30:0.24696282 31:0.61720753 32:0.29454938 33:0.47592342 34:0.61626339 
-0 -0 -0 -0 -0.03194148311307422 -0 0 0 0 0 0 0 1:0.79682243 2:0.28138024 3:0.5072453 4:0.64023721 5:0.61060119 6:0.22107552 7:0.52098411 8:0.29966673 9:0.51901996 10:0.42360559 11:0.74670345 12:0.30545723 13:0.39381793 14:0.57671666 15:0.66250217 16:0.58961731 17:0.46384436 18:0.92484766 19:0.8954646 20:0.43011445 21:0.49903938 22:0.61098737 23:0.69801801 24:0.46734241 25:0.55786359 26:0.20981418 27:0.29812589 28:0.65579212 29:0.80913115 30:0.2476812 31:0.73893112 32:0.32179132 33:0.42687675 34:0.58893633 
-3.655188950496127e-07 -0 -0 -0 -0 -0 0 0 0 0 0 0 1:0.17713828 2:0.36614963 3:0.6438933 4:1 5:0.65837729 6:0.57260734 7:0.27713603 8:0.75380337 9:0.36273578 10:0.77615392 11:0.28400412 12:0.51997721 13:0.22678477 14:0.6301232 15:0.8657012 16:0.3951143 17:0.084276006 18:0.51255965 19:0.39434004 20:0.46219888 21:0.72776973 22:0.60256308 23:0.59285498 24:0.22991823 25:0.54793423 26:0.34204903 27:0.35614216 28:0.64746851 29:0.85392654 30:0.14771059 31:0.60673124 32:0.24384698 33:0.4431316 34:0.72792423 
-0 -0 -0 -0 -0 -0.0002872139471317851 0 0 0 0 0 0 1:0.28749427 2:0.28561646 3:0.60945904 4:0.67021185 5:0.4876287 6:0.21806081 7:0.2738623 8:0.61563802 9:0.41666564 10:0.90262067 11:0.32359082 12:0.51426131 13:0.2370894 14:0.35116678 15:0.62832379 16:0.50577128 17:0.12630579 18:0.40164357 19:0.39022768 20:0.45274246 21:0.9474715 22:0.53314704 23:0.54622817 24:0.33629543 25:0.65601379 26:0.25214636 27:0.31960669 28:0.57163852 29:0.84022725 30:0.19894201 31:0.64225489 32:0.21459106 33:0.500067 34:0.72470063 
-0.01084541233694937 -0 -0.03957182350394843 -0.0004461784812864524 -0.03069100209865551 -0.0002851646870450637 0 0 0 0 0 0 1:0.53987813 2:0.69303393 3:0.77375787 4:0.36069259 5:0.90797889 6:0.72892684 7:0.72726786 8:0.3869476 9:0 10:0.30681574 11:0.26133913 12:0.85273623 13:0.55997711 14:0.43558723 15:0.65331709 16:0.52479923 17:1 18:0.44028577 19:0.75864691 20:0.36038998 21:1.7713933e-16 22:0.64410734 23:0.60023427 24:0.50402999 25:0.62331665 26:0.2253671 27:0.2588664 28:0.49813646 29:0.74031276 30:0.28493494 31:0.59701842 32:0.52719283 33:0.56145036 34:0.52744102 
-2.08651498170782 -0.2727601082210443 -1.980842005200982 -0 -0 -2.634381257992004 3.398881293315892 3.154615573509813 1.056743930166759 0.6484692993673161 0.5529176202527597 1.463589539894881 1:0.4622587 2:0.49327227 3:0.1801603 4:0.55619007 5:0.56476271 6:0.7379815 7:0.27980995 8:0.56325394 9:0.72430909 10:0.80145025 11:0.16616708 12:0.028642761 13:0.65122294 14:0.4454549 15:0.71676195 16:0.43670571 17:0.57965112 18:0.41421169 19:0.91595441 20:0.31790036 21:0.15532383 22:0.7841019 23:0.55732501 24:0.4970406 25:0.51265442 26:0.299943 27:0.36085767 28:0.42405316 29:0.80330384 30:0.30249265 31:0.82985812 32:0.36695403 33:0.58682412 34:0.53665042 
-1.41115019960688 -1.649174229054474 -1.037536381499351 -0.4783343349713791 -1.483429877292563 -0.971405592349716 0.03647754707297691 2.068359694690163 3.306784226587305 1.505507429710693 0.5611241791151507 1.127208209648548 1:0.49423626 2:0.44977179 3:0.50882226 4:0.919447 5:0.4474054 6:0.63407439 7:0.89514416 8:0.426788 9:0.41379353 10:0.3872382 11:0.69575334 12:0.47514614 13:0.0076054442 14:0.47023958 15:0.70910728 16:0.045106106 17:0.022868063 18:0.42033288 19:0.77649665 20:0.38545507 21:0.5562622 22:0.59122688 23:0.62455428 24:0.3831374 25:0.57598197 26:0.26808351 27:0.28567523 28:0.58808994 29:0.90057391 30:0.25256249 31:0.56539601 32:0.21202633 33:0.49407321 34:0.666592 
-0 -0 -0.05075449855153429 -0 -0 -0 0.1013736259457792 0 0 0.1555112562808129 0 0 1:0.53976965 2:0.64854264 3:0.5029161 4:0.56152076 5:0.55583829 6:0.47964534 7:1 8:0.32733664 9:0.40541908 10:0.52740359 11:0.80764472 12:0.3492566 13:0.68216211 14:0.57357734 15:0.3243297 16:0.52756566 17:0.18540296 18:0.9368192 19:0.3625876 20:0.49842 21:0.67028463 22:0.47196755 23:0.42353407 24:0.48590437 25:0.79416347 26:0.36726135 27:0.47755966 28:0.55295968 29:0.78867137 30:0.19866258 31:0.74521011 32:0.22722787 33:0.44055438 34:0.73429036 
-0 -0 -0.06748068823693996 -0.001310588039946641 -0.04030677504898116 -0 0 0 0 0 0 0 1:0.5949949 2:0.5798381 3:0.21018453 4:1.5937967e-15 5:0.45718157 6:0.66314584 7:0.50782979 8:0.23582177 9:0.82995725 10:0.09609063 11:0.43525186 12:0.2427596 13:0.68678921 14:0.51965165 15:0.459117 16:0.70039022 17:0.16276783 18:0.43854135 19:0.12999298 20:0.61952955 21:0.71062785 22:0.1935627 23:0.66292381 24:0.31695911 25:0.61307722 26:0.39804155 27:0.25224391 28:0.5686031 29:0.787839 30:0.34106773 31:0.5889411 32:0.24994709 33:0.35751855 34:0.59820241 
-0 -0 -0.08987719765210869 -0.0006061641171391988 -0 -0 0 0 0 0 0 0 1:0.89275974 2:0.35158011 3:0.34013629 4:0.56588078 5:0.63348198 6:0.497868 7:0.76827079 8:0.58720857 9:0.73868251 10:0.3407861 11:0.47938269 12:0.33296481 13:0.63627714 14:0.57813776 15:0.46490335 16:0.061712965 17:0.45339191 18:0.35396323 19:0.45294473 20:0.51196694 21:0.23406126 22:0.51476669 23:0.47085726 24:0.47680673 25:0.74105215 26:0.31100425 27:0.36306801 28:0.42027557 29:0.8234778 30:0.39661413 31:0.7862457 32:0.28794503 33:0.57767302 34:0.53585184 
-0 -0 -0 -0 -0 -0.0007483164665495229 0 0 0 0 0 0 1:0.32009694 2:0.46420032 3:0.15847068 4:0.22634362 5:0.63228971 6:0.4319863 7:0.84806716 8:0.80659449 9:0.63188517 10:0.31047466 11:0.44909808 12:0.18375248 13:0.63338614 14:0.42580476 15:0.43883097 16:0.25869986 17:0.41654512 18:0.23421101 19:0.50987929 20:0.56532466 21:0.34463531 22:0.24114709 23:0.64045417 24:0.42756462 25:0.63276339 26:0.32173076 27:0.39663741 28:0.43087301 29:0.81639886 30:0.38769972 31:0.58224756 32:0.28212249 33:0.53144825 34:0.4764154 
-0.0002369798700429084 -0.0003796265883725044 -0.02113580379470341 -0 -0 -5.137603401446447e-07 0 0 0 0 0 9.161778470754845e-05 1:0.56306762 2:0.42386228 3:0.63834494 4:0.64559722 5:0.42995393 6:0.5452826 7:0.74921489 8:0.22848366 9:0.64288551 10:0.85883939 11:0.66015559 12:0.13806552 13:0.7689544 14:0.30181903 15:0.22654055 16:0.79215705 17:0.24497212 18:0.374172 19:0.67044932 20:0.16743554 21:0.70171762 22:0.54901075 23:0.47527978 24:0.4863334 25:0.53490341 26:0.1835686 27:0.44102907 28:0.61875272 29:0.85147101 30:0.31093124 31:0.69997627 32:0.18131462 33:0.45637873 34:0.70491439 
-0.4422077210113582 -0.7254525376032582 -0 -0.7695226929856137 -1.80772867915572 -0 0 1.146412369592881 0 0.3252645956584152 0.5194055864470274 1.566586787626914 1:0.47217208 2:0.7212643 3:0.25675508 4:0.69544202 5:0.66471606 6:0.38005501 7:0.32764089 8:0.35725209 9:0.30597648 10:0.41140985 11:0.7270878 12:0.94198388 13:0.70330292 14:0.45416957 15:0.72876871 16:0.31335694 17:0.30045161 18:0.42713863 19:0.63970196 20:0.38912067 21:0.39697975 22:0.52249146 23:0.72180754 24:0.35734653 25:0.54951662 26:0.29405868 27:0.34589094 28:0.55043018 29:0.92979246 30:0.24696282 31:0.61720753 32:0.29454938 33:0.47592342 34:0.61626339 
-0 -2.445399494079185 -1.871001591545615 -0.8398147922256806 -1.127164179943956 -0.8012953489748522 2.608068184706517 3.550673388341308 4.449964602361305 2.58093758004579 0.8039362018966577 1.361124191713467 1:0.5949949 2:0.5798381 3:0.21018453 4:1.5937967e-15 5:0.45718157 6:0.66314584 7:0.50782979 8:0.23582177 9:0.82995725 10:0.09609063 11:0.43525186 12:0.2427596 13:0.68678921 14:0.51965165 15:0.459117 16:0.70039022 17:0.16276783 18:0.43854135 19:0.12999298 20:0.61952955 21:0.71062785 22:0.1935627 23:0.66292381 24:0.31695911 25:0.61307722 26:0.39804155 27:0.25224391 28:0.5686031 29:0.787839 30:0.34106773 31:0.5889411 32:0.24994709 33:0.35751855 34:0.59820241 
-0 -0 -0 -0 -0 -0 0 0 0 0 0 0.1218259178369712 1:0.61648792 2:0.20945165 3:0.13659249 4:0.22210944 5:0.56796402 6:0.3158783 7:0.60494673 8:0.81341308 9:0.86109537 10:0.45060229 11:0.73857313 12:0.12808171 13:0.58579499 14:0.52750832 15:1 16:0.58773315 17:0.46768245 18:0.464643 19:0.8176533 20:0.56947076 21:0.21308166 22:0.74457997 23:0.6301465 24:0.49626079 25:0.46937442 26:0.26153114 27:0.32177773 28:0.4566634 29:0.82967848 30:0.31623986 31:0.74461788 32:0.34916523 33:0.51897192 34:0.59884053 
-0.1109466239922539 -0 -0 -0 -0 -0 0 0 1.471648695995153 0 0.8133344269176076 0 1:0.57054913 2:0.70113933 3:0.47244918 4:0.62245053 5:0.74406368 6:0.84699726 7:0.71306157 8:0.77878445 9:0.7364096 10:0.2897743 11:0.5452038 12:0.30935034 13:0.50599462 14:0.32457465 15:0.5804106 16:0.093989827 17:0.77628309 18:0.64411676 19:0.40854129 20:0.59590954 21:0.30607137 22:0.49689546 23:0.67773837 24:0.30478314 25:0.82971901 26:0.24592386 27:0.36747503 28:0.37125459 29:0.77106375 30:0.22208881 31:0.60967368 32:0.31929332 33:0.46439049 34:0.62513179 
-0 -0 -0.5608897333804852 -1.981248355498516 -0 -0 0.2396563044097243 1.56999784219213 0.3616952772106455 0.2053466282713151 0.09566510568808043 4.202533984394427 1:0.89275974 2:0.35158011 3:0.34013629 4:0.56588078 5:0.63348198 6:0.497868 7:0.76827079 8:0.58720857 9:0.73868251 10:0.3407861 11:0.47938269 12:0.33296481 13:0.63627714 14:0.57813776 15:0.46490335 16:0.061712965 17:0.45339191 18:0.35396323 19:0.45294473 20:0.51196694 21:0.23406126 22:0.51476669 23:0.47085726 24:0.47680673 25:0.74105215 26:0.31100425 27:0.36306801 28:0.42027557 29:0.8234778 30:0.39661413 31:0.7862457 32:0.28794503 33:0.57767302 34:0.53585184 
-4.209982025981387 -2.974146330595143 -2.105998270939104 -3.228696133803904 -2.103431852566048 -2.44099685446065 0 0.8664388187527973 1.773033225910446 1.858355885414474 3.389325219639447 1.015833925889968 1:0.32009694 2:0.46420032 3:0.15847068 4:0.22634362 5:0.63228971 6:0.4319863 7:0.84806716 8:0.80659449 9:0.63188517 10:0.31047466 11:0.44909808 12:0.18375248 13:0.63338614 14:0.42580476 15:0.43883097 16:0.25869986 17:0.41654512 18:0.23421101 19:0.50987929 20:0.56532466 21:0.34463531 22:0.24114709 23:0.64045417 24:0.42756462 25:0.63276339 26:0.32173076 27:0.39663741 28:0.43087301 29:0.81639886 30:0.38769972 31:0.58224756 32:0.28212249 33:0.53144825 34:0.4764154 
-0 -0 -0 -0 -0.7627573506398891 -0 0 0 0 0.05292943008663406 0 0.4415499174308587 1:0.76163381 2:0.80507278 3:0.24686681 4:0.60083157 5:0.57045603 6:0.47075015 7:0.56765234 8:0.56074578 9:0.77981365 10:0.65222371 11:0.49356964 12:0.3084586 13:0.59299898 14:0.52445775 15:0.24538855 16:0.55089188 17:0.22223917 18:0.09242212 19:0.80219889 20:0.2377501 21:0.35052225 22:0.38538066 23:0.61595935 24:0.58924931 25:0.41871232 26:0.2244186 27:0.34168002 28:0.51436794 29:0.98537582 30:0.35613909 31:0.7343412 32:0.26163593 33:0.45832911 34:0.6600008 
-4.635925818379896 -3.767304502115985 -0.1257145695599558 -0 -0 -1.08520121580471 1.069600030049527 3.143293493882348 4.57612240089288 1.328524494726196 2.402792962986888 0.7958253535341604 1:0.56306762 2:0.42386228 3:0.63834494 4:0.64559722 5:0.42995393 6:0.5452826 7:0.74921489 8:0.22848366 9:0.64288551 10:0.85883939 11:0.66015559 12:0.13806552 13:0.7689544 14:0.30181903 15:0.22654055 16:0.79215705 17:0.24497212 18:0.374172 19:0.67044932 20:0.16743554 21:0.70171762 22:0.54901075 23:0.47527978 24:0.4863334 25:0.53490341 26:0.1835686 27:0.44102907 28:0.61875272 29:0.85147101 30:0.31093124 31:0.69997627 32:0.18131462 33:0.45637873 34:0.70491439 
-1.63062365784907 -3.799599099915968 -1.421048046084139 -1.949038662333987 -1.725352931612163 -1.040704898255077 4.10527222837053 0.326490905492083 0 0.7833331050409836 0.1955965505859397 1.104868123444232 1:0.79682243 2:0.28138024 3:0.5072453 4:0.64023721 5:0.61060119 6:0.22107552 7:0.52098411 8:0.29966673 9:0.51901996 10:0.42360559 11:0.74670345 12:0.30545723 13:0.39381793 14:0.57671666 15:0.66250217 16:0.58961731 17:0.46384436 18:0.92484766 19:0.8954646 20:0.43011445 21:0.49903938 22:0.61098737 23:0.69801801 24:0.46734241 25:0.55786359 26:0.20981418 27:0.29812589 28:0.65579212 29:0.80913115 30:0.2476812 31:0.73893112 32:0.32179132 33:0.42687675 34:0.58893633 
-0.4544404276324402 -0 -0 -0 -0 -0 0 0.05323780345753711 0.5454185299381101 0.3992519648300168 0.9397309805251562 0 1:0.17713828 2:0.36614963 3:0.6438933 4:1 5:0.65837729 6:0.57260734 7:0.27713603 8:0.75380337 9:0.36273578 10:0.77615392 11:0.28400412 12:0.51997721 13:0.22678477 14:0.6301232 15:0.8657012 16:0.3951143 17:0.084276006 18:0.51255965 19:0.39434004 20:0.46219888 21:0.72776973 22:0.60256308 23:0.59285498 24:0.22991823 25:0.54793423 26:0.34204903 27:0.35614216 28:0.64746851 29:0.85392654 30:0.14771059 31:0.60673124 32:0.24384698 33:0.4431316 34:0.72792423 
-0 -0.9176235528968507 -0.998137457393402 -0.9090662467832021 -0 -0.5960334669879693 2.184854670309918 2.105873264066492 0 0.6673195149880528 0.7368156712648208 0.7327616933688896 1:0.28749427 2:0.28561646 3:0.60945904 4:0.67021185 5:0.4876287 6:0.21806081 7:0.2738623 8:0.61563802 9:0.41666564 10:0.90262067 11:0.32359082 12:0.51426131 13:0.2370894 14:0.35116678 15:0.62832379 16:0.50577128 17:0.12630579 18:0.40164357 19:0.39022768 20:0.45274246 21:0.9474715 22:0.53314704 23:0.54622817 24:0.33629543 25:0.65601379 26:0.25214636 27:0.31960669 28:0.57163852 29:0.84022725 30:0.19894201 31:0.64225489 32:0.21459106 33:0.500067 34:0.72470063 
-1.844748329610753 -1.981211136169237 -1.607170599126135 -2.225417052042365 -1.505489857990683 -1.469647957167608 3.27612115304381 2.332243066126257 3.817813730171762 2.204181501332033 0.6794593193730434 0.2753554827006735 1:0.53987813 2:0.69303393 3:0.77375787 4:0.36069259 5:0.90797889 6:0.72892684 7:0.72726786 8:0.3869476 9:0 10:0.30681574 11:0.26133913 12:0.85273623 13:0.55997711 14:0.43558723 15:0.65331709 16:0.52479923 17:1 18:0.44028577 19:0.75864691 20:0.36038998 21:1.7713933e-16 22:0.64410734 23:0.60023427 24:0.50402999 25:0.62331665 26:0.2253671 27:0.2588664 28:0.49813646 29:0.74031276 30:0.28493494 31:0.59701842 32:0.52719283 33:0.56145036 34:0.52744102 
-0.4727166272593639 -0.2828597037175111 -1.25144784719783 -1.151788722798796 -2.030008663318659 -0.9343774323878531 2.028555768110648 0 0 0.6136030217809276 1.048793314180442 0 1:0.60711187 2:0.26967764 3:0.65990067 4:0.71367937 5:0.45010248 6:0.35193804 7:0.28747833 8:0.31402621 9:0.73296356 10:0.4610005 11:0.51705897 12:0.026394509 13:0.48371974 14:0.71666485 15:0.27798292 16:0.16667569 17:0.37105262 18:0.66925466 19:0 20:0.72448075 21:0.45284206 22:0.41798705 23:0.5614332 24:0.18103333 25:0.75743711 26:0.34439498 27:0.3887659 28:0.44482872 29:0.74769932 30:0.19753076 31:0.83077854 32:0.19351472 33:0.51055288 34:0.55729055 
-0 -0 -0 -0 -0.0007026301748729077 -0.0009511948237118906 -0 0 0 0 0 0 1:0.77101618 2:0.60602248 3:0.41263619 4:0.76130533 5:0.60450923 6:0.33836091 7:0.59092104 8:0.59834886 9:0.2649574 10:0.76591462 11:0.44426399 12:0.2956135 13:0.65259933 14:0.636581 15:0.46300179 16:0.81770861 17:0.067325138 18:0.41318855 19:0.99711847 20:0.94561124 21:0.42456329 22:0.78752571 23:0.91764027 24:0.46168339 25:0.45100141 26:0.55031925 27:0.40772542 28:0.51479638 29:0.24259378 30:0.34582204 31:0.94120282 32:0.6473918 33:0.56950146 34:0.58851147 
-0 -0 -0 -0 -0.00105611373608946 -0 -0 0 0 0 0 0 1:0.54782683 2:0.49271265 3:0.43342111 4:0.51505667 5:0.4550254 6:7.0899564e-16 7:0.8217333 8:0.3320027 9:0.29655731 10:0.52427351 11:0.23089014 12:0.063926645 13:0.58785516 14:0.48211721 15:0.2621218 16:0.099980086 17:0.270064 18:0.74845487 19:0.80007565 20:0.094255015 21:0.45261139 22:0.2771095 23:0.73520362 24:0.65106726 25:0.78659362 26:0.46730402 27:0.38203231 28:0.51349372 29:0.28284398 30:0.32633823 31:0.96742141 32:0.87320298 33:0.70549899 34:0.60907853 
-0.003260024549535832 -0 -0 -0 -0.001248293465479974 -0.0008409449983698846 -0 0 0 0 0 0 1:0.44048038 2:0.17810033 3:0.12145344 4:0.60581523 5:0.75650615 6:0.12419713 7:0.35330632 8:0.10688084 9:0.76023519 10:0.37881684 11:0.43277022 12:0.55257946 13:0.50707012 14:6.7926044e-16 15:0.71108657 16:0.30359137 17:0.30845544 18:0.49297738 19:0.25228429 20:0.44558424 21:0.43222836 22:0.54526699 23:0.75576085 24:0.4564352 25:0.5090583 26:0.46338654 27:0.5453999 28:0.47358075 29:0.061015487 30:0.3649359 31:0.87904775 32:0.78776127 33:0.68347603 34:0.70642549 
-0 -0 -0 -0 -0 -0 -0.01714816683532188 0 0 0 0 0 1:0.43170309 2:0.50253636 3:0.63095188 4:0.70466119 5:0.67492372 6:0.5766533 7:0.22537941 8:0.53365767 9:0.73983067 10:0.47149906 11:0.63892233 12:0 13:0.56623942 14:0.092480123 15:0.40536356 16:0.46270746 17:0.45318347 18:0.73517537 19:0.58746237 20:0.087144576 21:0.38893169 22:0.55570853 23:0.67322713 24:0.23708662 25:0.77469027 26:0.44150156 27:0.31159031 28:0.50936681 29:0.20012175 30:0.33457032 31:0.84232807 32:0.81852114 33:0.72564334 34:0.77264023 
-0 -0.01680591580034903 -0 -6.017962137528102e-07 -0 -0 -0 0 0 0 0 0 1:0.62696177 2:0.33506992 3:0.45253098 4:0.21841884 5:0.66078025 6:0.89967448 7:0.75449789 8:0.247549 9:0.84378374 10:0.53014725 11:0.36746743 12:0.31385431 13:0.063899957 14:0.21886034 15:0.67234403 16:0.39651456 17:0.21023092 18:0.36036858 19:0.64906543 20:0.62969089 21:0.5287509 22:0.63913518 23:0.7409693 24:0.54887652 25:0.59353292 26:0.45612514 27:0.44747162 28:0.51163751 29:0.088933676 30:0.30333605 31:0.87340713 32:0.76470113 33:0.69545984 34:0.6293661 
-4.929934200312491e-05 -0.04398033000336931 -0.0006585840061235659 -2.377474442440518e-05 -0 -0.000743806904706531 -0.04273047142568628 0 0 0 0 0 1:0.6937986 2:0.59638298 3:0.5633055 4:0.51885229 5:0.30375847 6:0.054052185 7:0.47285414 8:0.43306598 9:0.53932524 10:0.30988717 11:0.31442675 12:0.17785236 13:0.67769194 14:0.034630504 15:0.61114776 16:0.63348418 17:0.40488607 18:0.78062212 19:0.76799691 20:0.64420801 21:0.44890067 22:0.73519307 23:0.68794042 24:0.33756998 25:0.53472745 26:0.37830639 27:0.42034462 28:0.54068536 29:0.27713361 30:0.37471536 31:0.90837538 32:0.66535771 33:0.6054166 34:0.55136544 
-0 -0.01308852545372011 -0.0002663206679831073 -0 -0 -0 -0.07041027920661687 0 0 0 0 0 1:0.65391988 2:0.31475639 3:0.37419409 4:0.45042211 5:0.67380619 6:0.27243868 7:0.63785487 8:0.31317922 9:0.77699059 10:0.62003541 11:0.17448255 12:0.59863043 13:0.42807975 14:0.42528912 15:0.78976125 16:0.45092291 17:0.19653839 18:0.39325768 19:0.44267341 20:0.080461062 21:0.47580409 22:0.3809512 23:0.76044667 24:0.43315202 25:0.73791969 26:0.49508527 27:0.45686159 28:0.57087147 29:0.11824442 30:0.3285144 31:0.88006586 32:0.83775473 33:0.57997614 34:0.71822715 
-0 -0.006385867028674157 -0.00012047342429342 -0.0003231220754030752 -2.177354083763783e-05 -0.0003412837422873478 -0.01995560570896861 0 0 0 0 0.0001292391329879816 1:0.30725241 2:0.51322997 3:0.70419484 4:0.30046174 5:0.72909176 6:0.84184527 7:0.27205795 8:0 9:0.75863302 10:0.32625791 11:0.32188869 12:1 13:0.1757022 14:0.46893561 15:0 16:0.74924731 17:0.30877924 18:0.49377248 19:0.98204982 20:1 21:0.73371047 22:0.88398343 23:0.59782857 24:0.45233256 25:0.4615815 26:0.59764946 27:0.53001761 28:0.57337093 29:0.34256533 30:0.33798358 31:0.87132055 32:0.58786023 33:0.6054424 34:0.51498789 
-0 -0.3555691985165874 -0 -0.7413005230204822 -1.757345984914699 -0.07996566952539837 -1.510572560811291 1.737218008049833 1.332566706643536 1.03211925248585 0.2922337117684901 0 1:0.77101618 2:0.60602248 3:0.41263619 4:0.76130533 5:0.60450923 6:0.33836091 7:0.59092104 8:0.59834886 9:0.2649574 10:0.76591462 11:0.44426399 12:0.2956135 13:0.65259933 14:0.636581 15:0.46300179 16:0.81770861 17:0.067325138 18:0.41318855 19:0.99711847 20:0.94561124 21:0.42456329 22:0.78752571 23:0.91764027 24:0.46168339 25:0.45100141 26:0.55031925 27:0.40772542 28:0.51479638 29:0.24259378 30:0.34582204 31:0.94120282 32:0.6473918 33:0.56950146 34:0.58851147 
-1.458138354751483 -0 -0 -0 -0.3504352717377838 -0.6813773240368241 -0 3.530893300297635 0 0 0.2541681125767877 0 1:0.44048038 2:0.17810033 3:0.12145344 4:0.60581523 5:0.75650615 6:0.12419713 7:0.35330632 8:0.10688084 9:0.76023519 10:0.37881684 11:0.43277022 12:0.55257946 13:0.50707012 14:6.7926044e-16 15:0.71108657 16:0.30359137 17:0.30845544 18:0.49297738 19:0.25228429 20:0.44558424 21:0.43222836 22:0.54526699 23:0.75576085 24:0.4564352 25:0.5090583 26:0.46338654 27:0.5453999 28:0.47358075 29:0.061015487 30:0.3649359 31:0.87904775 32:0.78776127 33:0.68347603 34:0.70642549 
-0 -0 -0 -0 -0 -0 -1.084874931088839 0.3930440559778067 0.05250901854657888 0 0 0 1:0.43170309 2:0.50253636 3:0.63095188 4:0.70466119 5:0.67492372 6:0.5766533 7:0.22537941 8:0.53365767 9:0.73983067 10:0.47149906 11:0.63892233 12:0 13:0.56623942 14:0.092480123 15:0.40536356 16:0.46270746 17:0.45318347 18:0.73517537 19:0.58746237 20:0.087144576 21:0.38893169 22:0.55570853 23:0.67322713 24:0.23708662 25:0.77469027 26:0.44150156 27:0.31159031 28:0.50936681 29:0.20012175 30:0.33457032 31:0.84232807 32:0.81852114 33:0.72564334 34:0.77264023 
-0 -0.009524420422543731 -0 -0 -0 -0 -0.02226625407484372 0 0 0 0 0 1:1 2:0.58291864 3:0.50326604 4:0.59923595 5:0.33592567 6:0.96732461 7:0 8:0.74578851 9:0.27074972 10:0.29186743 11:0.75844914 12:0.089671515 13:0.29202023 14:0.77449304 15:0.54460281 16:0.32533157 17:0.580616 18:0.27578816 19:0.85679239 20:0.024979303 21:0.62510192 22:0.31669199 23:0.6701448 24:0.4439325 25:0.74683696 26:0.44621488 27:0.39085191 28:0.43146899 29:0.14709219 30:0.40590259 31:0.80364656 32:0.66762727 33:0.63896018 34:0.60924041 
-0 -0 -0 -0 -0.002550194119257533 -0 -0 0 0 0 0 0 1:0.53977978 2:0.29816267 3:0.5838905 4:0.67234427 5:0.35015506 6:0.58552438 7:0.49724442 8:1 9:0.59429008 10:0.47640273 11:0.8313728 12:0.51907617 13:0.7357685 14:0.44049791 15:0.51720643 16:0.52687633 17:0.069115572 18:0.66511673 19:1 20:0.68998367 21:0.48973766 22:0.73832238 23:0.84702623 24:0.33955145 25:0.45735124 26:0.52004212 27:0.42985386 28:0.50814265 29:0.19519791 30:0.35297459 31:0.97436553 32:0.64470112 33:0.64662284 34:0.58577484 
-0 -2.091174373860187e-06 -0 -0 -0 -0 -0 0 0 0 0 0 1:0.45748782 2:0.44444475 3:0.037632205 4:0.6182431 5:0.57105082 6:0.57725328 7:0.49613142 8:0.81200641 9:0.62920886 10:0.40882599 11:0.78478736 12:0.64102221 13:0.28814903 14:0.2560828 15:0.13696764 16:0.14477459 17:0.16212338 18:0.57137275 19:0.89546871 20:0.65332794 21:0.53098172 22:0.39192638 23:0.74967116 24:0.57940471 25:0.8870877 26:0.5931837 27:0.47460607 28:0.49749175 29:0.24551928 30:0.30972794 31:0.77575934 32:0.7616809 33:0.71082562 34:0.61449617 
-0.001751666833964329 -0 -0 -0 -0 -0 -0 0 0 0 0 0 1:0.5804891 2:0.79752123 3:0.32315812 4:0.44786993 5:0.35159364 6:0.68436003 7:0.32394147 8:0.51239026 9:0.54378515 10:0.51773888 11:0.72875935 12:0.37980804 13:0.47018722 14:0.40664801 15:0.20321986 16:0.036124852 17:0.17324008 18:0.39434901 19:0.60522056 20:0.69724905 21:0.39085966 22:0.55727285 23:0.69849914 24:0.35951588 25:0.65162778 26:0.61086684 27:0.50972021 28:0.49294129 29:0.25680789 30:0.47016114 31:0.9649297 32:0.65547419 33:0.70563579 34:0.61734682 
-2.605313780339858e-06 -0 -0 -0.0001579056659175725 -0 -0.0003146733520962189 -0 0 0 0.0007252638997186731 0 0 1:0.61821198 2:0.23853856 3:0.51023084 4:0.78501242 5:0.30883431 6:0.79717153 7:0.24921988 8:0.66228873 9:0.42379463 10:0.20873269 11:0.52154189 12:0.41730204 13:0.58387345 14:0.46553484 15:0.32825825 16:0.18987733 17:0.45711339 18:0.40021169 19:0.74641049 20:0.50153589 21:0.68343836 22:0.28100121 23:0.69232798 24:0.40124395 25:0.67671424 26:0.4548786 27:0.33164009 28:0.37114432 29:0.19054572 30:0.4594121 31:0.76433802 32:0.62787426 33:0.52350324 34:0.44476819 
-0 -0 -0 -0 -0 -0 -0 0 0 0 0 3.873216073792818e-06 1:0.47777849 2:0.58161265 3:0.49404979 4:0.96175539 5:0.50934911 6:0.70349276 7:0.5158785 8:0.88963836 9:0.45565408 10:0.72455049 11:0.3684788 12:0.22543758 13:0.69708979 14:0.42818671 15:0.45794818 16:0.54581171 17:0.40528619 18:0 19:0.25505656 20:0.61502451 21:0.5499745 22:0.52729058 23:0.71477371 24:0.30831665 25:0.43302062 26:0.52769977 27:0.41130695 28:0.48999915 29:0.047848314 30:0.46217412 31:0.94485009 32:0.6766423 33:0.6764015 34:0.68119544 
-4.488240127848575e-05 -3.231058761377325e-06 -0 -0.0005943569651941329 -0.0001815276764092693 -4.23264351213473e-05 -0 0 0 0.0003718013698443876 0 0 1:0.24147843 2:0.82298458 3:1 4:0.70141619 5:0.64413512 6:0.21936354 7:0.8004815 8:0.19930585 9:0.70987946 10:0.44738153 11:0.77083641 12:0.0089968722 13:0.79358232 14:0.41204157 15:0.49258041 16:0.86288702 17:0.46198037 18:0.15100293 19:0.25417623 20:0.3159726 21:0.44337189 22:0.57011378 23:0.71898216 24:0.26801178 25:0.60938764 26:0.40596631 27:0.44700965 28:0.60984462 29:0.15077721 30:0.40285701 31:0.88906527 32:0.78124005 33:0.64529836 34:0.76873869 
-0 -0.3320124362628404 -0 -0.1337643180635782 -0 -0.834270428523302 -0 0.04915943847180011 0 0 0.06453919931475961 0 1:0.62696177 2:0.33506992 3:0.45253098 4:0.21841884 5:0.66078025 6:0.89967448 7:0.75449789 8:0.247549 9:0.84378374 10:0.53014725 11:0.36746743 12:0.31385431 13:0.063899957 14:0.21886034 15:0.67234403 16:0.39651456 17:0.21023092 18:0.36036858 19:0.64906543 20:0.62969089 21:0.5287509 22:0.63913518 23:0.7409693 24:0.54887652 25:0.59353292 26:0.45612514 27:0.44747162 28:0.51163751 29:0.088933676 30:0.30333605 31:0.87340713 32:0.76470113 33:0.69545984 34:0.6293661 
-0 -0.2102309884030402 -0 -0 -0 -0 -2.054323866971529 3.47335119247713 0 0.7740708079619923 0.2523822316364761 0.02859330936967588 1:1 2:0.58291864 3:0.50326604 4:0.59923595 5:0.33592567 6:0.96732461 7:0 8:0.74578851 9:0.27074972 10:0.29186743 11:0.75844914 12:0.089671515 13:0.29202023 14:0.77449304 15:0.54460281 16:0.32533157 17:0.580616 18:0.27578816 19:0.85679239 20:0.024979303 21:0.62510192 22:0.31669199 23:0.6701448 24:0.4439325 25:0.74683696 26:0.44621488 27:0.39085191 28:0.43146899 29:0.14709219 30:0.40590259 31:0.80364656 32:0.66762727 33:0.63896018 34:0.60924041 
-0 -0 -0 -0 -0.2292706654792806 -0 -0 0 0 0 0 0.2775122962970806 1:0.53977978 2:0.29816267 3:0.5838905 4:0.67234427 5:0.35015506 6:0.58552438 7:0.49724442 8:1 9:0.59429008 10:0.47640273 11:0.8313728 12:0.51907617 13:0.7357685 14:0.44049791 15:0.51720643 16:0.52687633 17:0.069115572 18:0.66511673 19:1 20:0.68998367 21:0.48973766 22:0.73832238 23:0.84702623 24:0.33955145 25:0.45735124 26:0.52004212 27:0.42985386 28:0.50814265 29:0.19519791 30:0.35297459 31:0.97436553 32:0.64470112 33:0.64662284 34:0.58577484 
-0 -0.2258426054724971 -0 -0 -0 -0 -0 0.9068691724627045 0 1.533770829506753 0.4942535696221994 0 1:0.45748782 2:0.44444475 3:0.037632205 4:0.6182431 5:0.57105082 6:0.57725328 7:0.49613142 8:0.81200641 9:0.62920886 10:0.40882599 11:0.78478736 12:0.64102221 13:0.28814903 14:0.2560828 15:0.13696764 16:0.14477459 17:0.16212338 18:0.57137275 19:0.89546871 20:0.65332794 21:0.53098172 22:0.39192638 23:0.74967116 24:0.57940471 25:0.8870877 26:0.5931837 27:0.47460607 28:0.49749175 29:0.24551928 30:0.30972794 31:0.77575934 32:0.7616809 33:0.71082562 34:0.61449617 
-2.894120388805534 -0 -0 -0.5634337770297009 -0.2821092234633855 -0 -0 1.274225913122622 1.834841522732005 0.5360840650053825 0 2.793711897814477 1:0.5804891 2:0.79752123 3:0.32315812 4:0.44786993 5:0.35159364 6:0.68436003 7:0.32394147 8:0.51239026 9:0.54378515 10:0.51773888 11:0.72875935 12:0.37980804 13:0.47018722 14:0.40664801 15:0.20321986 16:0.036124852 17:0.17324008 18:0.39434901 19:0.60522056 20:0.69724905 21:0.39085966 22:0.55727285 23:0.69849914 24:0.35951588 25:0.65162778 26:0.61086684 27:0.50972021 28:0.49294129 29:0.25680789 30:0.47016114 31:0.9649297 32:0.65547419 33:0.70563579 34:0.61734682 
-4.376509764710522 -5.245441966100277 -5.447719639109727 -7.011421638874662 -4.684263925037203 -3.392219216948576 -2.331157213126251 1.949422022199578 7.135946402969632 3.190500693446317 4.375782884604856 4.169410709973127 1:0.61821198 2:0.23853856 3:0.51023084 4:0.78501242 5:0.30883431 6:0.79717153 7:0.24921988 8:0.66228873 9:0.42379463 10:0.20873269 11:0.52154189 12:0.41730204 13:0.58387345 14:0.46553484 15:0.32825825 16:0.18987733 17:0.45711339 18:0.40021169 19:0.74641049 20:0.50153589 21:0.68343836 22:0.28100121 23:0.69232798 24:0.40124395 25:0.67671424 26:0.4548786 27:0.33164009 28:0.37114432 29:0.19054572 30:0.4594121 31:0.76433802 32:0.62787426 33:0.52350324 34:0.44476819 
-0 -0 -0 -0 -0 -1.586517995220113 -0 1.320099592970771 0.388396526307578 0 0 0.9496066702702148 1:0.47777849 2:0.58161265 3:0.49404979 4:0.96175539 5:0.50934911 6:0.70349276 7:0.5158785 8:0.88963836 9:0.45565408 10:0.72455049 11:0.3684788 12:0.22543758 13:0.69708979 14:0.42818671 15:0.45794818 16:0.54581171 17:0.40528619 18:0 19:0.25505656 20:0.61502451 21:0.5499745 22:0.52729058 23:0.71477371 24:0.30831665 25:0.43302062 26:0.52769977 27:0.41130695 28:0.48999915 29:0.047848314 30:0.46217412 31:0.94485009 32:0.6766423 33:0.6764015 34:0.68119544 
-2.322697378876028 -2.817826423891528 -0.9790004281124226 -0.3880068439895451 -0.9108326720688069 -0.03540984183002394 -1.417927433309594 2.103246745975299 4.245831354314695 3.259566927547785 1.413072398296827 0.1500477658094612 1:0.24147843 2:0.82298458 3:1 4:0.70141619 5:0.64413512 6:0.21936354 7:0.8004815 8:0.19930585 9:0.70987946 10:0.44738153 11:0.77083641 12:0.0089968722 13:0.79358232 14:0.41204157 15:0.49258041 16:0.86288702 17:0.46198037 18:0.15100293 19:0.25417623 20:0.3159726 21:0.44337189 22:0.57011378 23:0.71898216 24:0.26801178 25:0.60938764 26:0.40596631 27:0.44700965 28:0.60984462 29:0.15077721 30:0.40285701 31:0.88906527 32:0.78124005 33:0.64529836 34:0.76873869 
-4.425733928303717 -2.770632835559105 -1.866322986908544 -2.836753827819595 -1.112339499955323 -4.282698976681329 -4.135419732478584 0.9066046198267179 1.085028240280575 1.009610480799285 1.785628294680936 4.277288120158916 1:0.6937986 2:0.59638298 3:0.5633055 4:0.51885229 5:0.30375847 6:0.054052185 7:0.47285414 8:0.43306598 9:0.53932524 10:0.30988717 11:0.31442675 12:0.17785236 13:0.67769194 14:0.034630504 15:0.61114776 16:0.63348418 17:0.40488607 18:0.78062212 19:0.76799691 20:0.64420801 21:0.44890067 22:0.73519307 23:0.68794042 24:0.33756998 25:0.53472745 26:0.37830639 27:0.42034462 28:0.54068536 29:0.27713361 30:0.37471536 31:0.90837538 32:0.66535771 33:0.6054166 34:0.55136544 
-0 -0.1775681527231874 -0 -0 -0 -0 -0 0 0 0 1.050185627322162 0 1:0.47131926 2:0.54479915 3:0.21991374 4:0.32714739 5:0.50483394 6:0.39637113 7:0.5967564 8:0.38980442 9:0.78396523 10:0.75423288 11:0.32095397 12:0.55713272 13:0.33312961 14:0.40539995 15:0.71112698 16:0.37274355 17:0.076091163 18:0.39365813 19:0.56794173 20:0.20792995 21:0.40357965 22:0.44811413 23:0.86551505 24:0.59459591 25:0.72806108 26:0.50251746 27:0.48195791 28:0.47300968 29:0.091936953 30:0.27710748 31:0.83848995 32:0.80113912 33:0.65609461 34:0.76362842 
-1.162446876639512 -1.259111876703391 -1.741770294337136 -2.187091271807617 -1.475315283987489 -0 -2.770033754845809 0 2.684552789751722 2.502578589266605 0.5271875838392264 1.818563175816868 1:0.65391988 2:0.31475639 3:0.37419409 4:0.45042211 5:0.67380619 6:0.27243868 7:0.63785487 8:0.31317922 9:0.77699059 10:0.62003541 11:0.17448255 12:0.59863043 13:0.42807975 14:0.42528912 15:0.78976125 16:0.45092291 17:0.19653839 18:0.39325768 19:0.44267341 20:0.080461062 21:0.47580409 22:0.3809512 23:0.76044667 24:0.43315202 25:0.73791969 26:0.49508527 27:0.45686159 28:0.57087147 29:0.11824442 30:0.3285144 31:0.88006586 32:0.83775473 33:0.57997614 34:0.71822715 
-1.028764362490257 -1.554849688623897 -2.672279215604986 -0.5762797205706023 -0.9383364697102413 -1.561248093468668 -2.682657872832163 1.983192858709695 1.765967289651871 1.290271654127268 1.056568383068375 1.063250373250483 1:0.30725241 2:0.51322997 3:0.70419484 4:0.30046174 5:0.72909176 6:0.84184527 7:0.27205795 8:0 9:0.75863302 10:0.32625791 11:0.32188869 12:1 13:0.1757022 14:0.46893561 15:0 16:0.74924731 17:0.30877924 18:0.49377248 19:0.98204982 20:1 21:0.73371047 22:0.88398343 23:0.59782857 24:0.45233256 25:0.4615815 26:0.59764946 27:0.53001761 28:0.57337093 29:0.34256533 30:0.33798358 31:0.87132055 32:0.58786023 33:0.6054424 34:0.51498789 
-0 -0 -1.111043957318179 -0 -0.02321082787799211 -0.6627174521360858 -0.8893826626198207 0 0 0 0 0 1:0.54782683 2:0.49271265 3:0.43342111 4:0.51505667 5:0.4550254 6:7.0899564e-16 7:0.8217333 8:0.3320027 9:0.29655731 10:0.52427351 11:0.23089014 12:0.063926645 13:0.58785516 14:0.48211721 15:0.2621218 16:0.099980086 17:0.270064 18:0.74845487 19:0.80007565 20:0.094255015 21:0.45261139 22:0.2771095 23:0.73520362 24:0.65106726 25:0.78659362 26:0.46730402 27:0.38203231 28:0.51349372 29:0.28284398 30:0.32633823 31:0.96742141 32:0.87320298 33:0.70549899 34:0.60907853 
-0 -0 -0 -0 -1.540098361581174 -0 -0 -1.074501512667875 0 0 0 0 1:0.65994728 2:0.75327301 3:0.30420679 4:0.76130837 5:0.42701751 6:0.36327603 7:0.63299239 8:0.52543467 9:0.61210179 10:0.53566319 11:0.58997041 12:0.40868437 13:0.47661042 14:0.50304353 15:0.44805127 16:0.49680236 17:0.38266602 18:0.70004451 19:0.78558451 20:0.58706933 21:0.38002199 22:0.50812227 23:0.65568233 24:0.32629383 25:0.41077995 26:0.72816974 27:0.28705749 28:0.56460857 29:0.5041787 30:0.7288996 31:0.60066092 32:0.2309369 33:0.86839098 34:0.87954432 
-0 -0 -0 -0 -0 -0 -3.043695421165318 -0 0 0 0.7524438105329224 0 1:0.5644393 2:0.20802064 3:0.54718244 4:0.32112178 5:0.61457223 6:0.64544523 7:0.49430856 8:0.71459907 9:0.20172766 10:0.7843504 11:0.47723982 12:0.33210599 13:0.20728162 14:0.10490401 15:0.29505473 16:0.73143184 17:0.39492935 18:0.47341725 19:0.20350641 20:0.3186942 21:0.33875439 22:0.50310129 23:0.46784261 24:0.44111684 25:0.69197911 26:0.52166891 27:0.24744084 28:0.61090124 29:0.40808254 30:0.71659291 31:0.54233795 32:0.2157398 33:0.91762602 34:0.90281761 
-0 -0 -0 -0 -0 -0 -0.7156097784446995 -2.845164025245338 0 0 0 0 1:0.81539148 2:0.81857544 3:0.42630956 4:0.16429779 5:0.6122784 6:0.63880533 7:0.29035649 8:0.27424559 9:0.29242826 10:0.41127628 11:0.46094045 12:0.21633315 13:0.16180708 14:0.21189392 15:0.24387057 16:0.60628003 17:0.5440678 18:0.57468343 19:0.69465774 20:0.43669811 21:0.58704323 22:0.45847285 23:0.5711143 24:0.45819175 25:0.60985661 26:0.63318354 27:0.39155522 28:0.61625236 29:0.46839738 30:0.61521637 31:0.54015791 32:0.20788708 33:0.84874731 34:0.94180924 
-0.5006490486826144 -2.551440362649684 -0 -0 -0 -0 -0 -0 0 1.300079010384188 0 0 1:0.58965325 2:0.21585965 3:0.5902189 4:0.33852097 5:0.61031717 6:0.63742441 7:0.47947258 8:0.72383845 9:0.22143304 10:0.7758348 11:0.48330066 12:0.33682576 13:0.18265605 14:0.11126764 15:0.30529657 16:0.75736082 17:0.42652428 18:0.45524263 19:0.21898051 20:0.32619908 21:0.33911103 22:0.50372899 23:0.47853863 24:0.44184586 25:0.68430215 26:0.50756979 27:0.2426517 28:0.6046657 29:0.41050634 30:0.72259855 31:0.53370607 32:0.20951091 33:0.91287303 34:0.90287942 
-4.156025853142795 -3.112009874389947 -2.224181352110165 -2.088527568877022 -1.25374715502699 -1.108441359543222 -4.215526912344802 -4.318199804063445 6.711402866840033 2.511133279869363 2.76840920687102 1.427205747708108 1:0.62761182 2:0.41472128 3:0.35673854 4:0.64628416 5:0.7507261 6:0.51503521 7:0.37319449 8:0.16264819 9:0.53315037 10:0.041429486 11:0.55501419 12:0.48308343 13:1 14:0.82952273 15:0.61920208 16:0.60411263 17:0.14750285 18:0.1820806 19:0.79348803 20:0.42836589 21:0.49022403 22:0.64491212 23:0.7700696 24:0.48669982 25:0.4855462 26:0.57401174 27:0.59449685 28:0.47465169 29:0.55933696 30:0.75527292 31:0.4569681 32:0.34108934 33:0.74364436 34:0.80222094 
-0.6199402075619017 -0 -0.5365918978088121 -0.2653421131996259 -1.29696647962978 -0.9518787723567893 -0 -0 1.397267434237389 1.975348635472183 0 0.9560174905471462 1:0.49682042 2:0.49598801 3:0.18697955 4:0.42777574 5:1 6:0.3780123 7:0.33751878 8:0.74772489 9:0.11853769 10:0.60605621 11:1 12:0.10111682 13:0.32503974 14:0.56915462 15:0.31746656 16:0.79132229 17:0.15302935 18:0.4985497 19:0.43303528 20:0.30363545 21:0.24187267 22:0.56230199 23:0.55414593 24:0.40422043 25:0.44679385 26:0.85679221 27:0.40175655 28:0.47424975 29:0.50020069 30:0.62115747 31:0.64321309 32:0.30082682 33:0.84485662 34:0.90852338 
