svm_type c_svc
kernel_type rbf
gamma 0.5
nr_class 2
total_sv 2088
rho -0.331284
label 0 1
nr_sv 1200 888
SV
0.2682811420028045 1:0.36688301 2:0.17986999 3:0.68571401 4:1.82338 5:0.40974 6:1.90714 7:0.29285699 8:0.091558397 9:0.76818198 10:0.062987 11:0.332468 12:0 13:0.15000001 14:0.119481 15:0.115584 16:0.113636 17:0.053896099 18:1.19481 19:0.0025974 20:0.251948 21:0.038961001 22:0.37272701 23:0.138312 24:0.42337701 25:0.29025999 26:0.348052 27:0.27077901 28:0 29:0.27987 30:0.0116883 31:0.17986999 32:0.115584 33:0.00844156 34:0.87532502 35:0.079220802 36:0.045454498 37:0.86688298 38:0.27467501 39:0.16688301 40:1.50714 41:1.06234 42:0.53766203 43:0.69415599 44:0.29350701 45:0.124026 46:1.10844 47:0.037662301 48:0.090259701 49:0.142208 50:0.146753 51:0.0519481 52:0 53:0.35649401 54:0.022727299 55:0.26688299 56:0.252597 57:0.224675 58:0 59:0.027272699 60:0.0025974 61:0.00324675 62:0.237662 63:0 64:0.105195 65:0.0616883 66:0.96818203 67:0.0525974 68:0.174026 69:0.109091 70:0.0720779 71:0.273377 72:0.0051948102 73:0.694444 74:1.0049 75:0.33000001 76:0.32910001 77:0.2457 78:0.85119998 79:0.30129999 80:0.15629999 81:0.28049999 82:0.184725 83:0.173776 84:0.15873 85:0.142517 86:0.126727 87:0.112314 88:0.101862 89:0.097837202 90:0.103346 91:0.119143 92:0.140613 93:0.164759 94:0.19002201 95:0.20531601 96:0.216767 97:0.228591 
8.826934012115496 1:0.0025974 2:0.0422078 3:0.243506 4:0.161688 5:0.312987 6:0.23961 7:0.0012987 8:0.0064935102 9:0.34999999 10:0.032467499 11:0.435065 12:0.0194805 13:0.038311701 14:0.0512987 15:0.025974 16:0 17:0.281818 18:0.78766203 19:0.122078 20:0.57142901 21:0.0305195 22:0.064935103 23:0.20519499 24:0.0519481 25:0.211688 26:0.98376602 27:0.226623 28:0.068831198 29:0.067532502 30:0.0298701 31:0.045454498 32:0.0207792 33:0.00584416 34:0.441558 35:0.163636 36:0.00064935099 37:0.28636399 38:0.024026001 39:0.0097402604 40:0.159091 41:0.16103899 42:0.0402597 43:0.28701299 44:0.0422078 45:0.0012987 46:0.86363602 47:0.216883 48:0 49:0.038311701 50:0.077272698 51:0.0311688 52:0.042857099 53:0.407792 54:0.018831201 55:0.18766201 56:0.67077899 57:0.085714303 58:0.00194805 59:0.0155844 60:0.0253247 61:0.024026001 62:0.68506497 63:0.083116896 64:0.00064935099 65:0.138312 66:0.495455 67:0.018831201 68:0.062987 69:0.0246753 70:0.0175325 71:0.068831198 72:0.095454499 73:0.75675702 74:0.2095 75:0.25749999 76:0.38010001 77:0.13 78:0.1557 79:0.2613 80:0.27399999 81:0.14210001 82:0.133415 83:0.128537 84:0.120516 85:0.111169 86:0.101573 87:0.093303896 88:0.087946802 89:0.086244203 90:0.088294901 91:0.093657099 92:0.101452 93:0.110963 94:0.121174 95:0.131421 96:0.14156701 97:0.15177301 
1.0769474790605 1:0.00064935099 2:0.068181798 3:0.12922101 4:0.089610398 5:0.0623377 6:0.126623 7:0 8:0.0142857 9:0.17727301 10:0.029220801 11:0.368182 12:0.018181801 13:0.042857099 14:0.059090901 15:0.0266234 16:0 17:0.38766199 18:0.531169 19:0.238961 20:0.39870101 21:0.011039 22:0.042857099 23:0.12922101 24:0.023376601 25:0.18766201 26:0.79870099 27:0.33961001 28:0.151948 29:0.0149351 30:0.0045454502 31:0.022727299 32:0.033116899 33:0 34:0.279221 35:0.116883 36:0.0311688 37:0.235714 38:0 39:0 40:0.0090909097 41:0.0928571 42:0.016883099 43:0.103896 44:0.048701301 45:0.0064935102 46:0.81818199 47:0.094805203 48:0 49:0.00714286 50:0.098701298 51:0.018831201 52:0.098052002 53:0.381818 54:0.0038961 55:0.32207799 56:0.59350699 57:0.109091 58:0.0045454502 59:0.037662301 60:0.016883099 61:0.049350601 62:0.56623399 63:0.038961001 64:0 65:0.174026 66:0.411688 67:0.0103896 68:0.0207792 69:0.050000001 70:0.0025974 71:0.039610401 72:0.074675299 73:0.702703 74:0.1029 75:0.2253 76:0.33419999 77:0.1008 78:0.079099998 79:0.2343 80:0.26769999 81:0.1207 82:0.122958 83:0.118955 84:0.112651 85:0.105398 86:0.098009102 87:0.091597997 88:0.087170199 89:0.085685998 90:0.087243602 91:0.091285698 92:0.097129002 93:0.103796 94:0.110826 95:0.118211 96:0.125633 97:0.133727 
2.060564981849742 1:0.138312 2:0.076623403 3:0.70584399 4:0.82077903 5:0.775325 6:1.25 7:0.098701298 8:0.23636401 9:0.42142901 10:0.0246753 11:0.2 12:0.0025974 13:0.0025974 14:0.050000001 15:0.132468 16:0.0103896 17:0.135065 18:0.60389602 19:0.0175325 20:0.203247 21:0.0038961 22:0.16103899 23:0.20714299 24:0.079870097 25:0.244156 26:0.42142901 27:0.14155801 28:0 29:0.57597399 30:0.075974002 31:0.079220802 32:0.148701 33:0.144805 34:1.22987 35:0.033766199 36:0.035064898 37:0.42207801 38:0.218182 39:0.049350601 40:1.00195 41:0.76298702 42:0.47922099 43:0.65649301 44:0.103896 45:0.028571401 46:0.54220802 47:0.118831 48:0 49:0.13571399 50:0.104545 51:0 52:0.0025974 53:0.168182 54:0.0038961 55:0.176623 56:0.472727 57:0.112987 58:0.018181801 59:0.00844156 60:0 61:0.00194805 62:0.150649 63:0.0025974 64:0.032467499 65:0.077272698 66:1.1487 67:0.193506 68:0.147403 69:0.124026 70:0.130519 71:0.51168799 72:0 73:0.72222197 74:0.69660002 75:0.1789 76:0.2279 77:0.35780001 78:0.5733 79:0.1657 80:0.1454 81:0.36430001 82:0.160423 83:0.154746 84:0.145603 85:0.13412701 86:0.121191 87:0.108696 88:0.098638304 89:0.0935698 90:0.094858997 91:0.102729 92:0.116726 93:0.134167 94:0.152826 95:0.171105 96:0.188067 97:0.2025 
3.32886300897512 1:0.11039 2:0.091558397 3:0.66883099 4:0.72922099 5:0.55454499 6:1.12727 7:0.037013002 8:0.0116883 9:0.51428598 10:0.127922 11:0.28961 12:0 13:0.032467499 14:0.074675299 15:0.022727299 16:0 17:0.168182 18:1.12857 19:0.00844156 20:0.432468 21:0.0012987 22:0.12922101 23:0.13311701 24:0.049350601 25:0.291558 26:1.04416 27:0.248052 28:0.00064935099 29:0.49026 30:0.0525974 31:0.065584399 32:0.077922098 33:0.0422078 34:1.13377 35:0.144805 36:0 37:0.64155799 38:0.16883101 39:0.064285703 40:0.85389602 41:0.75519502 42:0.377922 43:0.497403 44:0.060389601 45:0.025974 46:0.95844197 47:0.13311701 48:0 49:0.071428597 50:0.122727 51:0.037013002 52:0.00194805 53:0.372078 54:0.059740301 55:0.26623401 56:0.74285698 57:0.224675 58:0.00194805 59:0.0149351 60:0.00064935099 61:0.0149351 62:0.56233799 63:0.00844156 64:0 65:0.203247 66:1.09416 67:0.050000001 68:0.068831198 69:0.068181798 70:0.134416 71:0.315584 72:0.00064935099 73:0.71052599 74:0.59210002 75:0.28400001 76:0.36000001 77:0.30919999 78:0.53060001 79:0.2705 80:0.28290001 81:0.29800001 82:0.1005 83:0.092 84:0.079825401 85:0.065042399 86:0.0493364 87:0.0347059 88:0.0240638 89:0.0201395 90:0.022910301 91:0.0320714 92:0.046387099 93:0.062833302 94:0.078413002 95:0.091815799 96:0.103067 97:0.113409 
16.04058274488844 1:0.029220801 2:0.0311688 3:0.403896 4:0.44740301 5:0.42272699 6:0.83960998 7:0.050649401 8:0.039610401 9:0.38831201 10:0.046753202 11:0.20064899 12:0 13:0.0837662 14:0.167532 15:0.033116899 16:0 17:0.094155803 18:0.80000001 19:0.0162338 20:0.196753 21:0.0025974 22:0.065584399 23:0.29090899 24:0.114935 25:0.103247 26:0.44025999 27:0.120779 28:0.00064935099 29:0.233766 30:0.038311701 31:0.057142898 32:0.12922101 33:0.0415584 34:0.72987002 35:0.077272698 36:0 37:0.39155799 38:0.042857099 39:0.0201299 40:0.651299 41:0.342208 42:0.27597401 43:0.411688 44:0.068831198 45:0.056493498 46:0.89415598 47:0.070779197 48:0 49:0.098052002 50:0.029220801 51:0.0097402604 52:0.00064935099 53:0.29025999 54:0.058441602 55:0.118182 56:0.65584397 57:0.212338 58:0.0012987 59:0.0038961 60:0 61:0.00714286 62:0.369481 63:0.00194805 64:0 65:0.087662302 66:0.84220803 67:0.0162338 68:0.070129901 69:0.059740301 70:0.060389601 71:0.22142901 72:0.00064935099 73:0.72973001 74:0.40849999 75:0.21960001 76:0.20810001 77:0.2014 78:0.34819999 79:0.2235 80:0.211 81:0.20919999 82:0.094760597 83:0.088432796 84:0.079079397 85:0.068423703 86:0.0571182 87:0.046999998 88:0.0399043 89:0.036965098 90:0.0385256 91:0.044585701 92:0.0540323 93:0.065592602 94:0.077826098 95:0.089157902 96:0.099566698 97:0.109773 
1.616590140444627 1:0.048701301 2:0.029220801 3:0.40259701 4:0.52012998 5:0.26168799 6:1.65455 7:0.039610401 8:0.0194805 9:0.996104 10:0.054545499 11:0.14415599 12:0 13:0.157792 14:0.21103901 15:0.062987 16:0 17:0.103247 18:1.46883 19:0.096103899 20:0.62467498 21:0.0051948102 22:0.065584399 23:0.24026 24:0.164286 25:0.216883 26:0.82532501 27:0.089610398 28:0.042857099 29:0.23636401 30:0.0246753 31:0.037662301 32:0.29805201 33:0.036363602 34:1.09091 35:0.283117 36:0.018181801 37:0.233117 38:0.035064898 39:0.025974 40:0.332468 41:1.19481 42:0.41948101 43:0.32986999 44:0.123377 45:0.080519497 46:1.22013 47:0.54870099 48:0.0051948102 49:0.11039 50:0.0051948102 51:0.0253247 52:0.0266234 53:0.50454497 54:0.027272699 55:0.381818 56:0.89155799 57:0.176623 58:0.00064935099 59:0.00194805 60:0 61:0.064285703 62:0.91883099 63:0.00844156 64:0.038311701 65:0.431169 66:1.7441601 67:0.078571402 68:0.053896099 69:0.242208 70:0.155195 71:0.23246799 72:0.0051948102 73:0.63414598 74:0.6117 75:0.33919999 76:0.3585 77:0.31850001 78:0.42730001 79:0.3809 80:0.37639999 81:0.45910001 82:0.194408 83:0.186261 84:0.17445201 85:0.160822 86:0.145236 87:0.129618 88:0.116894 89:0.109105 90:0.108987 91:0.117057 92:0.13071001 93:0.14787 94:0.16663 95:0.184184 96:0.200333 97:0.218955 
0.2009146630952817 1:0.67857099 2:0.18376601 3:1.31039 4:2.4597399 5:0.0837662 6:2.4909101 7:0.82467502 8:0.046103898 9:1.59545 10:0.44870099 11:0.55194801 12:0.064285703 13:0.45714301 14:0.016883099 15:0.496104 16:0.056493498 17:0.19220801 18:1.50455 19:0.24285699 20:1.60649 21:0.036363602 22:0.182468 23:0.56493503 24:0.138961 25:0.720779 26:1.81429 27:0.76168799 28:0.0720779 29:0.88896102 30:0.41428599 31:0.227273 32:0.77402598 33:0.45259699 34:2.17208 35:0.42597401 36:0.075324699 37:1.53506 38:0.166234 39:0.618182 40:2.1006501 41:0.198052 42:2.07143 43:1.28247 44:0.237662 45:0.58506501 46:1.53896 47:0.381818 48:0.138961 49:0.74350601 50:0.14026 51:0.47013 52:0.0266234 53:0.79285699 54:0.374026 55:0.76168799 56:2.0525999 57:0.68116897 58:0.0837662 59:0.50974 60:0.00714286 61:0.15000001 62:1.7084399 63:0.111039 64:0.038961001 65:0.44805199 66:1.81104 67:0.43831199 68:0.60324699 69:0.45714301 70:0.61363602 71:0.83181798 72:0.25974 73:0.68571401 74:1.4897 75:0.58340001 76:0.9346 77:0.84740001 78:1.3544 79:0.70950001 80:0.93409997 81:0.84729999 82:0.21757001 83:0.20867901 84:0.180667 85:0.13962699 86:0.101309 87:0.074303903 88:0.065776601 89:0.073604703 90:0.099423103 91:0.144071 92:0.19817699 93:0.226704 94:0.23289099 95:0.23531599 96:0.2419 97:0.25281799 
0.06882015597819459 1:0.51883101 2:0.162338 3:1.18247 4:2.06429 5:0.233766 6:2.36169 7:0.476623 8:0.046103898 9:1.11364 10:0.44545501 11:0.64415598 12:0.00194805 13:0.47597399 14:0.024026001 15:0.120779 16:0.0214286 17:0.342208 18:1.5824701 19:0.0246753 20:0.82922101 21:0.046753202 22:0.059090901 23:0.228571 24:0.46039 25:0.63960999 26:1.08831 27:0.46039 28:0 29:1.05714 30:0.168182 31:0.113636 32:0.062987 33:0.070779197 34:1.4779201 35:0.229221 36:0.011039 37:1.32662 38:0.31428599 39:0.180519 40:1.4779201 41:0.95973998 42:0.99545503 43:0.95519501 44:0.34935099 45:0.231169 46:1.46039 47:0.087662302 48:0.0038961 49:0.36298701 50:0.148701 51:0.13766199 52:0 53:1.03312 54:0.16103899 55:0.594805 56:1.36494 57:0.226623 58:0.0116883 59:0.016883099 60:0.00064935099 61:0 62:0.74870098 63:0.00064935099 64:0.00714286 65:0.111688 66:1.65455 67:0.22402599 68:0.131818 69:0.180519 70:0.61948001 71:0.413636 72:0 73:0.694444 74:1.2566 75:0.56339997 76:0.5909 77:0.4914 78:1.0457 79:0.52289999 80:0.45660001 81:0.51480001 82:0.208092 83:0.19614901 84:0.174532 85:0.147695 86:0.1196 87:0.098382398 88:0.090946801 89:0.099139497 90:0.119231 91:0.147671 92:0.17558099 93:0.199037 94:0.217196 95:0.228237 96:0.239467 97:0.254545 
1.278822160278568 1:0.224675 2:0.39285699 3:1.0474 4:1.9305201 5:0.79545498 6:2.06883 7:0.377922 8:0.45584401 9:1.33831 10:0.26103899 11:0.77272701 12:0.0077922102 13:0.24870101 14:0.107143 15:0.205844 16:0.00844156 17:0.238961 18:1.60844 19:0.0155844 20:0.51233798 21:0.0162338 22:0.338312 23:0.233766 24:0.145455 25:0.50259697 26:0.78571397 27:0.53896099 28:0.00064935099 29:0.85519499 30:0.176623 31:0.125974 32:0.060389601 33:0.164286 34:1.74805 35:0.25519499 36:0.0064935102 37:1.02727 38:0.34935099 39:0.309091 40:1.88701 41:0.866234 42:1.47922 43:1.1577899 44:0.48571399 45:0.46363601 46:1.88571 47:0.42467499 48:0.018181801 49:0.285714 50:0.0727273 51:0.124026 52:0 53:0.777273 54:0.207792 55:0.54545498 56:1.22273 57:0.50519502 58:0.00584416 59:0.00194805 60:0 61:0.00324675 62:0.287662 63:0.0012987 64:0.0305195 65:0.53636402 66:1.56494 67:0.132468 68:0.053896099 69:0.42207801 70:0.30454499 71:0.69610399 72:0.0123377 73:0.67567599 74:1.3293 75:0.5327 76:0.47569999 77:0.52249998 78:1.2359 79:0.58459997 80:0.39629999 81:0.57800001 82:0.21188 83:0.201336 84:0.18273 85:0.15691499 86:0.12713601 87:0.101245 88:0.086148903 89:0.084058098 90:0.095974401 91:0.121886 92:0.156242 93:0.191204 94:0.215261 95:0.22768401 96:0.23019999 97:0.23290899 
0.1230281761481596 1:0.47532499 2:0.39610401 3:1.79545 4:1.99156 5:1.17597 6:2.95649 7:0.531169 8:0.52207798 9:2.17468 10:0.18181799 11:0.96948099 12:0.00714286 13:0.314935 14:0.38636401 15:0.26103899 16:0.114935 17:0.37922099 18:2.0097401 19:0.0136364 20:1.38377 21:0.037662301 22:0.116234 23:0.144805 24:0.58246797 25:0.77402598 26:1.71688 27:0.74935102 28:0 29:0.91753203 30:0.25 31:0.19415601 32:0.28961 33:0.41818199 34:1.97532 35:0.29675299 36:0.068831198 37:1.11429 38:0.30974001 39:0.49155799 40:2.4642899 41:0.58376598 42:2.01753 43:1.56429 44:0.309091 45:0.69805199 46:2.3850601 47:0.55454499 48:0.092207797 49:0.193506 50:0.19415601 51:0.18961 52:0.0090909097 53:1.0467499 54:0.496104 55:0.89155799 56:2.08182 57:0.70519501 58:0 59:0.083116896 60:0.00064935099 61:0.0051948102 62:1.26623 63:0.00194805 64:0.044805199 65:0.48766199 66:2.15974 67:0.25714299 68:0.33896101 69:0.206494 70:0.27662301 71:1.3474 72:0.0064935102 73:0.71428603 74:1.8509001 75:0.71219999 76:0.84990001 77:0.67919999 78:1.4711 79:0.79479998 80:0.7755 81:0.78930002 82:0.204549 83:0.183948 84:0.145524 85:0.100593 86:0.061936401 87:0.035852902 88:0.023936201 89:0.026314 90:0.043166701 91:0.077914298 92:0.12899999 93:0.18231501 94:0.20158701 95:0.21255299 96:0.22643299 97:0.24331801 
0.5890327877087774 1:0.441558 2:0.27402601 3:1.64416 4:2.6279199 5:1.4844199 6:3.5402601 7:0.61493498 8:0.464935 9:2.00195 10:0.35649401 11:1.06883 12:0.00584416 13:0.269481 14:0.16948099 15:0.049350601 16:0.00064935099 17:0.184416 18:2.66364 19:0.033116899 20:2.01104 21:0.025974 22:0.246104 23:0.57077903 24:1.71753 25:0.55454499 26:2.1110401 27:1.2376601 28:0.00714286 29:0.97597402 30:0.37987 31:0.36298701 32:0.30779201 33:0.098701298 34:2.7662301 35:0.085714303 36:0.00714286 37:1.36494 38:0.32142901 39:0.42467499 40:2.86818 41:1.02662 42:0.87142903 43:2.02403 44:0.303247 45:0.458442 46:2.9733801 47:0.135065 48:0 49:0.16103899 50:0.097402602 51:0.079870097 52:0.00064935099 53:0.93571401 54:0.407792 55:0.90973997 56:3.1396101 57:1.01104 58:0 59:0.029220801 60:0.0077922102 61:0.0103896 62:1.89481 63:0.0051948102 64:0.0064935102 65:0.16298699 66:2.63766 67:0.26233801 68:0.203247 69:0.182468 70:0.411688 71:1.38636 72:0.0012987 73:0.71428603 74:2.0165 75:0.73430002 76:1.3102 77:0.7687 78:1.4881001 79:0.7378 80:1.0792 81:0.80919999 82:0.23607001 83:0.205485 84:0.162651 85:0.112975 86:0.067227297 87:0.036480401 88:0.022755301 89:0.0250581 90:0.0477308 91:0.092257097 92:0.148242 93:0.20292599 94:0.24654301 95:0.261237 96:0.27086699 97:0.28031799 
0.1058865429102282 1:0.51103902 2:0.115584 3:2.0636401 4:2.91558 5:1.02597 6:3.4603901 7:0.57142901 8:0.22987001 9:2.1558399 10:0.61493498 11:1.1 12:0.00194805 13:0.094805203 14:0.079870097 15:0.1 16:0.044155799 17:0.44415599 18:2.3603899 19:0.087012999 20:1.71494 21:0.0298701 22:0.064935103 23:0.170779 24:0.14155801 25:0.84545499 26:2.35584 27:1.13182 28:0.0142857 29:1.45584 30:0.27987 31:0.306494 32:0.131818 33:0.140909 34:2.8590901 35:0.27467501 36:0.0045454502 37:1.6987 38:0.28961 39:0.41103899 40:2.20714 41:1.7013 42:2.03636 43:1.81688 44:0.27013001 45:0.43376601 46:2.5285699 47:0.244156 48:0.0025974 49:0.31168801 50:0.153247 51:0.055844199 52:0.00714286 53:1.21234 54:0.29350701 55:1.10779 56:2.7149401 57:0.85389602 58:0 59:0.042857099 60:0 61:0.114286 62:1.9077899 63:0.0155844 64:0.0194805 65:0.38960999 66:2.4045501 67:0.26298699 68:0.175974 69:0.36039001 70:0.45389599 71:0.92857099 72:0.0103896 73:0.71428603 74:2.0095999 75:0.74540001 76:1.0075001 77:0.84200001 78:1.6732 79:0.74059999 80:1.0405999 81:0.77090001 82:0.23176099 83:0.205276 84:0.159833 85:0.11039 86:0.066972703 87:0.034960799 88:0.0211915 89:0.0281395 90:0.053782001 91:0.094999999 92:0.147516 93:0.19946299 94:0.24373899 95:0.25528899 96:0.264467 97:0.27686399 
0.09844013517305721 1:0.55714297 2:0.150649 3:1.6610399 4:3.0961001 5:1.3026 6:3.4941599 7:0.71103901 8:0.316883 9:1.48831 10:0.55714297 11:0.80714297 12:0.028571401 13:0.0512987 14:0.097402602 15:0.27207801 16:0.022077899 17:0.35714301 18:2.35325 19:0.0525974 20:1.93442 21:0.085064903 22:0.41493499 23:0.32922101 24:0.140909 25:0.73701298 26:1.51623 27:0.44545501 28:0.0038961 29:0.84220803 30:0.20714299 31:0.095454499 32:0.38701299 33:0.148701 34:2.51104 35:0.46558401 36:0.016883099 37:1.84026 38:0.598701 39:0.147403 40:2.18117 41:2.34675 42:1.46234 43:2.01104 44:0.62337703 45:0.311039 46:2.2292199 47:0.43766201 48:0.033116899 49:0.252597 50:0.42142901 51:0.155195 52:0.016883099 53:0.77597398 54:0.157792 55:1.15195 56:2.60974 57:0.84740299 58:0.00064935099 59:0.0142857 60:0.00584416 61:0.0142857 62:1.83442 63:0.0045454502 64:0.028571401 65:0.48246801 66:2.27792 67:0.198052 68:0.14610399 69:0.54285699 70:0.44610399 71:0.817532 72:0.077922098 73:0.74285698 74:1.9678 75:0.7001 76:0.87099999 77:0.72039998 78:1.7744 79:0.68989998 80:0.99839997 81:0.77270001 82:0.21114101 83:0.193067 84:0.15729401 85:0.113144 86:0.070018202 87:0.037999999 88:0.0204043 89:0.0192442 90:0.035102598 91:0.0717429 92:0.129613 93:0.18594401 94:0.22121701 95:0.234395 96:0.2374 97:0.25995499 
3.676684000034381 1:0.0266234 2:0.038961001 3:0.907143 4:2.23961 5:0.53701299 6:3.0487001 7:0.078571402 8:0.080519497 9:1.17597 10:0.306494 11:0.67857099 12:0.082467496 13:0.62532502 14:0.32986999 15:0.50129902 16:0 17:0.69999999 18:2.1772699 19:0.0415584 20:0.817532 21:0.042857099 22:0.12013 23:0.144805 24:0.14155801 25:0.371429 26:1.94221 27:0.19415601 28:0.038311701 29:0.98636401 30:0.038961001 31:0.291558 32:0.79545498 33:0.275325 34:2.60584 35:0.196104 36:0.0149351 37:0.95973998 38:0.087012999 39:0.0155844 40:1.97013 41:1.7116899 42:0.95779198 43:1.26753 44:0.14805201 45:0.018181801 46:2.5467501 47:0.37077901 48:0.070779197 49:0.24935099 50:0.31948099 51:0.079220802 52:0.022077899 53:1.21883 54:0.131818 55:0.472078 56:2.22662 57:0.37922099 58:0 59:0.0064935102 60:0 61:0.064285703 62:1.05065 63:0.022077899 64:0.00194805 65:0.909091 66:2.3097401 67:0.29545501 68:0.16883101 69:0.29415599 70:0.495455 71:0.78766203 72:0.033766199 73:0.694444 74:1.2525001 75:0.83179998 76:0.58770001 77:0.80739999 78:1.0989 79:0.77139997 80:0.65009999 81:0.81559998 82:0.204401 83:0.189246 84:0.164667 85:0.13528 86:0.102664 87:0.071264699 88:0.046680901 89:0.033569802 90:0.036602601 91:0.057071399 92:0.087758102 93:0.123074 94:0.15987 95:0.190237 96:0.213267 97:0.233045 
0.4134271055954379 1:0.59220803 2:1.61429 3:2.3240299 4:0.73636401 5:3.08831 6:2.7681799 7:0.73181802 8:1.17987 9:1.8987 10:0.018181801 11:1.00974 12:0.0266234 13:0.0214286 14:0.094805203 15:0.044805199 16:0.037013002 17:0.029220801 18:1.45584 19:0.180519 20:0.78701299 21:0.094155803 22:0.89220798 23:0.065584399 24:0.152597 25:0.101948 26:0.53636402 27:0.307143 28:0.018831201 29:0.40259701 30:0.87467498 31:0.12987 32:0.028571401 33:0.050000001 34:0.846753 35:0.5 36:0 37:2.3324699 38:0.255844 39:1.3389601 40:2.3350599 41:0.23441599 42:2.6519499 43:2.08377 44:0.35194799 45:0.79610401 46:0.71428603 47:0.233117 48:0 49:0.13116901 50:0.046103898 51:0.14026 52:0.034415599 53:0.45649299 54:0.781169 55:0.0142857 56:0.0103896 57:0.0402597 58:0.00714286 59:0.00064935099 60:0 61:0.00194805 62:0.70779198 63:0.035064898 64:0.027922099 65:0.0123377 66:0.90779197 67:0.033766199 68:0.155844 69:0.0266234 70:0.025974 71:0.92597401 72:0.0142857 73:1.03333 74:2.2997999 75:0.42160001 76:0.48010001 77:0.4391 78:1.9066 79:0.39070001 80:0.1259 81:0.3281 82:0.18986601 83:0.178679 84:0.152357 85:0.138661 86:0.137155 87:0.135451 88:0.137979 89:0.14903501 90:0.157462 91:0.157143 92:0.154548 93:0.154074 94:0.163435 95:0.18563201 96:0.2177 97:0.25386399 
0.2684437000633818 1:0.63311702 2:0.027272699 3:1.4039 4:3.4818201 5:0.33506501 6:3.4058399 7:0.742208 8:0.0519481 9:1.54351 10:0.80194801 11:0.53766203 12:0.00844156 13:0.147403 14:0.105195 15:0.36168799 16:0.0090909097 17:0.332468 18:2.80779 19:0.17532501 20:1.53701 21:0.0142857 22:0.71298701 23:0.29285699 24:0.438961 25:1.1201299 26:2.50455 27:0.41103899 28:0.00194805 29:1.22922 30:0.090909101 31:0.011039 32:0.395455 33:0.0298701 34:2.5513 35:0.12013 36:0.0149351 37:1.24545 38:0.527273 39:0.14350601 40:1.36169 41:2.2987001 42:0.86688298 43:1.44286 44:0.42077899 45:0.275325 46:2.2486999 47:0.049350601 48:0.0116883 49:0.21558399 50:0.46363601 51:0.056493498 52:0.0045454502 53:1.34286 54:0.15844201 55:1.1740299 56:2.5383101 57:0.466234 58:0 59:0.054545499 60:0.0051948102 61:0.132468 62:1.65 63:0.0090909097 64:0 65:0.30779201 66:2.4084401 67:0.26558399 68:0.079870097 69:0.55519497 70:0.73766202 71:0.43181801 72:0.00064935099 73:0.67567599 74:1.7902 75:0.78719997 76:1.1099 77:0.68449998 78:1.3217 79:0.70090002 80:0.92860001 81:0.73720002 82:0.219239 83:0.19865701 84:0.16359501 85:0.121576 86:0.081200004 87:0.0507745 88:0.0352128 89:0.038418598 90:0.059859 91:0.0937429 92:0.13691901 93:0.17772201 94:0.207783 95:0.228395 96:0.246333 97:0.266682 
0.1717031449794166 1:0.48181799 2:0.103247 3:1.6039 4:2.9967501 5:0.895455 6:3.1772699 7:0.964935 8:0.225325 9:2.01688 10:0.52597398 11:0.54610401 12:0.0090909097 13:0.15000001 14:0.046753202 15:0.255844 16:0.0103896 17:0.20064899 18:2.5915599 19:0.083116896 20:1.84481 21:0.027922099 22:1.16169 23:0.235065 24:0.20974 25:0.76493502 26:1.7279201 27:0.54805201 28:0.00584416 29:0.96948099 30:0.070779197 31:0.0012987 32:0.39870101 33:0.16493499 34:2.2857101 35:0.075974002 36:0.022077899 37:1.17987 38:0.409091 39:0.19415601 40:0.99545503 41:2.12078 42:1.28571 43:1.57727 44:0.77272701 45:0.44025999 46:2.41429 47:0.30454499 48:0.00714286 49:0.091558397 50:0.13961001 51:0.037013002 52:0.00324675 53:0.994156 54:0.18766201 55:1.21494 56:2.8311701 57:0.65584397 58:0.00064935099 59:0.0051948102 60:0.00064935099 61:0.0623377 62:1.81429 63:0.0064935102 64:0.0175325 65:0.344156 66:2.50649 67:0.016883099 68:0.0142857 69:0.344805 70:0.61688298 71:0.49155799 72:0.049350601 73:0.694444 74:1.9197 75:0.66780001 76:1.0168999 77:0.61519998 78:1.3822 79:0.64359999 80:1.0151 81:0.67790002 82:0.21443 83:0.19259 84:0.15627 85:0.115144 86:0.075800002 87:0.046774499 88:0.032978699 89:0.036848798 90:0.058653802 91:0.095528603 92:0.13732301 93:0.177296 94:0.21326099 95:0.23647401 96:0.25350001 97:0.26663601 
0.09123873804878997 1:0.49935099 2:0.047402602 3:1.15325 4:2.0785699 5:1.13701 6:2.6987 7:0.201948 8:0.36039001 9:1.7039 10:0.58701301 11:0.42987001 12:0 13:0.128571 14:0.023376601 15:0.00064935099 16:0.00584416 17:0.046103898 18:1.79935 19:0.187013 20:1.3422101 21:0.0149351 22:0.237662 23:0.101299 24:0.00324675 25:0.35973999 26:1.8259701 27:0.62922102 28:0.00324675 29:1.2181799 30:0.100649 31:0.413636 32:0.69610399 33:0.45909101 34:2.62727 35:0.371429 36:0.0149351 37:1.12597 38:0.198052 39:0.0844156 40:2.2077899 41:1.2915601 42:1.83117 43:1.31169 44:0.16688301 45:0.651299 46:1.90455 47:0.10974 48:0.00064935099 49:0.0201299 50:0.0246753 51:0 52:0.00064935099 53:0.56623399 54:0.41428599 55:1.32532 56:2.1500001 57:0.39220801 58:0 59:0.0116883 60:0.0012987 61:0.0064935102 62:1.3064899 63:0.027272699 64:0.0012987 65:0.82727301 66:2.1298699 67:0.624026 68:0.53051901 69:0.98311698 70:0.213636 71:1.32143 72:0.0045454502 73:0.81818199 74:1.5216 75:0.46520001 76:0.72399998 77:0.90930003 78:1.3658 79:0.46830001 80:0.80400002 81:1.0219001 82:0.201317 83:0.184201 84:0.155333 85:0.120271 86:0.084854499 87:0.055078398 88:0.037191499 89:0.0342093 90:0.0475385 91:0.076128602 92:0.11571 93:0.158537 94:0.19376101 95:0.218789 96:0.23503301 97:0.24854501 
0.2188819300347187 1:0.415584 2:0.0045454502 3:1.37857 4:3.21104 5:0.527273 6:3.4727299 7:0.71948099 8:0.230519 9:2.20714 10:0.71753198 11:0.38116899 12:0.0045454502 13:0.094155803 14:0.0415584 15:0.23246799 16:0.00064935099 17:0.147403 18:1.9960999 19:0.12987 20:1.61494 21:0.0051948102 22:0.207792 23:0.161688 24:0.0149351 25:0.438961 26:1.68571 27:0.556494 28:0 29:1.1396101 30:0.0253247 31:0.23441599 32:0.57922101 33:0.179221 34:2.6909101 35:0.064285703 36:0 37:1.46623 38:0.33116901 39:0.0415584 40:2.5532501 41:2.5545499 42:0.97792202 43:1.71494 44:0.63831198 45:0.39090899 46:2.2032499 47:0.0201299 48:0.0045454502 49:0.0415584 50:0.086363599 51:0.0162338 52:0.00194805 53:1.17468 54:0.150649 55:1.32662 56:2.7168801 57:0.43376601 58:0.00064935099 59:0.0045454502 60:0 61:0.038311701 62:1.47403 63:0.0045454502 64:0.00064935099 65:0.72532499 66:2.4259701 67:0.30584401 68:0.095454499 69:0.84155798 70:0.55454499 71:0.92857099 72:0.00324675 73:0.84848499 74:1.8737 75:0.55680001 76:0.74159998 77:0.75660002 78:1.643 79:0.5697 80:0.92390001 81:0.90570003 82:0.21992999 83:0.201052 84:0.169929 85:0.13131399 86:0.0912636 87:0.0583333 88:0.0390319 89:0.0365698 90:0.051782001 91:0.081614301 92:0.120387 93:0.160778 94:0.195978 95:0.222763 96:0.24240001 97:0.26209101 
0.2239112923600977 1:0.044155799 2:0.0194805 3:0.44805199 4:0.82922101 5:0.55714297 6:1.70714 7:0.102597 8:0.047402602 9:0.600649 10:0.152597 11:0.47792199 12:0.0012987 13:0.077272698 14:0.148701 15:0.48181799 16:0.012987 17:0.407143 18:1.54091 19:0.055194799 20:0.48116899 21:0.022077899 22:0.23831201 23:0.17532501 24:0.237662 25:0.29610401 26:1.10065 27:0.14415599 28:0.023376601 29:0.307143 30:0.0064935102 31:0.135065 32:0.14026 33:0.118831 34:1.54351 35:0.198052 36:0.0402597 37:0.968831 38:0.133766 39:0.111688 40:0.79155803 41:0.96298701 42:0.54285699 43:0.48571399 44:0.038961001 45:0.057142898 46:1.18961 47:0.056493498 48:0.112338 49:0.25844201 50:0.094805203 51:0.00324675 52:0.00584416 53:0.128571 54:0.0253247 55:0.291558 56:1.12078 57:0.54415601 58:0.0045454502 59:0.081818201 60:0 61:0.0409091 62:0.90389597 63:0.00324675 64:0 65:0.342208 66:0.742208 67:0.042857099 68:0.099350601 69:0.0155844 70:0.12532499 71:0.168182 72:0.00194805 73:0.72973001 74:0.67079997 75:0.50830001 76:0.42359999 77:0.38699999 78:0.6304 79:0.28870001 80:0.46059999 81:0.2368 82:0.202261 83:0.194015 84:0.180667 85:0.16479699 86:0.1479 87:0.131157 88:0.116362 89:0.105198 90:0.102885 91:0.112429 92:0.13132299 93:0.154204 94:0.176109 95:0.192711 96:0.20776699 97:0.22495501 
2.088289982769345 1:0.074675299 2:0.055844199 3:0.81233799 4:0.77207798 5:1.05714 6:1.4616899 7:0.0532468 8:0.033116899 9:0.82922101 10:0.096753202 11:0.50324702 12:0.0162338 13:0.14610399 14:0.135065 15:0.038961001 16:0.00194805 17:0.20909099 18:1.29935 19:0.0175325 20:0.67727298 21:0.00714286 22:0.0512987 23:0.0402597 24:0.011039 25:0.446753 26:0.98506498 27:0.32727301 28:0.0045454502 29:0.41623399 30:0.096103899 31:0.32012999 32:0.237662 33:0.14805201 34:1.3474 35:0.25974 36:0.0097402604 37:0.56883103 38:0.044155799 39:0.0727273 40:1.26429 41:0.93376601 42:0.48960999 43:0.66883099 44:0.107792 45:0.150649 46:1.50065 47:0.083116896 48:0.00194805 49:0.00714286 50:0.18831199 51:0.16883101 52:0.064285703 53:0.39026001 54:0.14026 55:0.33311701 56:1.21753 57:0.34999999 58:0 59:0.0038961 60:0.0305195 61:0.0253247 62:0.773377 63:0.0012987 64:0.0012987 65:0.29480499 66:1.23961 67:0.047402602 68:0.123377 69:0.105844 70:0.181169 71:0.501948 72:0.035064898 73:0.694444 74:0.79299998 75:0.3768 76:0.39480001 77:0.4373 78:0.66229999 79:0.3919 80:0.42120001 81:0.3897 82:0.20332401 83:0.19303 84:0.176476 85:0.15658499 86:0.135609 87:0.117284 88:0.104926 89:0.100651 90:0.105269 91:0.117729 92:0.135355 93:0.156037 94:0.178326 95:0.199526 96:0.219667 97:0.2395 
0.4196650606755704 1:0.029220801 2:0.016883099 3:0.48636401 4:0.88636398 5:0.38636401 6:1.80519 7:0.155844 8:0.126623 9:0.71168798 10:0.147403 11:0.32532501 12:0 13:0.157143 14:0.2 15:0.0097402604 16:0.0077922102 17:0.100649 18:1.40195 19:0.0623377 20:0.46039 21:0.0207792 22:0.0720779 23:0.24026 24:0.112338 25:0.46753201 26:0.91493499 27:0.241558 28:0.0298701 29:0.39285699 30:0.0103896 31:0.104545 32:0.223377 33:0.0298701 34:0.73311698 35:0.0616883 36:0.115584 37:0.57857102 38:0.108442 39:0.037662301 40:0.87532502 41:1.46688 42:0.48311701 43:0.87013 44:0.44220799 45:0.162338 46:1.43701 47:0.149351 48:0.035064898 49:0.137013 50:0.064935103 51:0.0525974 52:0.068181798 53:0.35714301 54:0.0162338 55:0.23441599 56:1.18636 57:0.26168799 58:0.0025974 59:0 60:0.0097402604 61:0.068831198 62:0.60909098 63:0.0025974 64:0.00194805 65:0.28051901 66:1.4013 67:0.088960998 68:0.053896099 69:0.271429 70:0.27662301 71:0.55714297 72:0.00324675 73:0.74285698 74:0.70910001 75:0.3619 76:0.39919999 77:0.26199999 78:0.77380002 79:0.35690001 80:0.36579999 81:0.45199999 82:0.213303 83:0.205597 84:0.191698 85:0.174992 86:0.157345 87:0.141755 88:0.132415 89:0.127581 90:0.129333 91:0.13988601 92:0.155468 93:0.17337 94:0.191457 95:0.208684 96:0.225933 97:0.247273 
4.442197110914654 1:0.068181798 2:0.00064935099 3:0.46948099 4:0.78181797 5:0.193506 6:1.4077899 7:0.076623403 8:0.018831201 9:0.61688298 10:0.207792 11:0.20519499 12:0.00064935099 13:0.186364 14:0.103247 15:0.069480501 16:0.0038961 17:0.277922 18:1.42532 19:0.056493498 20:0.53181797 21:0.0012987 22:0.147403 23:0.0844156 24:0.0415584 25:0.57077903 26:0.79805201 27:0.132468 28:0.012987 29:0.413636 30:0.043506499 31:0.098052002 32:0.193506 33:0.095454499 34:1.15974 35:0.279221 36:0.0045454502 37:0.25974 38:0.0519481 39:0.053896099 40:0.49935099 41:0.854545 42:0.336364 43:0.303247 44:0.060389601 45:0.053896099 46:1.2818201 47:0.27207801 48:0.0077922102 49:0.033116899 50:0.144805 51:0.078571402 52:0.034415599 53:0.56428599 54:0.075324699 55:0.63896102 56:0.88506502 57:0.38116899 58:0.0025974 59:0.00064935099 60:0.0103896 61:0.032467499 62:0.63831198 63:0.00584416 64:0.0051948102 65:0.380519 66:1.3987 67:0.107143 68:0.0525974 69:0.071428597 70:0.25324699 71:0.23961 72:0.011039 73:0.66666698 74:0.5596 75:0.38190001 76:0.36410001 77:0.35429999 78:0.3809 79:0.3838 80:0.39969999 81:0.38800001 82:0.20540801 83:0.198 84:0.184865 85:0.169559 86:0.153236 87:0.137706 88:0.125819 89:0.120384 90:0.122551 91:0.132057 92:0.147177 93:0.16477799 94:0.181217 95:0.196289 96:0.2087 97:0.223591 
0.2648104948019032 1:0.022077899 2:0.138312 3:0.273377 4:0.57922101 5:0.40844199 6:0.82662302 7:0.29415599 8:0.25064901 9:0.535065 10:0.0175325 11:0 12:0.00064935099 13:0.039610401 14:0.22402599 15:0.064285703 16:0.085064903 17:0.0201299 18:0.58960998 19:0.055844199 20:0.12532499 21:0.0175325 22:0.095454499 23:0.76753199 24:0.201948 25:0.54155803 26:0.37467501 27:0.279221 28:0.00324675 29:0.00064935099 30:0.0123377 31:0.0090909097 32:0.193506 33:0.153896 34:1.21364 35:0.162338 36:0.00324675 37:0.0532468 38:0.190909 39:0.0077922102 40:0.54480499 41:0.14026 42:0.122078 43:0.36298701 44:0.068181798 45:0.0935065 46:0.69935101 47:0.57662302 48:0.00324675 49:1.00065 50:0.0305195 51:0 52:0 53:0.31623399 54:0.18376601 55:0.317532 56:0.68181801 57:0.399351 58:0.22792201 59:0.00324675 60:0.018181801 61:0 62:0.38441601 63:0.053896099 64:0.00324675 65:0.34740299 66:0.93896103 67:0.0844156 68:0.0103896 69:0.45129901 70:0.018181801 71:0.23181801 72:0.044805199 73:0.52272701 74:0.51249999 75:0.1603 76:0.37869999 77:0.26980001 78:0.2439 79:0.43279999 80:0.3213 81:0.3281 82:0.20293 83:0.19697 84:0.18764301 85:0.177958 86:0.169018 87:0.161147 88:0.15557399 89:0.15367401 90:0.15371799 91:0.1541 92:0.15549999 93:0.157741 94:0.161283 95:0.16673701 96:0.175667 97:0.19050001 
4.538716625727417 1:0.0214286 2:0.203896 3:0.66623402 4:1.3389601 5:0.38246799 6:1.6 7:0.340909 8:0.0623377 9:0.91623402 10:0.17532501 11:0.44870099 12:0.0038961 13:0.136364 14:0.27077901 15:0.168182 16:0.0123377 17:0.17337701 18:1.54416 19:0.105844 20:0.29805201 21:0.038311701 22:0.082467496 23:0.22987001 24:0.151299 25:0.228571 26:0.66233802 27:0.114935 28:0.0928571 29:0.58831197 30:0.075974002 31:0.12987 32:0.174026 33:0.065584399 34:1.39545 35:0.207792 36:0.00194805 37:0.98636401 38:0.29935101 39:0.074675299 40:1.18442 41:1.21948 42:0.556494 43:0.99675298 44:0.32857099 45:0.13116901 46:1.06234 47:0.244156 48:0.0038961 49:0.57272702 50:0.157792 51:0.085064903 52:0.0175325 53:0.48571399 54:0.038311701 55:0.405195 56:0.83246797 57:0.099350601 58:0.0136364 59:0.042857099 60:0.00584416 61:0.0162338 62:0.74350601 63:0 64:0.0097402604 65:0.49480501 66:1.59026 67:0.183117 68:0.15000001 69:0.415584 70:0.16493499 71:0.39026001 72:0 73:0.625 74:0.852 75:0.4517 76:0.29440001 77:0.42070001 78:0.8897 79:0.41080001 80:0.33250001 81:0.52340001 82:0.229 83:0.224246 84:0.21355601 85:0.198144 86:0.178445 87:0.15758801 88:0.140128 89:0.131837 90:0.13557699 91:0.149257 92:0.17095201 93:0.196667 94:0.219978 95:0.242842 96:0.25916699 97:0.27413601 
0.8592039852080275 1:0.32662299 2:0.32012999 3:1.11104 4:1.24481 5:1.43831 6:1.67597 7:0.25129899 8:0.27013001 9:1.03377 10:0.077272698 11:0.46298701 12:0 13:0.016883099 14:0.0532468 15:0.38766199 16:0.034415599 17:0.30389601 18:1.24805 19:0.0051948102 20:0.26168799 21:0.00194805 22:0.40454501 23:0.057792202 24:0.14610399 25:0.317532 26:0.96103901 27:0.226623 28:0.00064935099 29:0.70259702 30:0.090909101 31:0.214935 32:0.16688301 33:0.058441602 34:1.97208 35:0.074675299 36:0.00064935099 37:0.99935102 38:0.314935 39:0.164286 40:1.74156 41:1.17792 42:0.70064902 43:0.98116899 44:0.134416 45:0.115584 46:1.8974 47:0.13311701 48:0.046103898 49:0.26103899 50:0.131818 51:0.018831201 52:0 53:0.63246799 54:0.0844156 55:0.317532 56:1.0448101 57:0.48960999 58:0.0012987 59:0.0246753 60:0 61:0 62:0.415584 63:0.00324675 64:0.036363602 65:0.27077901 66:1.04221 67:0.057142898 68:0.16103899 69:0.277273 70:0.046753202 71:0.49026 72:0.0025974 73:0.625 74:1.1815 75:0.398 76:0.3669 77:0.5054 78:0.97479999 79:0.49360001 80:0.35370001 81:0.36719999 82:0.23076101 83:0.219179 84:0.202794 85:0.184839 86:0.166345 87:0.146108 88:0.12645701 89:0.112291 90:0.110859 91:0.12511399 92:0.14971 93:0.178537 94:0.20704301 95:0.227237 96:0.24366701 97:0.26004499 
2.279619194220067 1:0.120779 2:0.314935 3:0.72337699 4:0.868182 5:1.39545 6:1.03636 7:0.089610398 8:0.092207797 9:0.51818198 10:0.113636 11:0.58376598 12:0.035714298 13:0.096753202 14:0.37013 15:0.092207797 16:0.0162338 17:0.35584399 18:1.43182 19:0.27467501 20:0.40000001 21:0.0194805 22:0.090259701 23:0.080519497 24:0.064935103 25:0.15000001 26:1.07078 27:0.146753 28:0.0123377 29:0.31428599 30:0.12987 31:0.225325 32:0.22013 33:0.21753199 34:1.78961 35:0.228571 36:0 37:0.627922 38:0.17532501 39:0.124026 40:1.62857 41:0.75454497 42:0.58246797 43:0.82012999 44:0.044805199 45:0.0311688 46:1.33117 47:0.101299 48:0.0194805 49:0.39415601 50:0.18961 51:0.216883 52:0.0149351 53:0.33766201 54:0.125974 55:0.55974001 56:1.17208 57:0.30000001 58:0.00714286 59:0.0519481 60:0.0090909097 61:0.0155844 62:1.04805 63:0.027272699 64:0.0142857 65:0.181169 66:1.31688 67:0.0311688 68:0.146753 69:0.137013 70:0.068831198 71:0.55909097 72:0.0246753 73:0.76470602 74:0.79449999 75:0.47679999 76:0.3538 77:0.48320001 78:0.73750001 79:0.4206 80:0.4914 81:0.38190001 82:0.214655 83:0.20785099 84:0.19394401 85:0.175653 86:0.154709 87:0.13455901 88:0.119713 89:0.112081 90:0.112513 91:0.122857 92:0.142839 93:0.16813 94:0.19499999 95:0.221132 96:0.24006701 97:0.26122701 
0.2283790060263114 1:0.34740299 2:0.170779 3:1.37273 4:1.03896 5:1.54351 6:1.58312 7:0.105844 8:0.26039001 9:0.80779201 10:0.101299 11:0.30129901 12:0.082467496 13:0 14:0.024026001 15:0.0097402604 16:0.0525974 17:0.16039 18:0.99675298 19:0.102597 20:1.3194799 21:0.036363602 22:0.086363599 23:0.098701298 24:0.0253247 25:0.305195 26:1.4207799 27:0.77012998 28:0.035064898 29:0.53246802 30:0.046103898 31:0.468831 32:0.172727 33:0.0402597 34:1.3474 35:0.32337701 36:0.022727299 37:1.00779 38:0.233766 39:0.046103898 40:1.3526 41:1.0922101 42:0.466883 43:1.21364 44:0.122727 45:0.118831 46:1.0824701 47:0.112987 48:0 49:0.0305195 50:0.058441602 51:0.111039 52:0 53:0.58311701 54:0.22792201 55:0.074026003 56:0.33506501 57:0.016883099 58:0.00584416 59:0.0012987 60:0.0402597 61:0.0038961 62:0.88831198 63:0.048701301 64:0.095454499 65:0.28831199 66:1.12792 67:0.26883101 68:0.29675299 69:0.31818199 70:0.048701301 71:0.590909 72:0.33896101 73:0.80000001 74:1.1135 75:0.26620001 76:0.64139998 77:0.4603 78:0.87080002 79:0.3398 80:0.21780001 81:0.51959997 82:0.192761 83:0.18278401 84:0.167603 85:0.149551 86:0.130355 87:0.1135 88:0.102053 89:0.098930202 90:0.105782 91:0.1207 92:0.141645 93:0.165722 94:0.19060899 95:0.21468399 96:0.2378 97:0.257364 
0.2298156114512399 1:0.113636 2:0.0149351 3:0.58701301 4:1.41299 5:0.88701302 6:2.4259701 7:0.241558 8:0.134416 9:0.75974 10:0.306494 11:0.53766203 12:0 13:0.0616883 14:0.116234 15:0.081168801 16:0.00194805 17:0.35324699 18:1.18571 19:0.074026003 20:0.76103902 21:0.0051948102 22:0.083116896 23:0.113636 24:0.064285703 25:0.201299 26:1.42338 27:0.92662299 28:0.070129901 29:0.507792 30:0.0149351 31:0.252597 32:0.71818203 33:0.273377 34:1.73636 35:0.055844199 36:0.077272698 37:0.54026002 38:0.32922101 39:0.087662302 40:1.25714 41:1.56169 42:1.00974 43:1.13831 44:0.105195 45:0.26039001 46:1.13052 47:0.119481 48:0.0422078 49:0.30389601 50:0.00714286 51:0.00844156 52:0 53:0.594805 54:0.146753 55:0.63116902 56:1.16039 57:0.27597401 58:0.018181801 59:0.0064935102 60:0.0012987 61:0 62:1.0461 63:0.0012987 64:0.0077922102 65:0.58506501 66:1.70195 67:0.306494 68:0.14415599 69:0.48571399 70:0.155844 71:0.77857101 72:0 73:0.76470602 74:1.0129 75:0.40720001 76:0.5625 77:0.57080001 78:0.96859998 79:0.3624 80:0.48370001 81:0.6415 82:0.21280999 83:0.20591 84:0.191468 85:0.171186 86:0.14657301 87:0.122441 88:0.104287 89:0.095418602 90:0.098782003 91:0.116486 92:0.146323 93:0.180389 94:0.210913 95:0.232342 96:0.24529999 97:0.26050001 
0.8879478414478578 1:0.16493499 2:0.0162338 3:0.42597401 4:2.2168801 5:0.314935 6:2.0701301 7:0.22792201 8:0.0090909097 9:0.98181802 10:0.314935 11:0.091558397 12:0.00714286 13:0.044805199 14:0.049350601 15:0.46298701 16:0.0149351 17:0.36558399 18:0.95064902 19:0.14415599 20:1.06104 21:0.0097402604 22:0.114286 23:0.131818 24:0.028571401 25:0.224675 26:1.36234 27:0.594805 28:0.0207792 29:0.36883101 30:0.00844156 31:0.080519497 32:0.79026002 33:0.247403 34:2.03442 35:0.224675 36:0 37:0.63571399 38:0.216883 39:0.032467499 40:1.11753 41:1.62597 42:0.73831201 43:0.39480501 44:0.059740301 45:0.074026003 46:1.46558 47:0.080519497 48:0.018831201 49:0.32337701 50:0.103896 51:0.0097402604 52:0.0025974 53:0.56948102 54:0.136364 55:0.444805 56:1.34805 57:0.19220801 58:0.00844156 59:0.058441602 60:0.0025974 61:0.018181801 62:1.4110399 63:0.0136364 64:0 65:0.69610399 66:1.6961 67:0.39675301 68:0.26493499 69:0.32792199 70:0.22142901 71:0.29090899 72:0.062987 73:0.694444 74:0.98989999 75:0.3545 76:0.5654 77:0.58139998 78:0.75389999 79:0.4174 80:0.53860003 81:0.60939997 82:0.212007 83:0.201784 84:0.18618301 85:0.167254 86:0.14572699 87:0.123775 88:0.10616 89:0.0984767 90:0.103385 91:0.119743 92:0.144565 93:0.17431501 94:0.204174 95:0.230553 96:0.2502 97:0.26750001 
0.2393965994019853 1:0.25064901 2:0.00324675 3:0.82792199 4:2.3389599 5:0.0045454502 6:2.62727 7:0.57597399 8:0.045454498 9:0.89220798 10:0.49090901 11:0.26818201 12:0.00324675 13:0.28961 14:0.0207792 15:0.18766201 16:0.054545499 17:0.346104 18:1.48636 19:0.147403 20:0.85194802 21:0.0045454502 22:0.88246799 23:0.58571398 24:0.0525974 25:0.71233797 26:0.75649399 27:0.42467499 28:0.0090909097 29:0.682468 30:0.0077922102 31:0.0149351 32:0.105195 33:0.101948 34:1.0058399 35:0.146753 36:0.0246753 37:0.25974 38:0.496104 39:0.0207792 40:0.525325 41:1.78571 42:0.32142901 43:0.75519502 44:0.83051902 45:0.044805199 46:1.34091 47:0.31428599 48:0.024026001 49:0.00324675 50:0.161688 51:0.10974 52:0.022077899 53:0.65389597 54:0.035064898 55:0.724675 56:1.41299 57:0.229221 58:0.00844156 59:0.00714286 60:0.0207792 61:0.094805203 62:0.376623 63:0.00194805 64:0.114286 65:0.30389601 66:1.83442 67:0.13766199 68:0.0051948102 69:0.20714299 70:0.83116901 71:0.29220799 72:0.0409091 73:0.63157898 74:1.1652 75:0.48469999 76:0.68040001 77:0.32319999 78:0.77609998 79:0.4104 80:0.44299999 81:0.5801 82:0.208542 83:0.19838101 84:0.179492 85:0.157144 86:0.139364 87:0.12852 88:0.123904 89:0.12620901 90:0.133449 91:0.143557 92:0.15588699 93:0.172093 94:0.189739 95:0.205421 96:0.220333 97:0.236545 
0.3358626355798914 1:0.342208 2:0.30129901 3:1.1487 4:1.2961 5:0.89025998 6:2.4207799 7:0.36753201 8:0.32727301 9:1.2246799 10:0.163636 11:0.30584401 12:0.0064935102 13:0.507792 14:0.12922101 15:0.088960998 16:0.045454498 17:0.089610398 18:1.32208 19:0.0123377 20:0.848701 21:0.049350601 22:0.28896099 23:0.101299 24:0.14026 25:0.405195 26:0.974675 27:0.381818 28:0.0012987 29:0.980519 30:0.33051899 31:0.065584399 32:0.13311701 33:0.205844 34:1.8798701 35:0.144805 36:0.028571401 37:0.68181801 38:0.0266234 39:0.174675 40:1.51299 41:0.150649 42:1.7915601 43:0.69480503 44:0.044155799 45:0.26623401 46:1.81883 47:0.22597399 48:0.0038961 49:0.205844 50:0.098701298 51:0.186364 52:0 53:0.78896099 54:0.29285699 55:0.51168799 56:1.59545 57:0.45064899 58:0.0253247 59:0.016883099 60:0 61:0.0097402604 62:0.60714298 63:0.045454498 64:0.029220801 65:0.18571401 66:1.5318201 67:0.415584 68:0.116883 69:0.109091 70:0.309091 71:0.40064901 72:0.0298701 73:0.63157898 74:1.2811 75:0.4095 76:0.4932 77:0.58060002 78:0.8229 79:0.55769998 80:0.50239998 81:0.4817 82:0.220099 83:0.20876101 84:0.18740501 85:0.16 86:0.13246401 87:0.110029 88:0.098904297 89:0.102593 90:0.118 91:0.142 92:0.170387 93:0.194333 94:0.213348 95:0.22555301 96:0.231833 97:0.240409 
0.3236719384884836 1:0.064285703 2:0.0525974 3:0.218831 4:0.73571402 5:0.76103902 6:1.02273 7:0.135065 8:0.138312 9:0.52857101 10:0.114935 11:0.340909 12:0 13:0.0090909097 14:0.039610401 15:0.28701299 16:0.0136364 17:0.177922 18:1.06688 19:0.027272699 20:0.25909099 21:0 22:0.157143 23:0.14026 24:0.079870097 25:0.26233801 26:0.716883 27:0.12727299 28:0.00064935099 29:0.37077901 30:0.0064935102 31:0.0512987 32:0.10974 33:0.073376603 34:1.3026 35:0.048701301 36:0.047402602 37:0.73246801 38:0.134416 39:0.033766199 40:0.87532502 41:0.89025998 42:0.28831199 43:0.47013 44:0.0519481 45:0.036363602 46:0.744156 47:0.0045454502 48:0.0162338 49:0.201299 50:0.119481 51:0.00584416 52:0 53:0.434416 54:0.0194805 55:0.23181801 56:0.86298698 57:0.32727301 58:0.0142857 59:0.0246753 60:0.0025974 61:0 62:0.23831201 63:0.0090909097 64:0.0038961 65:0.235065 66:0.78376597 67:0.163636 68:0.15844201 69:0.0422078 70:0.0525974 71:0.29090899 72:0.0142857 73:0.75675702 74:0.5632 75:0.31569999 76:0.2726 77:0.30970001 78:0.54100001 79:0.23800001 80:0.26350001 81:0.2687 82:0.206479 83:0.20096301 84:0.191159 85:0.178542 86:0.16421799 87:0.150225 88:0.139851 89:0.136384 90:0.138679 91:0.1454 92:0.15627401 93:0.171185 94:0.188913 95:0.20802601 96:0.22713301 97:0.241909 
0.8094337970380336 1:0.60714298 2:0.045454498 3:1.2181799 4:2.4753201 5:0.20454501 6:2.3513 7:0.50649399 8:0.043506499 9:0.96428603 10:0.47532499 11:0.53701299 12:0.00194805 13:0.157143 14:0.00064935099 15:0.132468 16:0.0025974 17:0.30129901 18:1.81883 19:0.049350601 20:0.781169 21:0.074675299 22:0.108442 23:0.029220801 24:0.27272701 25:0.30129901 26:1.02922 27:0.243506 28:0.0012987 29:0.92337698 30:0.055194799 31:0.35194799 32:0.0064935102 33:0.00324675 34:1.49156 35:0.079870097 36:0.0103896 37:1.2967499 38:0.38766199 39:0.16103899 40:1.71883 41:1.9876601 42:0.51233798 43:1.10455 44:0.74090898 45:0.134416 46:1.5889601 47:0.124026 48:0.0064935102 49:0.36039001 50:0.44610399 51:0.083116896 52:0 53:0.73961002 54:0.028571401 55:0.78441602 56:1.2688299 57:0.312987 58:0.00064935099 59:0.050649401 60:0 61:0.00064935099 62:0.742208 63:0.00064935099 64:0.0097402604 65:0.29740301 66:1.6013 67:0.076623403 68:0.12727299 69:0.74285698 70:0.495455 71:0.405195 72:0.0012987 73:0.702703 74:1.2961 75:0.52780002 76:0.44499999 77:0.45019999 78:1.2388 79:0.5201 80:0.48679999 81:0.57859999 82:0.21863399 83:0.208336 84:0.18869799 85:0.16389 86:0.137473 87:0.114245 88:0.099904299 89:0.098209299 90:0.111051 91:0.135857 92:0.164758 93:0.19159301 94:0.214783 95:0.23278899 96:0.2457 97:0.25890899 
0.07478935434675289 1:0.203247 2:0.101299 3:0.33116901 4:1.14545 5:0.16948099 6:1.46623 7:0.31623399 8:0.0525974 9:0.87467498 10:0.213636 11:0.496104 12:0 13:0.0318182 14:0.028571401 15:0.49350601 16:0.0064935102 17:0.242208 18:1.06039 19:0.130519 20:0.492208 21:0.0175325 22:0.188961 23:0.17532501 24:0.050649401 25:0.24870101 26:0.94675303 27:0.096753202 28:0.0298701 29:0.0311688 30:0.0103896 31:0.074026003 32:0.36363599 33:0.175974 34:1.14481 35:0.087662302 36:0 37:0.68766201 38:0.28896099 39:0.043506499 40:0.63246799 41:1.0662301 42:0.25 43:0.501948 44:0.12013 45:0.0512987 46:0.691558 47:0.17337701 48:0.105844 49:0.152597 50:0.0123377 51:0.039610401 52:0.033766199 53:0.659091 54:0.078571402 55:0.42987001 56:0.751948 57:0.33701301 58:0.00844156 59:0 60:0 61:0.027272699 62:0.80584401 63:0.0123377 64:0 65:0.496104 66:0.99675298 67:0.027922099 68:0.00324675 69:0.23831201 70:0.26493499 71:0.26428601 72:0.0246753 73:0.76470602 74:0.7177 75:0.3962 76:0.36149999 77:0.29530001 78:0.56089997 79:0.29980001 80:0.36539999 81:0.3567 82:0.21365499 83:0.205761 84:0.19327 85:0.17892399 86:0.164591 87:0.153225 88:0.145989 89:0.144035 90:0.14864101 91:0.15970001 92:0.175161 93:0.19031499 94:0.202152 95:0.21157899 96:0.21986701 97:0.232318 
2.460597382764446 1:0.111039 2:0.035064898 3:0.66233802 4:1.24156 5:1.01169 6:1.1298701 7:0.218831 8:0.118831 9:1.07078 10:0.054545499 11:0.27402601 12:0.0077922102 13:0.0246753 14:0.116234 15:0.42662299 16:0.058441602 17:0.25844201 18:1.16234 19:0.0175325 20:0.78571397 21:0.0025974 22:0.32986999 23:0.070129901 24:0.074026003 25:0.22013 26:0.91039002 27:0.102597 28:0.0097402604 29:0.354545 30:0.027272699 31:0.0253247 32:0.29480499 33:0.131818 34:1.43247 35:0.144805 36:0 37:0.29870099 38:0.071428597 39:0.023376601 40:0.85324699 41:1.05844 42:0.440909 43:0.32467499 44:0.0837662 45:0.0097402604 46:1.56104 47:0.225325 48:0 49:0.19220801 50:0.190909 51:0.038961001 52:0.0064935102 53:0.58571398 54:0.048701301 55:0.17727301 56:1.12468 57:0.114286 58:0.00844156 59:0.0090909097 60:0.0090909097 61:0.0123377 62:0.842857 63:0.033766199 64:0.034415599 65:0.336364 66:1.32532 67:0.053896099 68:0.048701301 69:0.305195 70:0.076623403 71:0.35194799 72:0.0415584 73:0.72973001 74:0.8624 75:0.36700001 76:0.38699999 77:0.37279999 78:0.48730001 79:0.43880001 80:0.35910001 81:0.3964 82:0.185986 83:0.17891 84:0.16610301 85:0.14989001 86:0.13155501 87:0.113961 88:0.101053 89:0.096430197 90:0.100744 91:0.111929 92:0.128548 93:0.14877801 94:0.170065 95:0.191447 96:0.211867 97:0.230727 
1.157963100569372 1:0.207792 2:0.0844156 3:0.98506498 4:1.53571 5:0.70519501 6:2.0311699 7:0.243506 8:0.103247 9:1.05714 10:0.100649 11:0.42077899 12:0.00064935099 13:0.090909101 14:0.21103901 15:0.206494 16:0.0305195 17:0.046103898 18:1.43312 19:0 20:0.28831199 21:0.00324675 22:0.071428597 23:0.22142901 24:0.24026 25:0.29545501 26:0.76883101 27:0.148701 28:0 29:0.54675299 30:0.037013002 31:0.376623 32:0.22142901 33:0.044155799 34:1.22338 35:0.104545 36:0.0136364 37:0.61883098 38:0.17532501 39:0.046103898 40:1.39935 41:1.30909 42:0.523377 43:0.90649301 44:0.316883 45:0.118831 46:1.47662 47:0.057142898 48:0.0012987 49:0.25974 50:0.126623 51:0.081818201 52:0 53:0.57077903 54:0.027272699 55:0.28831199 56:0.96428603 57:0.28246799 58:0.0175325 59:0.0142857 60:0.036363602 61:0.00064935099 62:0.32597399 63:0.00064935099 64:0.0155844 65:0.124026 66:1.16623 67:0.065584399 68:0.132468 69:0.497403 70:0.145455 71:0.496104 72:0 73:0.80000001 74:1.0707999 75:0.39120001 76:0.31380001 77:0.39539999 78:0.83380002 79:0.40059999 80:0.29730001 81:0.40700001 82:0.208303 83:0.20085099 84:0.18594401 85:0.167686 86:0.147818 87:0.12944099 88:0.116064 89:0.10843 90:0.108692 91:0.119443 92:0.14037099 93:0.167852 94:0.195804 95:0.21892101 96:0.234033 97:0.25154501 
0.5335064536328822 1:0.090259701 2:0.29740301 3:0.78376597 4:0.83376598 5:1.66818 6:1.2590899 7:0.121429 8:0.29415599 9:0.69870102 10:0.046753202 11:0.38441601 12:0.012987 13:0.205844 14:0.432468 15:0.047402602 16:0.12727299 17:0.0720779 18:1.0889601 19:0.0136364 20:0.38701299 21:0.045454498 22:0.091558397 23:0.097402602 24:0.123377 25:0.722727 26:0.934416 27:0.30129901 28:0 29:0.50064898 30:0.178571 31:0.115584 32:0.203896 33:0.17986999 34:0.61558402 35:0.174675 36:0.018181801 37:0.52077901 38:0.085714303 39:0.0214286 40:1.89221 41:0.58376598 42:0.99350601 43:0.69090903 44:0.168182 45:0.18831199 46:1.80714 47:0.44999999 48:0.011039 49:0.28896099 50:0.077272698 51:0.116234 52:0.038311701 53:0.40454501 54:0.127922 55:0.29350701 56:0.96103901 57:0.083116896 58:0 59:0 60:0.025974 61:0.047402602 62:0.627922 63:0.032467499 64:0.0201299 65:0.22142901 66:1.38506 67:0.0051948102 68:0.00714286 69:0.39870101 70:0.086363599 71:0.42337701 72:0.00064935099 73:0.68421102 74:0.93120003 75:0.37239999 76:0.41839999 77:0.30599999 78:0.79229999 79:0.5115 80:0.31900001 81:0.3924 82:0.207232 83:0.202209 84:0.189952 85:0.172525 86:0.15181801 87:0.13149001 88:0.117043 89:0.112593 90:0.118487 91:0.132586 92:0.152484 93:0.17411099 94:0.195783 95:0.217342 96:0.2388 97:0.25263599 
0.1778740322201967 1:0.044805199 2:0.10974 3:0.52597398 4:0.63116902 5:1.57468 6:1.56299 7:0.214286 8:0.55909097 9:1.1331199 10:0.0142857 11:0.348701 12:0.00064935099 13:0.038961001 14:0.62077898 15:0.101948 16:0.044805199 17:0.022727299 18:0.60974002 19:0 20:0.368182 21:0.027272699 22:0.086363599 23:0.081168801 24:0.18181799 25:0.48506501 26:0.79805201 27:0.45584401 28:0 29:0.27597401 30:0.157792 31:0.067532502 32:0.26688299 33:0.415584 34:1.29091 35:0.055194799 36:0.035064898 37:0.70909101 38:0.0051948102 39:0.045454498 40:2.1526 41:0.12013 42:1.32662 43:0.89285702 44:0 45:0.50454497 46:1.16623 47:0.47727299 48:0.0064935102 49:0.30064899 50:0.018181801 51:0.048701301 52:0 53:0.255844 54:0.39870101 55:0.61688298 56:0.936364 57:0.275325 58:0.022077899 59:0.00064935099 60:0 61:0.0012987 62:0.78181797 63:0.039610401 64:0.0123377 65:0.114935 66:1.44805 67:0.134416 68:0.00194805 69:0.043506499 70:0.0103896 71:0.45194799 72:0.0097402604 73:0.64864898 74:0.9788 75:0.27759999 76:0.38249999 77:0.39500001 78:0.8865 79:0.41150001 80:0.4118 81:0.34299999 82:0.212669 83:0.202216 84:0.184706 85:0.163331 86:0.14138199 87:0.124412 88:0.116755 89:0.118105 90:0.12559 91:0.138514 92:0.156065 93:0.17435201 94:0.19437 95:0.213974 96:0.23243301 97:0.244773 
8.339398710396233 1:0.131818 2:0.00844156 3:0.64415598 4:1.44805 5:0.653247 6:1.6954499 7:0.18766201 8:0.0142857 9:0.58896101 10:0.132468 11:0.41038999 12:0.0142857 13:0.0837662 14:0.038961001 15:0.240909 16:0.0525974 17:0.46558401 18:1.78506 19:0.022077899 20:0.783117 21:0.011039 22:0.22402599 23:0.17142899 24:0.140909 25:0.29805201 26:1.0026 27:0.118182 28:0.00324675 29:0.45129901 30:0.073376603 31:0.26168799 32:0.00194805 33:0.0298701 34:1.51948 35:0.40000001 36:0 37:0.498052 38:0.12727299 39:0.038311701 40:1.24221 41:1.15649 42:0.405844 43:0.41233799 44:0.133766 45:0.032467499 46:1.56104 47:0.254545 48:0.0045454502 49:0.245455 50:0.24675301 51:0.121429 52:0.0253247 53:0.42402601 54:0.0298701 55:0.24026 56:1.05195 57:0.138312 58:0.011039 59:0.0194805 60:0.0175325 61:0.0311688 62:0.941558 63:0.00064935099 64:0.0201299 65:0.253896 66:1.4616899 67:0.055194799 68:0.046753202 69:0.237662 70:0.087012999 71:0.167532 72:0 73:0.71052599 74:0.82730001 75:0.49649999 76:0.42680001 77:0.42210001 78:0.6232 79:0.44859999 80:0.37760001 81:0.35879999 82:0.205732 83:0.19953001 84:0.18776201 85:0.17092399 86:0.14993601 87:0.127167 88:0.108989 89:0.102558 90:0.106833 91:0.118243 92:0.135855 93:0.157204 94:0.179848 95:0.202079 96:0.2191 97:0.232591 
0.5281100479358457 1:0.159091 2:0.147403 3:0.53441602 4:0.98701298 5:0.771429 6:1.62468 7:0.075974002 8:0.061039001 9:0.507792 10:0.23961 11:0.403896 12:0.022727299 13:0.0318182 14:0.0155844 15:0.17142899 16:0.00194805 17:0.464286 18:1.77468 19:0.20259701 20:1.21623 21:0.022727299 22:0.049350601 23:0.66428602 24:0.151299 25:0.41493499 26:1.85455 27:0.32467499 28:0.074675299 29:0.44025999 30:0.0149351 31:0.22142901 32:0.107143 33:0.073376603 34:1.56429 35:0.175974 36:0.025974 37:0.87272698 38:0.29675299 39:0.153247 40:0.785065 41:1.14026 42:0.55000001 43:0.75649399 44:0.14026 45:0.085064903 46:1.32792 47:0.15454499 48:0.033116899 49:0.13961001 50:0.00844156 51:0.0038961 52:0.142857 53:0.43376601 54:0.037013002 55:0.35129899 56:0.97987002 57:0.28961 58:0.0038961 59:0 60:0.0025974 61:0.25714299 62:1.51688 63:0.024026001 64:0 65:0.48960999 66:1.76364 67:0.016883099 68:0.00844156 69:0.31039 70:0.155844 71:0.32597399 72:0.022727299 73:0.81081098 74:0.74980003 75:0.48140001 76:0.75470001 77:0.41549999 78:0.73610002 79:0.3513 80:0.52749997 81:0.47639999 82:0.228655 83:0.214433 84:0.195135 85:0.174576 86:0.154773 87:0.13702901 88:0.123096 89:0.116419 90:0.121872 91:0.139957 92:0.16625801 93:0.192259 94:0.21373899 95:0.231895 96:0.2498 97:0.270818 
2.106681184136604 1:0.035714298 2:0.053896099 3:0.70454502 4:0.34999999 5:0.197403 6:1.2460999 7:0.0051948102 8:0.0311688 9:0.126623 10:0.308442 11:0.30000001 12:0.055844199 13:0.057142898 14:0.0253247 15:0.12922101 16:0.00194805 17:0.69415599 18:1.11169 19:0.087662302 20:0.40000001 21:0.0103896 22:0.100649 23:0.199351 24:0.0422078 25:0.196753 26:0.86493498 27:0.46103901 28:0.150649 29:0.53701299 30:0.046103898 31:0.028571401 32:0.106494 33:0.035064898 34:1.36558 35:0.114286 36:0.0616883 37:0.432468 38:0.36103901 39:0.057792202 40:0.403247 41:0.67013001 42:0.157792 43:0.29480499 44:0.050000001 45:0.042857099 46:0.70584399 47:0.0409091 48:0.00714286 49:0.079870097 50:0.237013 51:0.0402597 52:0.0116883 53:0.16039 54:0.0097402604 55:0.429221 56:0.79155803 57:0.22987001 58:0.018181801 59:0.032467499 60:0.00064935099 61:0.078571402 62:0.29740301 63:0 64:0 65:0.153247 66:1.1974 67:0.245455 68:0.18181799 69:0.12727299 70:0.0727273 71:0.26298699 72:0 73:0.70588201 74:0.42359999 75:0.41330001 76:0.36390001 77:0.3766 78:0.3804 79:0.1991 80:0.28920001 81:0.34509999 82:0.21974599 83:0.212418 84:0.200556 85:0.186314 86:0.172245 87:0.161127 88:0.154181 89:0.151605 90:0.152372 91:0.156129 92:0.164258 93:0.17655601 94:0.191 95:0.205974 96:0.22149999 97:0.23377299 
0.4388445039479821 1:0.36493501 2:0.178571 3:0.82532501 4:1.18247 5:0.95714301 6:1.67013 7:0.080519497 8:0.157143 9:0.63831198 10:0.317532 11:0.51428598 12:0.00324675 13:0.153896 14:0.0103896 15:0.037662301 16:0.035064898 17:0.47727299 18:1.9337699 19:0.0162338 20:1.22922 21:0.044805199 22:0.174026 23:0.0149351 24:0.108442 25:1.0662301 26:0.66818202 27:0.62272698 28:0.034415599 29:0.54545498 30:0.346753 31:0.18376601 32:0.13766199 33:0.201948 34:1.7051899 35:0.68961 36:0.012987 37:0.63960999 38:0.035714298 39:0.124675 40:1.66234 41:0.27272701 42:0.95973998 43:0.80064899 44:0.131818 45:0.034415599 46:1.3571399 47:0.027272699 48:0.00324675 49:0.011039 50:0.54350698 51:0.64285702 52:0 53:0.43831199 54:0.106494 55:0.433117 56:0.90779197 57:0.61428601 58:0.0045454502 59:0.111688 60:0.064285703 61:0.00714286 62:0.62467498 63:0.0123377 64:0.0045454502 65:0.30064899 66:0.88960999 67:0.44999999 68:0.43051901 69:0.089610398 70:0.13311701 71:0.346753 72:0 73:0.62162203 74:0.93239999 75:0.53640002 76:0.60750002 77:0.5941 78:0.71789998 79:0.48199999 80:0.42809999 81:0.4073 82:0.222775 83:0.20806 84:0.187278 85:0.163059 86:0.139773 87:0.123471 88:0.116947 89:0.118849 90:0.127359 91:0.142543 92:0.164177 93:0.18948101 94:0.21537 95:0.239421 96:0.256533 97:0.273182 
0.1681196008574009 1:0.52857101 2:0.088960998 3:1.3571399 4:1.9013 5:0.366234 6:2.47208 7:0.20064899 8:0.0077922102 9:0.86103898 10:0.67532498 11:0.253896 12:0.0175325 13:0.317532 14:0.0155844 15:0.089610398 16:0.00714286 17:0.29610401 18:2.1473999 19:0.050000001 20:0.52467501 21:0.00844156 22:0.199351 23:0.206494 24:0.0305195 25:0.405195 26:0.98831201 27:0.16039 28:0.086363599 29:0.970779 30:0.0422078 31:0.109091 32:0.41818199 33:0.065584399 34:1.59351 35:0.077272698 36:0.0201299 37:0.48766199 38:0.60584402 39:0.0175325 40:0.98376602 41:1.99935 42:0.283117 43:0.93896103 44:0.378571 45:0.0623377 46:0.91558403 47:0.085714303 48:0 49:0.018831201 50:0.15454499 51:0.12727299 52:0.0045454502 53:0.83181798 54:0.0207792 55:0.71818203 56:0.80519497 57:0.39610401 58:0 59:0.0402597 60:0.018831201 61:0.108442 62:0.91298699 63:0 64:0.0415584 65:0.27013001 66:1.51623 67:0.316883 68:0.078571402 69:0.38246799 70:0.52986997 71:0.344156 72:0 73:0.657143 74:1.1987 75:0.58829999 76:0.39629999 77:0.52100003 78:0.88660002 79:0.33250001 80:0.46200001 81:0.5359 82:0.218986 83:0.20367201 84:0.182127 85:0.158831 86:0.139855 87:0.12579399 88:0.118457 89:0.121035 90:0.130564 91:0.144143 92:0.16150001 93:0.18338899 94:0.207239 95:0.231711 96:0.25490001 97:0.27686399 
0.26421316380136 1:0.45519501 2:0.507792 3:1.71494 4:1.42208 5:1.7013 6:1.7246799 7:0.417532 8:0.58831197 9:1.99545 10:0.14805201 11:0.407792 12:0.0025974 13:0.0103896 14:0.0038961 15:0.18831199 16:0.066883102 17:0.103247 18:0.57272702 19:0.096753202 20:0.78181797 21:0.138312 22:0.32597399 23:0.218831 24:0.2 25:0.30194801 26:0.872078 27:0.51363599 28:0.048051901 29:0.66493499 30:0.350649 31:0.174026 32:0.102597 33:0.042857099 34:1.7513 35:0.073376603 36:0.103247 37:1.1168801 38:0.16103899 39:0.39220801 40:1.88766 41:0.50129902 42:1.38442 43:0.84805202 44:0.45584401 45:0.131818 46:1.07987 47:0.0935065 48:0.0253247 49:0.40064901 50:0.12532499 51:0.29285699 52:0 53:0.64285702 54:0.39870101 55:0.30389601 56:0.65584397 57:0.235714 58:0.0532468 59:0.0090909097 60:0 61:0 62:0.375974 63:0.0123377 64:0.078571402 65:0.0636364 66:0.87727302 67:0.26168799 68:0.135065 69:0.131818 70:0.071428597 71:0.74026 72:0.039610401 73:0.72727299 74:1.6212 75:0.2316 76:0.53119999 77:0.50989997 78:1.0594 79:0.4711 80:0.25350001 81:0.36950001 82:0.215937 83:0.200403 84:0.178087 85:0.153364 86:0.131827 87:0.117686 88:0.113266 89:0.118814 90:0.132 91:0.1521 92:0.178161 93:0.202944 94:0.22663 95:0.245 96:0.257467 97:0.266727 
0.4675156670367479 1:0.57207799 2:0.62013 3:1.6 4:1.06234 5:2.03896 6:1.71623 7:0.148701 8:0.212338 9:0.82077903 10:0.037013002 11:0.36493501 12:0.0123377 13:0.0077922102 14:0.062987 15:0.0201299 16:0.0090909097 17:0.25519499 18:1.8026 19:0.044155799 20:0.877922 21:0.119481 22:0.184416 23:0.062987 24:0.27597401 25:0.29805201 26:1.36429 27:0.58506501 28:0 29:0.81948102 30:0.66753203 31:0.277273 32:0.0162338 33:0.19025999 34:2.35325 35:0.185065 36:0.0090909097 37:0.77207798 38:0.035064898 39:0.381818 40:1.92013 41:0.00584416 42:2.1129899 43:0.95389599 44:0.018181801 45:0.0727273 46:1.6201299 47:0.058441602 48:0.012987 49:0.206494 50:0.027922099 51:0.27857101 52:0 53:0.48636401 54:0.563636 55:0.26558399 56:0.56948102 57:0.41103899 58:0.0097402604 59:0.090909101 60:0.0175325 61:0.00064935099 62:0.92337698 63:0.273377 64:0.124675 65:0.132468 66:0.67402601 67:0.159091 68:0.474675 69:0.0525974 70:0.049350601 71:0.89285702 72:0.0253247 73:0.657143 74:1.3539 75:0.39610001 76:0.58710003 77:0.69580001 78:0.96600002 79:0.50120002 80:0.39449999 81:0.39809999 82:0.223197 83:0.20510399 84:0.18027 85:0.154771 86:0.132236 87:0.117049 88:0.112755 89:0.119826 90:0.13500001 91:0.157171 92:0.181903 93:0.205944 94:0.227652 95:0.249447 96:0.26293299 97:0.27772701 
0.1785142483015664 1:0.598701 2:0.36103901 3:1.33636 4:1.73377 5:0.62922102 6:2.1935101 7:0.196104 8:0.050000001 9:0.85324699 10:0.72142899 11:0.54935098 12:0.0214286 13:0.184416 14:0.0194805 15:0.30259699 16:0.018181801 17:0.112987 18:1.9487 19:0 20:0.57012999 21:0.0207792 22:0.223377 23:0.44935101 24:0.033116899 25:0.67467499 26:0.86428601 27:0.238961 28:0.038961001 29:0.75259697 30:0.0402597 31:0.170779 32:0.079220802 33:0.099350601 34:1.27273 35:0.120779 36:0.0318182 37:1.30519 38:1.09416 39:0.12727299 40:1.6168801 41:1.81688 42:0.565584 43:1.2987 44:0.56818199 45:0.071428597 46:0.93506497 47:0.153896 48:0.00844156 49:0.00064935099 50:0.079870097 51:0.091558397 52:0.0045454502 53:0.36493501 54:0.0090909097 55:0.64675301 56:0.65454501 57:0.19220801 58:0 59:0.00194805 60:0 61:0.113636 62:0.54935098 63:0 64:0.083116896 65:0.068831198 66:1.77922 67:0.079870097 68:0.197403 69:0.15844201 70:0.37077901 71:0.59935099 72:0 73:0.70588201 74:1.2246 75:0.59729999 76:0.47350001 77:0.4014 78:1.3035001 79:0.2538 80:0.33239999 81:0.51389998 82:0.22288001 83:0.203172 84:0.17746 85:0.150415 86:0.128691 87:0.117775 88:0.116298 89:0.12186 90:0.132346 91:0.145514 92:0.16262899 93:0.185296 94:0.209913 95:0.234184 96:0.25929999 97:0.27740899 
0.1233887364836774 1:0.170779 2:0.20519499 3:1.03636 4:1.23636 5:1.6331199 6:1.8194799 7:0.28701299 8:0.52207798 9:0.88051999 10:0.114935 11:0.79740298 12:0.024026001 13:0.104545 14:0.148701 15:0.164286 16:0.037662301 17:0.085064903 18:1.14156 19:0.061039001 20:1.14481 21:0.0623377 22:0.216234 23:0.16039 24:0.334416 25:0.72727299 26:0.633766 27:0.59805202 28:0.00064935099 29:0.25649399 30:0.39415601 31:0.079870097 32:0.16948099 33:0.082467496 34:1.3039 35:0.223377 36:0.027922099 37:1.15519 38:0 39:0.32142901 40:1.92532 41:0.26363599 42:1.62727 43:0.70779198 44:0.201948 45:0.252597 46:1.88377 47:0.12922101 48:0.048701301 49:0.28896099 50:0.071428597 51:0.188961 52:0 53:0.645455 54:0.47792199 55:0.27207801 56:0.99155802 57:0.413636 58:0.012987 59:0.0038961 60:0 61:0.00064935099 62:0.627922 63:0.0038961 64:0.00064935099 65:0.35519499 66:1.67662 67:0.066883102 68:0.087012999 69:0.186364 70:0.0935065 71:0.58246797 72:0.0636364 73:0.694444 74:1.1998 75:0.4032 76:0.60650003 77:0.39089999 78:0.99409997 79:0.5751 80:0.3583 81:0.47929999 82:0.21606299 83:0.202291 84:0.182071 85:0.15843201 86:0.1339 87:0.11299 88:0.103085 89:0.107 90:0.121731 91:0.14451399 92:0.171661 93:0.199019 94:0.22341301 95:0.24523699 96:0.25956699 97:0.27309099 
0.1751784544446259 1:0.649351 2:0.122078 3:1.37597 4:1.85 5:0.277922 6:2.0311699 7:0.033116899 8:0.0064935102 9:0.53441602 10:0.76168799 11:0.48960999 12:0.059740301 13:0.255844 14:0.049350601 15:0.15000001 16:0.0025974 17:0.58116901 18:2.1129899 19:0.16688301 20:0.89285702 21:0.0318182 22:0 23:0.159091 24:0.098052002 25:0.60714298 26:1.39675 27:0.55194801 28:0.0116883 29:0.77012998 30:0.149351 31:0.255844 32:0.13961001 33:0.162338 34:1.6474 35:0.22792201 36:0.033116899 37:0.80519497 38:1.12468 39:0.193506 40:1.37727 41:1.92143 42:0.73701298 43:0.58960998 44:0.102597 45:0.064285703 46:0.95909101 47:0.035714298 48:0.036363602 49:0 50:0.213636 51:0.133766 52:0.0201299 53:0.54220802 54:0.028571401 55:0.74545503 56:0.92662299 57:0.50974 58:0.0318182 59:0.090259701 60:0.0025974 61:0.39415601 62:1.2474 63:0.00064935099 64:0.022077899 65:0.0928571 66:1.6837699 67:0.17727301 68:0.32792199 69:0.212338 70:0.25909099 71:0.20519499 72:0.0038961 73:0.66666698 74:1.0596 75:0.68730003 76:0.6013 77:0.52319998 78:1.0650001 79:0.30329999 80:0.6081 81:0.4596 82:0.217669 83:0.20296299 84:0.18005601 85:0.154127 86:0.133818 87:0.120941 88:0.116968 89:0.123221 90:0.134192 91:0.146643 92:0.162306 93:0.18331499 94:0.207957 95:0.23428901 96:0.26100001 97:0.28563601 
0.2250548874025515 1:0.0837662 2:0.119481 3:0.73896098 4:1.03961 5:1.13831 6:1.43312 7:0.314935 8:0.26428601 9:0.91623402 10:0.0623377 11:0.50519502 12:0.037013002 13:0.23181801 14:0.305195 15:0.043506499 16:0.112338 17:0.32922101 18:0.95454502 19:0.012987 20:0.92792201 21:0.085064903 22:0.26753199 23:0.16103899 24:0.055844199 25:0.647403 26:0.76623398 27:0.69870102 28:0.00714286 29:0.378571 30:0.184416 31:0.050000001 32:0.196104 33:0.311039 34:1.0461 35:0.42077899 36:0.0045454502 37:0.33311701 38:0.0155844 39:0.0064935102 40:0.978571 41:0.505844 42:0.84935099 43:0.48636401 44:0.118831 45:0.087662302 46:1.60649 47:0.40844199 48:0.00064935099 49:0.23441599 50:0.090259701 51:0.214286 52:0.0038961 53:0.56233799 54:0.344805 55:0.22597399 56:1.27987 57:0.52077901 58:0.0207792 59:0 60:0.00064935099 61:0.029220801 62:0.96298701 63:0.122078 64:0.0311688 65:0.49480501 66:0.970779 67:0.183117 68:0.1 69:0.088311702 70:0.071428597 71:0.42077899 72:0.062987 73:0.71052599 74:0.93150002 75:0.39750001 76:0.55790001 77:0.40020001 78:0.52079999 79:0.53369999 80:0.48699999 81:0.3732 82:0.208937 83:0.200672 84:0.186056 85:0.16774601 86:0.14738201 87:0.128647 88:0.11684 89:0.115058 90:0.123487 91:0.140743 92:0.163903 93:0.186389 94:0.20813 95:0.227237 96:0.24573299 97:0.265591 
5.327097513839579 1:0.065584399 2:0.309091 3:0.99545503 4:0.75974 5:1.5 6:1.63052 7:0.059090901 8:0.203896 9:1.01753 10:0.0175325 11:0.38116899 12:0.022727299 13:0.114935 14:0.098701298 15:0.038311701 16:0.0422078 17:0.0194805 18:1.13571 19:0 20:0.228571 21:0.0194805 22:0.52467501 23:0.057792202 24:0.107792 25:0.279221 26:0.93571401 27:0.19870099 28:0 29:0.54610401 30:0.103896 31:0.244156 32:0.29870099 33:0.20259701 34:1.26753 35:0.225325 36:0.0045454502 37:0.19220801 38:0.12727299 39:0.054545499 40:0.93961 41:0.618182 42:0.44740301 43:0.18571401 44:0.098052002 45:0.077272698 46:1.39091 47:0.28831199 48:0.0149351 49:0.14026 50:0.164286 51:0.194805 52:0.0012987 53:0.41038999 54:0.124026 55:0.43181801 56:0.94870102 57:0.281818 58:0.0045454502 59:0.0142857 60:0.0097402604 61:0 62:0.39870101 63:0.022077899 64:0.064285703 65:0.155844 66:1.17857 67:0.033766199 68:0.087012999 69:0.060389601 70:0.0097402604 71:0.342208 72:0.0077922102 73:0.76470602 74:1.0073 75:0.2881 76:0.36219999 77:0.44549999 78:0.42199999 79:0.42030001 80:0.32519999 81:0.2987 82:0.211373 83:0.203127 84:0.19015101 85:0.174263 86:0.156882 87:0.14108799 88:0.12833001 89:0.120756 90:0.120231 91:0.12758601 92:0.142226 93:0.161778 94:0.183696 95:0.20610499 96:0.226933 97:0.24772701 
0.1118611344715107 1:0.225325 2:0.00324675 3:1.16299 4:1.4207799 5:0 6:2.31299 7:0.0616883 8:0.0162338 9:1.19091 10:0.73181802 11:0.285714 12:0 13:0.233117 14:0.0136364 15:0.147403 16:0.0116883 17:0.166234 18:1.7376601 19:0.132468 20:0.42857099 21:0.0038961 22:0.16948099 23:0.47532499 24:0.0136364 25:0.71103901 26:1.02143 27:0.13116901 28:0.012987 29:0.498052 30:0.0045454502 31:0.0207792 32:0.17142899 33:0.044805199 34:0.85584402 35:0.122078 36:0.00714286 37:0.57986999 38:0.66558403 39:0.048051901 40:0.257792 41:1.73961 42:0.170779 43:0.37272701 44:0.22142901 45:0.023376601 46:0.59415603 47:0.064935103 48:0.027272699 49:0.0266234 50:0.068181798 51:0.0012987 52:0.022077899 53:0.67207801 54:0.00194805 55:0.519481 56:0.52792197 57:0.12727299 58:0.0298701 59:0.028571401 60:0 61:0.230519 62:0.38116899 63:0.00844156 64:0.0051948102 65:0.066883102 66:1.80909 67:0.34026 68:0.035064898 69:0.0025974 70:0.52012998 71:0.230519 72:0.00324675 73:0.63888901 74:0.98470002 75:0.51239997 76:0.4754 77:0.2676 78:0.62819999 79:0.2277 80:0.2854 81:0.46399999 82:0.211704 83:0.195485 84:0.17428599 85:0.15383001 86:0.139364 87:0.13320599 88:0.13324501 89:0.136953 90:0.143115 91:0.15192901 92:0.161984 93:0.173907 94:0.186565 95:0.197947 96:0.2049 97:0.214773 
0.1788509932696619 1:0.111688 2:0.087012999 3:0.523377 4:1.43247 5:0.055844199 6:1.19481 7:0.10974 8:0.044805199 9:0.25064901 10:0.73701298 11:0.30454499 12:0.011039 13:0.17337701 14:0.076623403 15:0.101948 16:0 17:0.47337699 18:1.7967499 19:0.431169 20:1.24805 21:0.066233799 22:0.056493498 23:0.55194801 24:0.068181798 25:1.20909 26:1.29286 27:0.657143 28:0.046753202 29:0.50844198 30:0.044805199 31:0.047402602 32:0.124675 33:0.111688 34:0.94285703 35:0.135065 36:0.0064935102 37:0.27207801 38:0.38246799 39:0.174675 40:0.24870101 41:0.94999999 42:0.651299 43:0.243506 44:0.32012999 45:0.166234 46:1.0123399 47:0.038311701 48:0.011039 49:0.0136364 50:0.029220801 51:0.118831 52:0.114935 53:0.52012998 54:0.0623377 55:0.558442 56:0.78051901 57:0.57532501 58:0.00194805 59:0.0616883 60:0.0149351 61:0.50129902 62:1.43831 63:0.0045454502 64:0.00324675 65:0.26363599 66:1.47338 67:0.13571399 68:0.064935103 69:0.12727299 70:0.68571401 71:0.228571 72:0 73:0.55263197 74:0.58679998 75:0.56590003 76:0.85949999 77:0.30309999 78:0.52499998 79:0.2958 80:0.6063 81:0.45930001 82:0.19221801 83:0.17490301 84:0.153643 85:0.135602 86:0.123291 87:0.116235 88:0.114638 89:0.120802 90:0.13587201 91:0.156271 92:0.179371 93:0.198778 94:0.21380401 95:0.22750001 96:0.2392 97:0.25099999 
0.9527614413848714 1:0.00714286 2:0.00194805 3:0.42467499 4:0.72727299 5:0.65973997 6:1.83377 7:0.023376601 8:0.0266234 9:0.26039001 10:0.26233801 11:0.43051901 12:0 13:0.17142899 14:0.20064899 15:0.0207792 16:0.027922099 17:0.70194799 18:1.42857 19:0.25064901 20:0.592857 21:0.022727299 22:0.23636401 23:0.135065 24:0.109091 25:0.58701301 26:1.2032501 27:0.74675298 28:0.057142898 29:0.34545499 30:0.0175325 31:0.0266234 32:0.21103901 33:0.107143 34:1.21429 35:0.0123377 36:0.081818201 37:0.26039001 38:0.193506 39:0.0311688 40:0.45389599 41:1.33377 42:0.54026002 43:0.411688 44:0.162338 45:0.088311702 46:0.93701297 47:0.26039001 48:0.0051948102 49:0.0636364 50:0.119481 51:0.119481 52:0.066883102 53:0.36103901 54:0.0142857 55:1.05 56:1.25844 57:0.29350701 58:0 59:0 60:0.00584416 61:0.12532499 62:0.74155802 63:0 64:0.0194805 65:0.318831 66:1.83182 67:0.23246799 68:0.0207792 69:0.077272698 70:0.31818199 71:0.38766199 72:0 73:0.55000001 74:0.61059999 75:0.49959999 76:0.59810001 77:0.3193 78:0.5352 79:0.2999 80:0.53509998 81:0.49380001 82:0.19813401 83:0.187664 84:0.170913 85:0.15284701 86:0.13509101 87:0.120118 88:0.11 89:0.105419 90:0.106321 91:0.113714 92:0.128194 93:0.148093 94:0.17087001 95:0.193132 96:0.21376701 97:0.234864 
0.4073089874246612 1:0.83051902 2:0.060389601 3:1.46429 4:1.37727 5:0.076623403 6:2.05584 7:0.049350601 8:0.0142857 9:0.82337701 10:0.50844198 11:0.29220799 12:0.0077922102 13:0.0837662 14:0 15:0.348701 16:0.00324675 17:0.33571401 18:1.4026 19:0.076623403 20:1.11234 21:0.123377 22:0.050000001 23:0.065584399 24:0.046103898 25:0.47597399 26:1.19935 27:0.32207799 28:0.0162338 29:0.58376598 30:0.053896099 31:0.305195 32:0.0090909097 33:0.043506499 34:1.2 35:0.1 36:0.0103896 37:0.91558403 38:0.48376599 39:0.140909 40:0.74155802 41:1.5564899 42:0.41038999 43:0.817532 44:0.241558 45:0.025974 46:0.98506498 47:0.059740301 48:0.0142857 49:0.061039001 50:0.67532498 51:0.059090901 52:0.045454498 53:0.63766199 54:0.034415599 55:0.218831 56:0.55324697 57:0.37532499 58:0.0142857 59:0.056493498 60:0.0123377 61:0.033766199 62:0.23961 63:0.0090909097 64:0.047402602 65:0.0935065 66:1.28506 67:0.27857101 68:0.240909 69:0.28636399 70:0.28636399 71:0.35909101 72:0.022077899 73:0.76666701 74:1.0398 75:0.45930001 76:0.53460002 77:0.3576 78:0.82139999 79:0.39610001 80:0.233 81:0.4465 82:0.222232 83:0.210545 84:0.19313499 85:0.173458 86:0.15437301 87:0.139412 88:0.132128 89:0.133826 90:0.142244 91:0.15632901 92:0.17529 93:0.193204 94:0.209913 95:0.226263 96:0.239967 97:0.25481799 
0.005550689219691702 1:0.062987 2:0.0266234 3:0.86103898 4:1.02987 5:0.92597401 6:1.27597 7:0.45194799 8:0.14415599 9:1.14156 10:0.29740301 11:0.53181797 12:0.0175325 13:0.0025974 14:0.077272698 15:0.26168799 16:0.114286 17:0.085064903 18:1.3766201 19:0.15844201 20:0.64220798 21:0.0136364 22:0.070779197 23:0.00584416 24:0.068181798 25:0.58116901 26:0.93701297 27:0.44870099 28:0.0636364 29:0.742208 30:0.073376603 31:0.0051948102 32:0.60000002 33:0.28831199 34:1.4240299 35:0.163636 36:0.0103896 37:0.76038998 38:0.33571401 39:0.12727299 40:1.20974 41:0.73376602 42:0.87532502 43:0.35194799 44:0.087662302 45:0.14026 46:1.09156 47:0.053896099 48:0.0097402604 49:0.348701 50:0.17532501 51:0.13571399 52:0.00064935099 53:0.89155799 54:0.23246799 55:0.26818201 56:0.92727298 57:0.314935 58:0.12727299 59:0.00584416 60:0.0064935102 61:0 62:0.64480501 63:0.0077922102 64:0 65:0.20974 66:1.53571 67:0.441558 68:0.035064898 69:0.027922099 70:0.056493498 71:0.33961001 72:0.0162338 73:0.74193501 74:0.91170001 75:0.42570001 76:0.4506 77:0.51910001 78:0.71179998 79:0.45269999 80:0.35460001 81:0.41 82:0.222021 83:0.21006 84:0.192516 85:0.172932 86:0.15376399 87:0.139382 88:0.13013799 89:0.127791 90:0.13606399 91:0.1542 92:0.17795201 93:0.203852 94:0.227826 95:0.24426299 96:0.260167 97:0.279818 
0.6173142967162648 1:0.56818199 2:0.159091 3:1.33052 4:1.86234 5:0.39805201 6:2.12078 7:0.050000001 8:0.073376603 9:0.63116902 10:0.49675301 11:0.19025999 12:0.0090909097 13:0.038961001 14:0.0318182 15:0.070129901 16:0.025974 17:1.13571 18:0.35584399 19:0.201299 20:0.81948102 21:0.0045454502 22:0.395455 23:0.106494 24:0 25:0.98701298 26:1.3259701 27:0.240909 28:0.048051901 29:0.84155798 30:0.00064935099 31:0.090259701 32:0.205844 33:0 34:1.15974 35:0.403247 36:0.27207801 37:1.10909 38:0.44545501 39:0 40:1.7 41:1.63247 42:0 43:0.157143 44:0.056493498 45:0.203247 46:1.12922 47:0.0090909097 48:0 49:0.117532 50:0.94675303 51:0 52:0.0103896 53:0.085064903 54:0.0038961 55:0.70649302 56:1.24481 57:0.0077922102 58:0.011039 59:0.399351 60:0.0194805 61:0.068181798 62:0.42013001 63:0.0123377 64:0.00324675 65:0.714935 66:0.51623398 67:0.466883 68:0.22792201 69:0.25064901 70:0.15974 71:0.147403 72:0.025974 73:0.75609797 74:1.1078 75:0.3626 76:0.62849998 77:0.46529999 78:0.8168 79:0.3545 80:0.44499999 81:0.38699999 82:0.215092 83:0.208552 84:0.193452 85:0.17757601 86:0.16429099 87:0.15696099 88:0.152096 89:0.14501201 90:0.138513 91:0.136143 92:0.13896801 93:0.14644399 94:0.156913 95:0.167184 96:0.1838 97:0.206773 
2.364060331255315 1:0.0038961 2:0.059740301 3:0.72402602 4:0.206494 5:0.95519501 6:1.46623 7:0.034415599 8:0.053896099 9:0.633766 10:0.024026001 11:0.36493501 12:0 13:0.0532468 14:0.230519 15:0.152597 16:0.079220802 17:0.105844 18:1.0759701 19:0.070779197 20:0.285714 21:0.00844156 22:0.0727273 23:0.059740301 24:0.0246753 25:0.407792 26:0.77077901 27:0.066233799 28:0.029220801 29:0.22792201 30:0.0149351 31:0.029220801 32:0.118182 33:0.087662302 34:0.58246797 35:0.440909 36:0.00714286 37:0.68311697 38:0.0928571 39:0.107792 40:0.93701297 41:0.98311698 42:0.50649399 43:0.177922 44:0.068181798 45:0.044155799 46:0.74350601 47:0.314935 48:0.0175325 49:0.52207798 50:0.104545 51:0.032467499 52:0.0045454502 53:0.24870101 54:0.0155844 55:0.081168801 56:0.66428602 57:0.111688 58:0.00194805 59:0.0045454502 60:0 61:0.0090909097 62:0.50974 63:0.00584416 64:0 65:0.085714303 66:0.95909101 67:0.0103896 68:0.061039001 69:0.038311701 70:0.025974 71:0.27272701 72:0 73:0.81081098 74:0.6372 75:0.3213 76:0.2721 77:0.2368 78:0.55449998 79:0.30860001 80:0.2138 81:0.2238 82:0.20302799 83:0.19965699 84:0.191119 85:0.17957599 86:0.166573 87:0.153422 88:0.142223 89:0.134174 90:0.129795 91:0.131657 92:0.14246801 93:0.159463 94:0.178783 95:0.195737 96:0.212567 97:0.23295499 
3.181763815921467 1:0.044805199 2:0.0064935102 3:0.464935 4:0.78246802 5:0.51493502 6:1.39416 7:0.103247 8:0.0175325 9:0.468831 10:0.14026 11:0.253896 12:0 13:0.106494 14:0.145455 15:0.17986999 16:0 17:0.214286 18:1.09805 19:0.0422078 20:0.57986999 21:0.029220801 22:0.165584 23:0.37922099 24:0.14155801 25:0.157143 26:0.682468 27:0.12532499 28:0.0051948102 29:0.313636 30:0.0090909097 31:0.033766199 32:0.188961 33:0.076623403 34:0.98311698 35:0.059090901 36:0.0012987 37:0.405195 38:0.086363599 39:0.022727299 40:0.58116901 41:1.02403 42:0.31818199 43:0.507792 44:0.108442 45:0.048701301 46:0.98636401 47:0.22013 48:0.011039 49:0.071428597 50:0.0636364 51:0.0116883 52:0.0045454502 53:0.443506 54:0.0214286 55:0.36233801 56:0.78896099 57:0.0928571 58:0.0012987 59:0.00714286 60:0.0051948102 61:0.033116899 62:0.55714297 63:0.0012987 64:0.0012987 65:0.238961 66:1.31039 67:0.037662301 68:0.064285703 69:0.12987 70:0.121429 71:0.26363599 72:0 73:0.72973001 74:0.5848 75:0.32929999 76:0.35460001 77:0.25729999 78:0.47780001 79:0.28240001 80:0.28479999 81:0.33379999 82:0.214634 83:0.208478 84:0.19685701 85:0.18318599 86:0.16936401 87:0.15700001 88:0.147383 89:0.141744 90:0.142423 91:0.15125699 92:0.16664501 93:0.18574101 94:0.204804 95:0.223395 96:0.2419 97:0.262364 
1.209581098054142 1:0.00324675 2:0.0045454502 3:0.56493503 4:0.56233799 5:0.41688299 6:1.53636 7:0.023376601 8:0.016883099 9:0.34026 10:0.096753202 11:0.22597399 12:0 13:0.135065 14:0.15000001 15:0.0142857 16:0.0025974 17:0.27207801 18:1.2974 19:0.131818 20:0.505844 21:0.0038961 22:0.054545499 23:0.45714301 24:0.153247 25:0.42013001 26:0.46103901 27:0.153247 28:0.0175325 29:0.36753201 30:0.011039 31:0.077922098 32:0.14415599 33:0.012987 34:0.88246799 35:0.28896099 36:0.00844156 37:0.48896101 38:0.127922 39:0.0311688 40:0.58311701 41:0.932468 42:0.106494 43:0.29935101 44:0.15454499 45:0.0090909097 46:1.07143 47:0.172078 48:0.0025974 49:0.133766 50:0.0532468 51:0.0012987 52:0.032467499 53:0.40259701 54:0.0090909097 55:0.162338 56:0.85584402 57:0.18766201 58:0 59:0.0038961 60:0 61:0.081168801 62:0.46168801 63:0 64:0 65:0.26883101 66:1.20649 67:0.0142857 68:0.028571401 69:0.048701301 70:0.14805201 71:0.206494 72:0 73:0.702703 74:0.53420001 75:0.33790001 76:0.36050001 77:0.2789 78:0.42089999 79:0.28929999 80:0.26989999 81:0.29589999 82:0.210648 83:0.20637301 84:0.196556 85:0.183203 86:0.16779999 87:0.152578 88:0.14145701 89:0.13661601 90:0.136833 91:0.141543 92:0.152081 93:0.1675 94:0.18537 95:0.20397399 96:0.2216 97:0.234455 
0.0007791784368514521 1:0.41623399 2:0.094805203 3:1.13896 4:2.1168799 5:0.32272699 6:1.75 7:1.41558 8:0.105844 9:1.87403 10:0.58896101 11:0.58441597 12:0.0045454502 13:0.207792 14:0.071428597 15:0.38766199 16:0.0207792 17:0.0727273 18:0.76298702 19:0.0253247 20:1.36299 21:0.105195 22:0.10974 23:0.19025999 24:0.28896099 25:0.0103896 26:0.077272698 27:0.089610398 28:0.0025974 29:0.51168799 30:0.32337701 31:0.17013 32:0.033766199 33:0.244156 34:0.90844202 35:0 36:0.142208 37:1.04545 38:0.16883101 39:0.36363599 40:1.51039 41:0.36233801 42:1.56688 43:1.64026 44:0.29545501 45:0.94870102 46:1.80325 47:0.112338 48:0.0025974 49:0.313636 50:0.022077899 51:0.22013 52:0.0064935102 53:0.69675303 54:0.441558 55:0.61753201 56:1.6474 57:0.47337699 58:0.00584416 59:0.0051948102 60:0.104545 61:0.085714303 62:1.64351 63:0.091558397 64:0.00714286 65:0.237013 66:1.63766 67:0.088311702 68:0.0162338 69:0.60974002 70:0.64870101 71:0.43051901 72:0.0636364 73:0.71428603 74:1.4222 75:0.41600001 76:0.34799999 77:0.35980001 78:1.2169 79:0.55729997 80:0.71990001 81:0.5758 82:0.194521 83:0.184045 84:0.165095 85:0.142263 86:0.121191 87:0.107833 88:0.107021 89:0.118849 90:0.142564 91:0.17454299 92:0.20511299 93:0.227167 94:0.239022 95:0.244132 96:0.24986701 97:0.26009101 
0.1390142362835606 1:0.65454501 2:0.043506499 3:1.34091 4:3.1006501 5:0.257792 6:2.6558399 7:0.96753198 8:0.064935103 9:1.55844 10:0.90259701 11:0.37922099 12:0.0097402604 13:0.26039001 14:0.024026001 15:0.191558 16:0.00194805 17:0.203247 18:2.21364 19:0.26039001 20:1.93701 21:0.0246753 22:0.044805199 23:0.20974 24:0.25909099 25:1.1026 26:1.68506 27:0.62142903 28:0.00584416 29:0.941558 30:0.27857101 31:0.0720779 32:0.088311702 33:0.26168799 34:1.81104 35:0.0512987 36:0.0045454502 37:0.63441598 38:0.34740299 39:0.43961 40:0.305195 41:0.63571399 42:2.26494 43:0.50259697 44:0.42207801 45:0.59935099 46:2.0564899 47:0.101299 48:0.027272699 49:0.075324699 50:0.0636364 51:0.196104 52:0 53:1.04286 54:0.35844201 55:1.17273 56:2.3629899 57:0.73701298 58:0.0090909097 59:0.0012987 60:0 61:0.23246799 62:1.75649 63:0.00714286 64:0.018181801 65:0.415584 66:2.1363599 67:0.149351 68:0.0142857 69:0.29220799 70:1.03701 71:0.346753 72:0.0012987 73:0.55000001 74:1.6392 75:0.64469999 76:0.94630003 77:0.5413 78:0.94730002 79:0.60390002 80:0.96700001 81:0.67930001 82:0.19904201 83:0.17801499 84:0.144881 85:0.105636 86:0.074509099 87:0.058323499 88:0.062329799 89:0.086872101 90:0.125962 91:0.16605701 92:0.198048 93:0.22377799 94:0.237739 95:0.244605 96:0.25163299 97:0.26177299 
0.1588493048241101 1:0.93311697 2:0.070779197 3:1.31883 4:2.4448099 5:0.105195 6:2.47403 7:1.1610399 8:0.29025999 9:1.56104 10:0.40259701 11:0.30974001 12:0.122727 13:0.29545501 14:0.51558399 15:0.45389599 16:0.0935065 17:0.26363599 18:1.81558 19:0.078571402 20:1.68506 21:0.069480501 22:0.054545499 23:0.401948 24:0.27987 25:0.558442 26:1.01104 27:0.50064898 28:0.089610398 29:0.82077903 30:0.22402599 31:0.283117 32:0.23181801 33:0.26493499 34:1.4240299 35:0.130519 36:0.023376601 37:1.25065 38:0.468182 39:0.373377 40:2.04935 41:0.48831201 42:1.65 43:1.7084399 44:0.63441598 45:0.67337698 46:1.5662301 47:0.80064899 48:0.135065 49:0.37077901 50:0.70064902 51:0.172727 52:0.17337701 53:1.10649 54:0.27987 55:0.56948102 56:1.3928601 57:0.83831197 58:0.055194799 59:0.33311701 60:0.0149351 61:0.057792202 62:1.43442 63:0.038961001 64:0.25129899 65:0.64285702 66:1.51818 67:0.31948099 68:0.046103898 69:0.32272699 70:0.29025999 71:0.397403 72:0.149351 73:0.66666698 74:1.5953 75:0.65799999 76:0.71450001 77:0.53780001 78:1.4316 79:0.81709999 80:0.72920001 81:0.60640001 82:0.215423 83:0.196925 84:0.16314299 85:0.129602 86:0.107073 87:0.097627401 88:0.087351099 89:0.089255802 90:0.10809 91:0.146786 92:0.19288699 93:0.221981 94:0.233804 95:0.23647401 96:0.238167 97:0.249318 
13.4825768424118 1:0.025974 2:0.011039 3:0.235065 4:0.56883103 5:0.29805201 6:0.63701302 7:0.12987 8:0.050649401 9:0.31948099 10:0.138312 11:0.243506 12:0 13:0.076623403 14:0.108442 15:0.091558397 16:0.0012987 17:0.14350601 18:0.69675303 19:0.038961001 20:0.38701299 21:0.0103896 22:0.097402602 23:0.0935065 24:0.0636364 25:0.19220801 26:0.437013 27:0.105195 28:0.0045454502 29:0.19415601 30:0.0409091 31:0.055194799 32:0.111039 33:0.0525974 34:0.61103898 35:0.073376603 36:0.0142857 37:0.38960999 38:0.0415584 39:0.066883102 40:0.43831199 41:0.42727301 42:0.446753 43:0.33961001 44:0.071428597 45:0.077272698 46:0.62727302 47:0.025974 48:0.00324675 49:0.023376601 50:0.050000001 51:0.0311688 52:0.00064935099 53:0.31168801 54:0.027922099 55:0.165584 56:0.45324701 57:0.070779197 58:0 59:0.0012987 60:0.0038961 61:0.0012987 62:0.43376601 63:0 64:0 65:0.164286 66:0.66168803 67:0.029220801 68:0.0077922102 69:0.058441602 70:0.14155801 71:0.190909 72:0 73:0.78048801 74:0.35049999 75:0.23100001 76:0.21950001 77:0.17820001 78:0.354 79:0.1696 80:0.17399999 81:0.19310001 82:0.202655 83:0.200881 84:0.19546799 85:0.187703 86:0.178645 87:0.169745 88:0.162798 89:0.160151 90:0.163436 91:0.172729 92:0.18588699 93:0.200481 94:0.213957 95:0.225316 96:0.235467 97:0.2475 
14.25090481703604 1:0.064935103 2:0.0175325 3:0.39480501 4:0.56818199 5:0.27402601 6:0.693506 7:0.111039 8:0.0318182 9:0.303247 10:0.145455 11:0.14610399 12:0.0051948102 13:0.065584399 14:0.056493498 15:0.050000001 16:0.00194805 17:0.128571 18:0.73701298 19:0.0266234 20:0.48246801 21:0.022727299 22:0.151948 23:0.15844201 24:0.137013 25:0.16493499 26:0.41103899 27:0.103896 28:0.0012987 29:0.151948 30:0.048701301 31:0.018831201 32:0.062987 33:0.0162338 34:0.777273 35:0.066883102 36:0.0045454502 37:0.28246799 38:0.018831201 39:0.034415599 40:0.306494 41:0.35129899 42:0.28441599 43:0.17142899 44:0.071428597 45:0.0616883 46:0.71428603 47:0.087012999 48:0 49:0.049350601 50:0.0136364 51:0.050000001 52:0.00064935099 53:0.235714 54:0.033116899 55:0.208442 56:0.49350601 57:0.1 58:0.00324675 59:0 60:0 61:0.0025974 62:0.380519 63:0.00194805 64:0 65:0.099350601 66:0.567532 67:0.100649 68:0.036363602 69:0.0844156 70:0.135065 71:0.279221 72:0.00194805 73:0.75 74:0.37869999 75:0.2058 76:0.25549999 77:0.1769 78:0.2437 79:0.1823 80:0.1833 81:0.2009 82:0.203951 83:0.200104 84:0.192508 85:0.18305101 86:0.173436 87:0.16515701 88:0.1605 89:0.160942 90:0.166256 91:0.17550001 92:0.18712901 93:0.199407 94:0.211152 95:0.221368 96:0.2314 97:0.243091 
13.17772663995501 1:0.089610398 2:0.022077899 3:0.34935099 4:0.79675299 5:0.28441599 6:0.73181802 7:0.1 8:0.025974 9:0.242208 10:0.207792 11:0.235065 12:0 13:0.047402602 14:0.035714298 15:0.022727299 16:0.0012987 17:0.125974 18:0.75844198 19:0.053896099 20:0.505844 21:0.00584416 22:0.176623 23:0.107792 24:0.12987 25:0.116234 26:0.47727299 27:0.094155803 28:0 29:0.27662301 30:0.066233799 31:0.042857099 32:0.070779197 33:0.057792202 34:0.76558399 35:0.024026001 36:0.00324675 37:0.283766 38:0.0409091 39:0.0519481 40:0.381818 41:0.344156 42:0.376623 43:0.251948 44:0.047402602 45:0.059740301 46:0.80779201 47:0.0077922102 48:0 49:0.0097402604 50:0.046103898 51:0.032467499 52:0 53:0.26168799 54:0.048051901 55:0.176623 56:0.51753199 57:0.155195 58:0 59:0.0051948102 60:0.0025974 61:0.0116883 62:0.44999999 63:0.0012987 64:0 65:0.19415601 66:0.75714302 67:0.027922099 68:0.038961001 69:0.028571401 70:0.146753 71:0.214935 72:0 73:0.75 74:0.40689999 75:0.2209 76:0.2568 77:0.2013 78:0.28310001 79:0.1869 80:0.2033 81:0.21690001 82:0.203183 83:0.198366 84:0.189476 85:0.179212 86:0.169182 87:0.161402 88:0.157245 89:0.158116 90:0.164333 91:0.174986 92:0.18799999 93:0.201222 94:0.213043 95:0.223711 96:0.23326699 97:0.244636 
0.01090482703702841 1:0.90584397 2:0.034415599 3:1.57792 4:3.3733799 5:0.123377 6:3.1454501 7:1.24935 8:0.0844156 9:1.7032501 10:0.74480498 11:0.58311701 12:0.0012987 13:0.32662299 14:0.018181801 15:0.131818 16:0 17:0.148701 18:2.18117 19:0.033116899 20:1.92857 21:0.028571401 22:1.07727 23:0.0844156 24:0.59026003 25:0.61948001 26:1.28052 27:0.51883101 28:0 29:0.66039002 30:0.57077903 31:0.088311702 32:0.0422078 33:0.18831199 34:2.1844201 35:0.073376603 36:0.00324675 37:1.41948 38:0.159091 39:0.84155798 40:1.4811701 41:0.251948 42:2.60325 43:1.63442 44:0.235714 45:0.91168803 46:2.4026 47:0.131818 48:0.0097402604 49:0.24675301 50:0.035714298 51:0.098701298 52:0.00064935099 53:0.95584399 54:0.68571401 55:0.771429 56:2.17273 57:0.657143 58:0 59:0.0116883 60:0 61:0.037662301 62:1.8026 63:0 64:0.00324675 65:0.196753 66:2.2948101 67:0.120779 68:0.037662301 69:0.23181801 70:0.897403 71:0.47986999 72:0 73:0.64864898 74:1.8784 75:0.63690001 76:0.94880003 77:0.5869 78:1.4689 79:0.70340002 80:0.8398 81:0.65640002 82:0.207873 83:0.18580601 84:0.149214 85:0.105017 86:0.066936404 87:0.0446667 88:0.044276599 89:0.068162799 90:0.111795 91:0.16162901 92:0.20590299 93:0.22516701 94:0.231913 95:0.235921 96:0.2405 97:0.24954499 
2.136640040699736 1:0.12727299 2:0.057142898 3:0.17337701 4:1.4461 5:0.222078 6:1.82403 7:0.124026 8:0 9:1.11818 10:0.38636401 11:0.226623 12:0 13:0.14155801 14:0.075974002 15:0.53831202 16:0.0103896 17:0.56168801 18:1.33961 19:0.0616883 20:0.64220798 21:0 22:0.055194799 23:0.79220802 24:0.028571401 25:0.70064902 26:1.1461 27:0.309091 28:0.035714298 29:0.33376601 30:0.00324675 31:0 32:0.068181798 33:0.018831201 34:1.35974 35:0.0318182 36:0.0025974 37:0.63896102 38:0.29935101 39:0.0532468 40:0.69935101 41:1.56558 42:0.238961 43:0.32662299 44:0.29610401 45:0.0064935102 46:1.22403 47:0.133766 48:0.21948101 49:0.16883101 50:0.306494 51:0.060389601 52:0.0246753 53:0.441558 54:0.00064935099 55:0.36688301 56:0.38831201 57:0.440909 58:0.00714286 59:0.0720779 60:0.0038961 61:0.044155799 62:0.62662297 63:0.00714286 64:0.0045454502 65:0.69285703 66:1.42468 67:0.33376601 68:0.066883102 69:0.188961 70:0.51428598 71:0.149351 72:0.00194805 73:0.67567599 74:0.78420001 75:0.50520003 76:0.57529998 77:0.28549999 78:0.63520002 79:0.3973 80:0.30140001 81:0.5201 82:0.21512 83:0.20399299 84:0.18931 85:0.17463601 86:0.161745 87:0.148186 88:0.135649 89:0.12703501 90:0.127077 91:0.137214 92:0.15329 93:0.17051899 94:0.18652201 95:0.20415799 96:0.2253 97:0.249364 
0.06175273442638239 1:0.24026 2:0.40259701 3:1.26494 4:0.91883099 5:0.99740303 6:1.13636 7:0.138312 8:0.14805201 9:0.86363602 10:0.0214286 11:0.399351 12:0.082467496 13:0.203247 14:0.14415599 15:0.16948099 16:0.012987 17:0.16948099 18:1.3701299 19:0.0012987 20:0.194805 21:0.035714298 22:0.17727301 23:0.16103899 24:0.29285699 25:0.35584399 26:0.85194802 27:0.223377 28:0 29:0.70389599 30:0.21103901 31:0.48441601 32:0.058441602 33:0.0136364 34:1.40974 35:0.194805 36:0.00714286 37:0.47727299 38:0.14415599 39:0.059740301 40:1.21234 41:0.47013 42:0.44220799 43:1.13506 44:0.098701298 45:0.124026 46:1.31429 47:0.133766 48:0.0045454502 49:0.046753202 50:0.044155799 51:0.103247 52:0.0064935102 53:0.438961 54:0.14026 55:0.306494 56:0.476623 57:0.320779 58:0 59:0.00324675 60:0.027922099 61:0.016883099 62:0.468831 63:0.0045454502 64:0.081818201 65:0.081168801 66:0.86298698 67:0.0045454502 68:0.0305195 69:0.281169 70:0.124026 71:0.36233801 72:0.0064935102 73:0.73529398 74:0.94099998 75:0.3962 76:0.35330001 77:0.47479999 78:0.64120001 79:0.34380001 80:0.25029999 81:0.28259999 82:0.214845 83:0.20359001 84:0.187968 85:0.170771 86:0.15267301 87:0.13689201 88:0.12571301 89:0.121744 90:0.12791 91:0.143029 92:0.16222601 93:0.18214799 94:0.199783 95:0.212632 96:0.223933 97:0.236909 
1.334995684103036 1:0.15974 2:0.240909 3:0.96363598 4:0.94545501 5:1.71558 6:1.23506 7:0.14415599 8:0.066233799 9:0.75259697 10:0.075324699 11:0.74026 12:0.074675299 13:0.138312 14:0.203896 15:0.316883 16:0.112338 17:0.47597399 18:1.7460999 19:0.0051948102 20:0.92792201 21:0.055194799 22:0.096753202 23:0.0136364 24:0.037013002 25:0.59740299 26:0.81493503 27:0.34545499 28:0.00064935099 29:0.563636 30:0.32012999 31:0.23961 32:0.137013 33:0.103896 34:1.5759701 35:0.58960998 36:0 37:1.30325 38:0.0155844 39:0.088960998 40:1.61558 41:0.67402601 42:0.95389599 43:0.106494 44:0.022727299 45:0.036363602 46:1.87597 47:0.26688299 48:0.018831201 49:0.32597399 50:0.346753 51:0.22402599 52:0 53:0.434416 54:0.16103899 55:0.18831199 56:1.0526 57:0.470779 58:0 59:0.0207792 60:0.0097402604 61:0 62:0.86948001 63:0.035064898 64:0.0064935102 65:0.26298699 66:1.17468 67:0.0038961 68:0.075324699 69:0.13571399 70:0.033116899 71:0.244156 72:0.023376601 73:0.702703 74:0.95840001 75:0.59810001 76:0.4456 77:0.54369998 78:0.74180001 79:0.56269997 80:0.40759999 81:0.30180001 82:0.22755601 83:0.216739 84:0.19995999 85:0.180525 86:0.160445 87:0.141333 88:0.12576599 89:0.115849 90:0.115859 91:0.129471 92:0.153129 93:0.18122201 94:0.20876101 95:0.23218399 96:0.25279999 97:0.276409 
0.5199137056630434 1:0.434416 2:0.16298699 3:1.3039 4:1.68896 5:0.78961003 6:2.01753 7:0.32467499 8:0.065584399 9:1.22597 10:0.26298699 11:0.75909102 12:0 13:0.54350698 14:0.27077901 15:0.28441599 16:0.036363602 17:0.0512987 18:1.5792201 19:0.0155844 20:0.66818202 21:0.0038961 22:0.15844201 23:0.10974 24:0.23961 25:0.848701 26:0.98246801 27:0.18376601 28:0 29:0.80779201 30:0.0844156 31:0.34155801 32:0.114935 33:0.0318182 34:0.83181798 35:0.27857101 36:0.027922099 37:1.40844 38:0.17013 39:0.20454501 40:1.2526 41:1.5974 42:0.76493502 43:0.78051901 44:0.36233801 45:0.151948 46:1.83571 47:0.0175325 48:0.037013002 49:0.148701 50:0.21558399 51:0.067532502 52:0.0149351 53:0.68116897 54:0.012987 55:0.24026 56:0.73766202 57:0.157792 58:0 59:0.00584416 60:0.00064935099 61:0.011039 62:0.58506501 63:0.00324675 64:0.00584416 65:0.28051901 66:1.35455 67:0.0064935102 68:0.0201299 69:0.53766203 70:0.381818 71:0.45129901 72:0 73:0.76470602 74:1.2341 75:0.58329999 76:0.49439999 77:0.38789999 78:1.0307 79:0.4668 80:0.26820001 81:0.46790001 82:0.22095101 83:0.20747 84:0.188675 85:0.16882201 86:0.149809 87:0.131294 88:0.117649 89:0.111488 90:0.117436 91:0.13785701 92:0.166887 93:0.198 94:0.224609 95:0.24402601 96:0.2604 97:0.27954501 
0.1540872298403162 1:0.50064898 2:0.401299 3:1.90195 4:3.07792 5:1.1837699 6:3.3564899 7:0.83571398 8:0.45714301 9:2.1026001 10:0.590909 11:0.748052 12:0.0246753 13:0.21948101 14:0.066883102 15:0.14610399 16:0.104545 17:0.33181801 18:1.7961 19:0.216234 20:1.62597 21:0.088311702 22:0.198052 23:0.153247 24:0.127922 25:0.84026003 26:1.66494 27:0.65259701 28:0.25324699 29:0.96818203 30:0.48506501 31:0.25909099 32:0.144805 33:0.34155801 34:1.97597 35:0.27597401 36:0.0207792 37:1.4013 38:0.39805201 39:0.55259699 40:2.7019501 41:1.17273 42:2.7681799 43:1.59545 44:0.46103901 45:0.852597 46:1.7026 47:0.46298701 48:0.0090909097 49:0.35973999 50:0.118831 51:0.14610399 52:0.12013 53:0.88960999 54:0.50324702 55:0.95064902 56:2.1298699 57:0.73896098 58:0.00324675 59:0.0090909097 60:0.00064935099 61:0.124675 62:1.63831 63:0.016883099 64:0.203247 65:0.565584 66:1.68442 67:0.247403 68:0.103247 69:0.380519 70:0.54026002 71:0.83831197 72:0.046103898 73:0.68571401 74:2.1278999 75:0.62040001 76:0.8574 77:0.72759998 78:1.8332 79:0.66409999 80:0.86430001 81:0.7098 82:0.220824 83:0.209746 84:0.17523 85:0.12777101 86:0.084200002 87:0.055529401 88:0.0480319 89:0.0573605 90:0.083974399 91:0.13185699 92:0.192774 93:0.229426 94:0.232674 95:0.22886799 96:0.23559999 97:0.25354499 
3.387561633154055 1:0.074675299 2:0.162338 3:0.76428598 4:0.68831199 5:0.907143 6:1.08182 7:0.085064903 8:0.144805 9:0.90454501 10:0.0162338 11:0.107143 12:0.011039 13:0.081168801 14:0.0051948102 15:0.137013 16:0.038311701 17:0.099350601 18:0.91428602 19:0.0012987 20:0.30584401 21:0.022077899 22:0.183117 23:0.216883 24:0.13766199 25:0.23636401 26:0.76103902 27:0.413636 28:0 29:0.37987 30:0.069480501 31:0.23246799 32:0.062987 33:0.064285703 34:1.36883 35:0.177922 36:0.0045454502 37:0.081168801 38:0.071428597 39:0.0149351 40:1.06169 41:0.218831 42:0.273377 43:0.565584 44:0.044805199 45:0.033766199 46:1.00844 47:0.342857 48:0 49:0.237013 50:0.0136364 51:0.037013002 52:0.0012987 53:0.18766201 54:0.070129901 55:0.311039 56:0.742208 57:0.104545 58:0.0162338 59:0.0012987 60:0.0012987 61:0.00194805 62:0.43051901 63:0.038311701 64:0.0928571 65:0.118831 66:1.03442 67:0.092207797 68:0.0214286 69:0.22142901 70:0.018831201 71:0.29025999 72:0.027272699 73:0.71428603 74:0.74119997 75:0.21709999 76:0.35080001 77:0.3635 78:0.36430001 79:0.29229999 80:0.25369999 81:0.29530001 82:0.208444 83:0.201343 84:0.189032 85:0.17387301 86:0.15796401 87:0.144824 88:0.13560601 89:0.132081 90:0.134974 91:0.142814 92:0.15390299 93:0.166519 94:0.178609 95:0.190947 96:0.20353299 97:0.217545 
0.002404831741356029 1:0.66039002 2:0.144805 3:1.8896101 4:3.1629901 5:0.90844202 6:3.44416 7:0.99090898 8:0.152597 9:1.9110399 10:0.64610398 11:0.523377 12:0.038961001 13:0.218182 14:0.226623 15:0.080519497 16:0.078571402 17:0.61948001 18:2.1974001 19:0.26688299 20:1.61364 21:0.064935103 22:0.069480501 23:0.34999999 24:0.108442 25:0.83896101 26:1.61753 27:0.51298702 28:0.161688 29:1.10584 30:0.151948 31:0.338312 32:0.21558399 33:0.248052 34:1.8733799 35:0.197403 36:0.0097402604 37:1.44286 38:0.40259701 39:0.39870101 40:2.5915599 41:1.66234 42:1.9779201 43:1.73571 44:0.50259697 45:0.44610399 46:1.7785701 47:0.51168799 48:0.077922098 49:0.41818199 50:0.275325 51:0.164286 52:0.116234 53:1.57143 54:0.34935099 55:0.88571399 56:2.06493 57:0.45194799 58:0.0090909097 59:0.0090909097 60:0.0318182 61:0.054545499 62:1.6577899 63:0.079220802 64:0.22597399 65:0.55064899 66:1.8474 67:0.271429 68:0.033766199 69:0.216234 70:0.59805202 71:0.48181799 72:0.0201299 73:0.71428603 74:2.0427999 75:0.71289998 76:0.83819997 77:0.66250002 78:1.7187001 79:0.81050003 80:0.80760002 81:0.65380001 82:0.226007 83:0.211642 84:0.177635 85:0.135263 86:0.095436402 87:0.066705897 88:0.055425499 89:0.060976699 90:0.081961498 91:0.124543 92:0.17748401 93:0.22046299 94:0.23519599 95:0.22613201 96:0.23353299 97:0.25999999 
0.1921663206359394 1:0.81883103 2:0.27013001 3:2.0331199 4:2.7558401 5:0.29090899 6:3.1064899 7:0.684416 8:0.162338 9:1.6103899 10:0.624026 11:0.70064902 12:0.0051948102 13:0.25519499 14:0.438961 15:0.41948101 16:0.011039 17:0.135065 18:2.2766199 19:0.138312 20:1.78896 21:0.085714303 22:0.26688299 23:0.77467501 24:0.155844 25:0.96558398 26:2.0590899 27:0.76363599 28:0.0090909097 29:0.972727 30:0.53961003 31:0.32402599 32:0.42142901 33:0.196753 34:2.1298699 35:0.164286 36:0.0142857 37:1.86818 38:0.40259701 39:0.58441597 40:2.8870101 41:0.42987001 42:2.3584399 43:1.5922101 44:0.28831199 45:0.53701299 46:2.0805199 47:0.168182 48:0.00844156 49:0.305195 50:0.466234 51:0.26168799 52:0.059090901 53:0.87272698 54:0.464286 55:0.89025998 56:2.1324699 57:0.75909102 58:0.0077922102 59:0.54935098 60:0.00844156 61:0.138961 62:1.91623 63:0.14155801 64:0.0012987 65:0.107792 66:2.08831 67:0.31233799 68:0.44740301 69:0.45194799 70:0.519481 71:0.77272701 72:0.0727273 73:0.71428603 74:1.8068 75:0.74940002 76:1.0778 77:0.7349 78:1.686 79:0.72170001 80:1.0078 81:0.73519999 82:0.222155 83:0.218858 84:0.18198401 85:0.12839 86:0.081900001 87:0.055500001 88:0.047904301 89:0.055592999 90:0.081500001 91:0.125357 92:0.17821001 93:0.224426 94:0.236261 95:0.241237 96:0.244267 97:0.25309101 
0.2347001788941513 1:0.159091 2:0.23441599 3:1.26623 4:0.94675303 5:1.7513 6:1.5448101 7:0.192857 8:0.417532 9:1.47987 10:0.068831198 11:0.66039002 12:0.049350601 13:0.099350601 14:0.16298699 15:0.193506 16:0.0844156 17:0.081818201 18:1.13636 19:0 20:0.72337699 21:0.0149351 22:0.069480501 23:0.065584399 24:0.078571402 25:0.22013 26:0.62337703 27:0.30779201 28:0 29:0.59415603 30:0.187013 31:0.39350599 32:0.18571401 33:0.14805201 34:1.59156 35:0.22792201 36:0.0025974 37:0.54675299 38:0.099350601 39:0.061039001 40:1.43247 41:0.907143 42:0.94415599 43:0.66428602 44:0.25064901 45:0.087012999 46:1.90455 47:0.12532499 48:0.0012987 49:0.145455 50:0.16688301 51:0.083116896 52:0.00064935099 53:0.76103902 54:0.157143 55:0.16103899 56:0.92792201 57:0.371429 58:0.0051948102 59:0.00064935099 60:0 61:0.00064935099 62:0.429221 63:0.050649401 64:0.00844156 65:0.231169 66:0.83376598 67:0.011039 68:0.0077922102 69:0.287662 70:0.050649401 71:0.334416 72:0.018181801 73:0.83871001 74:1.2309 75:0.39070001 76:0.32390001 77:0.51289999 78:0.76889998 79:0.51520002 80:0.29980001 81:0.2746 82:0.215352 83:0.20618699 84:0.190571 85:0.171407 86:0.15016399 87:0.13016701 88:0.1165 89:0.113105 90:0.119987 91:0.134729 92:0.15654799 93:0.183 94:0.20965201 95:0.236026 96:0.25823301 97:0.27540901 
0.9916262081764664 1:0.0207792 2:0.0201299 3:0.287662 4:1.44221 5:0.45974001 6:1.38636 7:0.26623401 8:0.068831198 9:0.83506501 10:0.443506 11:0.36883101 12:0 13:0.211688 14:0.187013 15:0.28961 16:0.059740301 17:0.11039 18:1.4077899 19:0.20974 20:0.98376602 21:0.00194805 22:0.153896 23:0.085064903 24:0.0402597 25:1.15 26:1.0155801 27:0.51818198 28:0.0402597 29:0.51038998 30:0.066883102 31:0.00064935099 32:0.334416 33:0.27207801 34:0.79805201 35:0.103896 36:0 37:0.41948101 38:0.12013 39:0.038961001 40:0.567532 41:1.12208 42:0.61753201 43:0.24870101 44:0.182468 45:0.0045454502 46:1.6039 47:0.092207797 48:0.00324675 49:0.066883102 50:0.40974 51:0.205844 52:0.0246753 53:0.81298703 54:0.101299 55:0.51623398 56:0.85000002 57:0.33766201 58:0.00064935099 59:0.0298701 60:0.00324675 61:0.0116883 62:0.54870099 63:0.0266234 64:0 65:0.59545499 66:1.7655801 67:0.26883101 68:0.037013002 69:0.042857099 70:0.48311701 71:0.24935099 72:0.0155844 73:0.6875 74:0.73720002 75:0.47409999 76:0.64039999 77:0.32749999 78:0.5115 79:0.51139998 80:0.35800001 81:0.53250003 82:0.21133099 83:0.197813 84:0.17889699 85:0.159017 86:0.142 87:0.12944099 88:0.122915 89:0.123337 90:0.131218 91:0.14634299 92:0.166548 93:0.190019 94:0.21510901 95:0.235263 96:0.254033 97:0.27649999 
0.4835171165258674 1:0.45584401 2:0.086363599 3:0.92467499 4:2.0597401 5:0.69999999 6:1.48571 7:0.25974 8:0.016883099 9:1.22273 10:0.30259699 11:0.61948001 12:0.018181801 13:0.28636399 14:0.172727 15:0.191558 16:0 17:0.0422078 18:1.47208 19:0.0064935102 20:0.655195 21:0.022077899 22:0.150649 23:0.27662301 24:0.192857 25:0.58831197 26:1.14805 27:0.24026 28:0 29:0.932468 30:0.13961001 31:0.51103902 32:0.193506 33:0.0266234 34:1.12792 35:0.14155801 36:0 37:0.63636398 38:0.10974 39:0.105195 40:0.86428601 41:1.12403 42:0.81103897 43:0.74480498 44:0.088960998 45:0.118831 46:1.69481 47:0.071428597 48:0.0246753 49:0.057142898 50:0.22142901 51:0.058441602 52:0.0077922102 53:0.83571398 54:0.107792 55:0.38960999 56:0.91039002 57:0.42597401 58:0.00194805 59:0.0214286 60:0.00064935099 61:0.050000001 62:0.92922097 63:0.00844156 64:0.0123377 65:0.26818201 66:0.95129901 67:0.0214286 68:0.066883102 69:0.39480501 70:0.32467499 71:0.39610401 72:0.0025974 73:0.75 74:1.1106 75:0.47819999 76:0.50520003 77:0.47319999 78:0.70889997 79:0.47420001 80:0.42160001 81:0.37549999 82:0.212796 83:0.199209 84:0.181325 85:0.163093 86:0.145027 87:0.127951 88:0.114862 89:0.111895 90:0.123218 91:0.146014 92:0.175145 93:0.205963 94:0.23163 95:0.25400001 96:0.27266699 97:0.29277301 
