svm_type c_svc
kernel_type rbf
gamma 0.09
nr_class 11
total_sv 327
rho -0.679417 0.0234837 -0.0529771 -0.392576 -0.504444 -0.854503 -0.294264 0.22941 -0.284336 -0.10884 -0.0507093 -0.426537 -0.365461 -0.31338 -0.291113 -0.744916 0.150366 -0.109273 0.334577 -0.27409 -0.535211 -0.734735 -0.61042 -0.312288 0.268821 -0.288061 0.108072 -0.656909 0.0403631 -0.152082 0.165161 0.48019 -0.0934866 0.624502 0.0620915 0.0720535 0.0895189 0.369818 0.109607 0.284418 -0.150671 0.065428 0.463217 0.0279431 0.318062 0.0560829 0.356101 0.0867953 0.43781 0.422917 0.0306248 0.195698 -0.262305 -0.126313 0.221962
label 0 1 10 2 3 4 5 6 7 8 9
probA -4.86676 -4.68975 -4.70649 -5.23859 -4.48115 -5.21258 -5.01643 -5.28789 -5.3493 -4.67792 -4.97379 -4.79887 -5.43799 -4.99589 -5.36041 -4.77396 -5.38783 -5.40462 -4.27651 -4.78123 -4.99309 -4.90837 -5.0873 -5.17579 -5.18681 -5.43871 -4.80313 -4.8869 -4.7828 -5.29066 -5.4232 -5.14162 -5.51117 -4.4666 -5.31908 -5.60248 -5.65302 -5.51912 -5.67639 -5.29918 -5.29009 -5.46193 -5.61643 -5.63668 -4.90724 -5.58551 -5.84239 -5.61766 -5.24683 -5.71025 -5.50776 -4.14817 -5.87724 -5.28346 -5.11285
probB -0.155194 0.155398 -0.112554 0.0451495 0.070209 -0.0550953 -0.107469 0.085424 -0.0744135 -0.273207 -0.0653602 0.0709411 0.0172709 0.268878 -0.128004 -0.138354 0.155095 -0.0751944 -0.540106 -0.0467746 0.119474 0.144559 0.198241 0.200249 0.270554 0.158865 0.142671 0.19499 0.476814 0.134251 -0.137881 0.017977 -0.0511155 0.0739957 0.0666315 0.0908836 0.0354702 -0.0334708 -0.151138 -0.0416618 -0.089804 -0.115664 0.182488 0.080108 -0.432516 -0.207771 -0.01242 -0.123881 -0.270324 -0.0114488 0.125247 0.163886 0.0258875 -0.327247 -0.336526
nr_sv 35 50 35 36 11 23 18 16 39 15 49
SV
0 0 0 0 0 0.6174424126162537 0 0 0.5464792437466568 0 1:0.81818181 2:0.54081631 3:0.096774191 4:0.80000001 5:0.53398061 6:0.10112359 7:0.34042552 8:0.25 9:0.14285715 10:0.47126436 11:0.46601942 12:0.11494253 13:0.38541666 14:0.27906978 15:0.14864865 16:0.12765957 17:0.125 18:0.1 19:0.39285713 20:0.86597937 21:0.76344085 22:0.2238806 23:0.57608694 24:0.58095241 25:0.15000001 26:0.078651689 27:0.072916664 28:0.14117648 29:0.45263159 30:0.6025641 31:0.11111111 32:0.32380953 33:0.64835167 34:0.20930232 35:0.15517241 36:0.17948718 37:0.043478262 38:0.12903225 39:0.23157895 40:0.090909094 41:0.26086956 42:0.71739131 43:0.10869565 44:0.41836736 45:0.96629214 46:0.033333335 47:0.071428575 48:0.079545453 49:0.11111111 50:0.11956522 51:0.21978022 52:0.1375 53:0.30612245 54:0.54945058 55:0.075949363 56:0.097560972 57:0.2 58:0.44210526 59:0.48979592 60:0.20512821 61:0.70526314 62:0.9375 63:0.52380955 64:0.14705883 65:0.125 66:0.11320755 67:0.53061223 68:0.37113401 69:0.17105263 70:0.65882355 71:0.60416669 72:0.29032257 
0 0 0 0 0 0 0 0 0 0.5088651901894972 1:0.95454544 2:0.45918366 3:0.11827957 4:0.67777777 5:0.39805827 6:0.13483146 7:0.25531915 8:0.19117647 9:0.125 10:0.52873564 11:0.32038835 12:0.12643678 13:0.46875 14:0.1627907 15:0.14864865 16:0.14893617 17:0.15000001 18:0.075000003 19:0.45238096 20:0.93814433 21:0.97849464 22:0.35820895 23:0.48913044 24:0.5714286 25:0.2 26:0.12359551 27:0.0625 28:0.25882354 29:0.41052631 30:0.44871795 31:0.19444445 32:0.17142858 33:0.42857143 34:0.18604651 35:0.10344828 36:0.16666667 37:0.17391305 38:0.12903225 39:0.2 40:0.14285715 41:0.17391305 42:0.59782606 43:0.076086953 44:0.40816328 45:0.96629214 46:0.15000001 47:0.15476191 48:0.125 49:0.16666667 50:0.13043478 51:0.3956044 52:0.125 53:0.24489796 54:0.54945058 55:0.12658228 56:0.14634146 57:0.15000001 58:0.58947366 59:0.45918366 60:0.16666667 61:0.94736844 62:0.98958331 63:0.60714287 64:0.32352942 65:0.203125 66:0.16981132 67:0.29591838 68:0.2371134 69:0.13157895 70:0.45882353 71:0.4375 72:0.26881722 
0 0 0 0 0 0.1357570113106886 0 0 0 0 1:0.80681819 2:0.40816328 3:0.086021505 4:0.78888887 5:0.44660193 6:0.067415729 7:0.35106382 8:0.23529412 9:0.16071428 10:0.51724136 11:0.53398061 12:0.13793103 13:0.3125 14:0.31395349 15:0.094594598 16:0.12765957 17:0.075000003 18:0.075000003 19:0.35714287 20:0.8041237 21:0.76344085 22:0.31343284 23:0.56521738 24:0.53333336 25:0.26666668 26:0.089887641 27:0.041666668 28:0.12941177 29:0.37894738 30:0.58974361 31:0.097222224 32:0.31428573 33:0.65934068 34:0.11627907 35:0.10344828 36:0.11538462 37:0.10869565 38:0.17741935 39:0.23157895 40:0.077922076 41:0.28260869 42:0.71739131 43:0.032608695 44:0.3877551 45:0.88764048 46:0.033333335 47:0.05952381 48:0.06818182 49:0.055555556 50:0.16304348 51:0.32967034 52:0.087499999 53:0.43877551 54:0.64835167 55:0.15189873 56:0.048780486 57:0.15000001 58:0.44210526 59:0.51020408 60:0.25641027 61:0.70526314 62:0.89583331 63:0.47619048 64:0.22058824 65:0.0625 66:0.20754717 67:0.48979592 68:0.34020618 69:0.15789473 70:0.62352943 71:0.53125 72:0.23655914 
0 0 0 0 0 0 0 0 0 0.1954887090471032 1:0.96590906 2:0.46938777 3:0.12903225 4:0.68888891 5:0.39805827 6:0.12359551 7:0.26595744 8:0.17647059 9:0.14285715 10:0.52873564 11:0.32038835 12:0.11494253 13:0.45833334 14:0.1627907 15:0.13513513 16:0.12765957 17:0.16249999 18:0.087499999 19:0.45238096 20:0.93814433 21:0.98924732 22:0.35820895 23:0.5 24:0.58095241 25:0.2 26:0.12359551 27:0.0625 28:0.25882354 29:0.41052631 30:0.42307693 31:0.15277778 32:0.15238096 33:0.41758242 34:0.1627907 35:0.10344828 36:0.089743592 37:0.15217391 38:0.14516129 39:0.22105263 40:0.12987013 41:0.19565217 42:0.61956519 43:0.076086953 44:0.40816328 45:0.9775281 46:0.1 47:0.11904762 48:0.125 49:0.1388889 50:0.086956523 51:0.37362638 52:0.1125 53:0.24489796 54:0.52747256 55:0.11392405 56:0.15853658 57:0.13333334 58:0.58947366 59:0.45918366 60:0.20512821 61:0.94736844 62:0.98958331 63:0.61904764 64:0.22058824 65:0.125 66:0.1509434 67:0.27551019 68:0.2371134 69:0.13157895 70:0.47058824 71:0.44791666 72:0.26881722 
0.4324937238258057 0 0 0 0 0 0 0 0 0 1:0.78409094 2:0.51020408 3:0.053763442 4:0.64444447 5:0.53398061 6:0.02247191 7:0.21276596 8:0.19117647 9:0.017857144 10:0.48275861 11:0.53398061 12:0.022988506 13:0.36458334 14:0.30232558 15:0.013513514 16:0.095744684 17:0.075000003 18:0 19:0.2857143 20:0.74226803 21:0.77419353 22:0.31343284 23:0.56521738 24:0.54285717 25:0.16666667 26:0.02247191 27:0.041666668 28:0.094117649 29:0.43157893 30:0.57692307 31:0.055555556 32:0.32380953 33:0.65934068 34:0.11627907 35:0.10344828 36:0.1923077 37:0 38:0.048387095 39:0.042105265 40:0 41:0.25 42:0.57608694 43:0.065217391 44:0.36734694 45:0.86516851 46:0 47:0.011904762 48:0.056818184 49:0 50:0.13043478 51:0.23076923 52:0.075000003 53:0.31632653 54:0.51648355 55:0.06329114 56:0.036585364 57:0.1 58:0.47368422 59:0.48979592 60:0.20512821 61:0.7157895 62:0.85416669 63:0.45238096 64:0.10294118 65:0.015625 66:0.075471699 67:0.48979592 68:0.42268041 69:0.11842106 70:0.62352943 71:0.58333331 72:0.22580644 
0.2103187221525951 0 0 0 0 0 0 0 0 0 1:0.78409094 2:0.51020408 3:0.043010753 4:0.65555555 5:0.53398061 6:0.033707865 7:0.22340426 8:0.19117647 9:0.035714287 10:0.47126436 11:0.51456308 12:0.045977011 13:0.36458334 14:0.30232558 15:0.027027028 16:0.08510638 17:0.075000003 18:0.0125 19:0.29761904 20:0.76288658 21:0.77419353 22:0.29850745 23:0.56521738 24:0.55238098 25:0.1 26:0.02247191 27:0.052083332 28:0.094117649 29:0.41052631 30:0.57692307 31:0.055555556 32:0.33333334 33:0.67032969 34:0.069767445 35:0.12068965 36:0.21794872 37:0.021739131 38:0.064516127 39:0.052631579 40:0 41:0.25 42:0.56521738 43:0.032608695 44:0.36734694 45:0.85393256 46:0 47:0.011904762 48:0.011363637 49:0 50:0.15217391 51:0.23076923 52:0.050000001 53:0.33673468 54:0.51648355 55:0.06329114 56:0.036585364 57:0.016666668 58:0.48421052 59:0.48979592 60:0.1923077 61:0.7157895 62:0.85416669 63:0.45238096 64:0.088235296 65:0.015625 66:0 67:0.47959185 68:0.42268041 69:0.11842106 70:0.61176473 71:0.57291669 72:0.22580644 
1.186061425824504 0 0 0 0 0 0 0 0 0 1:0.92045456 2:0.44897959 3:0.086021505 4:0.66666669 5:0.3883495 6:0.089887641 7:0.24468085 8:0.16176471 9:0.10714286 10:0.51724136 11:0.30097088 12:0.12643678 13:0.44791666 14:0.13953489 15:0.12162162 16:0.13829787 17:0.1375 18:0.075000003 19:0.4642857 20:0.93814433 21:0.98924732 22:0.35820895 23:0.48913044 24:0.58095241 25:0.16666667 26:0.11235955 27:0.072916664 28:0.27058825 29:0.42105263 30:0.42307693 31:0.125 32:0.17142858 33:0.42857143 34:0.13953489 35:0.12068965 36:0.12820514 37:0.15217391 38:0.11290322 39:0.2 40:0.14285715 41:0.18478261 42:0.60869563 43:0.097826086 44:0.40816328 45:0.9775281 46:0.083333336 47:0.095238097 48:0.11363637 49:0.125 50:0.086956523 51:0.36263737 52:0.125 53:0.23469388 54:0.52747256 55:0.15189873 56:0.12195122 57:0.15000001 58:0.57894737 59:0.44897959 60:0.1923077 61:0.94736844 62:0.97916669 63:0.61904764 64:0.54411763 65:0.296875 66:0.16981132 67:0.34693879 68:0.2783505 69:0.14473684 70:0.47058824 71:0.46875 72:0.27956989 
0 0 0 0 2.117571772100902 0 0 0 0 0 1:0.54545456 2:0.29591838 3:0.16129032 4:0.5 5:0.35922331 6:0.044943821 7:0.52127659 8:0.4852941 9:0.14285715 10:0.65517241 11:0.52427185 12:0.27586207 13:0.66666669 14:0.70930231 15:0.24324325 16:0.64893615 17:0.78750002 18:0.22499999 19:0.36904761 20:0.72164947 21:0.74193549 22:0.40298507 23:0.71739131 24:0.74285716 25:0.33333334 26:0.52808988 27:0.61458331 28:0.16470589 29:0.41052631 30:0.3974359 31:0.069444448 32:0.23809524 33:0.5714286 34:0.1627907 35:0.46551725 36:0.62820512 37:0.17391305 38:0.54838711 39:0.44210526 40:0.064935066 41:0.20652173 42:0.42391303 43:0.14130434 44:0.24489796 45:0.48314607 46:0.23333333 47:0.4642857 48:0.42045453 49:0.16666667 50:0.57608694 51:0.74725276 52:0.16249999 53:0.67346936 54:0.90109891 55:0.5316456 56:0.43902439 57:0 58:0.68421054 59:0.6122449 60:0.12820514 61:0.77894735 62:0.73958331 63:0.25 64:0.63235295 65:0.484375 66:0 67:0.45918366 68:0.24742268 69:0 70:0.67058825 71:0.29166666 72:0.096774191 
0 0 0 0 3.225310002586888 0 0 0 0 0 1:0.52272725 2:0.32653061 3:0.043010753 4:0.42222223 5:0.24271844 6:0.033707865 7:0.47872341 8:0.29411766 9:0.035714287 10:0.71264368 11:0.5825243 12:0.26436782 13:0.78125 14:0.68604654 15:0.27027026 16:0.67021275 17:0.625 18:0.037500001 19:0.40476191 20:0.77319586 21:0.78494626 22:0.38805971 23:0.69565219 24:0.70476192 25:0.40000001 26:0.60674155 27:0.63541669 28:0.1882353 29:0.41052631 30:0.41025642 31:0.055555556 32:0.30476192 33:0.53846157 34:0.13953489 35:0.55172414 36:0.66666669 37:0.19565217 38:0.5 39:0.38947368 40:0.051948052 41:0.22826087 42:0.43478259 43:0.065217391 44:0.26530612 45:0.51685393 46:0.21666667 47:0.44047618 48:0.40909091 49:0.2638889 50:0.5869565 51:0.72527474 52:0.21250001 53:0.66326529 54:0.83516484 55:0.64556962 56:0.48780489 57:0.11666667 58:0.81052631 59:0.65306121 60:0.21794872 61:0.80000001 62:0.67708331 63:0.17857143 64:0.5 65:0.34375 66:0.094339624 67:0.34693879 68:0.20618556 69:0.10526316 70:0.5411765 71:0.27083334 72:0 
0 0 2.240051316791957 0 10 0 0 0 0 0 1:0.52272725 2:0.32653061 3:0.043010753 4:0.42222223 5:0.24271844 6:0.033707865 7:0.47872341 8:0.29411766 9:0.035714287 10:0.71264368 11:0.5825243 12:0.26436782 13:0.78125 14:0.68604654 15:0.27027026 16:0.67021275 17:0.625 18:0.037500001 19:0.40476191 20:0.77319586 21:0.78494626 22:0.38805971 23:0.69565219 24:0.70476192 25:0.40000001 26:0.60674155 27:0.63541669 28:0.1882353 29:0.41052631 30:0.41025642 31:0.055555556 32:0.30476192 33:0.53846157 34:0.13953489 35:0.55172414 36:0.66666669 37:0.19565217 38:0.5 39:0.38947368 40:0.051948052 41:0.22826087 42:0.43478259 43:0.065217391 44:0.26530612 45:0.51685393 46:0.21666667 47:0.44047618 48:0.40909091 49:0.2638889 50:0.5869565 51:0.72527474 52:0.21250001 53:0.66326529 54:0.83516484 55:0.64556962 56:0.48780489 57:0.11666667 58:0.81052631 59:0.65306121 60:0.21794872 61:0.80000001 62:0.67708331 63:0.17857143 64:0.5 65:0.34375 66:0.094339624 67:0.34693879 68:0.20618556 69:0.10526316 70:0.5411765 71:0.27083334 72:0 
0 0 1.052449184861219 0.7385968452371291 0 1.468496700785752 0 0 0 0 1:0.67045456 2:0.33673468 3:0.053763442 4:0.5 5:0.31067961 6:0.056179777 7:0.54255319 8:0.54411763 9:0.14285715 10:0.64367819 11:0.53398061 12:0.35632184 13:0.6875 14:0.60465115 15:0.21621622 16:0.39361703 17:0.57499999 18:0.175 19:0.36904761 20:0.79381442 21:0.72043014 22:0.34328359 23:0.67391306 24:0.66666669 25:0.26666668 26:0.44943821 27:0.36458334 28:0.16470589 29:0.30526316 30:0.46153846 31:0.11111111 32:0.26666668 33:0.59340662 34:0.11627907 35:0.53448278 36:0.65384614 37:0.043478262 38:0.45161289 39:0.47368422 40:0.038961038 41:0.25 42:0.56521738 43:0.086956523 44:0.41836736 45:0.74157304 46:0.083333336 47:0.34523809 48:0.29545453 49:0.125 50:0.46739131 51:0.61538464 52:0.30000001 53:0.71428573 54:0.72527474 55:0.39240506 56:0.40243903 57:0.1 58:0.61052632 59:0.59183675 60:0.1923077 61:0.65263158 62:0.51041669 63:0.16666667 64:0.58823532 65:0.34375 66:0 67:0.55102038 68:0.31958762 69:0.078947365 70:0.80000001 71:0.4375 72:0.07526882 
3.958932792302828 0 0 0 2.673795667859233 0 0.8754152677118562 0 0.6034460480747521 4.754018836414327 1:0.54545456 2:0.41836736 3:0 4:0.44444445 5:0.42718446 6:0.044943821 7:0.32978722 8:0.5147059 9:0.21428572 10:0.7011494 11:0.54368931 12:0 13:0.55208331 14:0.51162791 15:0.13513513 16:0.30851063 17:0.5 18:0.28749999 19:0.32142857 20:0.52577317 21:0.56989247 22:0.31343284 23:0.5869565 24:0.61904764 25:0.36666667 26:0.38202247 27:0.61458331 28:0.05882353 29:0.48421052 30:0.64102566 31:0.069444448 32:0.43809524 33:0.64835167 34:0.23255815 35:0.25862068 36:0.3974359 37:0.15217391 38:0.67741936 39:0.45263159 40:0.11688311 41:0.28260869 42:0.35869566 43:0.10869565 44:0.21428572 45:0.44943821 46:0.2 47:0.33333334 48:0.17045455 49:0.2638889 50:0.40217391 51:0.34065935 52:0.22499999 53:0.45918366 54:0.63736266 55:0.34177214 56:0.21951219 57:0.083333336 58:0.63157892 59:0.53061223 60:0.16666667 61:0.80000001 62:0.79166669 63:0.34523809 64:0.54411763 65:0.4375 66:0 67:0.48979592 68:0.31958762 69:0.039473683 70:0.56470591 71:0.58333331 72:0.27956989 
1.895631713380612 0 0 0 0 0 0 0 0 0 1:0.59090906 2:0.30612245 3:0 4:0.43333334 5:0.32038835 6:0.033707865 7:0.42553192 8:0.5147059 9:0.089285716 10:0.71264368 11:0.52427185 12:0.11494253 13:0.57291669 14:0.62790698 15:0.28378379 16:0.36170211 17:0.6875 18:0.27500001 19:0.38095239 20:0.78350514 21:0.69892472 22:0.23880596 23:0.61956519 24:0.51428574 25:0.18333334 26:0.51685393 27:0.42708334 28:0.17647059 29:0.48421052 30:0.6025641 31:0.069444448 32:0.36190477 33:0.67032969 34:0 35:0.51724136 36:0.69230771 37:0.17391305 38:0.37096775 39:0.35789475 40:0.077922076 41:0.34782609 42:0.55434781 43:0 44:0.36734694 45:0.67415732 46:0.21666667 47:0.33333334 48:0.20454545 49:0.2638889 50:0.59782606 51:0.59340662 52:0 53:0.62244898 54:0.6813187 55:0.41772151 56:0.29268292 57:0.033333335 58:0.69473684 59:0.67346936 60:0.23076923 61:0.70526314 62:0.71875 63:0.29761904 64:0.52941179 65:0.28125 66:0 67:0.56122446 68:0.3298969 69:0 70:0.62352943 71:0.44791666 72:0.11827957 
0 0 0 0 0 0 0 0 0.432680868032117 0 1:0.68181819 2:0.51020408 3:0.064516127 4:0.66666669 5:0.55339807 6:0.02247191 7:0.31914893 8:0.2647059 9:0 10:0.50574714 11:0.51456308 12:0.10344828 13:0.46875 14:0.37209302 15:0.054054055 16:0.13829787 17:0.075000003 18:0 19:0.27380952 20:0.59793812 21:0.59139782 22:0.31343284 23:0.64130437 24:0.56190479 25:0.15000001 26:0.067415729 27:0.14583333 28:0.15294118 29:0.60000002 30:0.53846157 31:0.1388889 32:0.50476193 33:0.70329672 34:0 35:0.20689656 36:0.38461539 37:0.065217391 38:0.20967741 39:0.11578947 40:0 41:0.41304347 42:0.56521738 43:0.065217391 44:0.59183675 45:0.83146065 46:0 47:0 48:0 49:0 50:0.14130434 51:0.30769232 52:0.26249999 53:0.45918366 54:0.54945058 55:0.11392405 56:0 57:0 58:0.42105263 59:0.34693879 60:0.11538462 61:0.7368421 62:0.75 63:0.33333334 64:0.16176471 65:0 66:0 67:0.44897959 68:0.41237113 69:0.078947365 70:0.65882355 71:0.65625 72:0.13978495 
0 0 0.3596318572211795 0 0 0 0 0.4310971371263813 0 0 1:0.80681819 2:0.41836736 3:0.22580644 4:0.71111113 5:0.39805827 6:0.13483146 7:0.28723404 8:0.13235295 9:0 10:0.57471263 11:0.51456308 12:0.27586207 13:0.375 14:0.30232558 15:0.24324325 16:0.095744684 17:0.050000001 18:0 19:0.36904761 20:0.70103091 21:0.54838711 22:0.29850745 23:0.52173913 24:0.40000001 25:0.13333334 26:0.056179777 27:0.041666668 28:0.2 29:0.61052632 30:0.71794873 31:0.15277778 32:0.46666667 33:0.70329672 34:0 35:0.1724138 36:0.16666667 37:0.043478262 38:0.19354838 39:0.2 40:0.012987013 41:0.40217391 42:0.64130437 43:0 44:0.48979592 45:0.87640452 46:0 47:0.047619049 48:0.06818182 49:0 50:0.2173913 51:0.30769232 52:0 53:0.35714287 54:0.51648355 55:0.088607594 56:0.024390243 57:0.15000001 58:0.46315789 59:0.41836736 60:0.14102565 61:0.82105261 62:0.88541669 63:0.41666666 64:0.11764706 65:0.03125 66:0.26415095 67:0.46938777 68:0.26804122 69:0.052631579 70:0.69411767 71:0.41666666 72:0.096774191 
0.05278994369891857 0 0 0 0 0 0 0 0 0 1:0.60227275 2:0.37755102 3:0 4:0.43333334 5:0.39805827 6:0.067415729 7:0.34042552 8:0.60294116 9:0.16071428 10:0.58620691 11:0.56310678 12:0.057471264 13:0.53125 14:0.48837209 15:0.14864865 16:0.26595744 17:0.375 18:0.15000001 19:0.36904761 20:0.70103091 21:0.76344085 22:0.23880596 23:0.59782606 24:0.56190479 25:0.18333334 26:0.39325842 27:0.375 28:0.14117648 29:0.38947368 30:0.48717949 31:0 32:0.29523811 33:0.5714286 34:0.093023255 35:0.39655173 36:0.55128205 37:0.065217391 38:0.48387095 39:0.41052631 40:0.025974026 41:0.31521741 42:0.52173913 43:0.076086953 44:0.29591838 45:0.5955056 46:0.06666667 47:0.32142857 48:0.32954547 49:0.083333336 50:0.53260869 51:0.64835167 52:0.1 53:0.6122449 54:0.72527474 55:0.30379745 56:0.34146342 57:0.11666667 58:0.7157895 59:0.66326529 60:0.1923077 61:0.68421054 62:0.625 63:0.23809524 64:0.5147059 65:0.421875 66:0 67:0.5 68:0.36082473 69:0.039473683 70:0.5529412 71:0.52083331 72:0.07526882 
0 0 0 0.564467279088357 0 0 0 0 0 0 1:0.81818181 2:0.43877551 3:0.064516127 4:0.72222221 5:0.44660193 6:0.033707865 7:0.25531915 8:0.16176471 9:0 10:0.48275861 11:0.46601942 12:0.14942528 13:0.3125 14:0.27906978 15:0.027027028 16:0.04255319 17:0 18:0 19:0.35714287 20:0.72164947 21:0.60215056 22:0.25373134 23:0.57608694 24:0.45714286 25:0.050000001 26:0.067415729 27:0.041666668 28:0.16470589 29:0.56842107 30:0.6025641 31:0.15277778 32:0.4952381 33:0.6813187 34:0 35:0.22413793 36:0.20512821 37:0.021739131 38:0.080645159 39:0.14736842 40:0.038961038 41:0.44565219 42:0.65217394 43:0.043478262 44:0.54081631 45:0.83146065 46:0 47:0.023809524 48:0.10227273 49:0.097222224 50:0.26086956 51:0.29670331 52:0.1375 53:0.5 54:0.46153846 55:0.088607594 56:0.024390243 57:0.15000001 58:0.34736842 59:0.35714287 60:0.1025641 61:0.7157895 62:0.80208331 63:0.30952382 64:0.05882353 65:0.015625 66:0.03773585 67:0.58163267 68:0.35051546 69:0.013157895 70:0.7764706 71:0.41666666 72:0 
0 0 0 0 0 0 0 0.3686605993300536 0 0 1:0.78409094 2:0.44897959 3:0.13978495 4:0.69999999 5:0.45631069 6:0.056179777 7:0.27659574 8:0.16176471 9:0 10:0.48275861 11:0.407767 12:0.27586207 13:0.33333334 14:0.22093023 15:0.17567568 16:0.13829787 17:0.050000001 18:0 19:0.39285713 20:0.74226803 21:0.54838711 22:0.35820895 23:0.68478262 24:0.46666667 25:0.15000001 26:0.056179777 27:0.10416666 28:0.23529412 29:0.53684211 30:0.6025641 31:0.20833333 32:0.45714286 33:0.64835167 34:0 35:0.20689656 36:0.35897437 37:0.13043478 38:0.22580644 39:0.18947369 40:0.012987013 41:0.43478259 42:0.64130437 43:0.054347824 44:0.56122446 45:0.8202247 46:0 47:0 48:0.056818184 49:0 50:0.2173913 51:0.32967034 52:0.15000001 53:0.5714286 54:0.51648355 55:0.1392405 56:0 57:0 58:0.40000001 59:0.37755102 60:0.1025641 61:0.7473684 62:0.73958331 63:0.23809524 64:0.23529412 65:0 66:0 67:0.54081631 68:0.37113401 69:0.065789476 70:0.74117649 71:0.54166669 72:0.13978495 
7.770343800619739 0 0 0 1.17298527066591 0 2.323319467189108 0 0 0 1:0 2:0 3:0.064516127 4:0.23333333 5:0.22330096 6:0.056179777 7:0.28723404 8:0.54411763 9:0.35714287 10:0.20689656 11:0 12:0.1724138 13:0.39583334 14:0.55813956 15:0.33783785 16:0.35106382 17:0.69999999 18:0.4375 19:0.9285714 20:0.83505154 21:0.69892472 22:0.67164177 23:0.78260869 24:0.6761905 25:0.40000001 26:0.48314607 27:0.72916669 28:0.22352941 29:0.52631581 30:0.44871795 31:0.1388889 32:0.29523811 33:0.65934068 34:0.069767445 35:0.24137931 36:0.57692307 37:0.41304347 38:0.85483873 39:0.44210526 40:0.15584415 41:0.35869566 42:0.41304347 43:0 44:0.10204082 45:0.50561798 46:0.46666667 47:0.5 48:0.32954547 49:0.41666666 50:0.48913044 51:0.38461539 52:0.27500001 53:0.48979592 54:0.61538464 55:0.68354428 56:0.41463414 57:0.48333332 58:0.7263158 59:0.5714286 60:0.38461539 61:0.85263157 62:0.8125 63:0.58333331 64:0.10294118 65:0 66:0 67:0.25510204 68:0.10309278 69:0.065789476 70:0.50588238 71:0.46875 72:0.20430107 
0 0 0 0 2.269920924034595 0 0 0 0 0 1:0.72727275 2:0.37755102 3:0.064516127 4:0.66666669 5:0.407767 6:0 7:0.58510637 8:0.39705881 9:0 10:0.51724136 11:0.39805827 12:0.16091955 13:0.51041669 14:0.40697673 15:0 16:0.39361703 17:0.34999999 18:0 19:0.33333334 20:0.67010307 21:0.66666669 22:0.37313432 23:0.76086956 24:0.6857143 25:0.38333333 26:0.5955056 27:0.44791666 28:0.17647059 29:0.50526315 30:0.5 31:0.125 32:0.34285715 33:0.5714286 34:0.13953489 35:0.44827586 36:0.62820512 37:0.021739131 38:0.096774191 39:0.15789473 40:0 41:0.26086956 42:0.54347825 43:0 44:0.33673468 45:0.74157304 46:0 47:0 48:0.21590909 49:0.15277778 50:0.41304347 51:0.49450549 52:0.1125 53:0.5 54:0.65934068 55:0.088607594 56:0 57:0.16666667 58:0.34736842 59:0.3877551 60:0.15384616 61:0.76842105 62:0.75 63:0.34523809 64:0.20588236 65:0 66:0 67:0.46938777 68:0.26804122 69:0 70:0.62352943 71:0.27083334 72:0.053763442 
0 0 0 0 0 0.04956665240533136 0 0 0 0 1:0.71590906 2:0.35714287 3:0.043010753 4:0.5777778 5:0.31067961 6:0.033707865 7:0.53191489 8:0.32352942 9:0.035714287 10:0.50574714 11:0.36893204 12:0.11494253 13:0.57291669 14:0.46511629 15:0.040540539 16:0.37234041 17:0.44999999 18:0.0125 19:0.38095239 20:0.67010307 21:0.59139782 22:0.35820895 23:0.72826087 24:0.62857145 25:0.41666666 26:0.49438202 27:0.40625 28:0.34117648 29:0.57894737 30:0.62820512 31:0.16666667 32:0.38095239 33:0.65934068 34:0.23255815 35:0.51724136 36:0.73076922 37:0.39130434 38:0.24193548 39:0.094736844 40:0.24675325 41:0.29347825 42:0.5869565 43:0.11956522 44:0.32653061 45:0.71910113 46:0.2 47:0.17857143 48:0 49:0.40277779 50:0.43478259 51:0.35164836 52:0.28749999 53:0.67346936 54:0.69230771 55:0.27848101 56:0.14634146 57:0 58:0.31578946 59:0.34693879 60:0.20512821 61:0.84210527 62:0.66666669 63:0.10714286 64:0.32352942 65:0.1875 66:0 67:0.5 68:0.24742268 69:0.10526316 70:0.63529414 71:0.23958333 72:0.043010753 
0 0 0 0 0 1.620916787009773 0 0 0 0 1:0.65909094 2:0.32653061 3:0.043010753 4:0.54444444 5:0.30097088 6:0 7:0.4893617 8:0.38235295 9:0 10:0.56321841 11:0.43689319 12:0.10344828 13:0.60416669 14:0.5 15:0.12162162 16:0.44680852 17:0.625 18:0.2 19:0.29761904 20:0.61855668 21:0.66666669 22:0.35820895 23:0.69565219 24:0.60952383 25:0.30000001 26:0.43820226 27:0.39583334 28:0.11764706 29:0.44210526 30:0.61538464 31:0.069444448 32:0.30476192 33:0.59340662 34:0.18604651 35:0.53448278 36:0.62820512 37:0.10869565 38:0.51612902 39:0.28421053 40:0.090909094 41:0.33695653 42:0.61956519 43:0.065217391 44:0.3877551 45:0.80898875 46:0.18333334 47:0.26190478 48:0.14772727 49:0.45833334 50:0.41304347 51:0.41758242 52:0.25 53:0.60204083 54:0.61538464 55:0.29113925 56:0.19512194 57:0 58:0.36842105 59:0.48979592 60:0.33333334 61:0.81052631 62:0.63541669 63:0.17857143 64:0.63235295 65:0.421875 66:0 67:0.54081631 68:0.2783505 69:0 70:0.60000002 71:0.27083334 72:0 
0 0.8834488906059611 0 0.2331443100680573 0 0 0 0 0.8847120880975077 0 1:0.63636363 2:0.42857143 3:0 4:0.66666669 5:0.45631069 6:0 7:0.62765956 8:0.47058824 9:0 10:0.57471263 11:0.51456308 12:0.21839081 13:0.55208331 14:0.41860464 15:0.14864865 16:0.34042552 17:0.32499999 18:0 19:0.29761904 20:0.6082474 21:0.64516127 22:0.41791046 23:0.6630435 24:0.61904764 25:0.40000001 26:0.56179774 27:0.54166669 28:0.16470589 29:0.49473685 30:0.61538464 31:0.16666667 32:0.40000001 33:0.62637365 34:0.25581396 35:0.65517241 36:0.73076922 37:0.19565217 38:0.54838711 39:0.36842105 40:0.1038961 41:0.40217391 42:0.43478259 43:0.097826086 44:0.3877551 45:0.49438202 46:0.11666667 47:0.2857143 48:0.27272728 49:0.20833333 50:0.45652175 51:0.50549453 52:0.34999999 53:0.71428573 54:0.69230771 55:0.46835443 56:0.25609756 57:0.050000001 58:0.36842105 59:0.27551019 60:0.07692308 61:0.64210528 62:0.39583334 63:0.05952381 64:0.58823532 65:0.53125 66:0 67:0.42857143 68:0.25773194 69:0 70:0.68235296 71:0.30208334 72:0 
0 0 0 0 0 0.9468725947762689 0 0 0 0 1:0.68181819 2:0.34693879 3:0 4:0.53333336 5:0.33980581 6:0.089887641 7:0.39361703 8:0.25 9:0.089285716 10:0.58620691 11:0.41747573 12:0.11494253 13:0.70833331 14:0.6511628 15:0.32432431 16:0.40425533 17:0.47499999 18:0.175 19:0.38095239 20:0.73195875 21:0.74193549 22:0.44776121 23:0.76086956 24:0.6761905 25:0.26666668 26:0.42696628 27:0.41666666 28:0.10588235 29:0.42105263 30:0.55128205 31:0.055555556 32:0.30476192 33:0.63736266 34:0 35:0.3275862 36:0.56410259 37:0.086956523 38:0.24193548 39:0.2631579 40:0.025974026 41:0.17391305 42:0.39130434 43:0 44:0.33673468 45:0.70786518 46:0.083333336 47:0.15476191 48:0.14772727 49:0.29166666 50:0.5869565 51:0.70329672 52:0.15000001 53:0.60204083 54:0.75824177 55:0.32911393 56:0.17073171 57:0 58:0.61052632 59:0.5714286 60:0.24358974 61:0.86315787 62:0.77083331 63:0.2857143 64:0.52941179 65:0.3125 66:0 67:0.46938777 68:0.26804122 69:0.13157895 70:0.64705884 71:0.39583334 72:0.19354838 
0 0 5.037117538368531 0 0 0 0 0 0 0 1:0.60227275 2:0.32653061 3:0.15053764 4:0.52222222 5:0.37864077 6:0.20224719 7:0.39361703 8:0.52941179 9:0.35714287 10:0.50574714 11:0.51456308 12:0.40229884 13:0.4375 14:0.40697673 15:0.35135135 16:0.23404256 17:0.26249999 18:0.2 19:0.48809522 20:0.68041235 21:0.75268817 22:0.43283582 23:0.47826087 24:0.46666667 25:0.23333333 26:0.20224719 27:0.35416666 28:0.1882353 29:0.2736842 30:0.57692307 31:0.19444445 32:0.27619049 33:0.51648355 34:0.18604651 35:0.44827586 36:0.58974361 37:0.45652175 38:0.53225809 39:0.50526315 40:0.15584415 41:0.32608697 42:0.6630435 43:0.097826086 44:0.32653061 45:0.62921351 46:0.33333334 47:0.36904761 48:0.53409094 49:0.40277779 50:0.5 51:0.5714286 52:0.4375 53:0.54081631 54:0.6813187 55:0.58227849 56:0.36585367 57:0.33333334 58:0.57894737 59:0.53061223 60:0.37179488 61:0.70526314 62:0.67708331 63:0.41666666 64:0.63235295 65:0.484375 66:0.3018868 67:0.66326529 68:0.38144329 69:0.18421052 70:0.64705884 71:0.51041669 72:0.26881722 
6.047138945509801 5.471055611334564 10 3.667771898874834 0 0.175925189896246 3.977938932375278 2.968906376104942 1.178410215908883 8.616761271267572 1:0.60227275 2:0.32653061 3:0.15053764 4:0.52222222 5:0.37864077 6:0.20224719 7:0.39361703 8:0.52941179 9:0.35714287 10:0.50574714 11:0.51456308 12:0.40229884 13:0.4375 14:0.40697673 15:0.35135135 16:0.23404256 17:0.26249999 18:0.2 19:0.48809522 20:0.68041235 21:0.75268817 22:0.43283582 23:0.47826087 24:0.46666667 25:0.23333333 26:0.20224719 27:0.35416666 28:0.1882353 29:0.2736842 30:0.57692307 31:0.19444445 32:0.27619049 33:0.51648355 34:0.18604651 35:0.44827586 36:0.58974361 37:0.45652175 38:0.53225809 39:0.50526315 40:0.15584415 41:0.32608697 42:0.6630435 43:0.097826086 44:0.32653061 45:0.62921351 46:0.33333334 47:0.36904761 48:0.53409094 49:0.40277779 50:0.5 51:0.5714286 52:0.4375 53:0.54081631 54:0.6813187 55:0.58227849 56:0.36585367 57:0.33333334 58:0.57894737 59:0.53061223 60:0.37179488 61:0.70526314 62:0.67708331 63:0.41666666 64:0.63235295 65:0.484375 66:0.3018868 67:0.66326529 68:0.38144329 69:0.18421052 70:0.64705884 71:0.51041669 72:0.26881722 
0 0.9680832237093741 0 0 0 0 0 0 0 0 1:0.60227275 2:0.29591838 3:0.07526882 4:0.5 5:0.30097088 6:0 7:0.52127659 8:0.41176471 9:0 10:0.74712646 11:0.60194176 12:0.27586207 13:0.63541669 14:0.60465115 15:0.16216215 16:0.58510637 17:0.80000001 18:0.26249999 19:0.36904761 20:0.71134019 21:0.64516127 22:0.35820895 23:0.73913044 24:0.60952383 25:0.18333334 26:0.52808988 27:0.51041669 28:0.12941177 29:0.41052631 30:0.55128205 31:0.055555556 32:0.32380953 33:0.59340662 34:0 35:0.55172414 36:0.65384614 37:0.10869565 38:0.54838711 39:0.49473685 40:0.064935066 41:0.31521741 42:0.56521738 43:0.065217391 44:0.36734694 45:0.68539327 46:0.28333333 47:0.45238096 48:0.25 49:0.29166666 50:0.59782606 51:0.62637365 52:0.34999999 53:0.78571427 54:0.73626375 55:0.4556962 56:0.35365853 57:0.033333335 58:0.68421054 59:0.68367344 60:0.25641027 61:0.75789475 62:0.60416669 63:0.16666667 64:0.61764705 65:0.34375 66:0 67:0.54081631 68:0.2783505 69:0.013157895 70:0.67058825 71:0.27083334 72:0.032258064 
0 0 0.1298252230818531 0 0 0 0 0 0 0 1:0.52272725 2:0.32653061 3:0.12903225 4:0.47777778 5:0.30097088 6:0.056179777 7:0.45744681 8:0.35294119 9:0.053571429 10:0.64367819 11:0.56310678 12:0.35632184 13:0.76041669 14:0.75581396 15:0.33783785 16:0.58510637 17:0.78750002 18:0.28749999 19:0.44047618 20:0.70103091 21:0.66666669 22:0.3283582 23:0.68478262 24:0.69523811 25:0.25 26:0.43820226 27:0.40625 28:0.21176471 29:0.41052631 30:0.46153846 31:0.083333336 32:0.34285715 33:0.5714286 34:0 35:0.5 36:0.65384614 37:0.13043478 38:0.43548387 39:0.28421053 40:0.038961038 41:0.2173913 42:0.45652175 43:0 44:0.37755102 45:0.68539327 46:0.26666668 47:0.48809522 48:0.43181819 49:0.2638889 50:0.5 51:0.62637365 52:0.22499999 53:0.63265306 54:0.70329672 55:0.51898736 56:0.37804878 57:0.050000001 58:0.70526314 59:0.67346936 60:0.29487181 61:0.78947371 62:0.70833331 63:0.2857143 64:0.54411763 65:0.328125 66:0.094339624 67:0.39795917 68:0.21649484 69:0.039473683 70:0.64705884 71:0.32291666 72:0.053763442 
0 0.7100328061406908 0 0 0 0 0 0 0 0 1:0.65909094 2:0.30612245 3:0.064516127 4:0.58888888 5:0.30097088 6:0.044943821 7:0.64893615 8:0.47058824 9:0.10714286 10:0.73563218 11:0.55339807 12:0.14942528 13:0.625 14:0.59302324 15:0.24324325 16:0.54255319 17:0.6875 18:0.1875 19:0.39285713 20:0.7525773 21:0.72043014 22:0.44776121 23:0.75 24:0.65714288 25:0.34999999 26:0.60674155 27:0.52083331 28:0.10588235 29:0.42105263 30:0.51282054 31:0.069444448 32:0.26666668 33:0.67032969 34:0.046511628 35:0.51724136 36:0.74358976 37:0.13043478 38:0.43548387 39:0.34736842 40:0.064935066 41:0.22826087 42:0.44565219 43:0.065217391 44:0.36734694 45:0.68539327 46:0.28333333 47:0.4642857 48:0.39772728 49:0.43055555 50:0.72826087 51:0.67032969 52:0.375 53:0.73469388 54:0.6813187 55:0.4556962 56:0.31707317 57:0 58:0.66315788 59:0.43877551 60:0.16666667 61:0.7368421 62:0.51041669 63:0.19047619 64:0.5 65:0.265625 66:0 67:0.48979592 68:0.2371134 69:0 70:0.70588237 71:0.3125 72:0.043010753 
0 0 0 0 0 0 0 0.4906409387683741 0 0 1:0.57954544 2:0.31632653 3:0.1827957 4:0.47777778 5:0.32038835 6:0.089887641 7:0.59574467 8:0.4852941 9:0.125 10:0.58620691 11:0.3883495 12:0.35632184 13:0.70833331 14:0.66279072 15:0.2972973 16:0.57446808 17:0.71249998 18:0.22499999 19:0.5 20:0.7525773 21:0.60215056 22:0.49253732 23:0.69565219 24:0.6761905 25:0.30000001 26:0.49438202 27:0.46875 28:0.17647059 29:0.35789475 30:0.41025642 31:0.069444448 32:0.32380953 33:0.59340662 34:0.023255814 35:0.55172414 36:0.61538464 37:0.10869565 38:0.56451613 39:0.43157893 40:0.038961038 41:0.29347825 42:0.41304347 43:0.043478262 44:0.3877551 45:0.6179775 46:0.25 47:0.41666666 48:0.35227272 49:0.30555555 50:0.55434781 51:0.59340662 52:0.15000001 53:0.69387758 54:0.81318682 55:0.50632912 56:0.30487806 57:0 58:0.65263158 59:0.52040815 60:0.15384616 61:0.89473683 62:0.75 63:0.21428572 64:0.63235295 65:0.359375 66:0.03773585 67:0.54081631 68:0.25773194 69:0.02631579 70:0.57647061 71:0.25 72:0.053763442 
0 0 0 0.03629438005324634 0 0.02134073825963153 0 0 0 0 1:0.57954544 2:0.37755102 3:0.021505376 4:0.41111112 5:0.31067961 6:0.044943821 7:0.43617022 8:0.35294119 9:0.32142857 10:0.71264368 11:0.64077669 12:0.19540229 13:0.625 14:0.55813956 15:0.21621622 16:0.22340426 17:0.36250001 18:0 19:0.22619048 20:0.58762884 21:0.77419353 22:0.26865673 23:0.52173913 24:0.59047621 25:0.2 26:0.48314607 27:0.54166669 28:0 29:0.32631579 30:0.58974361 31:0.055555556 32:0.27619049 33:0.49450549 34:0.046511628 35:0.29310346 36:0.48717949 37:0 38:0.54838711 39:0.53684211 40:0 41:0.33695653 42:0.5 43:0 44:0.25510204 45:0.52808988 46:0 47:0.2857143 48:0.34090909 49:0.2361111 50:0.57608694 51:0.6813187 52:0.27500001 53:0.59183675 54:0.56043959 55:0.31645569 56:0.39024389 57:0.2 58:0.56842107 59:0.56122446 60:0.21794872 61:0.60000002 62:0.60416669 63:0.29761904 64:0.64705884 65:0.484375 66:0.075471699 67:0.59183675 68:0.36082473 69:0.065789476 70:0.71764708 71:0.33333334 72:0.21505377 
2.4407161889042 5.966663595015826 3.469444200818106 2.062597090944869 2.900802849444084 4.847385341414901 1.939233838449842 4.21462518968424 1.788283302549177 6.47517802617288 1:0.29545453 2:0.31632653 3:0.12903225 4:0.16666667 5:0.31067961 6:0.31460676 7:0.19148937 8:0.30882353 9:0.5 10:0.59770113 11:0.57281554 12:0.40229884 13:0.51041669 14:0.61627907 15:0.66216218 16:0.4893617 17:0.61250001 18:0.5 19:0.80952382 20:0.71134019 21:0.82795697 22:0.83582091 23:0.75 24:0.69523811 25:1 26:0.73033708 27:0.72916669 28:0.35294119 29:0.2631579 30:0.71794873 31:0.5138889 32:0.3904762 33:0.41758242 34:0.3488372 35:0.58620691 36:0.48717949 37:0.76086956 38:0.43548387 39:0.60000002 40:0.53246754 41:0.32608697 42:0.51086956 43:0.16304348 44:0.39795917 45:0.39325842 46:0.61666667 47:0.51190478 48:0.45454547 49:0.65277779 50:0.57608694 51:0.72527474 52:0.36250001 53:0.65306121 54:0.61538464 55:0.5316456 56:0.75609756 57:0.78333336 58:0.58947366 59:0.71428573 60:0.80769229 61:0.7157895 62:0.45833334 63:0.60714287 64:0.36764705 65:0.375 66:0.33962265 67:0.26530612 68:0.20618556 69:0.30263159 70:0.41176471 71:0.22916667 72:0.31182796 
0 0 0 0 6.970081217076012 0 0 0 0 0 1:0.53409094 2:0.26530612 3:0 4:0.47777778 5:0.29126215 6:0 7:0.58510637 8:0.4852941 9:0 10:0.71264368 11:0.53398061 12:0.091954023 13:0.69791669 14:0.55813956 15:0.24324325 16:0.47872341 17:0.53750002 18:0.1 19:0.34523809 20:0.7525773 21:0.75268817 22:0.44776121 23:0.80434781 24:0.74285716 25:0.40000001 26:0.68539327 27:0.57291669 28:0.12941177 29:0.41052631 30:0.3974359 31:0.083333336 32:0.2857143 33:0.56043959 34:0.093023255 35:0.51724136 36:0.74358976 37:0.19565217 38:0.58064514 39:0.41052631 40:0.090909094 41:0.32608697 42:0.35869566 43:0 44:0.29591838 45:0.64044946 46:0.23333333 47:0.41666666 48:0.375 49:0.3611111 50:0.69565219 51:0.73626375 52:0.21250001 53:0.63265306 54:0.74725276 55:0.43037975 56:0.29268292 57:0.16666667 58:0.68421054 59:0.52040815 60:0.089743592 61:0.75789475 62:0.6875 63:0.25 64:0.67647058 65:0.40625 66:0 67:0.5714286 68:0.3298969 69:0 70:0.68235296 71:0.3125 72:0 
0 1.980602234051343 0 0 5.769813852166802 1.727982672879081 0 0 0 2.529884531154823 1:0.63636363 2:0.31632653 3:0.11827957 4:0.44444445 5:0.25242719 6:0.078651689 7:0.59574467 8:0.42647058 9:0 10:0.7241379 11:0.64077669 12:0.21839081 13:0.78125 14:0.74418604 15:0.2972973 16:0.69148934 17:0.88749999 18:0.26249999 19:0.42857143 20:0.72164947 21:0.63440859 22:0.58208954 23:0.76086956 24:0.70476192 25:0.43333334 26:0.5955056 27:0.64583331 28:0.16470589 29:0.43157893 30:0.48717949 31:0.083333336 32:0.35238096 33:0.5714286 34:0 35:0.65517241 36:0.61538464 37:0.15217391 38:0.56451613 39:0.41052631 40:0.051948052 41:0.26086956 42:0.47826087 43:0 44:0.33673468 45:0.60674155 46:0.31666666 47:0.52380955 48:0.35227272 49:0.375 50:0.5869565 51:0.58241761 52:0.34999999 53:0.67346936 54:0.80219781 55:0.55696201 56:0.40243903 57:0.33333334 58:0.83157897 59:0.75510204 60:0.41025642 61:0.84210527 62:0.70833331 63:0.27380952 64:0.52941179 65:0.265625 66:0.11320755 67:0.33673468 68:0.15463917 69:0.065789476 70:0.50588238 71:0.20833333 72:0.064516127 
2.282730892106277 0 0.04094351629801306 0 0 0 0 0 0 0 1:0.54545456 2:0.25510204 3:0.064516127 4:0.47777778 5:0.29126215 6:0.044943821 7:0.5106383 8:0.44117647 9:0.125 10:0.79310346 11:0.56310678 12:0.16091955 13:0.69791669 14:0.53488374 15:0.094594598 16:0.56382978 17:0.71249998 18:0.15000001 19:0.38095239 20:0.8041237 21:0.80645162 22:0.40298507 23:0.75 24:0.64761907 25:0.2 26:0.46067417 27:0.41666666 28:0.047058824 29:0.36842105 30:0.41025642 31:0.083333336 32:0.33333334 33:0.61538464 34:0 35:0.58620691 36:0.74358976 37:0 38:0.58064514 39:0.40000001 40:0 41:0.30434781 42:0.54347825 43:0 44:0.31632653 45:0.56179774 46:0.050000001 47:0.48809522 48:0.59090906 49:0.069444448 50:0.5869565 51:0.6813187 52:0.1375 53:0.62244898 54:0.67032969 55:0.62025315 56:0.53658539 57:0.15000001 58:0.76842105 59:0.69387758 60:0.20512821 61:0.70526314 62:0.66666669 63:0.20238096 64:0.66176468 65:0.375 66:0 67:0.53061223 68:0.28865978 69:0.078947365 70:0.72941178 71:0.29166666 72:0.053763442 
-0 0 0 0 0 0 0.7398875472668712 0 0 0 1:0.79545456 2:0.3877551 3:0.07526882 4:0.21111111 5:0.19417475 6:0.22471911 7:0.031914894 8:0.36764705 9:0.78571427 10:0.66666669 11:0.49514562 12:0.13793103 13:0.22916667 14:0.069767445 15:0.067567565 16:0.04255319 17:0.125 18:0.087499999 19:0.38095239 20:0.84536082 21:0.75268817 22:0.089552239 23:0.32608697 24:0.52380955 25:0.06666667 26:0.089887641 27:0.23958333 28:0.14117648 29:0.58947366 30:0.85897434 31:0.1388889 32:0.36190477 33:0.90109891 34:0.093023255 35:0.15517241 36:0.55128205 37:0.065217391 38:0.11290322 39:0.21052632 40:0.064935066 41:0.021739131 42:0.35869566 43:0.010869565 44:0.05102041 45:0.67415732 46:0.13333334 47:0.14285715 48:0.11363637 49:0.16666667 50:0.065217391 51:0.1978022 52:0.050000001 53:0.12244898 54:0.52747256 55:0.88607597 56:0.70731705 57:0.28333333 58:0.7368421 59:0.93877554 60:0.62820512 61:0.094736844 62:0.40625 63:0.6785714 64:0.64705884 65:0.546875 66:0.28301886 67:0.29591838 68:0.77319586 69:0.81578946 70:0.094117649 71:0.5625 72:0.76344085 
-0 0 0 0.2876073612761191 0 0 0 0 0.0008254217565144772 0 1:0.45454547 2:0.31632653 3:0.07526882 4:0.088888891 5:0.19417475 6:0.16853933 7:0.14893617 8:0.30882353 9:0.26785713 10:0.62068963 11:0.51456308 12:0.068965517 13:0.22916667 14:0.1744186 15:0.33783785 16:0.13829787 17:0.1125 18:0.1875 19:0.54761904 20:0.76288658 21:0.76344085 22:0.26865673 23:0.34782609 24:0.52380955 25:0.26666668 26:0.12359551 27:0.17708333 28:0 29:0.53684211 30:0.80769229 31:0.1388889 32:0.32380953 33:0.61538464 34:0.25581396 35:0.18965517 36:0.14102565 37:0 38:0.14516129 39:0.15789473 40:0.11688311 41:0.097826086 42:0.13043478 43:0.14130434 44:0.10204082 45:0.011235955 46:0 47:0.047619049 48:0.090909094 49:0.1388889 50:0.054347824 51:0.15384616 52:0.15000001 53:0.1122449 54:0.25274727 55:0.69620252 56:0.52439022 57:0.28333333 58:0.7157895 59:0.78571427 60:0.73076922 61:0.21052632 62:0.45833334 63:0.84523809 64:0.61764705 65:0.71875 66:0.28301886 67:0.44897959 68:0.86597937 69:0.61842108 70:0.22352941 71:0.63541669 72:0.58064514 
-0 0 0 0 0 0 0.329497675388723 0 0.5717322845062992 0 1:0.76136363 2:0.46938777 3:0.10752688 4:0.21111111 5:0.28155339 6:0.16853933 7:0.13829787 8:0.67647058 9:0.53571427 10:0.57471263 11:0.44660193 12:0.13793103 13:0.20833333 14:0.069767445 15:0.12162162 16:0.15957446 17:0.16249999 18:0.1375 19:0.36904761 20:0.73195875 21:0.63440859 22:0.17910448 23:0.34782609 24:0.4952381 25:0.18333334 26:0.14606741 27:0.26041666 28:0.22352941 29:0.76842105 30:0.78205127 31:0.1388889 32:0.4952381 33:0.90109891 34:0.20930232 35:0.36206895 36:0.55128205 37:0.086956523 38:0.19354838 39:0.25263157 40:0.1038961 41:0.2173913 42:0.53260869 43:0.10869565 44:0.34693879 45:0.83146065 46:0.15000001 47:0.10714286 48:0.11363637 49:0.20833333 50:0.086956523 51:0.20879121 52:0.15000001 53:0.26530612 54:0.53846157 55:0.72151899 56:0.53658539 57:0.2 58:0.60000002 59:0.73469388 60:0.43589744 61:0.17894737 62:0.44791666 63:0.5714286 64:0.82352942 65:0.796875 66:0.28301886 67:0.51020408 68:0.95876288 69:0.63157892 70:0.21176471 71:0.73958331 72:0.54838711 
-0 0 0 0 0 0 0 0 0.4120409775838356 0 1:0.78409094 2:0.48979592 3:0.10752688 4:0.22222222 5:0.30097088 6:0.19101124 7:0.11702128 8:0.7647059 9:0.58928573 10:0.57471263 11:0.44660193 12:0.13793103 13:0.1875 14:0.08139535 15:0.081081077 16:0.11702128 17:0.125 18:0.087499999 19:0.40476191 20:0.74226803 21:0.60215056 22:0.19402985 23:0.33695653 24:0.4952381 25:0.23333333 26:0.12359551 27:0.26041666 28:0.1882353 29:0.76842105 30:0.82051283 31:0.16666667 32:0.4952381 33:0.91208792 34:0.30232558 35:0.31034482 36:0.5 37:0.13043478 38:0.19354838 39:0.22105263 40:0.11688311 41:0.20652173 42:0.5 43:0.11956522 44:0.37755102 45:0.86516851 46:0.06666667 47:0.047619049 48:0.10227273 49:0.125 50:0.054347824 51:0.20879121 52:0.1375 53:0.25510204 54:0.51648355 55:0.75949365 56:0.5487805 57:0.2 58:0.61052632 59:0.73469388 60:0.42307693 61:0.17894737 62:0.42708334 63:0.5714286 64:0.80882353 65:0.796875 66:0.24528302 67:0.5 68:0.95876288 69:0.61842108 70:0.22352941 71:0.72916669 72:0.52688169 
-0 0 0 0 0 0 0 0 0.01329711201395832 0 1:0.71590906 2:0.35714287 3:0.010752688 4:0.24444444 5:0.31067961 6:0.19101124 7:0.10638298 8:0.67647058 9:0.51785713 10:0.58620691 11:0.48543689 12:0.068965517 13:0.26041666 14:0.18604651 15:0.040540539 16:0.13829787 17:0.1375 18:0.1 19:0.45238096 20:0.78350514 21:0.56989247 22:0.23880596 23:0.51086956 24:0.53333336 25:0.23333333 26:0.15730338 27:0.26041666 28:0.21176471 29:0.68421054 30:0.69230771 31:0.15277778 32:0.55238098 33:0.95604396 34:0.23255815 35:0.36206895 36:0.57692307 37:0.065217391 38:0.080645159 39:0.094736844 40:0.11688311 41:0.14130434 42:0.38043478 43:0.11956522 44:0.33673468 45:0.77528089 46:0.13333334 47:0.035714287 48:0.090909094 49:0.18055555 50:0.065217391 51:0.21978022 52:0.175 53:0.32653061 54:0.60439563 55:0.62025315 56:0.5 57:0.16666667 58:0.61052632 59:0.72448981 60:0.41025642 61:0.2 62:0.52083331 63:0.54761904 64:0.7647059 65:0.6875 66:0.20754717 67:0.5714286 68:0.91752577 69:0.59210527 70:0.22352941 71:0.6875 72:0.50537634 
-0 0 0 0 0 0 0 0.5652585163531684 0 0 1:0.78409094 2:0.48979592 3:0.13978495 4:0.21111111 5:0.27184466 6:0.16853933 7:0.11702128 8:0.70588237 9:0.5535714 10:0.57471263 11:0.44660193 12:0.13793103 13:0.19791667 14:0.08139535 15:0.12162162 16:0.11702128 17:0.1375 18:0.1125 19:0.40476191 20:0.7525773 21:0.61290324 22:0.19402985 23:0.33695653 24:0.4952381 25:0.25 26:0.13483146 27:0.26041666 28:0.2 29:0.76842105 30:0.80769229 31:0.15277778 32:0.50476193 33:0.8901099 34:0.30232558 35:0.3275862 36:0.5 37:0.10869565 38:0.17741935 39:0.24210526 40:0.11688311 41:0.19565217 42:0.53260869 43:0.13043478 44:0.37755102 45:0.87640452 46:0.1 47:0.05952381 48:0.11363637 49:0.16666667 50:0.043478262 51:0.1978022 52:0.125 53:0.32653061 54:0.60439563 55:0.75949365 56:0.5487805 57:0.2 58:0.60000002 59:0.73469388 60:0.42307693 61:0.17894737 62:0.39583334 63:0.44047618 64:0.80882353 65:0.796875 66:0.24528302 67:0.5 68:0.95876288 69:0.63157892 70:0.23529412 71:0.76041669 72:0.53763443 
-0 0 0 0 0 0 3.296338331906936 0 0 0 1:0.82954544 2:0.3877551 3:0.10752688 4:0.25555557 5:0.25242719 6:0.22471911 7:0.074468084 8:0.55882353 9:0.6964286 10:0.62068963 11:0.49514562 12:0.1724138 13:0.22916667 14:0.093023255 15:0.14864865 16:0.10638298 17:0.125 18:0.1125 19:0.44047618 20:0.83505154 21:0.62365592 22:0.20895523 23:0.46739131 24:0.50476193 25:0.2 26:0.14606741 27:0.22916667 28:0.21176471 29:0.66315788 30:0.76923078 31:0.15277778 32:0.45714286 33:0.93406594 34:0.1627907 35:0.31034482 36:0.61538464 37:0.10869565 38:0.14516129 39:0.22105263 40:0.14285715 41:0.13043478 42:0.47826087 43:0.076086953 44:0.23469388 45:0.80898875 46:0.18333334 47:0.095238097 48:0.13636364 49:0.25 50:0.076086953 51:0.18681319 52:0.087499999 53:0.24489796 54:0.52747256 55:0.83544302 56:0.63414633 57:0.21666667 58:0.7157895 59:0.84693879 60:0.48717949 61:0.15789473 62:0.45833334 63:0.60714287 64:0.60294116 65:0.546875 66:0.28301886 67:0.40816328 68:0.84536082 69:0.69736844 70:0.16470589 71:0.65625 72:0.65591395 
-0 0 0 0 0 0.1305325558173974 0 0 0 0 1:0.75 2:0.37755102 3:0.13978495 4:0.23333333 5:0.2038835 6:0.17977528 7:0.095744684 8:0.36764705 9:0.64285713 10:0.54022986 11:0.50485438 12:0.13793103 13:0.21875 14:0.1627907 15:0.14864865 16:0.12765957 17:0.175 18:0.1 19:0.41666666 20:0.78350514 21:0.65591395 22:0.23880596 23:0.42391303 24:0.58095241 25:0.23333333 26:0.17977528 27:0.28125 28:0.15294118 29:0.63157892 30:0.83333331 31:0.1388889 32:0.40952381 33:0.91208792 34:0.25581396 35:0.22413793 36:0.47435898 37:0 38:0.096774191 39:0.16842106 40:0.11688311 41:0.065217391 42:0.20652173 43:0.097826086 44:0.14285715 45:0.51685393 46:0.1 47:0.05952381 48:0.11363637 49:0.19444445 50:0.076086953 51:0.2857143 52:0.125 53:0.20408164 54:0.51648355 55:0.55696201 56:0.57317072 57:0.30000001 58:0.64210528 59:0.85714287 60:0.57692307 61:0.16842106 62:0.4375 63:0.5714286 64:0.7647059 65:0.65625 66:0.3018868 67:0.5 68:0.81443298 69:0.84210527 70:0.16470589 71:0.53125 72:0.7096774 
-0 0 0 0 0 0 0 0 0.05588375115992981 0 1:0.80681819 2:0.41836736 3:0.10752688 4:0.26666668 5:0.22330096 6:0.15730338 7:0.08510638 8:0.32352942 9:0.58928573 10:0.49425286 11:0.43689319 12:0.12643678 13:0.21875 14:0.15116279 15:0.13513513 16:0.095744684 17:0.125 18:0.0625 19:0.4642857 20:0.81443298 21:0.63440859 22:0.20895523 23:0.42391303 24:0.56190479 25:0.13333334 26:0.12359551 27:0.28125 28:0.16470589 29:0.64210528 30:0.84615386 31:0.1388889 32:0.40952381 33:0.94505495 34:0.18604651 35:0.22413793 36:0.52564102 37:0.10869565 38:0.080645159 39:0.14736842 40:0.15584415 41:0.086956523 42:0.26086956 43:0.14130434 44:0.14285715 45:0.65168542 46:0.1 47:0.05952381 48:0.11363637 49:0.18055555 50:0.076086953 51:0.27472529 52:0.075000003 53:0.17346939 54:0.48351648 55:0.59493673 56:0.58536583 57:0.26666668 58:0.64210528 59:0.85714287 60:0.55128205 61:0.11578947 62:0.40625 63:0.53571427 64:0.72058821 65:0.640625 66:0.32075471 67:0.47959185 68:0.82474226 69:0.86842108 70:0.14117648 71:0.5625 72:0.79569894 
-0 0 1.440268219241372 0 0 0 0 0.5484559495202487 0 0 1:0.5 2:0.20408164 3:0.15053764 4:0.27777779 5:0.37864077 6:0.20224719 7:0.19148937 8:0.57352942 9:0.5535714 10:0.86206895 11:0.49514562 12:0.49425286 13:0.625 14:0.67441863 15:0.54054052 16:0.53191489 17:0.8125 18:0.63749999 19:0.48809522 20:0.97938144 21:0.88172042 22:0.52238804 23:0.70652175 24:0.7904762 25:0.68333334 26:0.34831461 27:0.71875 28:0.12941177 29:0.31578946 30:0.35897437 31:0.069444448 32:0.2 33:0.50549453 34:0.20930232 35:0.20689656 36:0.48717949 37:0.34782609 38:0.69354838 39:0.35789475 40:0.1038961 41:0.22826087 42:0.48913044 43:0.14130434 44:0.15306123 45:0.56179774 46:0.41666666 47:0.69047618 48:0.65909094 49:0.41666666 50:0.5 51:0.74725276 52:0.46250001 53:0.36734694 54:0.75824177 55:0.89873415 56:0.64634144 57:0.61666667 58:0.95789474 59:0.95918369 60:0.57692307 61:0.65263158 62:0.8125 63:0.75 64:0.70588237 65:0.375 66:0.13207547 67:0.29591838 68:0.44329897 69:0.30263159 70:0.17647059 71:0.52083331 72:0.36559141 
-1.738180982309204 0 0 0.4449955535184537 0 0.03867871405559454 0 0.003781143053677269 0 0 1:0.69318181 2:0.24489796 3:0 4:0.24444444 5:0.14563107 6:0 7:0.19148937 8:0.14705883 9:0 10:0.54022986 11:0.26213592 12:0.11494253 13:0.22916667 14:0.011627907 15:0.027027028 16:0.13829787 17:0.1 18:0.0125 19:0.75 20:0.89690721 21:0.65591395 22:0.37313432 23:0.51086956 24:0.47619048 25:0.18333334 26:0.11235955 27:0.20833333 28:0.17647059 29:0.60000002 30:0.67948717 31:0.125 32:0.51428574 33:0.84615386 34:0 35:0.31034482 36:0.51282054 37:0 38:0.11290322 39:0.16842106 40:0 41:0.17391305 42:0.38043478 43:0 44:0.30612245 45:0.76404494 46:0 47:0.035714287 48:0.090909094 49:0 50:0.10869565 51:0.1978022 52:0 53:0.19387755 54:0.3956044 55:0.50632912 56:0.2682927 57:0.016666668 58:0.75789475 59:0.62244898 60:0.2820513 61:0.55789477 62:0.64583331 63:0.48809522 64:0.58823532 65:0.390625 66:0 67:0.68367344 68:0.72164947 69:0.32894737 70:0.51764709 71:0.79166669 72:0.53763443 
-0 0 0 0 0.7183183097174576 0 0 0 0 0 1:0.55681819 2:0.24489796 3:0.10752688 4:0.30000001 5:0.36893204 6:0.19101124 7:0.21276596 8:0.69117647 9:0.4642857 10:0.83908045 11:0.45631069 12:0.36781609 13:0.36458334 14:0.39534885 15:0.2972973 16:0.5 17:0.6875 18:0.38749999 19:0.41666666 20:0.82474226 21:0.76344085 22:0.44776121 23:0.64130437 24:0.76190478 25:0.64999998 26:0.33707866 27:0.65625 28:0.15294118 29:0.52631581 30:0.53846157 31:0.15277778 32:0.32380953 33:0.52747256 34:0.3255814 35:0.20689656 36:0.55128205 37:0.26086956 38:0.56451613 39:0.30526316 40:0.14285715 41:0.20652173 42:0.40217391 43:0.076086953 44:0.17346939 45:0.57303369 46:0.26666668 47:0.41666666 48:0.46590909 49:0.56944442 50:0.43478259 51:0.74725276 52:0.4375 53:0.37755102 54:0.7912088 55:0.6708861 56:0.39024389 57:0.31666666 58:0.87368423 59:0.86734694 60:0.38461539 61:0.66315788 62:0.79166669 63:0.48809522 64:0.5 65:0.25 66:0.11320755 67:0.42857143 68:0.45360824 69:0.27631578 70:0.29411766 71:0.55208331 72:0.34408602 
-0 1.152522726635193 0 0.0833715857053508 2.788746067475777 0.8578150276112702 0 0 0.06433776494886176 3.200972402428082 1:0.36363637 2:0.12244898 3:0 4:0.30000001 5:0.33009708 6:0.15730338 7:0.23404256 8:0.70588237 9:0.6785714 10:0.94252872 11:0.60194176 12:0.21839081 13:0.75 14:0.87209302 15:0.64864862 16:0.56382978 17:0.89999998 18:0.66250002 19:0.4642857 20:0.87628865 21:0.88172042 22:0.47761193 23:0.89130437 24:1 25:0.66666669 26:0.42696628 27:0.80208331 28:0.094117649 29:0.33684212 30:0.41025642 31:0.11111111 32:0.23809524 33:0.29670331 34:0 35:0.15517241 36:0.3974359 37:0.13043478 38:0.54838711 39:0.40000001 40:0.051948052 41:0.17391305 42:0.25 43:0.10869565 44:0.081632651 45:0.24719101 46:0.43333334 47:0.88095236 48:0.80681819 49:0.29166666 50:0.70652175 51:0.92307693 52:0.36250001 53:0.31632653 54:0.70329672 55:0.96202534 56:0.65853661 57:0.28333333 58:0.92631578 59:0.87755102 60:0.43589744 61:0.66315788 62:0.86458331 63:0.6785714 64:0.55882353 65:0.234375 66:0 67:0.25510204 68:0.19587629 69:0.13157895 70:0.23529412 71:0.39583334 72:0.29032257 
-5.930251116916216 0 0.2766705179860437 0 1.298886733553442 0 3.675159404622914 0.06066870666945813 0 0 1:0.31818181 2:0.1122449 3:0 4:0.077777781 5:0.26213592 6:0.11235955 7:0.28723404 8:0.66176468 9:0.35714287 10:0.66666669 11:0.25242719 12:0.080459774 13:0.23958333 14:0.25581396 15:0.21621622 16:0.15957446 17:0.46250001 18:0.26249999 19:0.78571427 20:0.87628865 21:0.67741936 22:0.35820895 23:0.64130437 24:0.59047621 25:0.15000001 26:0.41573033 27:0.63541669 28:0.17647059 29:0.60000002 30:0.6025641 31:0.15277778 32:0.44761905 33:0.71428573 34:0 35:0.48275861 36:0.74358976 37:0.23913044 38:0.59677422 39:0.34736842 40:0.12987013 41:0.35869566 42:0.48913044 43:0.021739131 44:0.22448979 45:0.55056179 46:0.40000001 47:0.4642857 48:0.34090909 49:0.22222222 50:0.43478259 51:0.45054945 52:0.025 53:0.29591838 54:0.48351648 55:0.65822786 56:0.40243903 57:0.18333334 58:0.89473683 59:0.64285713 60:0.20512821 61:0.61052632 62:0.625 63:0.34523809 64:0.29411766 65:0.15625 66:0 67:0.46938777 68:0.45360824 69:0.13157895 70:0.64705884 71:0.73958331 72:0.31182796 
-0 0 0.4280064528462786 0 0 0 0 0 0 0 1:0.61363637 2:0.23469388 3:0 4:0.16666667 5:0.13592233 6:0 7:0.23404256 8:0.22058824 9:0.071428575 10:0.62068963 11:0.32038835 12:0.32183909 13:0.21875 14:0.093023255 15:0.21621622 16:0.15957446 17:0.1 18:0.025 19:0.55952382 20:0.83505154 21:0.61290324 22:0.29850745 23:0.47826087 24:0.45714286 25:0.16666667 26:0.11235955 27:0.1875 28:0.12941177 29:0.68421054 30:0.70512819 31:0.125 32:0.53333336 33:0.85714287 34:0.093023255 35:0.31034482 36:0.57692307 37:0 38:0.14516129 39:0.2 40:0.038961038 41:0.17391305 42:0.43478259 43:0.076086953 44:0.27551019 45:0.73033708 46:0 47:0.023809524 48:0.10227273 49:0.22222222 50:0.086956523 51:0.23076923 52:0.22499999 53:0.31632653 54:0.5714286 55:0.58227849 56:0.34146342 57:0.1 58:0.75789475 59:0.67346936 60:0.30769232 61:0.44210526 62:0.53125 63:0.35714287 64:0.67647058 65:0.515625 66:0.056603774 67:0.62244898 68:0.81443298 69:0.42105263 70:0.43529412 71:0.83333331 72:0.47311828 
-2.238344180171165 0 2.752208076803169 0.6332277284270569 1.137923573156945 0 0 0.143862644651345 0 0 1:0.47727272 2:0.14285715 3:0 4:0.16666667 5:0.26213592 6:0.12359551 7:0.22340426 8:0.33823529 9:0.17857143 10:0.73563218 11:0.33009708 12:0.42528737 13:0.26041666 14:0.1744186 15:0.21621622 16:0.39361703 17:0.25 18:0.050000001 19:0.53571427 20:0.86597937 21:0.68817204 22:0.28358209 23:0.54347825 24:0.46666667 25:0.56666666 26:0.26966292 27:0.19791667 28:0.30588236 29:0.62105262 30:0.61538464 31:0.19444445 32:0.45714286 33:0.6813187 34:0.44186047 35:0.41379312 36:0.61538464 37:0.26086956 38:0.54838711 39:0.45263159 40:0.19480519 41:0.29347825 42:0.63043481 43:0.22826087 44:0.31632653 45:0.69662923 46:0.30000001 47:0.29761904 48:0.30681819 49:0.45833334 50:0.35869566 51:0.38461539 52:0.55000001 53:0.5714286 54:0.62637365 55:0.58227849 56:0.36585367 57:0.083333336 58:0.76842105 59:0.65306121 60:0.21794872 61:0.45263159 62:0.5625 63:0.32142857 64:0.64705884 65:0.25 66:0 67:0.40816328 68:0.53608245 69:0.22368421 70:0.41176471 71:0.61458331 72:0.26881722 
-2.330415033710997 2.284307175871939 2.851245632334831 2.912086814021916 0.05411299446155 0 0 2.24426705158496 0 0 1:0.31818181 2:0.14285715 3:0.13978495 4:0.14444445 5:0.32038835 6:0.17977528 7:0.28723404 8:0.60294116 9:0.39285713 10:0.85057473 11:0.42718446 12:0.47126436 13:0.375 14:0.40697673 15:0.37837839 16:0.32978722 17:0.33750001 18:0.175 19:0.5 20:0.85567009 21:0.74193549 22:0.38805971 23:0.65217394 24:0.61904764 25:0.56666666 26:0.29213482 27:0.32291666 28:0.3882353 29:0.62105262 30:0.5 31:0.27777779 32:0.35238096 33:0.53846157 34:0.46511629 35:0.41379312 36:0.64102566 37:0.34782609 38:0.53225809 39:0.35789475 40:0.18181819 41:0.32608697 42:0.48913044 43:0.31521741 44:0.33673468 45:0.60674155 46:0.33333334 47:0.41666666 48:0.25 49:0.52777779 50:0.47826087 51:0.5714286 52:0.48750001 53:0.48979592 54:0.69230771 55:0.59493673 56:0.28048781 57:0.31666666 58:0.75789475 59:0.70408165 60:0.34615386 61:0.49473685 62:0.58333331 63:0.33333334 64:0.5 65:0.15625 66:0.018867925 67:0.39795917 68:0.39175257 69:0.17105263 70:0.41176471 71:0.54166669 72:0.29032257 
-0 0 0 0 0 0 0 0.06047297920192478 0 0 1:0.69318181 2:0.27551019 3:0 4:0.18888889 5:0.15533981 6:0.044943821 7:0.20212767 8:0.13235295 9:0.035714287 10:0.64367819 11:0.31067961 12:0.10344828 13:0.21875 14:0.046511628 15:0.067567565 16:0.20212767 17:0.1125 18:0 19:0.59523809 20:0.82474226 21:0.60215056 22:0.28358209 23:0.54347825 24:0.50476193 25:0.18333334 26:0.12359551 27:0.19791667 28:0.24705882 29:0.7157895 30:0.58974361 31:0.18055555 32:0.61904764 33:0.85714287 34:0.11627907 35:0.39655173 36:0.5 37:0 38:0.096774191 39:0.12631579 40:0.038961038 41:0.16304348 42:0.29347825 43:0.065217391 44:0.32653061 45:0.76404494 46:0 47:0.011904762 48:0.10227273 49:0.083333336 50:0.086956523 51:0.17582418 52:0.16249999 53:0.21428572 54:0.38461539 55:0.55696201 56:0.34146342 57:0.083333336 58:0.80000001 59:0.67346936 60:0.26923078 61:0.47368422 62:0.57291669 63:0.51190478 64:0.60294116 65:0.359375 66:0.056603774 67:0.62244898 68:0.74226803 69:0.36842105 70:0.48235294 71:0.8125 72:0.44086021 
-0 0 0 0.05929238103147024 0 0 0 0 0 0 1:0.57954544 2:0.26530612 3:0.043010753 4:0.16666667 5:0.14563107 6:0.02247191 7:0.12765957 8:0.2647059 9:0.16071428 10:0.67816091 11:0.407767 12:0.26436782 13:0.25 14:0.12790698 15:0.040540539 16:0.095744684 17:0.075000003 18:0.025 19:0.48809522 20:0.77319586 21:0.62365592 22:0.19402985 23:0.40217391 24:0.47619048 25:0.16666667 26:0.078651689 27:0.15625 28:0.17647059 29:0.69473684 30:0.67948717 31:0.11111111 32:0.51428574 33:0.83516484 34:0.13953489 35:0.25862068 36:0.41025642 37:0 38:0.096774191 39:0.23157895 40:0.11688311 41:0.19565217 42:0.42391303 43:0.16304348 44:0.33673468 45:0.76404494 46:0.050000001 47:0.047619049 48:0.18181819 49:0.22222222 50:0.14130434 51:0.23076923 52:0.33750001 53:0.34693879 54:0.50549453 55:0.64556962 56:0.43902439 57:0.13333334 58:0.75789475 59:0.74489796 60:0.35897437 61:0.36842105 62:0.47916666 63:0.4642857 64:0.70588237 65:0.53125 66:0.1509434 67:0.5714286 68:0.8041237 69:0.5 70:0.41176471 71:0.8125 72:0.48387095 
-0 0 0 0 0 0 0 0 0.3391505709493105 6.430781734432357 1:0.51136363 2:0.25510204 3:0.11827957 4:0.25555557 5:0.37864077 6:0.28089887 7:0.17021276 8:0.55882353 9:0.6785714 10:0.77011496 11:0.45631069 12:0.35632184 13:0.55208331 14:0.6511628 15:0.6081081 16:0.34042552 17:0.44999999 18:0.41249999 19:0.51190478 20:0.83505154 21:0.75268817 22:0.52238804 23:0.71739131 24:0.7904762 25:0.69999999 26:0.30337077 27:0.45833334 28:0.23529412 29:0.43157893 30:0.46153846 31:0.125 32:0.21904762 33:0.52747256 34:0.37209302 35:0.18965517 36:0.56410259 37:0.28260869 38:0.58064514 39:0.43157893 40:0.18181819 41:0.19565217 42:0.39130434 43:0.20652173 44:0.12244898 45:0.43820226 46:0.73333335 47:0.70238096 48:0.44318181 49:0.4861111 50:0.42391303 51:0.52747256 52:0.47499999 53:0.26530612 54:0.54945058 55:0.83544302 56:0.64634144 57:0.25 58:0.86315787 59:0.91836733 60:0.6025641 61:0.53684211 62:0.75 63:0.72619045 64:0.57352942 65:0.3125 66:0.13207547 67:0.39795917 68:0.4742268 69:0.31578946 70:0.29411766 71:0.57291669 72:0.61290324 
-0 0 0 0 0 0 0 0.701748123738738 0 0 1:0.67045456 2:0.2857143 3:0.096774191 4:0.17777778 5:0.21359223 6:0.12359551 7:0.095744684 8:0.13235295 9:0.10714286 10:0.66666669 11:0.34951457 12:0.24137931 13:0.19791667 14:0.058139537 15:0.13513513 16:0.063829787 17:0.0625 18:0.050000001 19:0.54761904 20:0.78350514 21:0.61290324 22:0.20895523 23:0.42391303 24:0.43809524 25:0.13333334 26:0.067415729 27:0.15625 28:0.24705882 29:0.7368421 30:0.71794873 31:0.15277778 32:0.52380955 33:0.83516484 34:0.046511628 35:0.27586207 36:0.52564102 37:0 38:0.17741935 39:0.12631579 40:0.038961038 41:0.20652173 42:0.44565219 43:0.032608695 44:0.29591838 45:0.74157304 46:0 47:0.035714287 48:0.13636364 49:0.19444445 50:0.13043478 51:0.21978022 52:0.16249999 53:0.22448979 54:0.40659341 55:0.62025315 56:0.4512195 57:0.21666667 58:0.77894735 59:0.75510204 60:0.35897437 61:0.42105263 62:0.59375 63:0.55952382 64:0.70588237 65:0.4375 66:0.2264151 67:0.62244898 68:0.7525773 69:0.40789473 70:0.44705883 71:0.79166669 72:0.47311828 
-0 1.349774245376574 1.071891468804591 1.070868669799024 0 0.1800442247474014 1.006220755725868 1.027854001075853 0.1520501891191269 2.828655028406666 1:0.30681819 2:0.1632653 3:0.17204301 4:0.15555556 5:0.33009708 6:0.39325842 7:0.11702128 8:0.38235295 9:0.71428573 10:0.81609195 11:0.7669903 12:1 13:0.5 14:0.67441863 15:1 16:0.37234041 17:0.55000001 18:0.57499999 19:0.66666669 20:0.68041235 21:0.36559141 22:0.44776121 23:0.47826087 24:0.36190477 25:0.55000001 26:0.22471911 27:0.20833333 28:0.10588235 29:0.15789473 30:0 31:0.013888889 32:0 33:0.021978023 34:0 35:0 36:0.12820514 37:0.15217391 38:0.25806451 39:0.073684208 40:0.077922076 41:0 42:0.032608695 43:0.021739131 44:0.010204081 45:0.11235955 46:0.55000001 47:0.52380955 48:0.38636363 49:0.44444445 50:0.40217391 51:0.50549453 52:0.32499999 53:0.19387755 54:0.2857143 55:0.98734176 56:0.80487806 57:0.89999998 58:0.82105261 59:0.96938777 60:1 61:0.56842107 62:0.69791669 63:0.91666669 64:0.38235295 65:0.328125 66:0.43396226 67:0.35714287 68:0.50515461 69:0.38157895 70:0.17647059 71:0.4375 72:0.60215056 
-0.9518738266135555 0 0 0 0 0 0 0 0 0 1:0.51136363 2:0.1632653 3:0 4:0.17777778 5:0.31067961 6:0.17977528 7:0.17021276 8:0.35294119 9:0.35714287 10:0.57471263 11:0.39805827 12:0.068965517 13:0.39583334 14:0.38372093 15:0.25675675 16:0.41489363 17:0.36250001 18:0.1375 19:0.64285713 20:0.79381442 21:0.80645162 22:0.34328359 23:0.54347825 24:0.58095241 25:0.16666667 26:0.21348314 27:0.33333334 28:0.23529412 29:0.49473685 30:0.5 31:0.125 32:0.31428573 33:0.62637365 34:0 35:0.18965517 36:0.64102566 37:0.41304347 38:0.40322581 39:0.33684212 40:0.14285715 41:0.26086956 42:0.44565219 43:0 44:0.15306123 45:0.47191012 46:0.33333334 47:0.22619048 48:0.30681819 49:0.22222222 50:0.44565219 51:0.46153846 52:0.26249999 53:0.33673468 54:0.35164836 55:0.56962025 56:0.29268292 57:0.28333333 58:0.90526319 59:0.73469388 60:0.32051283 61:0.56842107 62:0.66666669 63:0.53571427 64:0.55882353 65:0.3125 66:0 67:0.53061223 68:0.49484536 69:0.30263159 70:0.50588238 71:0.64583331 72:0.54838711 
-0 0 0 0 0 0 1.500934546981276 0 0 0.4124041103059214 1:0.51136363 2:0.23469388 3:0 4:0.2 5:0.33980581 6:0.23595506 7:0.25531915 8:0.4852941 9:0.60714287 10:0.68965518 11:0.39805827 12:0.22988506 13:0.33333334 14:0.39534885 15:0.4054054 16:0.31914893 17:0.41249999 18:0.40000001 19:0.54761904 20:0.83505154 21:0.82795697 22:0.37313432 23:0.59782606 24:0.6761905 25:0.23333333 26:0.23595506 27:0.34375 28:0.21176471 29:0.47368422 30:0.48717949 31:0.16666667 32:0.29523811 33:0.60439563 34:0.13953489 35:0.25862068 36:0.62820512 37:0.17391305 38:0.58064514 39:0.45263159 40:0.064935066 41:0.27173913 42:0.47826087 43:0.086956523 44:0.19387755 45:0.55056179 46:0.56666666 47:0.53571427 48:0.32954547 49:0.47222221 50:0.47826087 51:0.45054945 52:0.32499999 53:0.33673468 54:0.42857143 55:0.68354428 56:0.42682928 57:0.31666666 58:0.87368423 59:0.81632656 60:0.5 61:0.50526315 62:0.73958331 63:0.73809522 64:0.54411763 65:0.296875 66:0.20754717 67:0.53061223 68:0.52577317 69:0.32894737 70:0.43529412 71:0.64583331 72:0.48387095 
-0 0 0 0 0 0 1.84052713832406 0 0 0 1:0.55681819 2:0.12244898 3:0 4:0.16666667 5:0.3883495 6:0.20224719 7:0.21276596 8:0.54411763 9:0.2857143 10:0.73563218 11:0.35922331 12:0.1724138 13:0.45833334 14:0.37209302 15:0.3108108 16:0.40425533 17:0.34999999 18:0.175 19:0.4642857 20:0.82474226 21:0.7096774 22:0.3283582 23:0.61956519 24:0.69523811 25:0.66666669 26:0.29213482 27:0.32291666 28:0.15294118 29:0.50526315 30:0.51282054 31:0.18055555 32:0.34285715 33:0.74725276 34:0.25581396 35:0.31034482 36:0.6025641 37:0.15217391 38:0.62903225 39:0.46315789 40:0.14285715 41:0.28260869 42:0.43478259 43:0.13043478 44:0.25510204 45:0.68539327 46:0.26666668 47:0.47619048 48:0.55681819 49:0.41666666 50:0.38043478 51:0.42857143 52:0.52499998 53:0.32653061 54:0.60439563 55:0.87341774 56:0.56097561 57:0.44999999 58:0.92631578 59:0.82653064 60:0.37179488 61:0.55789477 62:0.64583331 63:0.48809522 64:0.67647058 65:0.296875 66:0.056603774 67:0.43877551 68:0.56701028 69:0.31578946 70:0.31764707 71:0.73958331 72:0.44086021 
-0 0 0 0 0 0 1.322794890631575 0 0 0 1:0.35227272 2:0.13265306 3:0 4:0.14444445 5:0.31067961 6:0.25842696 7:0.26595744 8:0.55882353 9:0.625 10:0.7241379 11:0.43689319 12:0.045977011 13:0.59375 14:0.56976742 15:0.35135135 16:0.31914893 17:0.47499999 18:0.36250001 19:0.66666669 20:0.7525773 21:0.67741936 22:0.37313432 23:0.64130437 24:0.75238097 25:0.51666665 26:0.29213482 27:0.45833334 28:0 29:0.49473685 30:0.6025641 31:0.125 32:0.2857143 33:0.61538464 34:0.37209302 35:0.15517241 36:0.6025641 37:0.19565217 38:0.51612902 39:0.42105263 40:0.1038961 41:0.2173913 42:0.47826087 43:0.19565217 44:0.1632653 45:0.52808988 46:0.36666667 47:0.51190478 48:0.46590909 49:0.29166666 50:0.42391303 51:0.42857143 52:0.41249999 53:0.23469388 54:0.37362638 55:0.84810126 56:0.56097561 57:0.2 58:0.94736844 59:0.85714287 60:0.51282054 61:0.55789477 62:0.71875 63:0.65476191 64:0.47058824 65:0.203125 66:0 67:0.36734694 68:0.42268041 69:0.31578946 70:0.36470589 71:0.64583331 72:0.50537634 
-0 0 0 0 0 0 0 0 0 3.520399084333214 1:0.54545456 2:0.22448979 3:0 4:0.2888889 5:0.36893204 6:0.17977528 7:0.14893617 8:0.5 9:0.66071427 10:0.78160918 11:0.57281554 12:0.18390805 13:0.40625 14:0.62790698 15:0.45945945 16:0.30851063 17:0.58749998 18:0.46250001 19:0.5 20:0.82474226 21:0.84946239 22:0.46268657 23:0.59782606 24:0.78095239 25:0.73333335 26:0.30337077 27:0.59375 28:0.094117649 29:0.45263159 30:0.48717949 31:0.15277778 32:0.24761905 33:0.48351648 34:0.13953489 35:0.068965517 36:0.3974359 37:0.10869565 38:0.56451613 39:0.49473685 40:0.038961038 41:0.20652173 42:0.46739131 43:0 44:0.091836736 45:0.44943821 46:0.30000001 47:0.45238096 48:0.40909091 49:0.54166669 50:0.46739131 51:0.64835167 52:0.5625 53:0.27551019 54:0.5714286 55:0.63291138 56:0.5 57:0.18333334 58:0.85263157 59:0.93877554 60:0.55128205 61:0.57894737 62:0.84375 63:0.75 64:0.57352942 65:0.328125 66:0.11320755 67:0.39795917 68:0.40206185 69:0.32894737 70:0.17647059 71:0.48958334 72:0.49462366 
-0 0 0 0 0 0 3.621331288719303 0 0 0 1:0.44318181 2:0.20408164 3:0.096774191 4:0.18888889 5:0.42718446 6:0.32584271 7:0.22340426 8:0.58823532 9:0.6785714 10:0.75862068 11:0.49514562 12:0.20689656 13:0.45833334 14:0.45348838 15:0.56756759 16:0.40425533 17:0.625 18:0.48750001 19:0.39285713 20:0.77319586 21:0.79569894 22:0.41791046 23:0.5 24:0.70476192 25:0.71666664 26:0.29213482 27:0.45833334 28:0.2 29:0.43157893 30:0.46153846 31:0.055555556 32:0.21904762 33:0.59340662 34:0.1627907 35:0.12068965 36:0.61538464 37:0 38:0.56451613 39:0.49473685 40:0.11688311 41:0.2173913 42:0.45652175 43:0.14130434 44:0.12244898 45:0.51685393 46:0.26666668 47:0.45238096 48:0.51136363 49:0.43055555 50:0.35869566 51:0.54945058 52:0.5 53:0.25510204 54:0.63736266 55:0.83544302 56:0.63414633 57:0.61666667 58:0.90526319 59:0.9285714 60:0.62820512 61:0.60000002 62:0.80208331 63:0.78571427 64:0.55882353 65:0.375 66:0.2264151 67:0.35714287 68:0.45360824 69:0.36842105 70:0.17647059 71:0.41666666 72:0.51612902 
-0 0 0 0 0 0 1.346621812661278 0 0 0 1:0.42045453 2:0.17346939 3:0 4:0.18888889 5:0.35922331 6:0.20224719 7:0.21276596 8:0.54411763 9:0.5714286 10:0.75862068 11:0.3883495 12:0.32183909 13:0.47916666 14:0.54651165 15:0.43243244 16:0.45744681 17:0.58749998 18:0.5 19:0.53571427 20:0.91752577 21:0.79569894 22:0.53731346 23:0.72826087 24:0.77142859 25:0.56666666 26:0.32584271 27:0.5625 28:0.16470589 29:0.40000001 30:0.44871795 31:0.055555556 32:0.20952381 33:0.53846157 34:0.18604651 35:0.1724138 36:0.64102566 37:0.28260869 38:0.64516127 39:0.52631581 40:0.1038961 41:0.29347825 42:0.51086956 43:0.076086953 44:0.1122449 45:0.58426964 46:0.43333334 47:0.61904764 48:0.47727272 49:0.6111111 50:0.65217394 51:0.71428573 52:0.46250001 53:0.31632653 54:0.45054945 55:0.73417723 56:0.52439022 57:0.38333333 58:0.83157897 59:0.84693879 60:0.47435898 61:0.61052632 62:0.71875 63:0.58333331 64:0.69117647 65:0.390625 66:0.1509434 67:0.47959185 68:0.50515461 69:0.30263159 70:0.24705882 71:0.45833334 72:0.53763443 
-0 0 0 0 0 0 0 0 0 6.542921548273722 1:0.59090906 2:0.21428572 3:0.043010753 4:0.2 5:0.28155339 6:0.20224719 7:0.11702128 8:0.45588234 9:0.5535714 10:0.78160918 11:0.54368931 12:0.45977011 13:0.53125 14:0.39534885 15:0.52702701 16:0.5 17:0.60000002 18:0.32499999 19:0.34523809 20:0.79381442 21:0.79569894 22:0.44776121 23:0.54347825 24:0.60952383 25:0.55000001 26:0.34831461 27:0.3125 28:0.17647059 29:0.52631581 30:0.52564102 31:0.055555556 32:0.29523811 33:0.63736266 34:0.046511628 35:0.18965517 36:0.6025641 37:0.065217391 38:0.38709676 39:0.37894738 40:0.14285715 41:0.22826087 42:0.52173913 43:0.086956523 44:0.1632653 45:0.6179775 46:0.083333336 47:0.30952382 48:0.39772728 49:0.5138889 50:0.39130434 51:0.45054945 52:0.48750001 53:0.35714287 54:0.53846157 55:0.69620252 56:0.5487805 57:0.68333334 58:0.87368423 59:0.8877551 60:0.51282054 61:0.57894737 62:0.70833331 63:0.63095236 64:0.66176468 65:0.375 66:0.20754717 67:0.36734694 68:0.57731956 69:0.47368422 70:0.22352941 71:0.53125 72:0.51612902 
-0 0 0 0 0 0 1.080624824627935 0 0 0 1:0.45454547 2:0.22448979 3:0.064516127 4:0.32222223 5:0.39805827 6:0.26966292 7:0.17021276 8:0.5 9:0.5714286 10:0.67816091 11:0.35922331 12:0.31034482 13:0.39583334 14:0.47674417 15:0.32432431 16:0.31914893 17:0.42500001 18:0.26249999 19:0.5714286 20:0.85567009 21:0.8172043 22:0.34328359 23:0.59782606 24:0.78095239 25:0.73333335 26:0.32584271 27:0.4375 28:0.1882353 29:0.52631581 30:0.55128205 31:0.22222222 32:0.23809524 33:0.54945058 34:0.37209302 35:0.12068965 36:0.48717949 37:0.19565217 38:0.5 39:0.47368422 40:0.15584415 41:0.2173913 42:0.48913044 43:0.18478261 44:0.13265306 45:0.46067417 46:0.2 47:0.39285713 48:0.42045453 49:0.3888889 50:0.40217391 51:0.51648355 52:0.5625 53:0.33673468 54:0.51648355 55:0.92405063 56:0.67073172 57:0.26666668 58:0.76842105 59:0.81632656 60:0.44871795 61:0.61052632 62:0.73958331 63:0.69047618 64:0.57352942 65:0.328125 66:0.056603774 67:0.3877551 68:0.56701028 69:0.38157895 70:0.24705882 71:0.59375 72:0.55913979 
-0 0 0 0 0 0 1.855703390721054 0 0 0 1:0.42045453 2:0.17346939 3:0.096774191 4:0.30000001 5:0.43689319 6:0.19101124 7:0.17021276 8:0.5 9:0.42857143 10:0.82758623 11:0.41747573 12:0.29885057 13:0.48958334 14:0.58139533 15:0.43243244 16:0.31914893 17:0.44999999 18:0.33750001 19:0.4642857 20:0.86597937 21:0.77419353 22:0.58208954 23:0.67391306 24:0.78095239 25:0.69999999 26:0.30337077 27:0.46875 28:0.10588235 29:0.43157893 30:0.44871795 31:0.15277778 32:0.27619049 33:0.5714286 34:0.20930232 35:0.29310346 36:0.64102566 37:0.2173913 38:0.77419353 39:0.49473685 40:0.12987013 41:0.26086956 42:0.5 43:0.065217391 44:0.14285715 45:0.60674155 46:0.48333332 47:0.65476191 48:0.51136363 49:0.5138889 50:0.40217391 51:0.49450549 52:0.64999998 53:0.36734694 54:0.62637365 55:0.96202534 56:0.60975611 57:0.34999999 58:0.78947371 59:0.81632656 60:0.43589744 61:0.58947366 62:0.79166669 63:0.63095236 64:0.55882353 65:0.25 66:0.13207547 67:0.37755102 68:0.48453608 69:0.25 70:0.24705882 71:0.57291669 72:0.37634408 
-0.3558469719552997 0 0 0 0 0 0 0 0 0 1:0.47727272 2:0.18367347 3:0 4:0.18888889 5:0.28155339 6:0.16853933 7:0.23404256 8:0.44117647 9:0.42857143 10:0.79310346 11:0.36893204 12:0.045977011 13:0.41666666 14:0.37209302 15:0.25675675 16:0.4893617 17:0.40000001 18:0.26249999 19:0.5 20:0.87628865 21:0.8172043 22:0.37313432 23:0.60869563 24:0.66666669 25:0.58333331 26:0.21348314 27:0.54166669 28:0.16470589 29:0.48421052 30:0.5 31:0.097222224 32:0.31428573 33:0.65934068 34:0.23255815 35:0.25862068 36:0.6025641 37:0.15217391 38:0.53225809 39:0.38947368 40:0.14285715 41:0.30434781 42:0.47826087 43:0.086956523 44:0.19387755 45:0.53932583 46:0.1 47:0.23809524 48:0.36363637 49:0.44444445 50:0.34782609 51:0.37362638 52:0.44999999 53:0.29591838 54:0.45054945 55:0.48101267 56:0.28048781 57:0.23333333 58:0.83157897 59:0.71428573 60:0.24358974 61:0.68421054 62:0.70833331 63:0.54761904 64:0.64705884 65:0.28125 66:0.018867925 67:0.54081631 68:0.45360824 69:0.23684211 70:0.45882353 71:0.6875 72:0.44086021 
-0.7198509651329232 0.7487675991082431 0.6443258291164307 0 1.18073373061751 0.5892259754966944 0 0.1200285958553322 0.3456087938089045 3.429914325281377 1:0.34090909 2:0.12244898 3:0.07526882 4:0.22222222 5:0.24271844 6:0.11235955 7:0.15957446 8:0.42647058 9:0.35714287 10:0.73563218 11:0.39805827 12:0.47126436 13:0.65625 14:0.36046511 15:0.33783785 16:0.45744681 17:0.44999999 18:0.25 19:0.6785714 20:0.84536082 21:0.62365592 22:0.50746268 23:0.88043481 24:0.6857143 25:0.38333333 26:0.34831461 27:0.5 28:0.15294118 29:0.28421053 30:0.24358974 31:0.1388889 32:0.40952381 33:0.60439563 34:0.13953489 35:0.41379312 36:0.62820512 37:0.19565217 38:0.29032257 39:0.16842106 40:0.15584415 41:0.29347825 42:0.43478259 43:0.097826086 44:0.30612245 45:0.69662923 46:0.48333332 47:0.33333334 48:0.38636363 49:0.2638889 50:0.32608697 51:0.40659341 52:0.47499999 53:0.36734694 54:0.54945058 55:0.55696201 56:0.46341464 57:0.66666669 58:0.93684208 59:0.76530612 60:0.37179488 61:0.67368424 62:0.79166669 63:0.5714286 64:0.25 65:0.140625 66:0.1509434 67:0.32653061 68:0.41237113 69:0.19736843 70:0.35294119 71:0.59375 72:0.34408602 
-0 0 3.108208102784503 0 0 0 0.6325799933958728 0 0 3.28735179137266 1:0.51136363 2:0.27551019 3:0.10752688 4:0.17777778 5:0.35922331 6:0.20224719 7:0.15957446 8:0.45588234 9:0.375 10:0.78160918 11:0.53398061 12:0.35632184 13:0.53125 14:0.38372093 15:0.22972973 16:0.46808511 17:0.53750002 18:0.21250001 19:0.48809522 20:0.83505154 21:0.79569894 22:0.38805971 23:0.57608694 24:0.66666669 25:0.31666666 26:0.25842696 27:0.375 28:0.15294118 29:0.44210526 30:0.3974359 31:0.069444448 32:0.35238096 33:0.61538464 34:0.069767445 35:0.39655173 36:0.67948717 37:0.13043478 38:0.53225809 39:0.40000001 40:0.15584415 41:0.31521741 42:0.55434781 43:0.065217391 44:0.27551019 45:0.62921351 46:0.36666667 47:0.30952382 48:0.53409094 49:0.41666666 50:0.23913044 51:0.51648355 52:0.21250001 53:0.34693879 54:0.60439563 55:0.64556962 56:0.5487805 57:0.40000001 58:0.83157897 59:0.83673471 60:0.41025642 61:0.62105262 62:0.69791669 63:0.58333331 64:0.67647058 65:0.4375 66:0.094339624 67:0.42857143 68:0.64948452 69:0.39473686 70:0.21176471 71:0.66666669 72:0.45161289 
-0.09238987637106766 0 0 0 0 0 0 0 1.008467700449398 0 1:0.68181819 2:0.23469388 3:0.053763442 4:0.31111112 5:0.32038835 6:0.19101124 7:0.15957446 8:0.42647058 9:0.32142857 10:0.79310346 11:0.45631069 12:0.28735632 13:0.29166666 14:0.19767442 15:0.3918919 16:0.30851063 17:0.28749999 18:0.27500001 19:0.44047618 20:0.86597937 21:0.74193549 22:0.34328359 23:0.59782606 24:0.6857143 25:0.56666666 26:0.33707866 27:0.40625 28:0.16470589 29:0.53684211 30:0.48717949 31:0.22222222 32:0.34285715 33:0.48351648 34:0.39534885 35:0.22413793 36:0.43589744 37:0.47826087 38:0.7903226 39:0.32631579 40:0.2857143 41:0.33695653 42:0.42391303 43:0.23913044 44:0.18367347 45:0.55056179 46:0.36666667 47:0.38095239 48:0.21590909 49:0.59722221 50:0.38043478 51:0.45054945 52:0.47499999 53:0.39795917 54:0.48351648 55:0.48101267 56:0.30487806 57:0.23333333 58:0.67368424 59:0.75510204 60:0.47435898 61:0.46315789 62:0.60416669 63:0.51190478 64:0.67647058 65:0.359375 66:0.11320755 67:0.47959185 68:0.46391752 69:0.28947368 70:0.27058825 71:0.59375 72:0.49462366 
-0 0 0 0 0 0 2.629557166721237 0 0 0 1:0.61363637 2:0.23469388 3:0.07526882 4:0.23333333 5:0.27184466 6:0.21348314 7:0.13829787 8:0.61764705 9:0.64285713 10:0.77011496 11:0.36893204 12:0.37931034 13:0.41666666 14:0.24418604 15:0.2972973 16:0.46808511 17:0.51249999 18:0.28749999 19:0.5 20:0.88659793 21:0.77419353 22:0.29850745 23:0.63043481 24:0.70476192 25:0.44999999 26:0.16853933 27:0.3125 28:0.1882353 29:0.40000001 30:0.41025642 31:0.083333336 32:0.29523811 33:0.6813187 34:0.046511628 35:0.27586207 36:0.73076922 37:0.2173913 38:0.74193549 39:0.44210526 40:0.1038961 41:0.29347825 42:0.52173913 43:0 44:0.17346939 45:0.60674155 46:0.48333332 47:0.59523809 48:0.52272725 49:0.3888889 50:0.29347825 51:0.30769232 52:0.36250001 53:0.22448979 54:0.51648355 55:0.79746836 56:0.47560975 57:0.53333336 58:0.88421053 59:0.78571427 60:0.38461539 61:0.66315788 62:0.78125 63:0.64285713 64:0.5 65:0.25 66:0.13207547 67:0.5 68:0.58762884 69:0.40789473 70:0.24705882 71:0.64583331 72:0.48387095 
-0 0 0 0 0 0.06511390765110951 0 0 0 0 1:0.48863637 2:0.30612245 3:0.22580644 4:0.16666667 5:0.35922331 6:0.41573033 7:0.27659574 8:0.45588234 9:0.78571427 10:0.82758623 11:0.61165047 12:0.63218391 13:0.58333331 14:0.58139533 15:0.72972971 16:0.45744681 17:0.60000002 18:0.41249999 19:0.4642857 20:0.84536082 21:0.82795697 22:0.29850745 23:0.47826087 24:0.50476193 25:0.38333333 26:0.22471911 27:0.21875 28:0 29:0.17894737 30:0.14102565 31:0 32:0.057142857 33:0.08791209 34:0 35:0.068965517 36:0.12820514 37:0.19565217 38:0.43548387 39:0.22105263 40:0.051948052 41:0.010869565 42:0 43:0 44:0.091836736 45:0.02247191 46:0.41666666 47:0.55952382 48:0.375 49:0.33333334 50:0.29347825 51:0.47252747 52:0.34999999 53:0.37755102 54:0.2857143 55:0.79746836 56:0.70731705 57:0.53333336 58:0.88421053 59:1 60:0.87179488 61:0.54736841 62:0.65625 63:0.78571427 64:0.63235295 65:0.40625 66:0.3773585 67:0.31632653 68:0.43298969 69:0.64473683 70:0.24705882 71:0.375 72:0.7096774 
-3.168710788368122 0 0 0 0.1335742160695009 0 0 0 0 0 1:0.52272725 2:0.1632653 3:0 4:0.26666668 5:0.36893204 6:0.11235955 7:0.25531915 8:0.57352942 9:0.48214287 10:0.67816091 11:0.33980581 12:0 13:0.55208331 14:0.51162791 15:0.35135135 16:0.35106382 17:0.55000001 18:0.60000002 19:0.64285713 20:0.83505154 21:0.72043014 22:0.56716418 23:0.79347825 24:0.77142859 25:0.38333333 26:0.30337077 27:0.63541669 28:0.094117649 29:0.34736842 30:0.2820513 31:0.069444448 32:0.21904762 33:0.42857143 34:0 35:0.12068965 36:0.44871795 37:0.10869565 38:0.64516127 39:0.37894738 40:0 41:0.32608697 42:0.47826087 43:0.065217391 44:0.12244898 45:0.39325842 46:0.56666666 47:0.71428573 48:0.56818181 49:0.27777779 50:0.5 51:0.60439563 52:0.2 53:0.34693879 54:0.60439563 55:0.73417723 56:0.41463414 57:0.13333334 58:0.91578948 59:0.80612242 60:0.44871795 61:0.69473684 62:0.83333331 63:0.71428573 64:0.38235295 65:0.1875 66:0 67:0.34693879 68:0.38144329 69:0.15789473 70:0.3764706 71:0.54166669 72:0.31182796 
-0 0 0 0 0 0 0 0 0 5.39413461676733 1:0.56818181 2:0.23469388 3:0.086021505 4:0.33333334 5:0.50485438 6:0.22471911 7:0.24468085 8:0.7352941 9:0.66071427 10:0.88505745 11:0.49514562 12:0.37931034 13:0.53125 14:0.61627907 15:0.51351351 16:0.45744681 17:0.69999999 18:0.61250001 19:0.60714287 20:0.97938144 21:0.79569894 22:0.46268657 23:0.68478262 24:0.77142859 25:0.58333331 26:0.39325842 27:0.66666669 28:0.21176471 29:0.42105263 30:0.47435898 31:0.15277778 32:0.2857143 33:0.67032969 34:0.3488372 35:0.18965517 36:0.73076922 37:0.36956522 38:0.56451613 39:0.32631579 40:0.14285715 41:0.20652173 42:0.45652175 43:0.14130434 44:0.13265306 45:0.57303369 46:0.5 47:0.6785714 48:0.42045453 49:0.54166669 50:0.55434781 51:0.63736266 52:0.48750001 53:0.37755102 54:0.65934068 55:0.93670887 56:0.57317072 57:0.55000001 58:0.89473683 59:0.94897962 60:0.56410259 61:0.52631581 62:0.73958331 63:0.76190478 64:0.45588234 65:0.234375 66:0.03773585 67:0.32653061 68:0.42268041 69:0.23684211 70:0.29411766 71:0.54166669 72:0.4623656 
-0 0 0 0 0.3492221379287359 0 0 0 0 0 1:0.46590909 2:0.15306123 3:0.010752688 4:0.34444445 5:0.407767 6:0.17977528 7:0.25531915 8:0.64705884 9:0.4642857 10:0.89655173 11:0.49514562 12:0.24137931 13:0.63541669 14:0.58139533 15:0.36486486 16:0.46808511 17:0.6875 18:0.46250001 19:0.66666669 20:0.96907216 21:0.88172042 22:0.50746268 23:0.71739131 24:0.7904762 25:0.60000002 26:0.40449437 27:0.64583331 28:0.22352941 29:0.37894738 30:0.32051283 31:0.097222224 32:0.2857143 33:0.52747256 34:0.41860464 35:0.27586207 36:0.62820512 37:0.41304347 38:0.54838711 39:0.33684212 40:0.1038961 41:0.22826087 42:0.45652175 43:0.19565217 44:0.1632653 45:0.57303369 46:0.55000001 47:0.59523809 48:0.60227275 49:0.55555558 50:0.56521738 51:0.74725276 52:0.57499999 53:0.39795917 54:0.6813187 55:0.89873415 56:0.57317072 57:0.28333333 58:0.96842104 59:0.90816325 60:0.42307693 61:0.68421054 62:0.89583331 63:0.71428573 64:0.54411763 65:0.140625 66:0 67:0.35714287 68:0.34020618 69:0.14473684 70:0.30588236 71:0.40625 72:0.24731183 
-0 0.1935592330461052 0 0 0 0 0.1617638942733659 0 0.1482131062969585 10 1:0.40909091 2:0.20408164 3:0.053763442 4:0.27777779 5:0.43689319 6:0.23595506 7:0.25531915 8:0.67647058 9:0.5714286 10:0.93103451 11:0.61165047 12:0.33333334 13:0.67708331 14:0.67441863 15:0.4054054 16:0.57446808 17:0.57499999 18:0.40000001 19:0.4642857 20:0.86597937 21:0.87096775 22:0.44776121 23:0.69565219 24:0.72380954 25:0.64999998 26:0.42696628 27:0.64583331 28:0.17647059 29:0.40000001 30:0.38461539 31:0.083333336 32:0.2857143 33:0.70329672 34:0.18604651 35:0.29310346 36:0.67948717 37:0.32608697 38:0.69354838 39:0.36842105 40:0.090909094 41:0.22826087 42:0.31521741 43:0.076086953 44:0.12244898 45:0.50561798 46:0.71666664 47:0.70238096 48:0.60227275 49:0.56944442 50:0.47826087 51:0.71428573 52:0.5 53:0.41836736 54:0.72527474 55:0.79746836 56:0.56097561 57:0.51666665 58:0.93684208 59:0.91836733 60:0.48717949 61:0.63157892 62:0.76041669 63:0.65476191 64:0.67647058 65:0.328125 66:0 67:0.34693879 68:0.4742268 69:0.25 70:0.31764707 71:0.55208331 72:0.34408602 
-0 0 0 0 0 0 0 0 0 2.525049027158766 1:0.5 2:0.1632653 3:0.096774191 4:0.21111111 5:0.33980581 6:0.17977528 7:0.26595744 8:0.55882353 9:0.42857143 10:0.75862068 11:0.44660193 12:0.10344828 13:0.35416666 14:0.3488372 15:0.35135135 16:0.44680852 17:0.47499999 18:0.40000001 19:0.45238096 20:0.76288658 21:0.7096774 22:0.29850745 23:0.47826087 24:0.58095241 25:0.43333334 26:0.24719101 27:0.5 28:0.11764706 29:0.54736841 30:0.73076922 31:0.125 32:0.42857143 33:0.76923078 34:0 35:0.25862068 36:0.76923078 37:0.28260869 38:0.48387095 39:0.33684212 40:0.1038961 41:0.22826087 42:0.33695653 43:0 44:0.1122449 45:0.47191012 46:0.25 47:0.34523809 48:0.28409091 49:0.2638889 50:0.38043478 51:0.26373628 52:0.41249999 53:0.20408164 54:0.41758242 55:0.63291138 56:0.37804878 57:0.11666667 58:0.86315787 59:0.67346936 60:0.29487181 61:0.64210528 62:0.77083331 63:0.66666669 64:0.57352942 65:0.296875 66:0.056603774 67:0.48979592 68:0.4742268 69:0.22368421 70:0.43529412 71:0.67708331 72:0.47311828 
-0 0 0.2944911833421328 0 0 0 0 0 0 0 1:0.64772725 2:0.13265306 3:0.07526882 4:0.22222222 5:0.28155339 6:0.16853933 7:0.24468085 8:0.5 9:0.32142857 10:0.74712646 11:0.39805827 12:0.29885057 13:0.21875 14:0.23255815 15:0.21621622 16:0.23404256 17:0.22499999 18:0.1125 19:0.44047618 20:0.79381442 21:0.7096774 22:0.25373134 23:0.6630435 24:0.71428573 25:0.33333334 26:0.23595506 27:0.36458334 28:0.16470589 29:0.54736841 30:0.47435898 31:0.11111111 32:0.34285715 33:0.59340662 34:0.23255815 35:0.3275862 36:0.62820512 37:0.26086956 38:0.7096774 39:0.42105263 40:0.090909094 41:0.33695653 42:0.52173913 43:0.11956522 44:0.20408164 45:0.57303369 46:0.40000001 47:0.42857143 48:0.36363637 49:0.25 50:0.32608697 51:0.35164836 52:0.33750001 53:0.37755102 54:0.64835167 55:0.64556962 56:0.37804878 57:0.30000001 58:0.88421053 59:0.73469388 60:0.29487181 61:0.46315789 62:0.59375 63:0.38095239 64:0.52941179 65:0.28125 66:0.26415095 67:0.52040815 68:0.61855668 69:0.31578946 70:0.51764709 71:0.79166669 72:0.41935483 
-1.474979529813053 2.422002330584858 0 0 0 4.614912206452368 0 0 2.588124668937887 10 1:0.68181819 2:0.37755102 3:0.064516127 4:0.2 5:0.29126215 6:0.20224719 7:0.15957446 8:0.55882353 9:0.53571427 10:0.82758623 11:0.53398061 12:0.27586207 13:0.58333331 14:0.36046511 15:0.33783785 16:0.53191489 17:0.48750001 18:0.30000001 19:0.42857143 20:0.81443298 21:0.90322578 22:0.53731346 23:0.42391303 24:0.52380955 25:0.83333331 26:0.52808988 27:0.375 28:0.1882353 29:0.57894737 30:0.61538464 31:0.33333334 32:0.33333334 33:0.62637365 34:0.69767439 35:0.36206895 36:0.58974361 37:0.2173913 38:0.30645162 39:0.35789475 40:0.23376623 41:0.20652173 42:0.55434781 43:0.31521741 44:0.30612245 45:0.67415732 46:0.28333333 47:0.21428572 48:0.30681819 49:0.7361111 50:0.39130434 51:0.41758242 52:0.67500001 53:0.5714286 54:0.61538464 55:0.56962025 56:0.41463414 57:0.15000001 58:0.7263158 59:0.79591835 60:0.43589744 61:0.55789477 62:0.5625 63:0.47619048 64:0.57352942 65:0.359375 66:0.075471699 67:0.39795917 68:0.52577317 69:0.39473686 70:0.28235295 71:0.64583331 72:0.50537634 
-6.460110024001886 0.8407302444386737 0.8446760400405932 0 1.064261259911787 0.9081272712138443 0 0.3054202558724665 0 0 1:0.40909091 2:0.19387755 3:0.021505376 4:0.2888889 5:0.41747573 6:0.22471911 7:0.23404256 8:0.58823532 9:0.48214287 10:0.77011496 11:0.47572815 12:0.49425286 13:0.64583331 14:0.68604654 15:0.44594595 16:0.45744681 17:0.57499999 18:0.47499999 19:0.61904764 20:0.85567009 21:0.69892472 22:0.5970149 23:0.81521738 24:0.81904763 25:0.60000002 26:0.35955057 27:0.57291669 28:0.12941177 29:0.35789475 30:0.37179488 31:0.097222224 32:0.27619049 33:0.53846157 34:0.046511628 35:0.22413793 36:0.53846157 37:0.47826087 38:0.66129035 39:0.35789475 40:0.051948052 41:0.27173913 42:0.44565219 43:0.032608695 44:0.13265306 45:0.46067417 46:0.56666666 47:0.71428573 48:0.39772728 49:0.3888889 50:0.56521738 51:0.62637365 52:0.41249999 53:0.36734694 54:0.67032969 55:0.87341774 56:0.47560975 57:0.53333336 58:0.89473683 59:0.82653064 60:0.43589744 61:0.69473684 62:0.86458331 63:0.70238096 64:0.39705881 65:0.203125 66:0.094339624 67:0.46938777 68:0.38144329 69:0.18421052 70:0.41176471 71:0.44791666 72:0.29032257 
-0 0 0.5583563560731895 0 0 0 0 0 0 2.536901891108623 1:0.48863637 2:0.21428572 3:0.11827957 4:0.30000001 5:0.46601942 6:0.25842696 7:0.19148937 8:0.60294116 9:0.625 10:0.79310346 11:0.52427185 12:0.31034482 13:0.57291669 14:0.74418604 15:0.55405408 16:0.38297874 17:0.60000002 18:0.61250001 19:0.51190478 20:0.91752577 21:0.8172043 22:0.40298507 23:0.72826087 24:0.85714287 25:0.55000001 26:0.32584271 27:0.57291669 28:0.10588235 29:0.32631579 30:0.33333334 31:0.013888889 32:0.19047619 33:0.46153846 34:0 35:0.10344828 36:0.51282054 37:0.30434781 38:0.61290324 39:0.43157893 40:0.064935066 41:0.17391305 42:0.45652175 43:0.054347824 44:0.071428575 45:0.52808988 46:0.66666669 47:0.80952382 48:0.54545456 49:0.47222221 50:0.64130437 51:0.73626375 52:0.47499999 53:0.33673468 54:0.64835167 55:0.78481013 56:0.5487805 57:0.40000001 58:0.84210527 59:0.87755102 60:0.47435898 61:0.41052631 62:0.73958331 63:0.78571427 64:0.72058821 65:0.296875 66:0.26415095 67:0.42857143 68:0.46391752 69:0.27631578 70:0.34117648 71:0.64583331 72:0.39784947 
-0.8162048529617933 0 0.713146541020607 0 0 0 0 0 0 0 1:0.56818181 2:0.25510204 3:0.15053764 4:0.23333333 5:0.30097088 6:0.12359551 7:0.25531915 8:0.55882353 9:0.375 10:0.85057473 11:0.47572815 12:0.29885057 13:0.34375 14:0.3255814 15:0.27027026 16:0.37234041 17:0.33750001 18:0.15000001 19:0.40476191 20:0.79381442 21:0.72043014 22:0.11940298 23:0.51086956 24:0.65714288 25:0.31666666 26:0.20224719 27:0.36458334 28:0.17647059 29:0.58947366 30:0.52564102 31:0.125 32:0.44761905 33:0.59340662 34:0.18604651 35:0.25862068 36:0.46153846 37:0.17391305 38:0.5 39:0.42105263 40:0.090909094 41:0.29347825 42:0.5 43:0.10869565 44:0.25510204 45:0.73033708 46:0.06666667 47:0.15476191 48:0.22727273 49:0.125 50:0.27173913 51:0.31868133 52:0.2375 53:0.29591838 54:0.50549453 55:0.5316456 56:0.30487806 57:0.2 58:0.84210527 59:0.70408165 60:0.2820513 61:0.61052632 62:0.66666669 63:0.45238096 64:0.67647058 65:0.375 66:0.24528302 67:0.59183675 68:0.59793812 69:0.30263159 70:0.44705883 71:0.71875 72:0.41935483 
-0 0 0 0 0 0 0.5751383731339762 0 0 3.078296752474809 1:0.5 2:0.21428572 3:0.16129032 4:0.18888889 5:0.41747573 6:0.22471911 7:0.28723404 8:0.83823532 9:0.58928573 10:0.77011496 11:0.37864077 12:0.28735632 13:0.34375 14:0.37209302 15:0.4054054 16:0.43617022 17:0.60000002 18:0.42500001 19:0.39285713 20:0.77319586 21:0.65591395 22:0.37313432 23:0.52173913 24:0.64761907 25:0.36666667 26:0.28089887 27:0.48958334 28:0.22352941 29:0.61052632 30:0.62820512 31:0.27777779 32:0.3904762 33:0.65934068 34:0.3255814 35:0.34482759 36:0.66666669 37:0.28260869 38:0.61290324 39:0.42105263 40:0.14285715 41:0.28260869 42:0.45652175 43:0.10869565 44:0.24489796 45:0.62921351 46:0.38333333 47:0.41666666 48:0.35227272 49:0.44444445 50:0.38043478 51:0.47252747 52:0.22499999 53:0.34693879 54:0.74725276 55:0.73417723 56:0.52439022 57:0.30000001 58:0.89473683 59:0.85714287 60:0.46153846 61:0.54736841 62:0.66666669 63:0.48809522 64:0.7352941 65:0.390625 66:0.32075471 67:0.44897959 68:0.556701 69:0.2631579 70:0.34117648 71:0.625 72:0.37634408 
-0 0 0 0 0 0 0 0.3869751564704114 0 0 1:0.46590909 2:0.24489796 3:0 4:0.24444444 5:0.36893204 6:0.20224719 7:0.17021276 8:0.61764705 9:0.5 10:0.954023 11:0.57281554 12:0.18390805 13:0.66666669 14:0.74418604 15:0.56756759 16:0.5106383 17:0.9375 18:0.83749998 19:0.51190478 20:0.96907216 21:0.90322578 22:0.47761193 23:0.78260869 24:0.81904763 25:0.85000002 26:0.47191012 27:0.75 28:0.16470589 29:0.37894738 30:0.29487181 31:0.069444448 32:0.22857143 33:0.49450549 34:0.20930232 35:0.12068965 36:0.6025641 37:0.2173913 38:0.56451613 39:0.38947368 40:0.1038961 41:0.17391305 42:0.39130434 43:0.10869565 44:0.071428575 45:0.50561798 46:0.55000001 47:0.8214286 48:0.625 49:0.65277779 50:0.6630435 51:0.84615386 52:0.64999998 53:0.51020408 54:0.84615386 55:0.87341774 56:0.51219511 57:0.38333333 58:0.92631578 59:0.98979592 60:0.53846157 61:0.58947366 62:0.88541669 63:0.80952382 64:0.63235295 65:0.359375 66:0.056603774 67:0.30612245 68:0.38144329 69:0.21052632 70:0.15294118 71:0.40625 72:0.31182796 
-0 -0 0 0 0 0 0.008104414884723334 0 0.08476179008718837 0 1:0.44318181 2:0.93877554 3:0.55913979 4:0.71111113 5:0.97087377 6:0.39325842 7:0.95744681 8:0.94117647 9:0.19642857 10:0.068965517 11:0.54368931 12:0.65517241 13:0.36458334 14:0.47674417 15:0.24324325 16:0.45744681 17:0.38749999 18:0.1 19:0.05952381 20:0.16494845 21:0.54838711 22:0.10447761 23:0.043478262 24:0 25:0.06666667 26:0.044943821 27:0.083333336 28:0.11764706 29:0.063157894 30:0.26923078 31:0.1388889 32:0.028571429 33:0.010989011 34:0.093023255 35:0.10344828 36:0.12820514 37:0.17391305 38:0.62903225 39:0.88421053 40:0.19480519 41:0.78260869 42:0.93478262 43:0.35869566 44:0.96938777 45:0.70786518 46:0.1 47:0.22619048 48:0.45454547 49:0.125 50:0.36956522 51:0.49450549 52:0.3125 53:0.54081631 54:0.2857143 55:0.10126583 56:0.036585364 57:0.06666667 58:0.052631579 59:0.010204081 60:0.051282052 61:0.24210526 62:0.083333336 63:0.083333336 64:0.14705883 65:0.109375 66:0 67:0.071428575 68:0.041237112 69:0.078947365 70:0.42352942 71:0.17708333 72:0.096774191 
-0 -0.02890634354608931 0 0 0 0 0 0.5125709031568694 0 0 1:0.44318181 2:0.93877554 3:0.55913979 4:0.71111113 5:0.97087377 6:0.39325842 7:0.95744681 8:0.94117647 9:0.17857143 10:0.091954023 11:0.55339807 12:0.65517241 13:0.375 14:0.48837209 15:0.22972973 16:0.46808511 17:0.38749999 18:0.075000003 19:0.071428575 20:0.16494845 21:0.54838711 22:0.11940298 23:0.043478262 24:0 25:0.1 26:0.044943821 27:0.072916664 28:0.11764706 29:0.063157894 30:0.2820513 31:0.1388889 32:0.028571429 33:0 34:0.13953489 35:0.10344828 36:0.12820514 37:0.23913044 38:0.62903225 39:0.88421053 40:0.19480519 41:0.79347825 42:0.93478262 43:0.35869566 44:0.96938777 45:0.70786518 46:0.083333336 47:0.22619048 48:0.46590909 49:0.11111111 50:0.35869566 51:0.49450549 52:0.3125 53:0.53061223 54:0.27472529 55:0.10126583 56:0.036585364 57:0.06666667 58:0.052631579 59:0.020408163 60:0.03846154 61:0.23157895 62:0.072916664 63:0.071428575 64:0.16176471 65:0.109375 66:0.018867925 67:0.081632651 68:0.030927835 69:0.065789476 70:0.42352942 71:0.17708333 72:0.096774191 
-0 -0 0 0 0 0 0 0 0.05074636000960754 0 1:0.40909091 2:0.96938777 3:0.60215056 4:0.64444447 5:0.95145631 6:0.35955057 7:0.91489363 8:0.92647058 9:0.125 10:0.12643678 11:0.47572815 12:0.39080459 13:0.45833334 14:0.54651165 15:0.27027026 16:0.55319148 17:0.4375 18:0.075000003 19:0.13095239 20:0.092783503 21:0.11827957 22:0.19402985 23:0.14130434 24:0.06666667 25:0.38333333 26:0.12359551 27:0.10416666 28:0.10588235 29:0.14736842 30:0.26923078 31:0.1388889 32:0.13333334 33:0.13186814 34:0.20930232 35:0.29310346 36:0.12820514 37:0.17391305 38:0.82258064 39:0.96842104 40:0.25974026 41:0.90217394 42:0.77173913 43:0.44565219 44:0.96938777 45:0.50561798 46:0.16666667 47:0.33333334 48:0.60227275 49:0.19444445 50:0.43478259 51:0.54945058 52:0.41249999 53:0.62244898 54:0.2857143 55:0.17721519 56:0.15853658 57:0.26666668 58:0.094736844 59:0.12244898 60:0.17948718 61:0.33684212 62:0.16666667 63:0.095238097 64:0.16176471 65:0.265625 66:0.26415095 67:0.030612245 68:0.13402061 69:0.15789473 70:0.3764706 71:0.1875 72:0.10752688 
-0 -0 0 0 0 0 0.1802462182489308 0 0 0 1:0.45454547 2:0.98979592 3:0.58064514 4:0.67777777 5:0.96116507 6:0.33707866 7:0.90425533 8:0.89705884 9:0.10714286 10:0.11494253 11:0.46601942 12:0.36781609 13:0.45833334 14:0.52325583 15:0.25675675 16:0.56382978 17:0.42500001 18:0.0625 19:0.11904762 20:0.041237112 21:0.07526882 22:0.1641791 23:0.076086953 24:0.047619049 25:0.34999999 26:0.056179777 27:0.052083332 28:0.10588235 29:0.08421053 30:0.15384616 31:0.083333336 32:0.03809524 33:0.043956045 34:0.023255814 35:0.05172414 36:0.07692308 37:0.17391305 38:0.7903226 39:0.9894737 40:0.24675325 41:0.89130437 42:0.81521738 43:0.44565219 44:0.98979592 45:0.56179774 46:0.16666667 47:0.30952382 48:0.57954544 49:0.16666667 50:0.42391303 51:0.52747256 52:0.40000001 53:0.60204083 54:0.27472529 55:0.1392405 56:0.1097561 57:0.18333334 58:0.073684208 59:0.040816326 60:0.12820514 61:0.32631579 62:0.13541667 63:0.083333336 64:0.16176471 65:0.140625 66:0.13207547 67:0.010204081 68:0.041237112 69:0.10526316 70:0.41176471 71:0.16666667 72:0.086021505 
-0.8582179227696621 -0 0 0 0 0 0 0 0 0 1:0.57954544 2:0.94897962 3:0.56989247 4:0.81111109 5:0.84466022 6:0.31460676 7:0.85106385 8:0.7352941 9:0.16071428 10:0.18390805 11:0.50485438 12:0.39080459 13:0.46875 14:0.54651165 15:0.24324325 16:0.55319148 17:0.375 18:0.1125 19:0.095238097 20:0.082474224 21:0.27956989 22:0.17910448 23:0.065217391 24:0.047619049 25:0.36666667 26:0.056179777 27:0.11458334 28:0.094117649 29:0.15789473 30:0.3974359 31:0.083333336 32:0.028571429 33:0.065934069 34:0.046511628 35:0.13793103 36:0.16666667 37:0.2173913 38:0.67741936 39:0.87368423 40:0.20779221 41:0.77173913 42:0.9130435 43:0.34782609 44:0.8877551 45:0.68539327 46:0.18333334 47:0.26190478 48:0.52272725 49:0.16666667 50:0.44565219 51:0.50549453 52:0.5625 53:0.71428573 54:0.32967034 55:0.1392405 56:0.060975611 57:0.083333336 58:0.052631579 59:0.05102041 60:0.12820514 61:0.53684211 62:0.23958333 63:0.14285715 64:0.19117647 65:0.140625 66:0.094339624 67:0.081632651 68:0.06185567 69:0.11842106 70:0.34117648 71:0.15625 72:0.12903225 
-0 -0.2238540427486023 0 0 0 0 0 0 0 0 1:0.54545456 2:0.98979592 3:0.50537634 4:0.76666665 5:0.90291262 6:0.29213482 7:0.84042555 8:0.77941179 9:0.17857143 10:0.20689656 11:0.47572815 12:0.32183909 13:0.51041669 14:0.48837209 15:0.21621622 16:0.61702126 17:0.36250001 18:0.075000003 19:0.095238097 20:0.030927835 21:0.086021505 22:0.2238806 23:0.076086953 24:0.03809524 25:0.51666665 26:0.044943821 27:0.0625 28:0.16470589 29:0.063157894 30:0.14102565 31:0.1388889 32:0.057142857 33:0 34:0.069767445 35:0.05172414 36:0.07692308 37:0.23913044 38:0.66129035 39:0.91578948 40:0.20779221 41:0.80434781 42:0.86956519 43:0.36956522 44:0.96938777 45:0.64044946 46:0.15000001 47:0.25 48:0.57954544 49:0.15277778 50:0.40217391 51:0.5714286 52:0.34999999 53:0.55102038 54:0.35164836 55:0.15189873 56:0.085365854 57:0.15000001 58:0.073684208 59:0.05102041 60:0.1025641 61:0.33684212 62:0.11458334 63:0.071428575 64:0.19117647 65:0.1875 66:0.13207547 67:0.05102041 68:0.06185567 69:0.15789473 70:0.30588236 71:0.125 72:0.086021505 
-0 -0 0 0 2.095289254067681 0 0 0 0 0 1:0.32954547 2:0.44897959 3:0.16129032 4:0.43333334 5:0.3883495 6:0.10112359 7:0.43617022 8:0.20588236 9:0 10:0.62068963 11:0.93203884 12:0.73563218 13:0.91666669 14:0.90697676 15:0.48648649 16:0.89361703 17:0.57499999 18:0.48750001 19:0.52380955 20:0.49484536 21:0.79569894 22:0.56716418 23:0.77173913 24:0.6761905 25:0.75 26:0.78651685 27:0.61458331 28:0.10588235 29:0.18947369 30:0.48717949 31:0.1388889 32:0.34285715 33:0.50549453 34:0.39534885 35:0.70689654 36:0.37179488 37:0.10869565 38:0.37096775 39:0.52631581 40:0.077922076 41:0.34782609 42:0.41304347 43:0.19565217 44:0.47959185 45:0.31460676 46:0.75 47:0.66666669 48:0.95454544 49:0.47222221 50:0.8369565 51:0.85714287 52:0.63749999 53:0.95918369 54:0.74725276 55:0.59493673 56:0.80487806 57:0.71666664 58:0.55789477 59:0.55102038 60:0.43589744 61:0.77894735 62:0.40625 63:0.51190478 64:0.45588234 65:0.78125 66:0.28301886 67:0.39795917 68:0.36082473 69:0.092105262 70:0.51764709 71:0.1875 72:0 
-0 -0.647048061609837 0 0 0 0.770388132121835 0.3239445273111372 0 1.244109280857487 1.753576255800252 1:0.56818181 2:0.64285713 3:0.24731183 4:0.53333336 5:0.47572815 6:0.33707866 7:0.47872341 8:0.39705881 9:0.8214286 10:0.71264368 11:0.86407769 12:0.54022986 13:0.79166669 14:0.54651165 15:0.3918919 16:0.62765956 17:0.5 18:0.5625 19:0.047619049 20:0.21649484 21:0.60215056 22:0.17910448 23:0.28260869 24:0.38095239 25:0.36666667 26:0.48314607 27:0.27083334 28:0.035294119 29:0.22105263 30:0.64102566 31:0.22222222 32:0.26666668 33:0.36263737 34:0.58139533 35:0.67241377 36:0.20512821 37:0.065217391 38:0.54838711 39:0.61052632 40:0.33766234 41:0.60869563 42:0.40217391 43:0.48913044 44:0.71428573 45:0.25842696 46:0.083333336 47:0.38095239 48:0.53409094 49:0.33333334 50:0.67391306 51:0.51648355 52:0.66250002 53:0.69387758 54:0.34065935 55:0.35443038 56:0.15853658 57:0.13333334 58:0.33684212 59:0.30612245 60:0.53846157 61:0.44210526 62:0.23958333 63:0.58333331 64:0.39705881 65:0.28125 66:0.18867925 67:0.39795917 68:0.30927834 69:0.44736841 70:0.23529412 71:0.20833333 72:0.39784947 
-0 -0 0 0.08762394015600546 0 0 0 0 0 0 1:0.53409094 2:0.85714287 3:0.41935483 4:0.73333335 5:0.83495146 6:0.29213482 7:0.89361703 8:0.67647058 9:0.017857144 10:0.28735632 11:0.71844661 12:0.79310346 13:0.51041669 14:0.53488374 15:0.21621622 16:0.54255319 17:0.33750001 18:0.025 19:0.39285713 20:0.19587629 21:0.51612902 22:0.28358209 23:0.15217391 24:0.057142857 25:0.13333334 26:0.089887641 27:0.10416666 28:0.1882353 29:0.08421053 30:0.33333334 31:0.1388889 32:0.095238097 33:0.1978022 34:0.20930232 35:0.24137931 36:0.2820513 37:0.10869565 38:0.5 39:0.78947371 40:0.14285715 41:0.69565219 42:0.84782606 43:0.35869566 44:0.89795917 45:0.64044946 46:0.033333335 47:0.20238096 48:0.44318181 49:0.15277778 50:0.40217391 51:0.5714286 52:0.41249999 53:0.63265306 54:0.53846157 55:0.17721519 56:0.085365854 57:0.11666667 58:0.17894737 59:0.06122449 60:0.21794872 61:0.28421053 62:0.09375 63:0.11904762 64:0.25 65:0.203125 66:0.094339624 67:0.18367347 68:0.12371134 69:0.039473683 70:0.29411766 71:0.125 72:0.053763442 
-0 -0 0 0 0 0 0 0.3838403614718782 0 0 1:0.42045453 2:0.62244898 3:0.29032257 4:0.51111114 5:0.47572815 6:0.15730338 7:0.47872341 8:0.27941176 9:0 10:0.40229884 11:0.75728154 12:0.75862068 13:0.75 14:0.86046511 15:0.3918919 16:0.87234044 17:0.63749999 18:0.087499999 19:0.42857143 20:0.41237113 21:0.78494626 22:0.43283582 23:0.65217394 24:0.48571429 25:0.58333331 26:0.60674155 27:0.32291666 28:0.25882354 29:0.094736844 30:0.35897437 31:0.20833333 32:0.32380953 33:0.42857143 34:0.37209302 35:0.65517241 36:0.33333334 37:0.39130434 38:0.20967741 39:0.47368422 40:0.19480519 41:0.38043478 42:0.5869565 43:0.26086956 44:0.67346936 45:0.56179774 46:0.58333331 47:0.51190478 48:0.89772725 49:0.40277779 50:0.73913044 51:0.83516484 52:0.51249999 53:0.86734694 54:0.64835167 55:0.4556962 56:0.65853661 57:0.86666667 58:0.44210526 59:0.54081631 60:0.37179488 61:0.7263158 62:0.48958334 63:0.16666667 64:0.41176471 65:0.765625 66:0.47169811 67:0.37755102 68:0.38144329 69:0.14473684 70:0.52941179 71:0.16666667 72:0.053763442 
-0 -0 0 0 0 0 0 0 0 1.196044278253643 1:0.27272728 2:0.42857143 3:0.26881722 4:0.26666668 5:0.47572815 6:0.25842696 7:0.5 8:0.7647059 9:0.35714287 10:0.7011494 11:0.79611653 12:0.7241379 13:0.69791669 14:0.79069769 15:0.48648649 16:0.55319148 17:0.67500001 18:0.44999999 19:0.79761904 20:0.63917524 21:0.74193549 22:0.70149255 23:0.45652175 24:0.38095239 25:0.41666666 26:0.43820226 27:0.48958334 28:0.15294118 29:0.094736844 30:0.38461539 31:0.30555555 32:0.21904762 33:0.40659341 34:0.25581396 35:0.5 36:0.37179488 37:0.43478259 38:0.25806451 39:0.69473684 40:0.24675325 41:0.30434781 42:0.73913044 43:0.19565217 44:0.53061223 45:0.5955056 46:1 47:0.59523809 48:0.40909091 49:0.84722221 50:0.54347825 51:0.71428573 52:0.60000002 53:0.69387758 54:0.75824177 55:0.78481013 56:0.79268295 57:0.53333336 58:0.7473684 59:0.75510204 60:0.42307693 61:0.62105262 62:0.54166669 63:0.51190478 64:0.32352942 65:0.796875 66:0.6226415 67:0.25510204 68:0.48453608 69:0.31578946 70:0.47058824 71:0.5 72:0.24731183 
-0 -0 0 2.05946976295933 0 0 0 0 0 0 1:0.5 2:0.48979592 3:0.15053764 4:0.48888889 5:0.33009708 6:0.067415729 7:0.32978722 8:0.16176471 9:0.16071428 10:0.75862068 11:0.85436893 12:0.59770113 13:0.80208331 14:0.58139533 15:0.25675675 16:0.67021275 17:0.32499999 18:0.30000001 19:0.32142857 20:0.54639173 21:0.77419353 22:0.37313432 23:0.56521738 24:0.43809524 25:0.61666667 26:0.40449437 27:0.375 28:0 29:0.22105263 30:0.44871795 31:0.18055555 32:0.36190477 33:0.43956044 34:0.60465115 35:0.65517241 36:0.33333334 37:0 38:0.41935483 39:0.56842107 40:0.23376623 41:0.54347825 42:0.52173913 43:0.39130434 44:0.63265306 45:0.33707866 46:0.26666668 47:0.63095236 48:0.82954544 49:0.55555558 50:0.88043481 51:0.7912088 52:0.9375 53:0.85714287 54:0.51648355 55:0.60759491 56:0.5 57:0.34999999 58:0.45263159 59:0.36734694 60:0.37179488 61:0.54736841 62:0.21875 63:0.39285713 64:0.52941179 65:0.625 66:0.2264151 67:0.48979592 68:0.31958762 69:0.078947365 70:0.42352942 71:0.10416666 72:0.096774191 
